6.963659543544054031e-04 2.466719131916761398e-03 -5.190379451960325241e-03 1.055843103677034378e-02 -4.370971873868256807e-04 3.179933628416620195e-05 -8.114426396787166595e-03 -8.366769179701805115e-03 -1.536443480290472507e-03 -2.918395679444074631e-03 2.638649428263306618e-03 -1.136203855276107788e-02 1.149549963884055614e-03 7.731341174803674221e-04 3.974237944930791855e-03 -4.820789210498332977e-03 1.215077098459005356e-02 6.238566711544990540e-04 -4.514310508966445923e-03 4.893764853477478027e-03 7.310608401894569397e-03 8.712914772331714630e-03 3.237293567508459091e-03 1.146350335329771042e-02 3.962555201724171638e-04 -1.093680737540125847e-03 3.353420644998550415e-03 4.571146797388792038e-03 -6.318709813058376312e-03 -2.891125623136758804e-03 1.157538685947656631e-02 -9.338963427580893040e-04 5.942858289927244186e-03 5.629512015730142593e-03 1.448193844407796860e-02 6.004219874739646912e-03 6.614727433770895004e-03 -1.877481234259903431e-03 2.711046181502752006e-05 -4.234329797327518463e-03 -2.595499856397509575e-03 -3.971503465436398983e-04 -1.084148883819580078e-02 -1.431569689884781837e-03 1.372588519006967545e-02 -3.981587011367082596e-03 2.438247902318835258e-03 -7.363952696323394775e-03 2.817411674186587334e-03 -1.865990576334297657e-03 -9.146541357040405273e-03 7.208548486232757568e-03 -6.345326080918312073e-03 -3.041666932404041290e-03 1.448012329638004303e-02 2.216232707723975182e-03 -2.786588156595826149e-03 2.163481432944536209e-03 -2.267565345391631126e-03 -2.153453184291720390e-03 -1.195926219224929810e-02 -1.410230435431003571e-02 -7.912410423159599304e-03 4.472855944186449051e-03 3.911685198545455933e-03 1.292039267718791962e-02 -1.707366853952407837e-02 1.925746910274028778e-03 1.219169050455093384e-02 2.218056033598259091e-04 -6.568581447936594486e-04 -5.816532575408928096e-05 1.332235708832740784e-02 -3.137516789138317108e-03 -9.643566445447504520e-04 -1.902008196339011192e-03 -4.516262095421552658e-03 -3.558321623131632805e-03 -4.301749635487794876e-03 -7.373238913714885712e-03 3.977780696004629135e-03 4.388479050248861313e-03 -3.426791634410619736e-03 5.550639703869819641e-03 -1.088445307686924934e-03 -6.051870528608560562e-03 -1.537148025818169117e-03 -4.029627423733472824e-03 3.635245840996503830e-03 -3.859545977320522070e-04 7.950476370751857758e-03 -1.775992661714553833e-02 -4.927875474095344543e-03 8.469882421195507050e-03 -2.520543348509818316e-04 -1.271250378340482712e-02 -2.781470306217670441e-03 -9.761530091054737568e-04 -3.146481467410922050e-03 1.996695762500166893e-03 -4.337764810770750046e-03 -7.678185938857495785e-04 -4.003966751042753458e-04 -1.606059074401855469e-02 6.316347513347864151e-03 5.870788358151912689e-03 -2.302604989381507039e-04 -3.997829044237732887e-04 9.129113517701625824e-03 1.177844312041997910e-02 -9.462397545576095581e-03 -1.702262274920940399e-02 1.329403457930311561e-04 1.702945679426193237e-03 8.223960176110267639e-03 2.032972042798064649e-05 -3.623744007200002670e-03 2.028346993029117584e-03 -1.052816864103078842e-02 -1.052082283422350883e-03 -1.188100967556238174e-02 -1.979445340111851692e-03 1.113464217633008957e-02 6.948381196707487106e-03 -1.594763365574181080e-03 6.078105885535478592e-03 -1.011134590953588486e-03 1.099515473470091820e-03 -1.680705347098410130e-03 2.529076766222715378e-03 5.203697364777326584e-03 -5.326414247974753380e-04 1.601411378942430019e-03 -1.457559992559254169e-03 6.151112727820873260e-03 -9.013035334646701813e-03 -5.596603732556104660e-04 -2.774028573185205460e-03 2.525270730257034302e-02 -7.994822226464748383e-03 -2.514423569664359093e-03 -1.705067697912454605e-03 8.360435254871845245e-03 -1.416138000786304474e-02 -8.259978494606912136e-04 3.972948063164949417e-03 -6.708251312375068665e-03 6.711877882480621338e-03 6.046461872756481171e-03 -5.154777318239212036e-03 -3.182518063113093376e-03 -8.380499784834682941e-04 5.997125525027513504e-03 7.436834857799112797e-04 -6.771678570657968521e-03 4.495896864682435989e-03 -5.852081812918186188e-04 4.431089386343955994e-03 -6.575396750122308731e-03 -1.088303397409617901e-03 -6.850375328212976456e-03 -6.427200976759195328e-03 6.272691302001476288e-03 8.873376646079123020e-04 -6.973508745431900024e-03 -3.836768213659524918e-03 1.061505451798439026e-02 -8.584783412516117096e-03 -1.881997566670179367e-03 1.870768377557396889e-03 8.613787591457366943e-03 1.256260788068175316e-03 -5.973076913505792618e-03 7.741550914943218231e-03 -2.444318961352109909e-03 -1.442338339984416962e-02 5.303182173520326614e-03 -6.400740239769220352e-03 4.991386551409959793e-03 1.068629091605544090e-03 2.588254865258932114e-03 -5.757475271821022034e-03 5.460196174681186676e-03 8.940756320953369141e-03 -1.435121241956949234e-02 6.744059268385171890e-03 1.046379841864109039e-02 4.512731451541185379e-03 5.518912803381681442e-03 -5.482248496264219284e-03 7.860398618504405022e-04 2.523681614547967911e-03 -7.739851134829223156e-04 -6.322652916423976421e-05 3.203216474503278732e-03 6.271094549447298050e-03 -5.688667297363281250e-03 -2.840552479028701782e-03 2.974165836349129677e-03 5.107574164867401123e-03 1.704157213680446148e-03 -7.492174860090017319e-03 -5.710783414542675018e-03 6.356351543217897415e-03 -9.528475813567638397e-03 -1.886768452823162079e-02 -8.351139724254608154e-03 1.065436750650405884e-02 -5.140599096193909645e-04 -8.915716782212257385e-03 -5.803773528896272182e-04 -1.207489054650068283e-02 2.893208991736173630e-03 1.163291186094284058e-02 7.408339879475533962e-04 4.840820096433162689e-03 2.540335757657885551e-03 1.566622056998312473e-03 8.888923563063144684e-03 1.534513081423938274e-03 5.512404721230268478e-03 -3.659532638266682625e-03 -7.993999868631362915e-03 8.814395405352115631e-03 -9.343217243440449238e-04 6.119604222476482391e-03 7.143021095544099808e-03 1.436438644304871559e-03 -1.354578882455825806e-02 -2.031556796282529831e-03 3.716066014021635056e-03 1.705431751906871796e-02 -1.903567812405526638e-03 1.116156764328479767e-02 -1.332208979874849319e-02 9.130607359111309052e-03 1.229274901561439037e-03 5.131436046212911606e-03 1.229055225849151611e-03 6.996687734499573708e-04 4.178062081336975098e-03 -1.611803076229989529e-03 -6.733628921210765839e-03 1.902450807392597198e-03 -5.338770570233464241e-04 1.112489728257060051e-03 2.755989087745547295e-03 -6.137676537036895752e-03 4.711744375526905060e-03 -5.655848653987050056e-04 -1.382358488626778126e-03 1.688113249838352203e-02 2.215750573668628931e-04 1.041844021528959274e-02 2.320752537343651056e-04 -1.944359508343040943e-03
7.861337624490261078e-03 -9.186820127069950104e-03 5.124504677951335907e-03 2.541886409744620323e-03 6.633458659052848816e-03 -6.025861948728561401e-03 -8.541979477740824223e-04 -2.703564008697867393e-03 5.262269638478755951e-03 -3.476167097687721252e-03 -2.495634928345680237e-02 2.562292153015732765e-03 1.080340705811977386e-03 -1.170112518593668938e-03 -5.317225120961666107e-03 -1.382787805050611496e-02 -1.500172261148691177e-02 -3.089423757046461105e-03 -1.717165345326066017e-03 -7.515676319599151611e-03 -5.495198071002960205e-03 -1.203711703419685364e-02 4.182277712970972061e-03 -1.940995105542242527e-03 8.666766807436943054e-03 -1.913184532895684242e-03 -3.790532064158469439e-04 -7.748296018689870834e-03 -4.400701262056827545e-03 -9.122417308390140533e-03 2.122014993801712990e-03 2.399558760225772858e-02 9.309834800660610199e-03 -8.547662757337093353e-03 -1.994257792830467224e-02 1.923992112278938293e-02 -4.488048609346151352e-03 2.096461877226829529e-02 2.190921921283006668e-03 -3.421283618081361055e-04 -8.647544891573488712e-04 -1.982943387702107430e-03 1.361556164920330048e-02 4.025613889098167419e-03 9.019450284540653229e-03 -7.211062591522932053e-03 3.212037496268749237e-03 -1.706237718462944031e-02 -1.508244778960943222e-02 9.380734525620937347e-03 -6.520613562315702438e-03 -8.132110349833965302e-03 1.005052216351032257e-02 7.719399873167276382e-04 3.799128811806440353e-03 2.746530994772911072e-02 -7.688801735639572144e-03 -3.594987792894244194e-03 2.314532175660133362e-04 4.293551028240472078e-04 1.207563187927007675e-02 5.685044452548027039e-03 9.345046244561672211e-03 2.566591138020157814e-03 -2.687655156478285789e-03 -6.225841119885444641e-03 1.617436669766902924e-02 -1.686995150521397591e-03 -3.592771012336015701e-03 -7.572005502879619598e-03 -3.532529110088944435e-03 6.499504204839468002e-03 -5.190321244299411774e-03 1.014239061623811722e-02 2.693692687898874283e-03 -7.762538734823465347e-03 9.388212114572525024e-03 -6.362866144627332687e-03 -3.664959920570254326e-03 1.435263548046350479e-02 -1.719318889081478119e-02 1.272457465529441833e-02 -4.025937523692846298e-03 -1.402010023593902588e-02 -1.001420617103576660e-02 6.273234612308442593e-04 -4.938999656587839127e-03 -4.100430291146039963e-03 -1.501201000064611435e-02 5.937302950769662857e-03 1.810848596505820751e-03 -1.538555976003408432e-02 -8.767482824623584747e-03 -1.032346114516258240e-02 7.939789444208145142e-03 5.722841247916221619e-03 1.983413938432931900e-03 -1.143746776506304741e-03 -6.211928557604551315e-03 -2.412283211015164852e-04 -2.109427563846111298e-02 -3.926301375031471252e-03 -7.048836443573236465e-03 8.486766368150711060e-03 9.502984583377838135e-03 2.127755898982286453e-03 9.266220964491367340e-03 5.515574477612972260e-03 1.724623888731002808e-02 4.183864686638116837e-03 -4.560337401926517487e-03 -3.298963129054754972e-04 9.174472652375698090e-03 7.783100940287113190e-03 2.305868268013000488e-02 1.254969462752342224e-02 -1.360440906137228012e-02 1.648143515922129154e-03 -2.501977607607841492e-03 3.492502495646476746e-03 -1.099306810647249222e-02 -9.696782566606998444e-03 -1.088427007198333740e-02 2.422121167182922363e-02 2.051078947260975838e-03 1.019522361457347870e-02 -1.225534477271139622e-03 -7.315192837268114090e-03 6.152519956231117249e-03 1.394565124064683914e-02 3.061508992686867714e-03 6.450539454817771912e-03 -4.330080002546310425e-03 -5.949406884610652924e-03 3.570695873349905014e-03 2.533888630568981171e-02 5.287453066557645798e-03 -3.641575109213590622e-03 4.372129216790199280e-03 -1.024995371699333191e-02 -9.431217331439256668e-04 -3.764371387660503387e-03 1.356031186878681183e-02 5.368525162339210510e-03 4.207114398013800383e-04 -8.906648494303226471e-03 -6.556629668921232224e-03 2.426202408969402313e-02 -3.893162589520215988e-03 -3.559130418580025434e-04 -1.373534929007291794e-02 -5.477176513522863388e-03 1.436476595699787140e-03 -2.141347795259207487e-04 1.019854331389069557e-03 -1.771533116698265076e-02 5.644247401505708694e-03 2.704464830458164215e-03 -1.216121204197406769e-02 3.785729408264160156e-03 4.403277765959501266e-03 3.507669316604733467e-03 3.611998865380883217e-03 7.648396305739879608e-03 -6.172503344714641571e-03 -5.435209255665540695e-03 -1.070447824895381927e-02 -3.015456721186637878e-03 9.786236099898815155e-03 5.149340722709894180e-03 4.609049647115170956e-04 2.282779896631836891e-03 1.263355952687561512e-03 1.096904557198286057e-02 2.133645117282867432e-03 9.281888604164123535e-03 -6.369317416101694107e-03 -5.689346697181463242e-03 7.801812607795000076e-03 9.900014847517013550e-03 1.056566368788480759e-03 -7.285960949957370758e-03 -1.230045408010482788e-02 9.255022741854190826e-03 1.731377909891307354e-03 3.391396254301071167e-03 1.956188818439841270e-03 1.499051414430141449e-02 -2.868704497814178467e-02 -9.530661627650260925e-03 9.248794987797737122e-03 -9.156536310911178589e-03 1.826092973351478577e-02 3.982069902122020721e-03 -7.318415446206927299e-04 -3.328677965328097343e-03 6.383455824106931686e-03 2.573305368423461914e-02 8.868159726262092590e-03 6.800399627536535263e-03 -6.725626997649669647e-03 1.007193326950073242e-02 3.502978943288326263e-03 8.640458807349205017e-03 1.228595990687608719e-02 -4.658671561628580093e-03 7.535488810390233994e-03 -5.355827510356903076e-03 1.511776447296142578e-02 2.266804128885269165e-02 -8.701140992343425751e-03 1.236911956220865250e-02 -3.026817925274372101e-02 5.354807712137699127e-03 7.184079382568597794e-03 2.391451271250844002e-03 9.056467679329216480e-04 -1.466488279402256012e-02 2.943856641650199890e-03 1.353508140891790390e-02 5.105035379528999329e-03 6.433657370507717133e-03 4.782420117408037186e-03 -1.219353359192609787e-02 1.331516448408365250e-02 -2.072737572689220542e-07 4.787829238921403885e-03 -5.991070065647363663e-04 -1.609721221029758453e-02 6.664255168288946152e-03 4.792297258973121643e-03 3.292567329481244087e-03 -4.880983382463455200e-03 7.449932396411895752e-03 6.303024943917989731e-03 -3.713532583788037300e-03 6.751659326255321503e-03 -8.195596747100353241e-03 -6.850348319858312607e-03 -1.450370717793703079e-02 9.189399890601634979e-03 1.404653582721948624e-02 -1.745397923514246941e-03 -1.992991659790277481e-03 -1.674094051122665405e-02 -9.563376195728778839e-03 1.464614178985357285e-03 -1.856527640484273434e-03 -3.358280286192893982e-03 -4.350867122411727905e-03 5.216230638325214386e-03 1.042512990534305573e-02 1.032469701021909714e-02 -3.143515810370445251e-02 -1.537426142022013664e-04 -2.380213513970375061e-02
-6.208977662026882172e-03 1.266316324472427368e-02 -8.926713839173316956e-03 2.463052049279212952e-03 3.921836614608764648e-03 -5.041723605245351791e-03 2.964451676234602928e-03 -3.484580665826797485e-03 3.296393551863729954e-04 4.990537185221910477e-03 -4.321488551795482635e-03 9.563436033204197884e-04 -3.649992635473608971e-03 -6.002340815030038357e-04 3.795907367020845413e-03 1.934561412781476974e-03 1.360388100147247314e-02 2.067265566438436508e-03 1.516918465495109558e-02 -5.820184480398893356e-03 1.639426685869693756e-03 8.012731559574604034e-03 -1.536012906581163406e-02 2.052653580904006958e-03 -1.165571250021457672e-02 -2.029053634032607079e-03 1.371225691400468349e-03 -1.270637474954128265e-02 4.095210693776607513e-03 1.036159880459308624e-02 1.275316625833511353e-02 1.452286168932914734e-02 1.002305420115590096e-03 1.881165429949760437e-03 -1.000812742859125137e-02 -3.002902260050177574e-03 6.563122151419520378e-04 1.049848156981170177e-03 -6.933646509423851967e-04 -1.750347018241882324e-02 -4.501041024923324585e-03 -1.722035463899374008e-03 -5.321967881172895432e-03 -4.548261873424053192e-03 3.333337139338254929e-03 5.947857629507780075e-03 2.514713909476995468e-03 -1.572521869093179703e-03 -5.187307484447956085e-03 -7.822444662451744080e-03 -4.306079819798469543e-03 5.751210264861583710e-04 5.018181167542934418e-03 -2.639688318595290184e-03 1.329480204731225967e-02 1.500136335380375385e-03 2.952794777229428291e-03 -6.183100398629903793e-03 1.670300960540771484e-02 2.647899324074387550e-03 -3.835724666714668274e-03 8.247729390859603882e-03 -3.693097271025180817e-03 1.939418609254062176e-03 -2.403194783255457878e-03 6.306040449999272823e-04 -4.942992236465215683e-04 -7.495920173823833466e-03 -1.053921133279800415e-02 5.692157428711652756e-03 -3.657331923022866249e-03 8.398049511015415192e-03 1.451017428189516068e-02 -7.908256724476814270e-03 -5.493400152772665024e-03 1.683266460895538330e-02 1.270781829953193665e-02 7.425224408507347107e-03 7.579114753752946854e-04 -3.067821962758898735e-03 -5.931830033659934998e-03 1.956120319664478302e-02 1.732018403708934784e-02 -1.145281735807657242e-02 3.202432999387383461e-03 -4.957828670740127563e-03 1.187314651906490326e-02 -1.607495010830461979e-03 -3.577961120754480362e-03 -9.533197619020938873e-03 -1.172943389974534512e-03 -1.196797378361225128e-02 3.420244029257446527e-04 2.394973859190940857e-02 -2.659562975168228149e-03 -7.834364660084247589e-03 -1.629764679819345474e-03 -1.052231900393962860e-02 -1.117380894720554352e-02 -7.260210346430540085e-03 6.915195379406213760e-03 -1.318414229899644852e-02 -4.344054497778415680e-03 -1.542248111218214035e-02 2.387033542618155479e-03 4.435268230736255646e-03 -8.344254456460475922e-03 1.358814258128404617e-02 -3.630556631833314896e-03 2.926097949966788292e-03 7.606680039316415787e-03 1.648150011897087097e-02 8.784380741417407990e-03 7.559490855783224106e-03 -1.195594016462564468e-02 1.196376420557498932e-02 -3.902438562363386154e-03 -3.619963768869638443e-03 -5.425599403679370880e-03 1.307995337992906570e-02 -7.521236315369606018e-03 7.020445540547370911e-03 -1.659565605223178864e-04 2.455268986523151398e-02 2.000561915338039398e-03 1.164124812930822372e-02 1.604705350473523140e-03 5.385519936680793762e-03 -1.198760420083999634e-02 6.344367749989032745e-03 6.965526379644870758e-03 9.029326029121875763e-03 7.645411533303558826e-04 7.917966577224433422e-04 1.257213391363620758e-02 -2.362851984798908234e-03 -3.293248591944575310e-03 -2.678493410348892212e-02 -7.923238910734653473e-03 1.343832933343946934e-03 1.229747897014021873e-03 -8.057893865043297410e-06 -1.147732883691787720e-02 -1.812378061003983021e-03 8.294363506138324738e-03 5.833195173181593418e-04 8.580208756029605865e-03 1.513778697699308395e-02 -1.646474935114383698e-03 -5.691532976925373077e-03 -1.510339975357055664e-02 -2.152287401258945465e-03 -1.503770984709262848e-02 -1.210136711597442627e-02 1.515539921820163727e-02 8.193869143724441528e-03 3.538501681759953499e-03 3.278112970292568207e-03 -1.438964996486902237e-02 -1.658758521080017090e-02 -2.444452373310923576e-03 5.616524722427129745e-03 -1.391858235001564026e-02 -1.091021578758955002e-02 -7.531026378273963928e-03 8.817938156425952911e-03 -6.496470887213945389e-03 8.574164821766316891e-04 -5.521913059055805206e-03 -8.009793236851692200e-03 -8.086797781288623810e-03 -8.152828668244183064e-04 -1.034632418304681778e-02 -7.289433386176824570e-03 -4.174572881311178207e-03 1.873839180916547775e-03 6.083420943468809128e-03 -2.531161764636635780e-03 1.274216081947088242e-02 -3.121500834822654724e-03 -7.794333621859550476e-03 -5.850393790751695633e-04 -3.096575476229190826e-02 -1.203413680195808411e-02 1.672641810728237033e-04 1.399881765246391296e-02 8.878549560904502869e-03 1.900424435734748840e-02 1.088010147213935852e-02 -9.203205816447734833e-03 -1.112056523561477661e-02 -7.404146715998649597e-03 7.194404024630784988e-03 -2.473277784883975983e-02 -6.349410396069288254e-04 -1.574892736971378326e-02 2.595010912045836449e-03 -6.444813217967748642e-03 -8.685183711349964142e-03 6.822722498327493668e-03 1.089657191187143326e-02 -3.060607472434639931e-03 -1.067258231341838837e-02 -5.644324701279401779e-03 -7.323240395635366440e-03 -1.506339292973279953e-03 -1.238381373696029186e-04 -9.505840949714183807e-03 4.774180240929126740e-03 7.907505147159099579e-03 1.335230749100446701e-02 -5.015955306589603424e-03 1.480485685169696808e-02 4.509930033236742020e-03 -9.017742238938808441e-03 1.332342159003019333e-02 3.745974972844123840e-03 2.337375655770301819e-03 2.000955305993556976e-02 5.100383423268795013e-03 -1.307043898850679398e-02 -5.340959760360419750e-04 -7.026879582554101944e-03 -1.633744128048419952e-02 3.018539166077971458e-03 -6.830624770373106003e-03 -1.252359524369239807e-02 5.444609560072422028e-04 3.294643465778790414e-05 5.037652328610420227e-03 -1.263799518346786499e-02 -1.630565896630287170e-02 -1.908548409119248390e-03 -3.198018996044993401e-03 -4.817405715584754944e-03 1.331160031259059906e-02 3.525219159200787544e-03 -7.117159664630889893e-03 6.909086834639310837e-03 3.778125101234763861e-04 1.170274335891008377e-02 3.374179359525442123e-03 9.167532436549663544e-03 -6.700886413455009460e-03 6.864623166620731354e-03 -1.348579954355955124e-02 -1.041555427946150303e-03 -1.967727439478039742e-03 -5.215500947088003159e-03 1.107081584632396698e-02 -1.317803934216499329e-02 -7.584557868540287018e-03 -1.386689394712448120e-02 -1.134931482374668121e-02 -1.116074807941913605e-02 1.096137985587120056e-02
-6.796774920076131821e-03 1.374727929942309856e-03 -1.369920838624238968e-02 2.165934257209300995e-02 -1.405295170843601227e-02 -5.644440650939941406e-03 -1.113142236135900021e-03 9.085034020245075226e-03 -3.376465756446123123e-03 4.363699816167354584e-03 -9.800055995583534241e-03 -1.258039032109081745e-03 -2.698410861194133759e-02 2.379928264417685568e-05 -1.729854755103588104e-02 -8.584594354033470154e-03 -3.970461257267743349e-04 -2.251644618809223175e-03 2.023036032915115356e-02 -7.138656452298164368e-03 -1.499762176536023617e-03 -2.256789244711399078e-03 -1.731439866125583649e-02 1.207093149423599243e-02 -6.725091021507978439e-03 -8.591733872890472412e-03 1.207406166940927505e-02 -6.813830696046352386e-03 2.994918031617999077e-03 1.128070615231990814e-02 2.005080692470073700e-03 2.029241994023323059e-03 -1.360259950160980225e-02 -1.213320530951023102e-02 -1.035040616989135742e-02 7.470409036614000797e-04 -8.463423699140548706e-03 3.722377587109804153e-03 4.283346701413393021e-03 -5.644073244184255600e-03 -9.145360440015792847e-03 1.244620233774185181e-02 8.641041815280914307e-03 1.197144389152526855e-02 1.507356390357017517e-02 3.402071306481957436e-03 2.937110606580972672e-03 -6.922814063727855682e-04 4.676946904510259628e-03 -2.297111228108406067e-02 7.568473927676677704e-03 5.701464135199785233e-03 3.843018552288413048e-03 -1.112533733248710632e-02 -3.504161722958087921e-03 1.770319789648056030e-02 1.244899258017539978e-02 -5.044832825660705566e-03 1.601355965249240398e-03 5.646993406116962433e-03 -1.028836052864789963e-02 -8.603570051491260529e-03 -5.221323110163211823e-03 -1.351387822069227695e-03 6.395467207767069340e-04 6.784094031900167465e-03 1.469100476242601871e-03 -7.791950833052396774e-03 -1.973894797265529633e-02 1.304580923169851303e-02 -6.377068348228931427e-03 1.578071154654026031e-02 4.616999067366123199e-03 7.672220934182405472e-03 9.422882460057735443e-03 3.633545711636543274e-03 -5.825450178235769272e-03 2.055587712675333023e-03 -8.834499865770339966e-03 -1.266534527530893683e-04 -1.281960960477590561e-02 6.244726479053497314e-03 1.976212672889232635e-02 -1.146244164556264877e-02 3.387420903891324997e-03 -9.651304222643375397e-03 4.460543394088745117e-03 -1.590480655431747437e-02 -1.922930963337421417e-02 -2.995115937665104866e-03 -6.224898621439933777e-03 4.089135676622390747e-03 -1.883911085315048695e-03 1.602781354449689388e-03 -1.562936085974797606e-04 -6.523079704493284225e-03 -1.690989919006824493e-02 -4.678199533373117447e-03 -2.045636996626853943e-02 1.040770951658487320e-02 -1.178694237023591995e-02 4.008935298770666122e-03 -1.503708306699991226e-02 -1.120878732763230801e-03 2.344430191442370415e-03 3.399192588403820992e-03 6.832977756857872009e-03 -3.931101411581039429e-03 1.694398932158946991e-03 1.235085655935108662e-03 -1.772066205739974976e-02 3.917118068784475327e-03 -2.184454351663589478e-02 -2.350263297557830811e-03 1.696669310331344604e-02 -9.346554055809974670e-03 2.271283417940139771e-03 5.499107064679265022e-04 3.783824795391410589e-04 6.972568109631538391e-03 -1.804680563509464264e-02 -3.078650042880326509e-04 -4.206468351185321808e-03 1.118273288011550903e-02 -2.736625494435429573e-03 8.180441334843635559e-03 1.939113833941519260e-03 1.662552356719970703e-03 8.357045589946210384e-04 5.647392477840185165e-03 6.341252010315656662e-03 6.671734154224395752e-03 9.573980234563350677e-03 -4.355177748948335648e-03 9.390714578330516815e-03 -1.777960918843746185e-03 2.389906207099556923e-03 1.104831509292125702e-02 1.134120044298470020e-03 -7.100081536918878555e-03 2.568079798948019743e-04 -3.096649423241615295e-03 3.648445243015885353e-03 1.157425343990325928e-03 6.781545933336019516e-03 1.082339603453874588e-02 8.184087462723255157e-03 1.088108029216527939e-02 1.473471987992525101e-02 9.477187879383563995e-03 -1.486959774047136307e-02 1.939337700605392456e-03 -1.335258129984140396e-02 -1.710464362986385822e-03 -2.030558884143829346e-03 1.134369987994432449e-02 3.063669893890619278e-03 1.421560626477003098e-02 2.932391595095396042e-03 7.027811836451292038e-03 -8.637476712465286255e-03 5.938327871263027191e-03 6.973747164011001587e-03 1.226813532412052155e-02 1.250054920092225075e-03 1.416334323585033417e-02 3.377021756023168564e-03 -2.578792534768581390e-02 -6.002304609864950180e-03 -8.779111318290233612e-03 -4.891449119895696640e-03 8.384963497519493103e-03 -1.482499111443758011e-02 1.034201995935291052e-04 -4.491466563194990158e-03 1.900729537010192871e-02 -6.787912454456090927e-03 -1.167057733982801437e-02 -4.051096737384796143e-03 9.353652596473693848e-03 8.627115748822689056e-04 -2.015038020908832550e-02 -2.935632131993770599e-03 -6.733039394021034241e-03 -1.935252803377807140e-03 -1.483310363255441189e-03 -1.355147268623113632e-02 -2.412479516351595521e-04 5.788183771073818207e-04 -4.237448796629905701e-03 -6.808914709836244583e-03 -1.004503946751356125e-02 3.149568103253841400e-03 -3.867464838549494743e-03 4.183682613074779510e-03 1.156926620751619339e-02 -7.082967553287744522e-03 -8.198009803891181946e-03 -1.825884543359279633e-02 1.572452858090400696e-02 1.181230600923299789e-02 -2.099161501973867416e-03 1.552530843764543533e-02 -2.717595547437667847e-03 -3.496362478472292423e-04 -1.600519381463527679e-02 6.269347853958606720e-03 2.238617511466145515e-03 -7.089324295520782471e-03 -3.265080973505973816e-03 2.157152397558093071e-03 -8.456793613731861115e-03 1.335070002824068069e-02 8.795686066150665283e-03 3.937596455216407776e-03 8.724618703126907349e-03 -4.035098012536764145e-03 9.469407377764582634e-04 -5.264558363705873489e-03 5.154835991561412811e-03 -9.291877970099449158e-03 -6.149773020297288895e-03 -1.235085818916559219e-02 -1.188606210052967072e-02 9.934039786458015442e-03 8.684894070029258728e-03 -1.771143265068531036e-02 -5.533601157367229462e-03 -8.762874058447778225e-04 2.211221260949969292e-03 9.129928657785058022e-04 -3.060203976929187775e-03 -1.505609974265098572e-02 -9.646131657063961029e-03 6.280066445469856262e-03 1.363012939691543579e-02 4.709414206445217133e-03 -1.074478123337030411e-02 -7.724642753601074219e-03 1.148913288488984108e-03 -5.746087990701198578e-03 1.153867691755294800e-02 6.081480067223310471e-03 -1.278789434581995010e-02 2.532511483877897263e-03 4.203340038657188416e-03 7.910918444395065308e-03 1.289234496653079987e-02 -8.284812793135643005e-03 -4.550357814878225327e-03 -2.380421198904514313e-02 -4.874667618423700333e-03 -6.567280273884534836e-03 -1.625229790806770325e-02 -1.691418327391147614e-02 1.476161926984786987e-02
4.954633768647909164e-03 -2.127770800143480301e-03 -1.120681036263704300e-02 2.526362426578998566e-02 -1.132398657500743866e-02 8.519104681909084320e-03 -1.133591681718826294e-02 6.962805055081844330e-03 8.537475019693374634e-03 -1.435310952365398407e-02 -6.084422115236520767e-03 1.407961361110210419e-02 8.159955032169818878e-03 2.288612909615039825e-02 -1.141970511525869370e-02 -7.484162691980600357e-03 8.680964820086956024e-03 2.088583540171384811e-03 2.874301979318261147e-03 1.135614700615406036e-02 -4.320420324802398682e-03 -9.347640298074111342e-05 2.733978908509016037e-03 -1.293416880071163177e-02 -4.189749713987112045e-03 -3.563392907381057739e-03 -4.262748174369335175e-03 -5.362299736589193344e-03 -1.772275776602327824e-03 2.606573980301618576e-03 -2.091094385832548141e-03 3.216425888240337372e-03 8.114284835755825043e-03 3.695110324770212173e-03 9.364994242787361145e-03 -1.350303925573825836e-02 -1.112598832696676254e-02 1.634601387195289135e-03 -3.765639849007129669e-03 -5.963724572211503983e-03 -4.199088085442781448e-03 1.473072450608015060e-02 -2.734313020482659340e-04 -8.260581642389297485e-03 -7.397941313683986664e-03 -2.743019722402095795e-03 -7.757312618196010590e-03 1.554414164274930954e-02 2.194332145154476166e-02 -8.988298475742340088e-03 -1.586603350006043911e-03 5.489130038768053055e-03 1.161465072073042393e-03 9.162494912743568420e-03 -1.432583667337894440e-02 3.404246177524328232e-03 6.568198092281818390e-03 -1.052947714924812317e-03 -2.322767116129398346e-02 -5.612857639789581299e-03 4.787215963006019592e-03 -3.470335854217410088e-03 -1.190895121544599533e-02 1.445417292416095734e-03 -2.789007732644677162e-03 -4.422509111464023590e-03 9.157765656709671021e-03 4.361246246844530106e-03 2.224188297986984253e-03 2.036147937178611755e-02 -5.826151929795742035e-03 7.193365599960088730e-03 -4.485417623072862625e-03 7.685832097195088863e-04 -3.146473783999681473e-03 -7.854333147406578064e-03 -5.821143276989459991e-03 1.919259130954742432e-02 -1.045427937060594559e-02 -9.119074791669845581e-03 -1.102802809327840805e-02 2.895957557484507561e-03 3.691292600706219673e-03 1.030847337096929550e-02 -2.891571726649999619e-03 1.535264682024717331e-02 -1.085526496171951294e-02 -2.248669043183326721e-03 1.464624702930450439e-02 -8.477268740534782410e-03 -1.699837506748735905e-03 7.149936165660619736e-03 1.445014681667089462e-02 -8.727730251848697662e-03 6.350420881062746048e-03 2.242795564234256744e-02 2.674424089491367340e-03 -3.197764279320836067e-03 -9.143123170360922813e-04 -5.383035386330448091e-05 -7.097985508153215051e-05 -4.630713083315640688e-04 -1.869227178394794464e-02 -6.471911910921335220e-03 -5.287613719701766968e-03 -4.435542505234479904e-04 2.149872248992323875e-03 1.675944402813911438e-02 -1.251996681094169617e-02 -3.340338356792926788e-03 7.104468531906604767e-03 -1.105334516614675522e-02 -1.309613883495330811e-02 4.081036895513534546e-03 2.280388725921511650e-04 -5.880728363990783691e-03 -2.283591078594326973e-03 -8.222676813602447510e-03 2.421010285615921021e-03 8.831122890114784241e-03 -1.651297090575098991e-03 1.529062166810035706e-02 1.047699805349111557e-02 -9.520501829683780670e-03 -8.469966123811900616e-04 5.386428907513618469e-03 5.615833681076765060e-03 4.924618173390626907e-03 1.072769984602928162e-02 -1.737536489963531494e-02 1.118571963161230087e-02 1.292098313570022583e-02 -3.385135205462574959e-03 -1.891100406646728516e-02 -1.298824977129697800e-02 3.094333456829190254e-03 -8.911815471947193146e-03 -1.229135505855083466e-02 1.577477715909481049e-02 2.562222769483923912e-03 1.181784365326166153e-02 2.927995752543210983e-03 -5.220212507992982864e-03 -4.182267002761363983e-03 1.146003021858632565e-03 9.399896371178328991e-04 8.380331564694643021e-04 -9.346111677587032318e-03 -4.330265801399946213e-03 -1.304798200726509094e-02 -9.050655178725719452e-03 -3.469842951744794846e-03 -5.977001041173934937e-03 -2.248579822480678558e-02 1.257857214659452438e-02 2.836039662361145020e-02 1.547483541071414948e-02 -1.782080158591270447e-03 3.108308883383870125e-04 1.296084094792604446e-02 -7.080051582306623459e-03 1.175362896174192429e-02 2.979709766805171967e-03 -3.558933269232511520e-03 -1.097486587241292000e-03 3.333184868097305298e-03 -6.794485263526439667e-03 -6.361196283251047134e-04 -1.263082586228847504e-02 1.794327981770038605e-02 -4.281136207282543182e-03 2.021190943196415901e-03 -2.340966602787375450e-03 -2.167716156691312790e-03 1.194597035646438599e-02 1.138304080814123154e-02 -3.186646383255720139e-03 -2.721459232270717621e-02 -1.182455103844404221e-02 -8.281251415610313416e-03 -1.116347219794988632e-02 1.223881170153617859e-02 1.349781267344951630e-02 1.818900741636753082e-02 2.185049233958125114e-03 9.358393028378486633e-03 1.132796239107847214e-02 -1.069968938827514648e-02 -6.947160698473453522e-03 -2.271512523293495178e-03 6.019514403305947781e-04 1.270477427169680595e-03 8.754185400903224945e-03 1.766919391229748726e-03 2.062141196802258492e-03 -6.444370374083518982e-03 -7.959474809467792511e-03 -8.803451433777809143e-03 -3.557222429662942886e-03 -3.672827035188674927e-03 2.451161108911037445e-02 -7.188479416072368622e-03 2.155936323106288910e-02 -6.608256604522466660e-03 -5.907382816076278687e-03 9.000068530440330505e-03 3.118827240541577339e-03 -1.540786027908325195e-02 -5.752075463533401489e-03 4.396727774292230606e-03 4.468821454793214798e-03 -1.855409890413284302e-02 -9.437969885766506195e-03 4.455350339412689209e-03 4.335393197834491730e-03 5.306131672114133835e-03 -7.778947241604328156e-03 -1.161614316515624523e-03 -1.688854536041617393e-03 9.076435817405581474e-04 3.607235848903656006e-03 -6.284870207309722900e-03 2.251173555850982666e-02 -5.033681169152259827e-03 1.031886134296655655e-02 5.275561474263668060e-03 -1.106657553464174271e-02 2.455368172377347946e-03 -1.110053434967994690e-02 -5.359402857720851898e-04 -7.226694375276565552e-03 -1.200541574507951736e-02 1.870665512979030609e-02 6.448129191994667053e-03 5.030712927691638470e-04 -1.516618067398667336e-03 1.021149661391973495e-02 -2.726984675973653793e-03 -7.823891937732696533e-03 -6.035415455698966980e-03 1.872543618083000183e-02 -5.829335190355777740e-03 -3.395238425582647324e-03 -1.363925263285636902e-02 -1.084945444017648697e-02 4.991022404283285141e-03 -2.231800695881247520e-03 -1.415093662217259407e-03 -1.686583622358739376e-03 -5.503076594322919846e-03 -1.113011687994003296e-02 1.317378133535385132e-02 5.726322997361421585e-03 -2.219551056623458862e-02 -5.965881282463669777e-04 3.351197519805282354e-04
-9.000101126730442047e-03 -1.074977405369281769e-02 1.588996872305870056e-02 -1.333739724941551685e-03 8.321508765220642090e-03 -9.293663315474987030e-04 -2.794511383399367332e-03 -7.333115674555301666e-03 -6.392500828951597214e-03 -2.511079190298914909e-03 -7.745306356810033321e-04 7.595888804644346237e-03 9.784515015780925751e-03 1.136320643126964569e-03 -4.978797398507595062e-03 -9.597737342119216919e-03 -9.156852960586547852e-03 3.704647999256849289e-03 -2.047234680503606796e-03 -1.208186708390712738e-02 1.267530722543597221e-03 1.450341288000345230e-02 -1.887070760130882263e-02 -8.617462590336799622e-03 -8.539075031876564026e-03 4.865770461037755013e-04 -2.061649458482861519e-03 3.431702498346567154e-04 7.104793563485145569e-03 4.012319725006818771e-03 -2.615206176415085793e-03 1.321756746619939804e-02 1.617962680757045746e-02 -1.418115664273500443e-02 -1.202045567333698273e-02 -2.683387603610754013e-03 -1.154979970306158066e-02 9.117807261645793915e-03 -1.638657972216606140e-02 7.203117012977600098e-03 5.133234895765781403e-03 5.143830552697181702e-03 4.350893665105104446e-03 -4.657616838812828064e-03 1.413676701486110687e-02 -5.800006445497274399e-03 -1.070704497396945953e-02 -3.362052608281373978e-03 9.440630674362182617e-04 1.375967822968959808e-02 6.693703588098287582e-03 -1.019427203573286533e-03 8.347271010279655457e-03 -5.176106933504343033e-03 -5.032652523368597031e-03 -1.477673090994358063e-02 -1.142733846791088581e-03 3.492858726531267166e-03 -5.957766552455723286e-04 -9.902878664433956146e-04 1.112558972090482712e-02 5.156450904905796051e-03 3.551984205842018127e-03 2.333579584956169128e-03 1.875364803709089756e-03 2.081911824643611908e-02 -1.022916007786989212e-02 -7.412070990540087223e-04 8.951905183494091034e-03 -2.227511955425143242e-03 -2.278216416016221046e-03 -4.411227069795131683e-03 -3.759138286113739014e-03 1.781094633042812347e-02 -2.231732243672013283e-03 1.102139521390199661e-02 1.360692270100116730e-02 -6.656670011579990387e-03 -3.468912560492753983e-03 5.934212356805801392e-03 2.362454310059547424e-03 -7.919343188405036926e-03 -2.157573122531175613e-03 2.362196973990648985e-04 -4.582494497299194336e-03 9.883339516818523407e-04 -1.659272238612174988e-03 8.630204945802688599e-03 6.451741326600313187e-03 -4.032966098748147488e-04 -3.291506692767143250e-02 -6.891828961670398712e-03 -5.013197194784879684e-03 -5.127631127834320068e-03 1.871796797558999970e-07 -3.536729142069816589e-03 -1.362454425543546677e-02 2.073987387120723724e-03 2.588119357824325562e-03 -9.687886573374271393e-03 -4.342173691838979721e-03 -3.438330488279461861e-03 -7.163895759731531143e-03 1.182147301733493805e-03 -6.575805600732564926e-04 -1.552233751863241196e-02 -7.868273183703422546e-03 -5.937393754720687866e-03 -3.896028734743595123e-03 1.108113955706357956e-02 4.152720328420400620e-03 1.547556021250784397e-03 9.247091598808765411e-03 -2.823097165673971176e-03 1.291452720761299133e-02 1.136735454201698303e-02 4.392929840832948685e-03 -7.468727417290210724e-03 -1.599713141331449151e-04 1.167434360831975937e-02 -6.455436348915100098e-03 -2.584877889603376389e-03 1.769193448126316071e-02 -9.756895713508129120e-03 -1.177098322659730911e-02 -3.752798773348331451e-03 7.522308267652988434e-03 1.087031140923500061e-02 -8.354246616363525391e-03 7.683977484703063965e-03 2.649653702974319458e-03 1.021721214056015015e-02 1.886944635771214962e-03 -1.969380304217338562e-02 -6.770160049200057983e-03 3.269261494278907776e-02 -1.041830866597592831e-03 2.029824972851201892e-04 -7.444323971867561340e-03 8.750605396926403046e-03 -2.294623292982578278e-03 4.447586834430694580e-03 -3.409388707950711250e-03 2.927740104496479034e-03 1.481350045651197433e-03 5.084513220936059952e-03 1.398948486894369125e-02 1.265659462660551071e-02 1.043646596372127533e-02 4.099445883184671402e-03 -3.211869625374674797e-04 -5.243529099971055984e-03 -8.339595980942249298e-03 7.288419175893068314e-03 -2.254530228674411774e-02 8.846271783113479614e-03 -2.858464606106281281e-03 -1.968541648238897324e-03 -9.015601128339767456e-03 -5.100529640913009644e-03 -7.801382802426815033e-03 6.975364871323108673e-03 3.914236091077327728e-03 -4.617626778781414032e-03 -1.713524921797215939e-03 2.176400041207671165e-03 -4.018424078822135925e-03 -9.817831218242645264e-03 -8.653818629682064056e-03 7.135065272450447083e-03 -5.836691707372665405e-04 -2.880274085327982903e-03 -3.952960483729839325e-03 1.996455155313014984e-02 1.119076460599899292e-02 -1.030137017369270325e-02 -3.861471195705235004e-04 -1.574608683586120605e-02 -2.760051982477307320e-03 4.772169049829244614e-03 1.388594694435596466e-02 2.373589202761650085e-03 3.191521391272544861e-03 2.361617283895611763e-03 1.147670671343803406e-02 8.818984962999820709e-03 6.117432843893766403e-03 6.115113501437008381e-04 -1.305347774177789688e-02 -7.788053248077630997e-03 8.127991459332406521e-04 2.593021094799041748e-02 4.810995422303676605e-03 -2.555272355675697327e-02 -3.538143588230013847e-03 -1.716872793622314930e-03 -1.718286366667598486e-04 1.993999350816011429e-03 2.408408373594284058e-02 -1.147983130067586899e-02 9.345987346023321152e-04 9.689231403172016144e-03 2.080547623336315155e-03 -5.419671651907265186e-04 4.551017191261053085e-03 6.056665442883968353e-04 -6.626758724451065063e-03 -7.058555260300636292e-03 1.788165047764778137e-02 2.204917836934328079e-03 5.128835793584585190e-03 5.658007226884365082e-03 -4.871088895015418530e-04 3.139273962005972862e-03 3.518449142575263977e-03 -6.011814810335636139e-03 -6.339635234326124191e-03 1.921424176543951035e-03 -6.417182274162769318e-03 -5.164728499948978424e-03 6.325293332338333130e-03 -1.054392755031585693e-02 9.021395817399024963e-03 -7.226990070194005966e-03 -7.711359066888689995e-04 -5.256147123873233795e-03 3.023291239514946938e-03 -7.422429043799638748e-04 -9.454018436372280121e-03 5.295544862747192383e-03 -8.260607719421386719e-03 4.658635240048170090e-03 8.030301891267299652e-03 6.320811342447996140e-03 8.661747910082340240e-03 1.540102716535329819e-02 5.670251324772834778e-03 -1.147529110312461853e-02 -2.974807051941752434e-03 -1.410077605396509171e-02 -4.625543020665645599e-03 1.476582419127225876e-02 -1.304090488702058792e-02 7.286273757927119732e-04 -1.961341826245188713e-03 5.894917994737625122e-03 -1.137905009090900421e-02 -5.357387010008096695e-03 -4.957516212016344070e-04 2.362418308621272445e-04 -1.309509202837944031e-02 1.366143021732568741e-02 2.529989182949066162e-02 -9.160024113953113556e-03 1.544859819114208221e-02 -4.868626594543457031e-03
9.839454665780067444e-03 -1.107806339859962463e-03 -6.367047899402678013e-04 -1.189924869686365128e-02 -8.010795339941978455e-03 5.390088772401213646e-04 -2.540862187743186951e-03 1.169389486312866211e-02 -6.172677502036094666e-03 -6.731364876031875610e-03 1.550055854022502899e-02 -6.160062272101640701e-03 6.101933773607015610e-03 1.027527265250682831e-02 3.932175692170858383e-03 -2.974713686853647232e-03 4.615007434040307999e-03 5.438580643385648727e-03 -6.173072848469018936e-03 -9.222448803484439850e-03 1.146650686860084534e-02 -1.570400223135948181e-02 1.209031976759433746e-02 -1.250933273695409298e-03 9.306850843131542206e-03 -1.144000561907887459e-03 1.551015768200159073e-03 -1.042115595191717148e-02 -8.538339752703905106e-04 -7.202032953500747681e-03 -1.135689951479434967e-02 3.052336862310767174e-03 -1.965535804629325867e-03 -2.704238751903176308e-03 -6.148280575871467590e-03 -2.476669382303953171e-03 -7.362202741205692291e-03 6.243239156901836395e-03 3.315827809274196625e-03 -1.212363597005605698e-03 2.026750333607196808e-02 2.058258251054212451e-04 1.200447976589202881e-02 -1.892420928925275803e-03 -1.459726248867809772e-03 -5.257097072899341583e-03 6.141328718513250351e-03 1.282850862480700016e-03 1.942657050676643848e-03 -3.475477220490574837e-03 2.054086187854409218e-03 8.071008487604558468e-04 2.367748413234949112e-03 -9.086201898753643036e-03 -2.071456285193562508e-03 1.511763315647840500e-03 -7.633025292307138443e-03 -5.936371628195047379e-03 -5.894044879823923111e-03 8.701653569005429745e-04 7.259705103933811188e-03 1.595249748788774014e-03 7.128629949875175953e-04 2.465968951582908630e-03 1.181393582373857498e-02 -4.059562052134424448e-04 -1.130174612626433372e-03 -8.077666163444519043e-03 -8.170187473297119141e-03 9.341434342786669731e-04 5.273231770843267441e-03 -1.757377642206847668e-03 5.398330395109951496e-04 8.066769689321517944e-03 1.487167668528854847e-03 5.699745845049619675e-03 -3.679655259475111961e-03 -1.781425962690263987e-04 -2.318711252883076668e-03 -6.260169902816414833e-04 -3.398727159947156906e-03 3.887306433171033859e-03 -6.114430259913206100e-03 8.528097532689571381e-03 1.115978695452213287e-02 4.157525952905416489e-03 1.142065133899450302e-02 1.140026189386844635e-02 2.571316435933113098e-03 -5.413406062871217728e-03 3.158072708174586296e-03 2.618866041302680969e-03 1.081988308578729630e-02 2.531094010919332504e-03 2.875760663300752640e-03 -3.443535184487700462e-03 5.285307415761053562e-04 -2.942652441561222076e-03 1.017931615933775902e-03 5.879113916307687759e-03 4.852793179452419281e-03 8.613813668489456177e-03 -1.046567223966121674e-02 -2.513653598725795746e-03 -3.002961864694952965e-03 -4.776296205818653107e-03 9.255497716367244720e-03 -3.409597091376781464e-03 -3.666835138574242592e-03 1.074479799717664719e-02 -1.223550550639629364e-02 1.030666520819067955e-03 2.970816800370812416e-03 1.130457874387502670e-02 5.202333908528089523e-03 7.302492391318082809e-03 -1.622376876184716821e-04 5.184059031307697296e-03 5.450211465358734131e-03 -4.846194759011268616e-03 5.897982511669397354e-03 -4.086337517946958542e-03 -7.313684094697237015e-03 1.866835518740117550e-03 -1.347197685390710831e-02 4.174093250185251236e-03 -2.454882953315973282e-03 8.802957599982619286e-04 -1.175049040466547012e-02 -1.338004134595394135e-03 1.876693405210971832e-02 -7.782960892654955387e-04 -1.652998384088277817e-03 -6.585054565221071243e-03 8.868435979820787907e-04 9.144209325313568115e-03 -3.722083754837512970e-03 -2.329430542886257172e-02 -3.009370993822813034e-03 1.030858233571052551e-02 -4.481741692870855331e-03 4.246261087246239185e-04 -7.722872309386730194e-03 2.947085013147443533e-04 5.200951360166072845e-03 -4.780668765306472778e-03 -5.265250802040100098e-03 4.681385587900876999e-03 -9.073747321963310242e-03 1.641720533370971680e-03 5.772825097665190697e-04 3.351482795551419258e-03 -2.055880147963762283e-03 3.259253920987248421e-03 -4.805661272257566452e-03 3.099581226706504822e-03 -1.503180479630827904e-03 -1.144097745418548584e-02 -3.625131910666823387e-03 3.698086948134005070e-04 -1.341955619864165783e-03 2.682892838492989540e-03 6.988339126110076904e-03 2.273394493386149406e-03 2.060722094029188156e-03 -3.937250934541225433e-03 1.248156884685158730e-03 -8.942622691392898560e-03 1.180684426799416542e-03 -1.956284744665026665e-03 4.147770814597606659e-03 1.508712186478078365e-03 -1.086483243852853775e-02 1.594619639217853546e-02 -2.296508755534887314e-03 3.230536356568336487e-03 8.737806230783462524e-03 -6.250252481549978256e-03 -3.870496759191155434e-03 2.651389921084046364e-03 -9.922557510435581207e-03 9.237969294190406799e-03 -2.392212394624948502e-03 3.846588311716914177e-03 -9.420619346201419830e-03 -9.953046217560768127e-03 -1.875233650207519531e-02 -9.193632868118584156e-04 -6.825005169957876205e-03 2.577110193669795990e-03 1.574859488755464554e-03 3.161796135827898979e-03 1.267403567908331752e-04 1.277843839488923550e-03 -1.371494401246309280e-02 -1.057342253625392914e-02 -1.106413267552852631e-02 -3.014568937942385674e-03 -9.850081987679004669e-04 -6.190456449985504150e-03 4.044093366246670485e-04 -6.174475885927677155e-03 -7.663026335649192333e-04 2.932772040367126465e-03 4.533681552857160568e-03 1.227565226145088673e-03 -1.835230737924575806e-02 1.803652034141123295e-03 9.586556814610958099e-03 5.052400287240743637e-03 -2.412994392216205597e-03 -5.698609165847301483e-03 -1.015998888760805130e-02 8.830369450151920319e-03 -1.266434509307146072e-02 2.589729614555835724e-03 -4.827578552067279816e-03 6.167261744849383831e-04 -1.377930119633674622e-02 -3.677716711536049843e-03 1.055036089383065701e-03 6.869363598525524139e-03 -6.667935755103826523e-03 -5.709995049983263016e-03 -1.028130482882261276e-02 3.344480064697563648e-04 2.302717184647917747e-04 1.180099602788686752e-02 -1.022964017465710640e-03 4.136436618864536285e-03 -8.650211617350578308e-03 -1.459744526073336601e-03 -5.753114353865385056e-03 4.822483751922845840e-03 -6.734390277415513992e-03 -3.502985695376992226e-03 -1.197779085487127304e-03 1.668714103288948536e-04 -1.645257347263395786e-03 1.003097835928201675e-02 1.325553562492132187e-02 -1.545033184811472893e-03 7.266741013154387474e-04 3.895284608006477356e-03 2.383199054747819901e-03 -2.939269877970218658e-03 -5.197883583605289459e-03 -3.514630254358053207e-03 9.297627955675125122e-03 3.926115576177835464e-03 6.758234230801463127e-04 -1.713780569843947887e-03 5.504954140633344650e-03 -9.766455739736557007e-03 1.928009791299700737e-03 -1.752645126543939114e-03
-6.512352265417575836e-03 9.406380355358123779e-03 7.175752893090248108e-03 7.911063730716705322e-03 -5.880622658878564835e-03 7.522379048168659210e-03 -6.671749055385589600e-03 -1.741253305226564407e-03 -1.922159269452095032e-02 2.836726605892181396e-03 9.024484083056449890e-03 3.061455208808183670e-03 -5.068657454103231430e-03 -9.318675845861434937e-03 6.566448602825403214e-03 -4.550126381218433380e-03 -9.382792748510837555e-03 -1.147520379163324833e-03 -1.986380200833082199e-03 7.953721098601818085e-03 2.176348818466067314e-03 -9.055172093212604523e-03 -1.159692765213549137e-03 -1.845929957926273346e-02 -1.671829819679260254e-02 -6.426903419196605682e-03 1.744301803410053253e-02 1.323765842244029045e-03 -8.567809127271175385e-03 1.141428854316473007e-02 1.194222480989992619e-03 -8.472073823213577271e-03 -5.127217154949903488e-03 -2.541308524087071419e-03 6.427011452615261078e-03 9.990308433771133423e-03 -1.242043916136026382e-02 1.172912120819091797e-02 1.366944424808025360e-02 -8.512630127370357513e-03 -2.121907426044344902e-03 -5.609107669442892075e-03 2.482911013066768646e-02 -8.415547199547290802e-03 1.085506868548691273e-03 -1.172910444438457489e-02 3.514530370011925697e-03 -5.852972157299518585e-03 1.623799465596675873e-02 9.485696209594607353e-04 6.054057739675045013e-03 6.016709376126527786e-03 8.198208524845540524e-04 7.859522476792335510e-03 -5.044549237936735153e-03 -1.098217070102691650e-02 -9.728902019560337067e-03 -7.003119215369224548e-03 -8.204493671655654907e-03 -4.978773649781942368e-03 -1.230992190539836884e-02 8.401585742831230164e-03 -1.449917559511959553e-03 -1.075754989869892597e-03 -1.710479613393545151e-03 -4.914870485663414001e-03 3.057471476495265961e-03 3.574044629931449890e-02 -9.912680834531784058e-03 -1.216928940266370773e-02 8.929208852350711823e-03 -1.314090751111507416e-02 -4.098264966160058975e-03 -7.093272870406508446e-04 -1.321478094905614853e-02 -1.784735918045043945e-02 -3.295212751254439354e-03 -9.147337637841701508e-03 6.249141413718461990e-03 1.969256810843944550e-02 -7.696292363107204437e-03 4.008715040981769562e-03 -5.199801642447710037e-03 5.274527939036488533e-05 -4.565812181681394577e-03 1.911397674120962620e-03 -1.444433629512786865e-02 -2.013205550611019135e-03 -1.539779547601938248e-02 1.010549603961408138e-03 -4.720823373645544052e-03 1.135828346014022827e-02 -1.264455914497375488e-02 -6.939102895557880402e-03 9.454344399273395538e-03 -8.353116922080516815e-03 -1.901526236906647682e-03 -3.334487788379192352e-03 -9.655790403485298157e-03 7.908904924988746643e-03 -8.348294533789157867e-03 -2.608824055641889572e-03 -3.338745329529047012e-03 8.523905649781227112e-03 -1.851155981421470642e-02 -1.748312637209892273e-02 -1.321919355541467667e-02 -5.693035782314836979e-04 -6.445423699915409088e-03 -1.639918610453605652e-02 -4.492002073675394058e-03 1.569877378642559052e-02 -7.972571067512035370e-03 1.322290860116481781e-02 3.303855482954531908e-04 1.524071395397186279e-02 2.166710561141371727e-03 -8.471301756799221039e-03 1.446823356673121452e-03 2.085702028125524521e-03 2.593504451215267181e-02 -1.982633955776691437e-03 -2.126769535243511200e-02 1.116119977086782455e-02 -4.459772724658250809e-03 -7.896142080426216125e-03 -2.031394280493259430e-03 5.289146676659584045e-03 -9.909355081617832184e-03 -8.268358185887336731e-03 -6.394241005182266235e-03 6.724158767610788345e-03 1.211343798786401749e-02 9.390126913785934448e-03 -1.190187688916921616e-02 4.194545559585094452e-03 1.197649631649255753e-02 -3.707275725901126862e-03 1.161444839090108871e-02 -1.746926922351121902e-03 -2.066885493695735931e-02 -1.224632468074560165e-02 8.827332407236099243e-03 -5.116201471537351608e-03 -1.508348900824785233e-02 -7.174929603934288025e-03 -1.323345699347555637e-03 7.843305356800556183e-03 -1.848948560655117035e-02 -1.087977783754467964e-03 -1.007198262959718704e-02 4.222867544740438461e-03 1.635273918509483337e-03 -2.165064914152026176e-03 5.848084110766649246e-03 6.637868471443653107e-03 -1.030081138014793396e-02 -1.405420433729887009e-02 -8.912397548556327820e-03 4.248064476996660233e-03 -1.715625636279582977e-02 1.663461327552795410e-02 -1.750116422772407532e-02 2.555425278842449188e-03 -1.425677724182605743e-02 1.531834993511438370e-02 -4.122544080018997192e-03 8.032645098865032196e-03 -5.029806867241859436e-03 3.079282352700829506e-03 -1.293026190251111984e-02 -6.275305640883743763e-04 -1.253986614756286144e-03 -3.429855685681104660e-03 3.823643317446112633e-03 -2.132846042513847351e-02 -1.039557158946990967e-02 -1.044279523193836212e-02 -1.228250749409198761e-02 -2.657547593116760254e-03 -1.126145012676715851e-02 1.263838168233633041e-02 -1.278499420732259750e-02 5.160099361091852188e-03 -6.065548863261938095e-03 -2.060100063681602478e-02 6.230843253433704376e-03 4.412400448927655816e-05 -2.232549479231238365e-03 -1.796637312509119511e-03 -6.582378875464200974e-03 -1.658555469475686550e-03 5.479029379785060883e-03 -1.305037457495927811e-02 1.420479500666260719e-03 -2.383959013968706131e-03 -9.187730960547924042e-03 4.124741069972515106e-03 -2.690942492336034775e-03 5.396860651671886444e-03 -5.319408141076564789e-03 2.054014243185520172e-03 3.034910769201815128e-04 1.168206613510847092e-02 5.399083252996206284e-03 -4.525584634393453598e-03 8.589033968746662140e-03 -1.026464015012606978e-04 1.060666237026453018e-02 -4.098351579159498215e-03 -4.621698521077632904e-03 3.049390623345971107e-03 -5.043829791247844696e-03 -8.709323592483997345e-03 -1.768759335391223431e-03 -1.085160858929157257e-02 8.595433086156845093e-03 -1.786614023149013519e-02 7.438631262630224228e-03 -6.493385415524244308e-03 -4.600368905812501907e-03 -1.112508703954517841e-03 -1.824068604037165642e-04 -2.639049896970391273e-03 -2.918259706348180771e-03 5.246405955404043198e-03 8.241263218224048615e-03 2.724911319091916084e-03 4.151302855461835861e-03 7.357358699664473534e-04 -1.427715085446834564e-02 2.377810887992382050e-03 -1.899732858873903751e-03 -2.842280082404613495e-03 1.763792242854833603e-04 2.127293962985277176e-03 5.765060894191265106e-03 5.455242469906806946e-03 -3.638311682152561843e-05 -1.576649211347103119e-02 -1.112128794193267822e-02 -3.647767705842852592e-03 -1.650550030171871185e-02 -1.513178180903196335e-02 -1.272252481430768967e-02 2.021841937676072121e-03 3.699194407090544701e-03 -6.427389569580554962e-03 9.385951794683933258e-03 7.200913387350738049e-04 -1.901414943858981133e-03 3.423120826482772827e-03 9.537855163216590881e-03 5.574233364313840866e-03 1.063665095716714859e-02 1.333533972501754761e-02
-1.108254585415124893e-02 1.438881270587444305e-03 8.744562044739723206e-03 2.126721432432532310e-03 8.506936137564480305e-04 -3.094586310908198357e-03 1.549816806800663471e-03 6.281939335167407990e-03 -1.182681787759065628e-02 4.946242552250623703e-03 -6.909295450896024704e-03 -2.574398368597030640e-02 -1.085407007485628128e-02 -1.841148920357227325e-02 -6.831896957010030746e-03 -1.773071102797985077e-02 -2.512122504413127899e-03 1.418437529355287552e-02 1.292675826698541641e-02 2.869564807042479515e-03 -1.679538004100322723e-02 -1.129070017486810684e-02 -6.472200038842856884e-04 -5.546711850911378860e-03 -9.645252488553524017e-03 4.107190761715173721e-03 9.506070986390113831e-03 3.865529084578156471e-03 -8.076045662164688110e-03 -2.431730506941676140e-03 -1.380726229399442673e-03 9.780775755643844604e-03 -8.654914796352386475e-03 1.144346315413713455e-02 8.555111475288867950e-03 7.303401362150907516e-03 2.689163666218519211e-03 -1.067696837708353996e-03 -5.824509426020085812e-04 4.223122086841613054e-04 1.342101674526929855e-02 -6.077197846025228500e-03 -1.258914917707443237e-02 9.088038466870784760e-03 1.256202929653227329e-03 -3.767923684790730476e-03 1.049746759235858917e-02 6.823924835771322250e-03 6.424600258469581604e-03 -2.516561420634388924e-03 -3.049509832635521889e-03 6.581496447324752808e-03 -1.112792082130908966e-02 -2.579741878435015678e-03 -1.237065345048904419e-02 7.043810561299324036e-03 2.115034498274326324e-03 -3.758808365091681480e-03 -6.889822427183389664e-03 1.652215793728828430e-02 -1.265005907043814659e-03 2.390502486377954483e-03 2.083632163703441620e-03 9.286871179938316345e-03 5.392537917941808701e-03 7.279082667082548141e-03 1.954101026058197021e-03 -9.869155474007129669e-03 -9.223048575222492218e-03 1.085319463163614273e-02 3.143018344417214394e-03 2.789551392197608948e-03 -8.738855831325054169e-03 -2.939077559858560562e-03 1.069289399310946465e-03 2.151335775852203369e-02 4.326949827373027802e-03 4.607802256941795349e-03 -1.308915205299854279e-02 -4.989089444279670715e-03 -1.943521574139595032e-02 2.621337538585066795e-03 1.655570045113563538e-02 -1.395538798533380032e-03 -6.131399422883987427e-04 -1.941040530800819397e-02 -6.398490630090236664e-03 1.075997389853000641e-02 7.387849036604166031e-04 -1.121511124074459076e-02 6.736553274095058441e-03 -5.912076216191053391e-03 -4.651295952498912811e-03 -9.932229295372962952e-04 1.069892779923975468e-03 8.026566356420516968e-03 1.015957444906234741e-02 -1.587332226336002350e-03 -1.650149235501885414e-03 4.196275025606155396e-03 8.135700598359107971e-03 -1.442003995180130005e-02 5.546828266233205795e-03 7.406761404126882553e-03 -9.759486420080065727e-04 3.461953019723296165e-03 1.309780054725706577e-04 4.753830842673778534e-03 1.990271173417568207e-02 -1.090322807431221008e-02 3.270316403359174728e-03 4.236713051795959473e-03 -1.582886837422847748e-02 2.373348921537399292e-03 9.579353034496307373e-03 -1.540518458932638168e-02 2.063876390457153320e-02 4.915898665785789490e-03 -1.956087508006021380e-04 8.220698684453964233e-03 -1.633547595702111721e-03 3.227968933060765266e-03 -4.980315919965505600e-03 1.030951738357543945e-03 -3.461861750110983849e-03 -1.296220725635066628e-04 -3.204123582690954208e-03 -3.325447440147399902e-03 3.326759906485676765e-03 -6.778064649552106857e-03 1.272990251891314983e-03 8.357414975762367249e-03 -1.085794810205698013e-02 3.611005377024412155e-03 2.997079864144325256e-04 -6.574548780918121338e-03 -1.706643402576446533e-02 -1.936214044690132141e-03 1.028427109122276306e-02 -1.120605040341615677e-02 -7.693802006542682648e-03 -3.169352421537041664e-03 2.167910896241664886e-02 -1.353346370160579681e-02 -2.064053155481815338e-02 1.331236120313405991e-02 -7.937790825963020325e-03 -9.232752956449985504e-03 -1.405513961799442768e-03 1.002560649067163467e-02 -7.118104986147955060e-05 -1.722919568419456482e-02 -1.110006496310234070e-02 1.785065792500972748e-02 -7.730918936431407928e-03 -9.092790074646472931e-03 5.591284949332475662e-03 -1.309305429458618164e-03 -3.725580172613263130e-03 2.328104805201292038e-03 -5.427468568086624146e-04 4.190256819128990173e-03 -8.937893435359001160e-03 6.267281714826822281e-03 -1.379638724029064178e-02 -9.024215862154960632e-03 1.065934635698795319e-02 -1.410491066053509712e-03 7.983845658600330353e-03 6.020085420459508896e-03 -1.141075789928436279e-02 -1.136509794741868973e-02 -1.568285748362541199e-02 -9.934635832905769348e-03 3.989359363913536072e-03 -3.056814428418874741e-03 -1.962775131687521935e-03 -4.029617644846439362e-03 1.055546384304761887e-02 1.577981375157833099e-02 -3.769493196159601212e-04 -1.045511104166507721e-03 -2.164787874789908528e-04 -9.339501848444342613e-04 1.236740499734878540e-02 -8.016023784875869751e-03 -1.513556111603975296e-02 1.613793894648551941e-03 -1.603065617382526398e-02 9.799392893910408020e-03 -7.187397219240665436e-03 -9.392568841576576233e-03 3.314661793410778046e-03 1.556154224090278149e-03 1.293753460049629211e-02 1.049808226525783539e-03 -3.859116695821285248e-03 3.320025280117988586e-03 3.850318724289536476e-03 1.546320971101522446e-02 -4.584002890624105930e-04 1.474493532441556454e-03 5.045432597398757935e-03 2.881486434489488602e-03 -1.263860054314136505e-02 8.609771728515625000e-03 5.011147819459438324e-03 1.586204860359430313e-03 4.719024524092674255e-03 3.385413729120045900e-04 6.051064701750874519e-04 5.844919010996818542e-03 1.971207186579704285e-02 1.464779302477836609e-02 -7.795155514031648636e-03 -6.972361356019973755e-03 -1.886327750980854034e-02 1.027911528944969177e-02 3.490278497338294983e-03 9.272928000427782536e-04 -4.580050241202116013e-03 6.567413220182061195e-04 -1.898446492850780487e-02 3.801345359534025192e-03 7.122760638594627380e-03 -4.730956163257360458e-03 -1.837527495808899403e-03 5.587141029536724091e-03 -1.204325165599584579e-02 6.744046229869127274e-03 5.711041158065199852e-04 1.320158690214157104e-02 4.477805458009243011e-03 2.147350646555423737e-02 -3.302951809018850327e-04 5.574080627411603928e-03 3.255608724430203438e-03 -8.843339979648590088e-03 4.685957450419664383e-03 -2.105304785072803497e-02 9.889329783618450165e-03 -2.557946834713220596e-03 -5.822754930704832077e-03 5.315373073244700208e-06 -9.219856932759284973e-03 -1.520576234906911850e-02 5.354240536689758301e-03 -2.247876400360837579e-04 -1.478359568864107132e-02 -3.188712871633470058e-04 -4.038664977997541428e-03 -2.502463757991790771e-03 1.534324255771934986e-03 4.562083049677312374e-04 4.310486838221549988e-03 -2.134340815246105194e-03
-2.989017171785235405e-03 -7.512764073908329010e-03 -1.015376881696283817e-03 -3.114447696134448051e-03 1.302715204656124115e-02 1.222394220530986786e-02 9.655219502747058868e-03 -8.597076870501041412e-03 -1.576019637286663055e-02 2.811945974826812744e-03 -3.989894874393939972e-03 -2.156093344092369080e-02 -7.148972246795892715e-03 -7.377916947007179260e-03 6.307256873697042465e-03 6.479067727923393250e-03 -7.728944066911935806e-03 5.027770996093750000e-03 2.064360119402408600e-02 1.496937405318021774e-02 3.720150096341967583e-03 1.287083420902490616e-02 -4.877557978034019470e-03 7.993312552571296692e-03 9.946995414793491364e-03 7.062718272209167480e-03 -7.207916118204593658e-03 6.670277100056409836e-03 -1.473610289394855499e-02 7.824962027370929718e-03 -1.488486304879188538e-03 -5.929778795689344406e-03 4.217890091240406036e-03 2.578354673460125923e-03 6.434719543904066086e-03 -9.128864854574203491e-03 9.526669047772884369e-03 -2.400847151875495911e-03 -1.020829286426305771e-02 -5.761758890002965927e-03 -2.757331356406211853e-03 1.943209790624678135e-04 -1.025959011167287827e-02 1.465318910777568817e-02 3.000298980623483658e-03 -3.846334060654044151e-03 -6.442558951675891876e-03 -8.677150122821331024e-03 8.920476771891117096e-03 -1.735192607156932354e-03 4.703802987933158875e-03 -1.469570957124233246e-02 -1.083336398005485535e-02 -1.773504167795181274e-02 -1.516612339764833450e-02 9.652845561504364014e-03 1.216525584459304810e-02 -2.058781310915946960e-02 -1.065351534634828568e-02 -3.723312169313430786e-03 -4.907879512757062912e-03 9.541479870676994324e-03 -1.352045685052871704e-03 1.093922648578882217e-02 -2.837586216628551483e-03 -8.212425746023654938e-03 7.247058209031820297e-03 9.431812912225723267e-03 3.872686531394720078e-03 -5.082127172499895096e-03 -2.362301573157310486e-02 3.412626450881361961e-03 2.715425798669457436e-03 -1.834443025290966034e-02 3.214885015040636063e-03 3.960177302360534668e-03 1.069971267133951187e-02 4.843346774578094482e-03 -1.086277980357408524e-02 4.565883427858352661e-04 -1.072606304660439491e-03 2.337555773556232452e-02 2.591820899397134781e-03 -2.423556143185123801e-04 -2.047389559447765350e-02 -1.073940005153417587e-02 -1.296391244977712631e-02 9.592144750058650970e-03 7.797462865710258484e-03 -4.893442615866661072e-03 6.930286530405282974e-03 4.606493748724460602e-03 -2.771418541669845581e-03 4.372778348624706268e-03 -3.975315485149621964e-03 1.328700687736272812e-02 2.627429319545626640e-03 4.780045710504055023e-04 1.097940467298030853e-02 -7.428258657455444336e-03 -3.011093707755208015e-03 -7.414201274514198303e-03 -1.611668430268764496e-02 7.339721545577049255e-03 -6.862475402158452198e-06 -1.478499919176101685e-02 -5.039380397647619247e-03 1.087989285588264465e-02 8.265307173132896423e-03 -2.508450299501419067e-02 -6.145199295133352280e-03 3.373140352778136730e-04 3.012134693562984467e-03 1.400051824748516083e-02 1.052729692310094833e-02 -6.140829063951969147e-03 4.952417686581611633e-03 -4.426876548677682877e-04 -1.181059982627630234e-02 4.636470228433609009e-03 -1.231675408780574799e-02 -5.145353265106678009e-03 4.421998281031847000e-03 3.476880257949233055e-03 -1.229778397828340530e-02 1.064611971378326416e-02 6.478842347860336304e-03 -5.073020700365304947e-03 4.504110198467969894e-03 -9.683524258434772491e-04 8.204641751945018768e-03 -2.286410192027688026e-03 -6.071741227060556412e-03 -1.771374791860580444e-02 4.755962872877717018e-04 -8.235153742134571075e-03 4.728652536869049072e-03 -1.078792382031679153e-02 -1.974313147366046906e-02 -1.593038323335349560e-03 -9.046242572367191315e-03 -4.000361077487468719e-03 1.163956057280302048e-02 -8.375087752938270569e-03 -8.240388706326484680e-03 -3.755094017833471298e-03 1.186431199312210083e-02 6.807311438024044037e-03 -3.767805173993110657e-04 -7.570305024273693562e-04 -1.371218543499708176e-02 -4.087442066520452499e-03 2.332240808755159378e-03 7.485684473067522049e-03 8.278133347630500793e-03 -3.377412795089185238e-04 2.758904593065381050e-03 -5.197302903980016708e-03 1.724363490939140320e-02 1.607161387801170349e-02 -1.915731350891292095e-03 -3.518884303048253059e-03 2.058081328868865967e-03 -7.207431830465793610e-03 -6.741883233189582825e-03 -1.072213985025882721e-02 9.043170139193534851e-03 -1.428589876741170883e-02 6.096220575273036957e-03 -1.324984524399042130e-02 -1.325597707182168961e-02 -1.454045809805393219e-02 -1.019622012972831726e-02 -2.436347771435976028e-03 -9.145907126367092133e-03 5.806471221148967743e-03 -9.370050393044948578e-03 -7.054522633552551270e-03 -6.773063912987709045e-03 -3.631015773862600327e-03 1.731184544041752815e-03 -7.611289620399475098e-03 -8.049410767853260040e-03 7.620253134518861771e-03 -9.019728749990463257e-03 -7.126033771783113480e-03 -6.146324798464775085e-03 -1.116029825061559677e-02 4.860382061451673508e-03 -4.490371327847242355e-03 -1.679339818656444550e-02 -1.382921170443296432e-02 -3.544211853295564651e-03 1.617896836251020432e-03 5.403981078416109085e-03 6.313882768154144287e-03 9.536131285130977631e-03 -1.063488610088825226e-02 -1.827752799727022648e-03 1.024609431624412537e-02 -8.875497733242809772e-04 1.454832311719655991e-02 -1.418643078068271279e-04 1.701169065199792385e-03 -1.779496856033802032e-02 -1.616013795137405396e-02 8.626883849501609802e-03 -8.837499655783176422e-03 -2.986454870551824570e-03 1.429544761776924133e-02 5.176879931241273880e-03 -5.877954885363578796e-03 -1.357198506593704224e-02 1.030877884477376938e-02 -2.224275283515453339e-02 9.259917773306369781e-03 -2.009416930377483368e-03 -2.503965049982070923e-03 2.511236583814024925e-03 7.012596819549798965e-03 -7.581980433315038681e-03 -4.496005363762378693e-03 -8.225886151194572449e-03 -4.396334756165742874e-03 -1.341843139380216599e-02 -2.589996159076690674e-02 -4.034203011542558670e-03 -2.857213839888572693e-03 -2.297951374202966690e-03 3.006745362654328346e-03 -5.206946283578872681e-03 1.604777411557734013e-03 8.041031658649444580e-03 1.865852740593254566e-03 7.614704314619302750e-03 2.592081436887383461e-03 2.046530134975910187e-03 -1.250991225242614746e-02 -8.824796415865421295e-03 -5.278447177261114120e-03 8.279914036393165588e-03 1.617820374667644501e-02 8.461061865091323853e-03 7.046181708574295044e-03 -1.255051884800195694e-02 -2.046190202236175537e-02 8.729517459869384766e-03 -1.127529051154851913e-02 3.285874612629413605e-03 6.519929505884647369e-03 -3.580533666536211967e-03 1.273344550281763077e-02 -3.356695640832185745e-03 1.296633388847112656e-02 1.346502080559730530e-02 9.158989414572715759e-03
-3.515491494908928871e-03 -4.235019907355308533e-03 -6.001306232064962387e-03 -3.379417350515723228e-03 2.843220159411430359e-02 9.171009063720703125e-03 1.616557314991950989e-02 1.309694536030292511e-02 -1.369336806237697601e-02 -1.759053580462932587e-02 7.224805303849279881e-04 -1.387853920459747314e-02 1.411234377883374691e-03 -3.205839020665735006e-04 -4.239419009536504745e-03 8.473515510559082031e-03 1.191490143537521362e-02 1.596191711723804474e-02 7.807532092556357384e-04 -8.382306550629436970e-04 -4.302199929952621460e-03 3.056469431612640619e-04 -4.715749993920326233e-03 -3.908223472535610199e-03 -1.213803887367248535e-02 -1.381772919557988644e-03 -5.803025560453534126e-04 1.643630675971508026e-02 -2.596423495560884476e-03 1.294773537665605545e-02 -2.495069988071918488e-03 -2.236324129626154900e-03 1.568960142321884632e-03 -2.784944605082273483e-03 8.272587321698665619e-03 2.167378785088658333e-03 -2.920554950833320618e-03 8.321371860802173615e-04 -1.327690016478300095e-02 1.684647984802722931e-02 -4.678987432271242142e-03 -2.344988845288753510e-02 4.374614916741847992e-03 1.194105669856071472e-02 -8.736944757401943207e-03 -4.608564078807830811e-03 7.764321286231279373e-03 -1.183984894305467606e-02 -1.530425995588302612e-02 2.640844555571675301e-03 1.629103906452655792e-02 -1.646941876970231533e-03 -2.062292210757732391e-02 2.244134433567523956e-02 -1.338640693575143814e-03 5.423313938081264496e-03 -3.871203167364001274e-03 -1.851227320730686188e-02 7.439655251801013947e-03 -4.524787887930870056e-03 -4.435861017554998398e-03 -6.440399214625358582e-03 -2.103787614032626152e-03 5.024007521569728851e-03 -1.058719120919704437e-02 -9.150530677288770676e-04 -1.336500607430934906e-02 -1.277508330531418324e-03 -6.457191891968250275e-03 -6.568850949406623840e-03 -3.314692527055740356e-03 5.711628589779138565e-03 -1.552562025608494878e-05 4.644657019525766373e-03 -3.571322886273264885e-03 1.641226583160459995e-03 1.809134893119335175e-02 -7.347123697400093079e-03 -1.002925727516412735e-02 -6.260111462324857712e-03 -1.436787936836481094e-02 -5.440641660243272781e-03 7.453702855855226517e-03 -6.703967810608446598e-04 4.223659168928861618e-03 -1.134479139000177383e-02 2.958378987386822701e-03 2.660262398421764374e-03 5.305677186697721481e-03 5.387966055423021317e-03 1.254316885024309158e-03 -8.703179657459259033e-03 9.106956422328948975e-03 -1.025939360260963440e-02 -8.787224069237709045e-03 -1.540759578347206116e-03 5.127531941980123520e-03 1.015295460820198059e-02 5.190692376345396042e-03 4.327119793742895126e-03 2.813467290252447128e-03 -2.017496339976787567e-02 2.721198834478855133e-03 2.830003621056675911e-03 6.570903584361076355e-03 -1.010691514238715172e-03 -1.052510552108287811e-02 -1.370285823941230774e-02 9.393623098731040955e-03 -2.639396116137504578e-03 -2.608512295410037041e-03 -9.256626479327678680e-03 -7.320879958570003510e-03 5.419542081654071808e-03 -4.811693448573350906e-03 -1.149376970715820789e-03 5.677724722772836685e-03 -5.550992791540920734e-04 -1.136293448507785797e-02 1.303023658692836761e-02 -6.486507598310709000e-03 1.361952163279056549e-02 9.870462818071246147e-04 -9.733603335916996002e-03 3.798414953052997589e-03 -8.781670592725276947e-03 1.523711346089839935e-02 -1.254383125342428684e-03 8.947984315454959869e-03 3.600739873945713043e-03 -1.293377764523029327e-02 -9.170960984192788601e-04 4.625692963600158691e-03 8.170871995389461517e-03 3.340194234624505043e-03 -1.638636458665132523e-03 -8.961969986557960510e-03 4.286794457584619522e-03 -3.755642974283546209e-04 1.282284315675497055e-02 7.993847131729125977e-03 8.076367899775505066e-03 5.738538224250078201e-03 2.219099551439285278e-03 1.269043516367673874e-02 8.509887382388114929e-03 -1.040877122431993484e-02 -8.001599460840225220e-03 -9.642140008509159088e-03 -5.064808763563632965e-03 7.805146276950836182e-03 1.337716821581125259e-02 -1.204038504511117935e-03 2.155403606593608856e-03 8.433447219431400299e-03 -5.856802454218268394e-05 5.665899720042943954e-03 -3.383206203579902649e-03 8.215946145355701447e-03 2.640686556696891785e-02 -1.174501981586217880e-02 -8.538916707038879395e-03 -3.027515485882759094e-03 -2.220327733084559441e-03 6.879443302750587463e-03 -1.336476113647222519e-02 1.086725504137575626e-03 2.306828834116458893e-02 1.841997960582375526e-03 1.046730764210224152e-02 -1.287867128849029541e-02 1.873855851590633392e-02 -8.369952440261840820e-03 1.019880361855030060e-02 -7.790550007484853268e-04 1.817108481191098690e-03 -1.974814198911190033e-02 2.819676417857408524e-03 6.529961712658405304e-03 3.823995124548673630e-03 -2.191251702606678009e-02 -8.531187660992145538e-03 2.624270692467689514e-02 8.544369600713253021e-03 -2.161873690783977509e-02 -1.548022311180830002e-02 -1.258783158846199512e-03 -7.167402654886245728e-03 1.385262794792652130e-02 -3.202397376298904419e-03 1.571997441351413727e-02 -6.718824151903390884e-03 7.281495258212089539e-03 -9.931092150509357452e-03 4.976745694875717163e-03 6.067970767617225647e-03 1.524623762816190720e-02 -3.207027213647961617e-03 1.182132679969072342e-02 4.480395000427961349e-03 -1.090056076645851135e-02 -1.968223601579666138e-02 2.647288842126727104e-03 1.187520381063222885e-02 -1.150145847350358963e-02 5.056412192061543465e-04 -2.209077822044491768e-03 -8.225739002227783203e-03 1.151184667833149433e-03 -8.055008947849273682e-03 1.606753654778003693e-02 8.259858936071395874e-03 -1.063453964889049530e-03 2.121624723076820374e-02 -2.492184005677700043e-02 -7.731866557151079178e-03 -3.779000137001276016e-03 6.255628541111946106e-03 1.211360795423388481e-03 -2.955796197056770325e-03 -1.383555773645639420e-02 -1.892843842506408691e-02 -9.892837842926383018e-04 -6.496642716228961945e-03 -1.266003772616386414e-02 -9.480706416070461273e-03 6.035645492374897003e-03 1.579900039359927177e-03 9.269687347114086151e-03 -2.101517282426357269e-03 -2.462840639054775238e-03 -1.400533039122819901e-02 6.641480606049299240e-03 -7.055266760289669037e-03 -3.286410123109817505e-03 1.438150834292173386e-02 3.504145424813032150e-03 1.099317334592342377e-02 1.352913491427898407e-02 -9.146598749794065952e-04 -1.236308272927999496e-02 1.302433665841817856e-03 -1.066797040402889252e-02 1.025941967964172363e-02 -1.172511652112007141e-02 -3.177651436999440193e-03 -8.077976293861865997e-03 8.361189626157283783e-03 7.212175056338310242e-03 1.407493185251951218e-02 -3.351372433826327324e-04 -3.176984377205371857e-03 2.741399686783552170e-03 -2.490963321179151535e-03 5.552188958972692490e-03 1.303395349532365799e-02
9.542826563119888306e-03 4.170066211372613907e-03 7.405048236250877380e-03 -6.943790504010394216e-05 -5.678662564605474472e-04 -4.464625846594572067e-03 -5.666490178555250168e-03 4.037800710648298264e-03 -8.014469407498836517e-03 9.420489892363548279e-03 -6.265286356210708618e-03 -1.902647665701806545e-03 -7.921579526737332344e-04 -9.877382777631282806e-03 -6.002163048833608627e-03 1.304600667208433151e-02 -4.360960330814123154e-03 1.253750815521925688e-04 -7.428869605064392090e-03 -3.519351594150066376e-04 -2.067873021587729454e-03 -1.185925398021936417e-02 1.267720828764140606e-03 1.383249182254076004e-04 7.353347609750926495e-05 1.096658222377300262e-02 -6.033641751855611801e-03 1.829534396529197693e-02 -1.599425822496414185e-02 -3.114945022389292717e-03 1.058848574757575989e-02 -7.952853105962276459e-03 -5.843200255185365677e-03 -2.170032821595668793e-02 1.452242024242877960e-02 1.861389167606830597e-02 1.412804704159498215e-03 1.404596725478768349e-03 5.371128208935260773e-03 5.419064778834581375e-03 -2.806152449920773506e-03 -4.139661788940429688e-03 4.505544435232877731e-03 -1.479967124760150909e-02 6.087714806199073792e-03 6.059989333152770996e-03 6.550065707415342331e-03 -4.455675836652517319e-03 9.290127083659172058e-03 2.997860545292496681e-03 4.728562198579311371e-03 -2.337270416319370270e-03 -2.700314624235033989e-03 7.714309729635715485e-03 -4.846300464123487473e-03 -6.453302688896656036e-03 -1.730853319168090820e-02 -8.978307247161865234e-03 -8.950928226113319397e-03 -5.673603154718875885e-03 1.387326978147029877e-02 9.794649668037891388e-04 9.150837548077106476e-03 -7.151552010327577591e-03 1.989325135946273804e-02 1.344655407592654228e-03 2.358177909627556801e-03 -1.417417079210281372e-02 -2.264615148305892944e-03 1.517690543550997972e-04 2.652352210134267807e-03 2.334289456484839320e-04 1.049114484339952469e-02 2.090478810714557767e-04 -2.140383049845695496e-02 -8.425809442996978760e-03 -1.164969173260033131e-03 -6.788362283259630203e-03 -3.234697971493005753e-03 7.353304419666528702e-03 3.566917032003402710e-03 -1.206627395004034042e-02 -4.474614281207323074e-03 2.690900582820177078e-03 -7.253573741763830185e-03 8.484394289553165436e-03 -1.764166727662086487e-02 -4.925900138914585114e-03 -2.405891427770256996e-03 1.321063609793782234e-03 6.304104346781969070e-03 -2.479712013155221939e-03 3.479419276118278503e-03 5.404917174018919468e-04 1.300804875791072845e-02 -1.665792660787701607e-03 2.300725784152746201e-03 -1.579383504576981068e-03 -4.671133123338222504e-03 1.584163110237568617e-04 -7.266674656420946121e-04 -2.283223439007997513e-03 -1.061461307108402252e-02 1.217603869736194611e-02 2.824402879923582077e-03 -1.459149993024766445e-03 -1.876278221607208252e-02 -1.387122785672545433e-03 3.505193395540118217e-03 9.931678650900721550e-04 -8.070446550846099854e-03 -1.304267998784780502e-02 1.480520586483180523e-03 -5.246052518486976624e-03 3.830190282315015793e-03 -9.695356711745262146e-03 -5.541632417589426041e-03 3.604799276217818260e-03 -1.003118045628070831e-02 -1.241888757795095444e-02 4.946005530655384064e-03 1.891947933472692966e-03 -2.269875258207321167e-02 -1.197546347975730896e-02 8.485644124448299408e-03 -9.803527034819126129e-03 -1.318658608943223953e-02 -6.425080355256795883e-04 -1.535134296864271164e-02 -9.434557519853115082e-03 3.655194537714123726e-03 1.414604671299457550e-02 -5.872406763955950737e-04 1.288768369704484940e-02 3.259554505348205566e-03 3.994993399828672409e-03 1.372347399592399597e-02 -2.272400446236133575e-02 -8.212327025830745697e-03 -1.221522595733404160e-02 -1.401962130330502987e-03 1.560473628342151642e-02 -7.461213972419500351e-03 1.516743749380111694e-02 2.731020562350749969e-03 -9.975126013159751892e-03 8.710401598364114761e-04 -1.320191659033298492e-02 -9.583481587469577789e-03 6.502925418317317963e-03 -2.278230153024196625e-03 2.076454227790236473e-03 -6.833828054368495941e-03 -2.374448254704475403e-02 9.317104122601449490e-04 4.720777738839387894e-03 -9.147066157311201096e-04 7.976191118359565735e-03 -2.129897009581327438e-03 -5.228791851550340652e-03 9.174039587378501892e-05 -2.722129225730895996e-03 1.372690778225660324e-03 -2.592400880530476570e-03 1.965850824490189552e-03 -1.737764477729797363e-02 -5.038670264184474945e-03 2.666947199031710625e-03 3.936538938432931900e-03 -1.660389127209782600e-03 -4.223712719976902008e-03 -7.108906749635934830e-03 8.231002837419509888e-03 -3.954588435590267181e-03 2.833026926964521408e-03 -1.940304646268486977e-03 8.117778226733207703e-03 -6.055757403373718262e-03 -9.189869277179241180e-03 3.667237004265189171e-03 -9.921330958604812622e-03 -9.971894323825836182e-04 9.581685066223144531e-03 3.965586423873901367e-03 4.368776455521583557e-03 6.985543295741081238e-03 5.626104306429624557e-03 8.634039200842380524e-03 -2.716729650273919106e-03 -1.100206468254327774e-02 -2.310918411239981651e-03 5.454502999782562256e-03 -8.464852347970008850e-03 3.722192486748099327e-03 1.283253543078899384e-02 1.394065562635660172e-02 6.180971395224332809e-03 1.640509814023971558e-02 -8.541987044736742973e-04 -2.535654464736580849e-03 8.297417312860488892e-03 -4.991467110812664032e-03 8.932978380471467972e-04 2.062031067907810211e-02 -1.397094503045082092e-02 2.179514616727828979e-02 -6.918834522366523743e-03 2.237386815249919891e-02 7.754622492939233780e-03 -2.973007503896951675e-03 3.715484868735074997e-03 -1.469686627388000488e-02 -5.521719576790928841e-04 -4.379392135888338089e-03 -1.106128282845020294e-02 -1.019721478223800659e-02 6.831010337918996811e-03 -7.085358723998069763e-03 -6.715815048664808273e-03 -2.444075886160135269e-03 -1.687115430831909180e-02 8.281206712126731873e-03 3.912910324288532138e-05 -2.421255595982074738e-02 9.058805182576179504e-03 1.486832858063280582e-03 1.388793438673019409e-02 -1.954068616032600403e-02 4.745608661323785782e-03 1.607417874038219452e-02 1.081119105219841003e-02 -2.233092905953526497e-03 1.593345589935779572e-02 -2.155834808945655823e-03 8.729763329029083252e-03 1.487753703258931637e-03 1.682101562619209290e-02 1.017245836555957794e-02 -9.640376083552837372e-04 -9.135886095464229584e-03 -1.325405016541481018e-02 -4.799106158316135406e-03 -1.317701302468776703e-03 1.245787832885980606e-02 -8.104505017399787903e-03 -6.029170006513595581e-03 1.675068633630871773e-03 -1.064708177000284195e-02 4.257243126630783081e-03 -3.520055033732205629e-04 -1.853965339250862598e-03 4.890248645097017288e-03 -9.225213900208473206e-03 -2.500378526747226715e-03 -1.929446239955723286e-03 -7.364394608885049820e-03
-8.371336385607719421e-03 3.245488926768302917e-02 6.263979710638523102e-03 4.039760679006576538e-03 -6.767970509827136993e-03 -4.245474468916654587e-03 6.807215511798858643e-03 -6.482300232164561749e-04 -5.076855304650962353e-04 1.997159048914909363e-02 1.768849231302738190e-02 -5.950374063104391098e-03 1.986228395253419876e-03 -6.207670550793409348e-03 8.777723996900022030e-04 -3.754273056983947754e-04 1.058344132616184652e-04 5.065727978944778442e-03 7.010106462985277176e-03 7.549978792667388916e-03 2.519297972321510315e-02 4.087002482265233994e-03 -2.953648800030350685e-03 -8.395443670451641083e-03 1.374183874577283859e-02 1.886492478661239147e-03 8.030042983591556549e-03 -1.373105403035879135e-02 5.541556980460882187e-03 -9.416599757969379425e-03 -1.531648728996515274e-02 6.598441395908594131e-03 1.571628637611865997e-02 -3.212834242731332779e-03 3.164814319461584091e-03 -6.642611697316169739e-03 -1.084187813103199005e-02 1.325987651944160461e-02 -4.538637585937976837e-03 -4.522378556430339813e-03 -1.190210971981287003e-02 2.306485362350940704e-02 -8.315511047840118408e-03 -3.022522665560245514e-03 1.572696678340435028e-02 2.562913857400417328e-02 4.293096717447042465e-04 2.029775828123092651e-02 6.241222377866506577e-03 1.169566530734300613e-03 -4.558659158647060394e-03 1.270586811006069183e-02 -3.547373693436384201e-03 5.094030406326055527e-03 -2.369010820984840393e-03 -1.833161711692810059e-02 -1.198496669530868530e-02 1.140333432704210281e-02 9.967446327209472656e-03 9.443617425858974457e-03 2.228821814060211182e-02 7.478710729628801346e-03 1.021244935691356659e-02 2.191279269754886627e-02 -1.597848907113075256e-02 -1.715937256813049316e-02 -1.266833442059578374e-05 8.189606480300426483e-03 -4.553693812340497971e-03 1.242296770215034485e-02 -5.357697140425443649e-03 1.549426559358835220e-02 8.047386072576045990e-03 5.763782653957605362e-03 -6.269117817282676697e-03 -5.070001352578401566e-03 7.212083786725997925e-03 -1.922596059739589691e-02 1.826777681708335876e-02 -5.297957686707377434e-04 2.296591643244028091e-03 1.039899419993162155e-02 -8.407785557210445404e-03 2.189615927636623383e-02 9.992538020014762878e-03 1.613021455705165863e-02 -7.439914625138044357e-03 -1.679369993507862091e-02 2.167963655665516853e-03 -8.157627657055854797e-03 2.002156339585781097e-02 4.152361769229173660e-03 3.596627386286854744e-03 -9.065658785402774811e-03 2.140881307423114777e-02 2.780479844659566879e-03 -2.344291191548109055e-03 -2.452984638512134552e-02 -2.666250802576541901e-03 -5.327228922396898270e-03 -6.849880330264568329e-03 6.126913707703351974e-03 -5.210885778069496155e-03 1.434934884309768677e-02 -5.350661231204867363e-04 -3.938963636755943298e-03 1.678466214798390865e-04 2.781436080113053322e-03 2.891949750483036041e-02 -1.910520833916962147e-03 4.647218738682568073e-04 9.663997218012809753e-03 -1.471973373554646969e-03 -1.789105706848204136e-03 7.110995240509510040e-03 -7.219446357339620590e-03 -1.084750238806009293e-02 -9.298671968281269073e-03 7.656206842511892319e-03 1.071406062692403793e-02 -4.297940060496330261e-03 1.699423044919967651e-02 -2.928726142272353172e-03 2.693935530260205269e-03 8.009436540305614471e-03 1.230883179232478142e-03 9.854198433458805084e-04 1.213490124791860580e-02 -2.724200952798128128e-03 -1.224522013217210770e-02 -3.308199578896164894e-03 1.473992131650447845e-02 1.778909936547279358e-02 3.339038230478763580e-03 -9.742206893861293793e-03 -2.551975892856717110e-03 -6.291095633059740067e-03 4.319452680647373199e-03 -8.189483545720577240e-03 -1.781003549695014954e-03 8.084467612206935883e-03 1.311576273292303085e-02 -8.920425549149513245e-03 -6.960642058402299881e-03 -2.390248328447341919e-02 3.678893437609076500e-03 2.917781937867403030e-03 1.174991994048468769e-04 -4.684477113187313080e-03 -8.137670345604419708e-03 -1.038010418415069580e-02 1.781531050801277161e-02 6.377922371029853821e-03 1.666113035753369331e-03 8.660125546157360077e-03 1.230696332640945911e-03 -1.426434982568025589e-02 -1.163078704848885536e-03 5.996150895953178406e-03 -6.962359882891178131e-03 -1.434213574975728989e-02 5.638810805976390839e-03 4.417176824063062668e-03 2.062520477920770645e-03 8.032818324863910675e-03 3.151071723550558090e-03 1.094316947273910046e-03 -3.143823239952325821e-03 2.659415453672409058e-02 9.175280109047889709e-03 -6.067077163606882095e-03 -6.040496751666069031e-03 1.209525763988494873e-02 -1.051730848848819733e-02 8.922965265810489655e-03 -9.484741836786270142e-03 -1.064610015600919724e-02 -5.419079214334487915e-03 -6.505876779556274414e-03 -1.616577804088592529e-02 -1.414558198302984238e-02 -2.700209245085716248e-02 1.001990213990211487e-02 1.119996421039104462e-02 -5.719166438211686909e-05 -1.642809715121984482e-03 -1.386054046452045441e-02 -2.277463441714644432e-03 1.314959139563143253e-03 -1.004400849342346191e-02 3.198334947228431702e-03 3.394167404621839523e-03 5.655151326209306717e-03 -1.274541299790143967e-02 1.217905152589082718e-02 6.523642223328351974e-04 4.782503470778465271e-03 1.827818457968533039e-03 -1.251140236854553223e-02 -9.230462834239006042e-03 -1.467383839190006256e-02 -6.328925490379333496e-03 1.762604154646396637e-02 -6.999929435551166534e-03 -1.318548806011676788e-02 -8.680554106831550598e-03 -1.000669202767312527e-03 3.150826692581176758e-02 1.034786552190780640e-02 5.288920830935239792e-03 1.740050688385963440e-02 -3.358114976435899734e-03 1.288028620183467865e-02 -1.105540618300437927e-02 -4.795460496097803116e-03 1.051173638552427292e-02 -2.068783855065703392e-03 -7.164885755628347397e-03 -3.364815143868327141e-03 -7.010124158114194870e-03 -1.555948401801288128e-03 3.087030723690986633e-03 2.108877757564187050e-03 1.018615625798702240e-02 4.662838182412087917e-05 3.947401884943246841e-03 8.624228066764771938e-04 1.336294319480657578e-02 1.438664365559816360e-02 -5.506339948624372482e-03 3.708550473675131798e-03 -1.202823314815759659e-02 1.272234879434108734e-02 1.030539069324731827e-02 -1.566817983984947205e-02 2.065039938315749168e-03 2.607263438403606415e-02 6.130907218903303146e-03 -4.412244015838950872e-04 -1.366515457630157471e-02 -8.228432387113571167e-03 8.508905768394470215e-03 -2.051303721964359283e-02 3.078264184296131134e-03 1.006924547255039215e-02 -4.476073198020458221e-03 8.039936423301696777e-03 -1.726038567721843719e-02 -2.017265371978282928e-02 1.044315379112958908e-02 5.042144563049077988e-03 -1.502266735769808292e-03 2.516671782359480858e-03 3.787102177739143372e-03 4.186169244349002838e-03 -2.011158037930727005e-03
