5.395059660077095032e-02 4.560704156756401062e-02 -7.381512224674224854e-02 6.667998433113098145e-02 -5.498464033007621765e-02 -7.648714631795883179e-02 5.946181714534759521e-02 1.023941487073898315e-01 6.448756158351898193e-02 -4.722815006971359253e-02 1.916151493787765503e-02 1.590508520603179932e-01 -2.296981215476989746e-01 -5.105937272310256958e-02 1.210175231099128723e-01 6.476321816444396973e-02 9.488439187407493591e-03 -1.118884906172752380e-01 -7.694770395755767822e-02 -7.215867936611175537e-02 6.882815062999725342e-02 -7.036711554974317551e-03 5.037788674235343933e-02 6.256134808063507080e-02 7.686920464038848877e-02 1.620987430214881897e-02 1.807890459895133972e-02 9.768186509609222412e-02 5.665856599807739258e-02 3.343351557850837708e-02 4.019149020314216614e-02 1.972989412024617195e-03 5.150597542524337769e-02 -3.345892205834388733e-02 -9.912517666816711426e-02 -5.273894965648651123e-02 3.945047035813331604e-02 4.720258712768554688e-02 -5.158229917287826538e-02 8.640790730714797974e-02 5.577012896537780762e-02 -5.680635571479797363e-02 -1.672346740961074829e-01 7.648708671331405640e-02 3.173216804862022400e-02 2.542487159371376038e-02 -8.467216975986957550e-03 -5.641334503889083862e-02 1.580190360546112061e-01 6.681904196739196777e-02 1.649308800697326660e-01 6.382245570421218872e-02 1.627783626317977905e-01 3.688178956508636475e-02 -1.175775229930877686e-01 -8.234337903559207916e-03 -5.491195991635322571e-02 -2.038313448429107666e-02 1.495122164487838745e-02 9.104180335998535156e-02 3.912282362580299377e-02 9.628176689147949219e-02 -1.180241107940673828e-01 -5.897460505366325378e-02 8.276433683931827545e-03 -6.693266332149505615e-02 -1.059762015938758850e-01 1.017452552914619446e-01 -5.389374680817127228e-03 -8.456236869096755981e-02 1.353665813803672791e-02 -5.755224078893661499e-02 2.223769947886466980e-02 1.246414408087730408e-01 4.895985126495361328e-03 -1.265143603086471558e-02 -3.643346205353736877e-02 1.874865149147808552e-03 -4.634699597954750061e-02 2.687812037765979767e-02 -2.079966105520725250e-02 -1.146021187305450439e-01 -1.895125210285186768e-02 8.597487211227416992e-02 -8.123313635587692261e-02 -3.486927971243858337e-02 5.158518999814987183e-02 3.930411860346794128e-02 3.712028264999389648e-02 1.439282670617103577e-02 1.586428470909595490e-02 -5.922104232013225555e-03 9.038458019495010376e-02 1.703542540781199932e-03 -1.695990860462188721e-01 -1.283702999353408813e-01 -8.279841393232345581e-02 -6.635145843029022217e-02 1.355359256267547607e-01 9.168132394552230835e-02 2.011953443288803101e-01 1.827909350395202637e-01 5.544666573405265808e-02 9.761016815900802612e-02 9.076694399118423462e-02 -7.980117807164788246e-04 4.405035823583602905e-02 -4.700362682342529297e-02 2.321588806807994843e-02 -1.421465426683425903e-01 -2.367490157485008240e-02 -2.989255487918853760e-01 -3.699640929698944092e-02 1.165193133056163788e-02 -9.652259200811386108e-02 -7.019786536693572998e-02 -1.959085464477539062e-02 1.323166862130165100e-02 -3.899931907653808594e-02 1.437794882804155350e-02 8.206327259540557861e-02 1.735427081584930420e-01 -5.919798836112022400e-02 1.272435337305068970e-01 5.785777047276496887e-02 3.220808133482933044e-02 -9.823967702686786652e-03 6.070638075470924377e-03 -2.969961985945701599e-02 8.590319193899631500e-03 -4.726469144225120544e-02 3.803915902972221375e-02 2.329336106777191162e-01 -3.831321001052856445e-02 -1.654629558324813843e-01 -4.968299716711044312e-02 1.685248129069805145e-02 2.923284657299518585e-02 2.655959129333496094e-01 -9.128130972385406494e-02 -8.617065101861953735e-02 -4.445752874016761780e-02 2.415044978260993958e-02 -4.161816090345382690e-02 -6.019699200987815857e-02 7.964898832142353058e-03 -2.395960874855518341e-02 -1.303889006376266479e-01 -9.960019588470458984e-02 -3.336048126220703125e-02 -8.921814151108264923e-03 -4.375664517283439636e-02 1.488902699202299118e-02 1.149242650717496872e-02 2.657550759613513947e-02 1.550521422177553177e-02 1.239832341670989990e-01 -1.979200094938278198e-01 5.965868011116981506e-02 1.627008318901062012e-01 5.469420552253723145e-02 -3.453115746378898621e-02 1.298466026782989502e-01 -1.752292737364768982e-02 2.128511480987071991e-02 -7.547880709171295166e-02 6.108388677239418030e-02 3.543069213628768921e-02 -5.668017268180847168e-02 1.211690232157707214e-01 -1.210753917694091797e-01 7.556146383285522461e-02 -1.201317906379699707e-01 8.555555343627929688e-02 -1.371534168720245361e-01 -4.139741510152816772e-02 -1.039766669273376465e-01 5.548295564949512482e-03 2.835544943809509277e-02 1.222166419029235840e-01 -1.632756590843200684e-01 -8.254583179950714111e-02 -3.472320362925529480e-02 7.353055477142333984e-02 7.562849670648574829e-02 -5.390287563204765320e-02 -3.541648015379905701e-02 -3.467332944273948669e-02 9.392795711755752563e-02 1.132582053542137146e-01 -8.077188581228256226e-02 -6.000814214348793030e-02 3.290189430117607117e-02 3.585906326770782471e-02 4.062476381659507751e-02 9.152171015739440918e-02 2.265592068433761597e-01 -7.734721899032592773e-02 3.177912905812263489e-02 1.587874144315719604e-01 2.020114511251449585e-01 -4.823899269104003906e-02 -1.055461689829826355e-01 -4.395691677927970886e-02 -1.478935033082962036e-01 8.978602290153503418e-02 -7.422275841236114502e-02 -9.559284895658493042e-02 -2.163980342447757721e-02 1.218796372413635254e-01 -9.185010939836502075e-02 1.259077154099941254e-02 2.053258568048477173e-02 -1.282074600458145142e-01 5.647031962871551514e-02 1.690759658813476562e-01 -2.042901888489723206e-02 8.956351131200790405e-02 -7.159833610057830811e-02 -1.571317762136459351e-01 2.491873316466808319e-02 -6.710008531808853149e-02 -2.125455439090728760e-02 -2.305409125983715057e-02 -6.765899062156677246e-02 1.569093205034732819e-02 -1.224827095866203308e-01 7.017412781715393066e-02 -7.040247321128845215e-02 -1.200667303055524826e-02 9.141693264245986938e-02 -4.251082614064216614e-02 1.049057580530643463e-02 5.685964226722717285e-02 7.949801534414291382e-02 3.285735473036766052e-02 -3.775950893759727478e-02 -1.188092976808547974e-01 -8.204942941665649414e-02 3.916242625564336777e-03 -1.214243993163108826e-01 7.079543173313140869e-02 -7.194486260414123535e-02 5.627500824630260468e-03 -6.631804257631301880e-02 -1.019471436738967896e-01 -2.850858727470040321e-03 -1.347403079271316528e-01 -4.347241669893264771e-02 -4.817195981740951538e-02 5.752882361412048340e-02 -9.722302854061126709e-02 -8.409503847360610962e-02 8.463454246520996094e-02 1.918507665395736694e-01 2.286863029003143311e-01
2.611467381939291954e-03 1.913940459489822388e-01 -6.763987988233566284e-02 1.466881763190031052e-02 -3.018690738826990128e-03 1.601280719041824341e-01 1.538604795932769775e-01 -1.107664033770561218e-01 -4.650484770536422729e-02 1.293594092130661011e-01 9.086254984140396118e-02 -5.812295898795127869e-02 -5.812966078519821167e-02 7.504025124944746494e-04 -4.661736264824867249e-02 1.054553389549255371e-01 9.524063020944595337e-02 1.188067719340324402e-01 -3.253025561571121216e-02 -5.733006820082664490e-02 8.297111839056015015e-02 6.116845086216926575e-02 2.093055248260498047e-01 1.331502050161361694e-01 -1.138455718755722046e-01 -1.392776966094970703e-01 -5.542651563882827759e-02 1.036801859736442566e-01 -7.263829559087753296e-02 -8.898139744997024536e-02 -1.353391557931900024e-01 1.604544930160045624e-02 -6.576450169086456299e-02 1.933638006448745728e-02 -8.876539021730422974e-02 -8.426076732575893402e-03 2.163100987672805786e-02 -6.312684714794158936e-02 7.371703535318374634e-02 -2.750156633555889130e-02 -4.668751358985900879e-02 -1.724217832088470459e-02 6.612538546323776245e-02 -9.737305343151092529e-02 3.736109659075737000e-02 -3.021110221743583679e-02 -7.143216580152511597e-02 -3.958643972873687744e-02 -7.479237765073776245e-02 1.436043251305818558e-02 -6.822542846202850342e-02 -1.184919178485870361e-01 -6.140745710581541061e-03 -4.988548904657363892e-02 4.253120347857475281e-02 -7.529518753290176392e-02 7.984093576669692993e-02 3.545785695314407349e-02 -5.750351399183273315e-02 9.719169698655605316e-03 1.007359698414802551e-01 -2.128834836184978485e-02 -2.145178020000457764e-01 -1.171880215406417847e-01 -7.288634032011032104e-02 4.292868450284004211e-02 1.685496233403682709e-02 1.226551458239555359e-01 4.364589601755142212e-02 2.106105685234069824e-01 1.479180902242660522e-01 -4.866825789213180542e-02 -2.311218157410621643e-02 -8.635320514440536499e-02 -1.624165326356887817e-01 1.717491149902343750e-01 -3.499801084399223328e-02 1.500831991434097290e-01 -6.448469124734401703e-03 -6.715529412031173706e-02 -6.113522872328758240e-02 -2.182900905609130859e-02 -1.911258846521377563e-01 4.869173467159271240e-02 8.058005943894386292e-03 -1.065700426697731018e-01 2.201243489980697632e-02 -1.111356839537620544e-01 5.207797884941101074e-02 -4.883676022291183472e-02 -8.184609562158584595e-02 -1.303808987140655518e-01 7.519645988941192627e-02 1.424935907125473022e-01 6.702635437250137329e-02 1.642545759677886963e-01 -1.958536729216575623e-02 2.092538960278034210e-02 -2.901637926697731018e-02 2.216405235230922699e-03 -3.320966660976409912e-02 1.743258675560355186e-03 -3.144961968064308167e-02 -4.591787606477737427e-02 1.085673086345195770e-02 -2.928215451538562775e-02 5.012569949030876160e-02 4.651394113898277283e-02 -1.331486254930496216e-01 -4.425208270549774170e-02 9.173831902444362640e-03 -4.493585973978042603e-02 6.993857212364673615e-03 -9.652480483055114746e-02 -1.287450045347213745e-01 1.961692608892917633e-02 1.154478341341018677e-01 5.147102754563093185e-03 -3.597309067845344543e-02 -6.924881041049957275e-02 -9.223292022943496704e-02 -4.477453976869583130e-02 -5.452596768736839294e-02 -7.549072802066802979e-02 1.813767105340957642e-01 5.528187751770019531e-02 1.197937652468681335e-01 8.546734601259231567e-02 -1.578798703849315643e-02 -1.057835742831230164e-01 2.465201728045940399e-02 5.029407888650894165e-02 8.197040855884552002e-02 -1.032550483942031860e-01 2.326207607984542847e-02 -3.964277356863021851e-02 -3.545842319726943970e-02 2.266786843538284302e-01 3.110627643764019012e-02 1.413511782884597778e-01 1.051761507987976074e-01 -3.724870085716247559e-02 -6.111675128340721130e-02 1.146701630204916000e-02 -1.897228881716728210e-02 5.721392109990119934e-02 -2.762895263731479645e-02 3.731118142604827881e-02 -8.032266050577163696e-02 5.586954951286315918e-02 1.248894333839416504e-01 -1.411154270172119141e-01 1.196634117513895035e-02 8.530870079994201660e-02 1.385410726070404053e-01 1.082400083541870117e-01 -1.041469797492027283e-01 -1.029459107667207718e-02 -4.940921440720558167e-02 2.087103426456451416e-01 -4.252246581017971039e-03 -1.736875157803297043e-03 -1.982928439974784851e-02 -4.940855875611305237e-02 5.385545268654823303e-02 -6.681994348764419556e-02 -1.735833436250686646e-01 4.007896408438682556e-02 1.025886684656143188e-01 -9.010895341634750366e-02 -1.048049554228782654e-01 7.213911414146423340e-02 7.879488915205001831e-02 4.735323414206504822e-02 1.013882309198379517e-01 -2.660911530256271362e-02 -5.610564723610877991e-02 1.333229392766952515e-01 -7.414320856332778931e-02 4.244577884674072266e-02 -1.291898638010025024e-01 4.720885306596755981e-02 8.720517903566360474e-02 -8.328330516815185547e-02 4.520126432180404663e-02 2.228880226612091064e-01 -1.054012216627597809e-02 8.278775028884410858e-03 5.870950222015380859e-02 -9.151811152696609497e-02 -1.138189509510993958e-01 9.038932621479034424e-02 2.416857630014419556e-01 8.258135616779327393e-02 -8.717124164104461670e-02 -7.942826300859451294e-02 -2.264754921197891235e-01 2.532410435378551483e-02 -2.909839339554309845e-02 1.170660480856895447e-01 -2.389292418956756592e-02 -1.468117088079452515e-01 6.869961321353912354e-02 -4.360330849885940552e-02 -1.567659974098205566e-01 5.566163361072540283e-02 6.843151897192001343e-02 5.515278875827789307e-02 5.367087572813034058e-02 -8.235402405261993408e-02 -2.074118852615356445e-01 -4.765819013118743896e-02 -1.227963715791702271e-01 3.732773661613464355e-02 -9.739620238542556763e-02 1.341159641742706299e-01 -7.478214800357818604e-02 -3.528536483645439148e-02 -8.082547038793563843e-02 8.245462551712989807e-03 -1.903400011360645294e-02 4.284840822219848633e-02 2.950721792876720428e-02 -8.945336937904357910e-02 -9.166112542152404785e-02 6.984294950962066650e-02 2.327576279640197754e-03 1.005707159638404846e-01 6.231287866830825806e-02 -1.479111146181821823e-02 9.678465127944946289e-02 8.291491121053695679e-02 2.085082419216632843e-02 -6.134221702814102173e-02 4.229385033249855042e-02 -9.639373421669006348e-02 5.188515875488519669e-03 -4.819659516215324402e-03 -5.506488308310508728e-02 -4.670252278447151184e-02 5.242506414651870728e-02 1.247550398111343384e-01 5.482134222984313965e-02 9.531919658184051514e-02 -1.977170817553997040e-02 -4.887014627456665039e-02 2.927096188068389893e-02 -1.812722086906433105e-01 -1.209244728088378906e-01 -7.118299603462219238e-02 3.664919734001159668e-02 -4.255466535687446594e-02 -1.646527349948883057e-01 -1.136094518005847931e-02 -8.526891469955444336e-02 -3.883949294686317444e-02
-1.182752326130867004e-01 5.827958136796951294e-02 2.395398914813995361e-01 4.802928119897842407e-02 -2.040068246424198151e-02 -1.823430210351943970e-01 8.803360909223556519e-02 3.590518841519951820e-03 -2.340115606784820557e-02 -2.760697342455387115e-02 -1.136472821235656738e-02 6.309136748313903809e-02 2.219448797404766083e-02 -8.128296583890914917e-02 -5.898654088377952576e-02 2.188186720013618469e-02 4.333744570612907410e-02 -1.065864711999893188e-01 1.229694709181785583e-01 1.763980463147163391e-02 1.428300440311431885e-01 7.311266660690307617e-02 -1.347998827695846558e-01 -8.762471377849578857e-02 2.198639512062072754e-02 1.924458891153335571e-01 1.236291900277137756e-01 1.146315708756446838e-01 -2.254217118024826050e-02 1.034727543592453003e-01 -1.085376292467117310e-01 8.817908912897109985e-02 -9.610520303249359131e-02 2.831089543178677559e-03 -1.429765373468399048e-01 9.928366541862487793e-02 -2.207338623702526093e-02 -3.023383580148220062e-02 1.010983660817146301e-01 -3.817958012223243713e-02 -2.089433819055557251e-01 7.190436869859695435e-02 2.534883096814155579e-02 -7.066911458969116211e-02 1.284220628440380096e-02 -1.167828366160392761e-01 1.364960223436355591e-01 7.217852771282196045e-02 -1.081465091556310654e-02 -2.591351605951786041e-02 2.126004360616207123e-02 4.235294833779335022e-02 -1.454392671585083008e-01 -8.366360515356063843e-02 1.111259609460830688e-01 8.861529082059860229e-02 4.980077594518661499e-02 -1.127985119819641113e-01 1.883312501013278961e-02 -3.262675181031227112e-02 2.018552720546722412e-01 8.978184312582015991e-03 -5.948606412857770920e-03 1.386798620223999023e-01 7.666727155447006226e-02 -2.136089652776718140e-02 -2.178952693939208984e-01 -8.169261366128921509e-02 3.012050874531269073e-02 -4.530377686023712158e-02 -3.254434466361999512e-02 1.176145449280738831e-01 -1.078540645539760590e-02 9.470950812101364136e-02 1.557666622102260590e-02 5.430129915475845337e-02 1.698976033367216587e-03 1.149405986070632935e-01 -8.583123981952667236e-02 5.376485735177993774e-02 -2.241723798215389252e-02 -1.033404469490051270e-02 -1.651206463575363159e-01 1.738053187727928162e-02 1.241549700498580933e-01 3.312418609857559204e-02 -8.601141721010208130e-02 -1.492100954055786133e-01 -6.834699213504791260e-02 9.827540069818496704e-02 -5.221187695860862732e-02 2.810949273407459259e-02 -4.573806747794151306e-02 -4.597435519099235535e-02 4.383973404765129089e-02 7.427473366260528564e-02 7.273455709218978882e-02 3.409516811370849609e-02 9.569161385297775269e-02 -8.985817432403564453e-02 8.292061276733875275e-03 1.334444433450698853e-01 -1.011919602751731873e-02 -1.135933250188827515e-01 -6.231898069381713867e-02 8.790773339569568634e-03 1.035201549530029297e-01 -1.842419058084487915e-02 -8.744890987873077393e-02 -9.258265048265457153e-02 6.981156021356582642e-02 2.646887116134166718e-02 4.863084480166435242e-02 1.278016865253448486e-01 6.754567474126815796e-02 7.149826735258102417e-02 -1.716382652521133423e-01 2.802786603569984436e-02 -6.298446655273437500e-02 -9.743285924196243286e-02 1.253402233123779297e-01 -4.595923796296119690e-02 7.547079771757125854e-02 -7.958246022462844849e-02 1.089530661702156067e-01 1.970778405666351318e-02 -7.301785796880722046e-02 6.213959306478500366e-02 -5.056920275092124939e-02 5.921653285622596741e-02 4.234338924288749695e-02 -4.067631065845489502e-02 1.752518676221370697e-02 4.395319148898124695e-02 -1.152370646595954895e-01 7.714778184890747070e-02 5.427854880690574646e-02 1.192529648542404175e-01 1.459902673959732056e-01 -7.900504395365715027e-03 -8.400815725326538086e-02 -3.669683635234832764e-02 -7.264105975627899170e-02 4.380926489830017090e-02 2.170431800186634064e-02 1.811336129903793335e-01 5.788033083081245422e-02 -7.009256631135940552e-02 -5.890486016869544983e-02 -1.589872390031814575e-01 5.601045861840248108e-02 -1.512748599052429199e-01 1.713373698294162750e-02 -1.793515309691429138e-02 -1.762104034423828125e-01 -8.299081027507781982e-02 -4.318458959460258484e-02 -2.933832816779613495e-02 -2.056665718555450439e-02 5.638365447521209717e-02 -1.155548766255378723e-01 -1.458925455808639526e-01 -1.204810570925474167e-02 -5.749020352959632874e-02 -7.352290302515029907e-02 -1.456942856311798096e-01 -3.375026211142539978e-02 -2.725474163889884949e-02 8.782581239938735962e-02 1.091766729950904846e-02 -2.217868268489837646e-01 -4.992282018065452576e-02 -7.780055701732635498e-02 -6.781983375549316406e-02 3.260013833642005920e-02 6.975890696048736572e-02 -1.190844029188156128e-01 -1.148751899600028992e-01 -2.913383394479751587e-02 5.732370540499687195e-02 1.452057957649230957e-01 5.918602645397186279e-02 -7.844789326190948486e-02 1.415259242057800293e-01 -5.779872834682464600e-02 6.459818035364151001e-02 -1.042258888483047485e-01 7.655418664216995239e-02 1.147963665425777435e-02 -4.146172851324081421e-02 4.459326714277267456e-02 -5.306966230273246765e-02 -1.810632050037384033e-01 1.051273196935653687e-02 -7.362450659275054932e-02 1.154578477144241333e-02 -9.119413793087005615e-02 -3.681668313220143318e-03 1.161864027380943298e-01 -2.452584505081176758e-01 1.063416823744773865e-01 -7.645167410373687744e-02 1.460950821638107300e-01 -8.809817954897880554e-03 4.842576757073402405e-02 9.899118542671203613e-02 1.235063746571540833e-01 -5.452572554349899292e-02 3.943467140197753906e-02 -1.313072443008422852e-01 4.847035557031631470e-02 -6.506006419658660889e-02 -3.114571049809455872e-02 3.422135487198829651e-02 2.661293372511863708e-02 -1.161438673734664917e-01 -2.540503069758415222e-02 -1.159009635448455811e-01 9.126985073089599609e-02 -8.618863672018051147e-02 -7.837815582752227783e-02 -1.009102985262870789e-01 -1.213582754135131836e-01 8.166778087615966797e-02 8.979493752121925354e-03 -4.846347123384475708e-02 1.430662572383880615e-01 7.890275120735168457e-02 1.180187705904245377e-02 -5.680198594927787781e-02 -7.580013573169708252e-02 -1.296590198762714863e-03 -3.539919853210449219e-02 1.450711786746978760e-01 2.738014794886112213e-02 -3.114895895123481750e-02 1.118738297373056412e-02 -1.205478683114051819e-01 1.081489697098731995e-01 8.364631235599517822e-02 -7.966894656419754028e-03 -1.610036939382553101e-03 -2.707919105887413025e-02 2.422403991222381592e-01 6.689209491014480591e-02 -9.658539295196533203e-02 2.651962451636791229e-02 1.630463078618049622e-02 -3.867319971323013306e-02 -9.090790897607803345e-02 1.188450753688812256e-01 -7.891477644443511963e-02 -2.208280563354492188e-02 1.645949296653270721e-02 8.927302062511444092e-02 4.334682598710060120e-02
-8.054632693529129028e-02 8.791237632976844907e-05 -1.037908792495727539e-01 1.131638288497924805e-01 -1.230698600411415100e-01 -9.212043881416320801e-02 -2.174939662218093872e-01 -3.654570132493972778e-02 -7.803280651569366455e-02 5.254303663969039917e-02 -9.325879067182540894e-02 1.813614368438720703e-02 1.006568446755409241e-01 1.008254215121269226e-01 2.694544382393360138e-02 5.741837248206138611e-02 -1.298468858003616333e-01 -1.108797341585159302e-01 -5.795003846287727356e-02 -1.203784253448247910e-02 1.285736858844757080e-01 -6.968660652637481689e-02 -4.770466312766075134e-02 8.280353993177413940e-02 -2.829935252666473389e-01 1.439034044742584229e-01 -1.574398949742317200e-02 -5.190946161746978760e-02 -7.140494138002395630e-02 -1.444647014141082764e-01 -1.253901720046997070e-01 -1.158362329006195068e-01 6.520242989063262939e-02 3.170864656567573547e-02 -4.985574632883071899e-02 5.361309647560119629e-02 4.531914740800857544e-02 -9.434954822063446045e-02 2.714648284018039703e-02 6.363216042518615723e-02 6.699126958847045898e-02 2.650057338178157806e-02 -3.001051209867000580e-02 1.025626882910728455e-01 -1.146273687481880188e-01 5.162293557077646255e-03 -1.182706430554389954e-01 -6.938806921243667603e-02 9.408900514245033264e-03 -7.967691868543624878e-02 4.981616139411926270e-02 -9.249977022409439087e-02 -7.887703925371170044e-02 -6.949801743030548096e-02 6.679476052522659302e-02 3.242536634206771851e-02 7.563355565071105957e-02 6.519718468189239502e-02 -4.329278692603111267e-02 6.771161407232284546e-02 1.358879953622817993e-01 -1.372223645448684692e-01 -5.939566716551780701e-02 -3.478462994098663330e-02 -4.445496480911970139e-03 2.263577282428741455e-02 6.084807589650154114e-02 -1.399043202400207520e-01 -7.764422148466110229e-02 6.465913355350494385e-02 7.630603760480880737e-02 1.240006834268569946e-02 -5.580410361289978027e-02 2.295193448662757874e-02 -1.666342169046401978e-01 -1.123753003776073456e-02 -1.713970601558685303e-01 -2.455544658005237579e-02 1.075917761772871017e-02 -5.093885213136672974e-02 1.707483269274234772e-02 1.960370689630508423e-02 5.777553096413612366e-02 6.360385566949844360e-02 2.904298901557922363e-02 -1.533754169940948486e-01 1.310799121856689453e-01 4.088279604911804199e-02 -2.492272853851318359e-02 4.120731726288795471e-02 3.894401947036385536e-03 -1.982945650815963745e-01 -3.106245398521423340e-02 -1.286356151103973389e-01 -2.273568697273731232e-02 -1.376303136348724365e-01 -1.634774613194167614e-03 2.473834343254566193e-02 1.028475444763898849e-02 3.858880698680877686e-02 4.417239502072334290e-02 1.432542651891708374e-01 -7.873489521443843842e-03 6.274151802062988281e-02 6.972654163837432861e-02 -3.519744798541069031e-02 -7.200425956398248672e-03 6.467568874359130859e-02 -4.747225344181060791e-02 8.455516397953033447e-02 5.237841513007879257e-03 -8.395404368638992310e-02 -7.064182311296463013e-02 -2.623743116855621338e-01 3.236421942710876465e-02 8.681558817625045776e-02 7.628824561834335327e-02 -4.489609599113464355e-02 -9.272552281618118286e-02 7.870629429817199707e-02 5.695026367902755737e-02 1.085710152983665466e-01 3.677404671907424927e-02 3.827871521934866905e-03 -5.332458019256591797e-02 2.119036205112934113e-02 -4.696646332740783691e-02 9.992327541112899780e-02 -1.840767450630664825e-02 -7.697448879480361938e-02 -2.773490734398365021e-02 -5.517416819930076599e-02 -4.249578714370727539e-02 -3.034830465912818909e-02 -1.280659288167953491e-01 -8.080108463764190674e-02 -2.396939322352409363e-02 -8.590202778577804565e-03 -3.906486183404922485e-02 1.140686050057411194e-01 -1.346050761640071869e-02 4.936192184686660767e-02 -1.146288439631462097e-01 9.762046486139297485e-02 1.461261510848999023e-01 1.850933022797107697e-02 1.806861534714698792e-02 -1.068663820624351501e-01 1.355078071355819702e-01 6.313610821962356567e-02 6.208731606602668762e-02 9.296783246099948883e-03 -4.922786355018615723e-02 -4.475101828575134277e-02 -2.811269275844097137e-02 -7.812625914812088013e-02 -2.063930630683898926e-01 3.808272629976272583e-02 9.203884750604629517e-03 5.735232494771480560e-03 -8.170728385448455811e-02 7.576058804988861084e-02 2.367571890354156494e-01 2.762296609580516815e-02 7.394044101238250732e-02 1.675923168659210205e-01 -5.394218862056732178e-02 -1.278254985809326172e-01 -3.930087760090827942e-02 2.824626490473747253e-02 -1.519902944564819336e-01 -1.910308189690113068e-02 2.420397549867630005e-01 2.885286929085850716e-03 8.258615434169769287e-02 -1.104423925280570984e-01 2.403805218636989594e-02 -2.020543515682220459e-01 1.554235350340604782e-02 4.946962743997573853e-02 1.307189464569091797e-01 -1.122978478670120239e-01 -5.583917349576950073e-02 5.118969827890396118e-02 1.310746520757675171e-01 -8.380793035030364990e-02 -5.869818851351737976e-02 -8.402293920516967773e-02 -1.176028884947299957e-02 1.821018196642398834e-02 1.356607526540756226e-01 6.776344776153564453e-02 -2.061329483985900879e-01 8.685339242219924927e-02 -5.081382393836975098e-02 -1.507131010293960571e-01 -5.293812975287437439e-02 -2.424039505422115326e-02 -8.720076829195022583e-02 -7.557640224695205688e-02 -1.464019436389207840e-02 -2.016220008954405785e-03 -9.264744818210601807e-02 -7.285486906766891479e-02 -3.297790884971618652e-02 5.701784789562225342e-02 2.135988920927047729e-01 -6.130898743867874146e-02 -1.095671951770782471e-02 1.380414068698883057e-01 4.605412483215332031e-02 5.919307842850685120e-02 -2.113628014922142029e-02 1.209639664739370346e-02 6.449886411428451538e-02 -1.545223891735076904e-01 -2.274233289062976837e-02 -3.154769365210086107e-04 -1.419289708137512207e-01 -8.360362052917480469e-02 5.664956197142601013e-02 7.514905184507369995e-02 7.904595136642456055e-02 -6.808353960514068604e-02 3.308321116492152214e-03 -5.506116524338722229e-02 6.739683449268341064e-02 -7.069131731986999512e-02 -5.593684315681457520e-02 1.074593886733055115e-01 -3.887630626559257507e-02 -1.263138353824615479e-01 -1.413087844848632812e-01 1.485916227102279663e-01 -4.862820729613304138e-03 1.625548902666196227e-04 1.066684052348136902e-01 6.938976049423217773e-02 -2.153800101950764656e-03 2.392398007214069366e-02 -7.422037888318300247e-03 7.907085120677947998e-02 -2.097407542169094086e-02 -8.647820353507995605e-02 -1.931281387805938721e-01 2.823393419384956360e-02 1.142712086439132690e-01 -1.087360605597496033e-01 -1.981755197048187256e-01 2.780025824904441833e-02 -6.045560911297798157e-02 -8.072613179683685303e-02 1.120912954211235046e-01 -4.725752025842666626e-02 6.488175690174102783e-02 1.008883118629455566e-01
5.792810395359992981e-02 -6.963056325912475586e-02 1.330793648958206177e-01 9.193753823637962341e-03 -1.509150955826044083e-02 9.161490201950073242e-02 -5.685883760452270508e-02 7.803493179380893707e-03 1.713351756334304810e-01 -1.811977624893188477e-01 8.987902849912643433e-02 3.861052915453910828e-02 1.008102670311927795e-01 3.160118311643600464e-02 5.772908031940460205e-02 -9.495363384485244751e-02 5.308666080236434937e-02 2.727267891168594360e-02 4.341613128781318665e-02 -6.027435511350631714e-02 2.095357142388820648e-02 9.889859706163406372e-02 -5.707790330052375793e-02 -1.402495522052049637e-02 5.908378516323864460e-04 -6.600610166788101196e-02 2.082614749670028687e-01 -7.132630795240402222e-03 3.290757164359092712e-02 -9.612458944320678711e-02 6.893967743963003159e-03 -5.372516810894012451e-02 -1.194185344502329826e-03 9.445159882307052612e-02 2.021468877792358398e-01 1.794831156730651855e-01 -2.746954374015331268e-02 4.807150736451148987e-02 2.023275755345821381e-02 -1.527719199657440186e-01 1.674993708729743958e-02 6.754796206951141357e-02 -9.777829051017761230e-02 -6.044851243495941162e-02 1.243776530027389526e-01 1.157177239656448364e-01 -5.514889955520629883e-02 -5.499408021569252014e-02 -9.213487617671489716e-03 6.761661916971206665e-02 -1.185981184244155884e-01 -3.274579066783189774e-03 -1.647498756647109985e-01 3.207973763346672058e-02 9.974797070026397705e-02 -5.223410576581954956e-02 -1.398203819990158081e-01 6.483843922615051270e-02 1.313932240009307861e-01 -5.916154384613037109e-02 -1.800680756568908691e-01 1.298341155052185059e-01 4.228470847010612488e-02 1.172776613384485245e-02 -4.002622142434120178e-02 -7.750856876373291016e-02 -8.380375057458877563e-02 1.731491764076054096e-03 3.527645394206047058e-02 1.560733616352081299e-01 -1.041290387511253357e-01 -4.609644040465354919e-02 4.222768917679786682e-02 5.585358664393424988e-02 1.022296026349067688e-02 -5.570981279015541077e-02 -1.320658251643180847e-02 9.234449267387390137e-02 2.454264089465141296e-02 1.648070849478244781e-02 -9.947327524423599243e-02 -2.523128390312194824e-01 4.483302310109138489e-02 3.168676793575286865e-02 9.725318104028701782e-02 -8.482695557177066803e-03 2.792678540572524071e-03 -6.464886665344238281e-02 4.519589617848396301e-02 5.279133096337318420e-02 1.541663557291030884e-01 -1.127301156520843506e-01 1.256274729967117310e-01 9.462894499301910400e-02 3.573863580822944641e-02 -1.577653549611568451e-02 1.550016701221466064e-01 5.002747476100921631e-02 -1.523768454790115356e-01 -1.858865655958652496e-02 -7.791071385145187378e-02 9.844921529293060303e-03 1.621299982070922852e-01 3.252118453383445740e-02 1.138267591595649719e-01 6.371966749429702759e-02 -4.484835267066955566e-02 -2.046198397874832153e-02 -3.193097561597824097e-02 -8.774079382419586182e-02 -5.659352615475654602e-02 -1.316114421933889389e-02 -6.733933091163635254e-02 1.066575944423675537e-01 1.891453936696052551e-02 -9.955459088087081909e-02 -3.433378413319587708e-02 8.684150874614715576e-02 -1.907402835786342621e-02 3.448960185050964355e-02 1.539294272661209106e-01 1.193751096725463867e-01 -4.971734434366226196e-02 -5.578601360321044922e-02 -1.461927741765975952e-01 5.234868824481964111e-02 -1.223439127206802368e-01 -9.816003032028675079e-03 -1.302278190851211548e-01 -1.163267195224761963e-01 -5.185646191239356995e-02 -1.575301587581634521e-02 -9.566950798034667969e-02 1.945514604449272156e-02 1.530791521072387695e-01 -1.542680561542510986e-01 -4.799012094736099243e-02 6.631216499954462051e-03 -2.860971353948116302e-02 1.270135194063186646e-01 9.947670996189117432e-02 -1.582019478082656860e-01 -1.305131763219833374e-01 8.508123457431793213e-02 1.769005060195922852e-01 5.345040466636419296e-03 4.934867471456527710e-02 -2.080005705356597900e-01 3.829741105437278748e-02 -1.825811266899108887e-01 5.332357063889503479e-02 1.552384197711944580e-01 1.813262002542614937e-03 1.626745164394378662e-01 2.463021501898765564e-02 1.296568810939788818e-01 1.590423658490180969e-02 -1.020315140485763550e-01 1.000050678849220276e-01 6.223013997077941895e-02 1.164894318208098412e-03 -2.730268985033035278e-02 9.436571598052978516e-02 -9.650880470871925354e-03 1.763534918427467346e-02 -3.631795197725296021e-02 9.477625787258148193e-02 -3.243143483996391296e-02 -1.949959434568881989e-03 -9.025472402572631836e-02 9.287869906984269619e-04 -7.884870283305644989e-03 -2.092552483081817627e-01 2.143635973334312439e-02 1.681025698781013489e-02 -7.957320660352706909e-02 -1.530301477760076523e-02 -2.664590068161487579e-02 3.476909548044204712e-02 3.145805373787879944e-02 1.326167881488800049e-01 1.438113022595643997e-02 -2.498658373951911926e-02 1.064892951399087906e-02 4.535146430134773254e-02 -7.113578915596008301e-02 -1.399942301213741302e-02 4.712638258934020996e-02 1.183901354670524597e-01 6.499285250902175903e-02 -8.608590811491012573e-02 -4.862455651164054871e-02 1.286132186651229858e-01 1.398126482963562012e-01 -2.452193200588226318e-01 -1.046382859349250793e-01 1.434099022299051285e-02 9.931803494691848755e-02 -8.423019200563430786e-02 8.125653490424156189e-03 -4.362200200557708740e-02 -9.064756333827972412e-02 6.004106998443603516e-02 -1.192699968814849854e-01 1.032487824559211731e-01 2.999570220708847046e-02 -1.593850702047348022e-01 -9.234600514173507690e-02 9.120678156614303589e-02 -3.386710584163665771e-02 -5.244478583335876465e-02 -3.832069039344787598e-02 -2.359380759298801422e-02 -6.671429425477981567e-02 2.181045524775981903e-02 -9.454603306949138641e-03 -2.405126765370368958e-02 9.549114853143692017e-02 -7.427559792995452881e-02 3.180296719074249268e-02 -1.124553680419921875e-01 2.013822644948959351e-01 6.463361531496047974e-02 8.995934575796127319e-02 5.979835242033004761e-02 7.085961103439331055e-02 -3.189107030630111694e-02 3.980878740549087524e-02 6.403647363185882568e-02 -2.670913040637969971e-01 -5.595372617244720459e-02 1.178654376417398453e-02 6.761632114648818970e-02 8.803262561559677124e-02 -7.484339922666549683e-02 3.097844310104846954e-02 -1.300825774669647217e-01 -5.435727164149284363e-02 7.132025063037872314e-02 8.052360266447067261e-02 1.183770410716533661e-02 -1.370364576578140259e-01 -4.924029856920242310e-02 1.157046109437942505e-02 -1.148198619484901428e-01 7.645722478628158569e-02 1.970644742250442505e-01 -7.011088728904724121e-02 -5.552130937576293945e-02 1.572054438292980194e-02 -1.970857381820678711e-03 6.831536069512367249e-03 3.402958810329437256e-02 1.695519685745239258e-02 -2.032157592475414276e-02 1.388435158878564835e-02
6.759091466665267944e-02 5.381225422024726868e-02 1.155817322432994843e-02 -3.824701905250549316e-02 7.452270481735467911e-03 3.438736125826835632e-02 -4.758318141102790833e-02 7.726589590311050415e-02 9.564832784235477448e-03 -1.490674261003732681e-02 1.209784299135208130e-01 -9.867756813764572144e-02 9.762952476739883423e-02 -5.122758075594902039e-02 1.287903785705566406e-01 -7.822632789611816406e-02 -5.319836363196372986e-02 2.164951292797923088e-03 -4.504708573222160339e-02 1.038791909813880920e-01 -6.302385032176971436e-02 -1.088235080242156982e-01 7.285664230585098267e-02 -1.780854910612106323e-01 2.339703217148780823e-02 -1.243352442979812622e-01 4.508635774254798889e-02 -1.565190404653549194e-02 -2.043641544878482819e-02 -7.264325022697448730e-02 -7.836159202270209789e-04 3.409492969512939453e-02 3.013283200562000275e-02 5.629162862896919250e-02 3.291498497128486633e-02 4.959107935428619385e-02 -5.819631274789571762e-03 -8.182652294635772705e-02 1.896502566523849964e-03 1.131927073001861572e-01 4.409676417708396912e-02 -1.006273627281188965e-01 -1.055320538580417633e-02 1.230332627892494202e-01 1.191240153275430202e-03 -1.141152381896972656e-01 -9.769627451896667480e-02 -5.223511531949043274e-02 1.050967648625373840e-01 2.021303400397300720e-02 2.135635763406753540e-01 -1.683614850044250488e-01 4.317823052406311035e-02 -1.994511932134628296e-01 1.755296997725963593e-02 -2.438986673951148987e-02 -4.262671992182731628e-02 5.204524844884872437e-02 -2.437582165002822876e-01 1.527935266494750977e-01 4.635520651936531067e-02 2.471780031919479370e-02 8.887911587953567505e-02 4.318560659885406494e-02 5.808996036648750305e-03 5.086555331945419312e-02 -2.443896234035491943e-02 -1.038370132446289062e-01 7.314349059015512466e-04 -1.552354842424392700e-01 -7.938889414072036743e-02 -1.583922803401947021e-01 -4.854377359151840210e-03 3.610155731439590454e-02 -9.210734069347381592e-02 -1.171404048800468445e-01 4.481197893619537354e-02 8.542385697364807129e-02 8.649794384837150574e-03 -1.148210391402244568e-01 -1.031582057476043701e-01 -5.554767325520515442e-02 -4.900311678647994995e-02 -1.644363999366760254e-01 -4.994387179613113403e-02 4.091063048690557480e-03 -6.021467596292495728e-02 2.091698162257671356e-02 -3.766358271241188049e-02 9.514957666397094727e-03 5.443015322089195251e-02 1.415767520666122437e-01 1.196091845631599426e-01 -1.352317631244659424e-02 -1.025152429938316345e-01 7.397691160440444946e-02 -9.738443046808242798e-02 -4.526050388813018799e-02 -2.175843343138694763e-02 8.851242065429687500e-02 -7.517557591199874878e-02 1.488061249256134033e-01 1.252401024103164673e-01 9.011111408472061157e-02 -1.074752658605575562e-01 3.938659559935331345e-03 -1.260399967432022095e-01 3.682637959718704224e-02 -1.233738381415605545e-02 1.398721784353256226e-01 4.397092759609222412e-02 1.008003018796443939e-02 -1.015866175293922424e-02 3.628953918814659119e-02 -6.292944308370351791e-03 -4.791138693690299988e-02 -1.416559219360351562e-01 -2.300813421607017517e-02 8.800672949291765690e-04 -2.436434291303157806e-02 -5.316507071256637573e-02 -1.694805324077606201e-01 7.175280898809432983e-02 -1.141779422760009766e-01 4.816603660583496094e-02 -7.390534505248069763e-03 3.348454833030700684e-02 -1.004140004515647888e-01 -3.766850754618644714e-02 4.639894142746925354e-02 -8.952455967664718628e-02 -5.591762438416481018e-02 7.126226276159286499e-02 -1.131173744797706604e-01 1.658889204263687134e-01 6.003776565194129944e-02 -8.637170493602752686e-02 1.068928688764572144e-01 3.336508572101593018e-02 4.050127044320106506e-02 -7.472701370716094971e-02 -6.226570159196853638e-02 -1.034704297780990601e-01 6.685398519039154053e-02 1.429805532097816467e-02 6.975638866424560547e-02 2.245444245636463165e-02 1.091473083943128586e-02 -5.437886714935302734e-02 -1.009864639490842819e-02 6.955844163894653320e-02 -9.828316420316696167e-02 -2.013720385730266571e-02 5.765160545706748962e-02 -1.426318138837814331e-01 9.330832958221435547e-02 -2.405551820993423462e-02 -7.679522782564163208e-02 -2.116292156279087067e-02 1.547903195023536682e-02 -3.630489856004714966e-02 -2.247348241508007050e-02 -9.105451405048370361e-02 -9.661791473627090454e-02 -1.168695986270904541e-01 -7.344923913478851318e-02 -1.605307124555110931e-02 3.889223188161849976e-02 1.697465963661670685e-02 -3.585166484117507935e-02 8.181990683078765869e-02 -9.558943100273609161e-03 -6.237236782908439636e-02 -8.181917667388916016e-02 -8.406265825033187866e-02 6.725579500198364258e-02 -1.784108877182006836e-01 3.154531866312026978e-02 -4.419328644871711731e-02 -7.990181446075439453e-02 -6.267620623111724854e-02 1.203779950737953186e-01 -9.808696061372756958e-02 -9.653766453266143799e-02 -2.623487729579210281e-03 -6.287383288145065308e-02 -6.406307220458984375e-02 -1.286472976207733154e-01 1.431428734213113785e-02 8.827940374612808228e-02 -6.599362939596176147e-02 4.835204035043716431e-02 1.649222820997238159e-01 1.220236346125602722e-01 -2.309988737106323242e-01 3.413299098610877991e-02 5.424043629318475723e-03 -5.062495544552803040e-02 -7.112628966569900513e-02 -9.343086928129196167e-02 -2.570467069745063782e-02 -7.164786010980606079e-02 -9.480403363704681396e-02 -2.082873508334159851e-02 1.318696979433298111e-02 4.915587231516838074e-02 7.842501997947692871e-02 7.343413680791854858e-02 -1.405759714543819427e-02 2.279236540198326111e-02 7.644855976104736328e-02 1.348967701196670532e-01 1.185442581772804260e-01 -2.373558580875396729e-01 4.745985940098762512e-02 -4.964770004153251648e-02 6.366629153490066528e-02 8.994403481483459473e-02 5.806190893054008484e-02 1.557064056396484375e-01 1.173857674002647400e-01 5.198128148913383484e-02 5.309665948152542114e-02 9.800378978252410889e-02 3.216034919023513794e-02 -2.365138977766036987e-01 -5.730962846428155899e-03 1.261843834072351456e-03 2.529832534492015839e-02 2.444939464330673218e-01 -3.122484870254993439e-02 -1.873679272830486298e-02 -2.040476649999618530e-01 1.968836039304733276e-01 5.410357937216758728e-02 -7.914891839027404785e-02 -8.278713375329971313e-02 2.037144154310226440e-01 -1.390552520751953125e-01 -1.439888179302215576e-01 8.115927875041961670e-02 1.169349551200866699e-01 -1.516352742910385132e-01 7.613532245159149170e-02 6.673506647348403931e-02 -1.137172617018222809e-02 1.152400672435760498e-01 -1.286382824182510376e-01 1.194644048810005188e-01 -1.557025220245122910e-02 -1.156569048762321472e-01 1.549064461141824722e-02 -1.115959882736206055e-02 -7.582037895917892456e-02 1.255314517766237259e-02 -4.963929206132888794e-02
7.642905414104461670e-02 6.534083187580108643e-02 -6.791476905345916748e-02 5.760064721107482910e-02 -9.145443886518478394e-02 5.048207193613052368e-02 6.138557195663452148e-02 -8.716710656881332397e-02 2.226645201444625854e-01 2.009957283735275269e-02 7.519877701997756958e-02 -3.487759456038475037e-02 5.028327926993370056e-02 1.558480113744735718e-01 9.679228812456130981e-02 -5.326833575963973999e-02 -4.577444493770599365e-02 -4.388784989714622498e-02 5.758764594793319702e-02 -3.599952533841133118e-02 1.006926894187927246e-01 -1.657698419876396656e-03 3.078945353627204895e-02 -1.187676712870597839e-01 -3.392726927995681763e-02 8.741094172000885010e-02 1.014572679996490479e-01 8.323816210031509399e-02 5.525675415992736816e-02 -7.510076463222503662e-02 7.207061164081096649e-03 5.954589322209358215e-02 9.731782972812652588e-02 4.731867928057909012e-03 1.901519484817981720e-02 -1.005258709192276001e-01 1.351270526647567749e-01 -1.274939179420471191e-01 -5.001532658934593201e-02 -1.430735550820827484e-02 3.833684697747230530e-02 -8.852832019329071045e-03 6.409735232591629028e-02 -8.748991787433624268e-02 -8.485770225524902344e-02 -9.931644797325134277e-02 1.327866762876510620e-01 -7.776607573032379150e-02 -1.173653155565261841e-01 -1.671807318925857544e-01 2.097373269498348236e-02 8.415952324867248535e-02 -9.130884706974029541e-02 -1.954593695700168610e-02 -1.428133398294448853e-01 -9.293050318956375122e-02 -2.251894325017929077e-01 1.234826892614364624e-01 1.510069239884614944e-02 1.203508973121643066e-01 3.781383624300360680e-03 -5.970576405525207520e-02 -9.907135367393493652e-02 8.444690704345703125e-02 -1.986979693174362183e-01 -7.522883266210556030e-02 7.417213171720504761e-02 -9.349277615547180176e-02 -1.835228875279426575e-02 4.640998691320419312e-02 -9.112128615379333496e-02 1.133914291858673096e-01 -2.472097985446453094e-02 -4.996045678853988647e-02 9.430351853370666504e-02 -2.645391784608364105e-02 2.988653257489204407e-02 -1.016030758619308472e-01 -1.137538067996501923e-02 -5.716245248913764954e-02 6.062343716621398926e-02 2.668396197259426117e-02 -4.572816193103790283e-02 3.448273614048957825e-02 -6.871701776981353760e-02 9.538326412439346313e-02 -2.451115250587463379e-01 5.228921398520469666e-02 8.464094996452331543e-02 2.422092705965042114e-01 -3.190992027521133423e-02 -1.119531318545341492e-01 2.404157817363739014e-02 -2.480593696236610413e-02 2.802095841616392136e-03 1.222909167408943176e-01 4.097559675574302673e-02 3.832969069480895996e-02 1.312041580677032471e-01 6.680078804492950439e-02 -5.592888966202735901e-02 -5.820024758577346802e-03 1.761668473482131958e-01 8.267992734909057617e-02 5.194978415966033936e-02 -1.307921707630157471e-01 1.462122350931167603e-01 1.497421134263277054e-02 1.936521753668785095e-02 -8.878050744533538818e-02 -4.785636812448501587e-02 1.166464313864707947e-01 1.349167078733444214e-01 -2.123455330729484558e-02 6.154387816786766052e-02 -1.790934428572654724e-02 -6.038729101419448853e-02 -1.060990169644355774e-01 5.898124724626541138e-02 2.281157299876213074e-02 -1.707973033189773560e-01 -3.646368905901908875e-02 4.420546442270278931e-02 8.342001587152481079e-03 -9.930973500013351440e-02 -3.930599242448806763e-02 2.087739557027816772e-01 -3.496290370821952820e-02 -3.006500191986560822e-02 -6.182755157351493835e-02 3.977828659117221832e-03 5.410572141408920288e-02 6.455927342176437378e-02 -1.287655383348464966e-01 9.352406114339828491e-02 -7.269353419542312622e-02 -1.746208816766738892e-01 2.390841580927371979e-02 1.398481279611587524e-01 4.560543969273567200e-02 -5.619756504893302917e-02 3.184044733643531799e-02 7.438392844051122665e-03 -2.115046828985214233e-01 -1.545247137546539307e-01 -5.492177791893482208e-03 2.894217148423194885e-02 3.203142434358596802e-02 -1.339153051376342773e-01 3.468646854162216187e-02 3.940645977854728699e-02 1.153324171900749207e-01 -4.524249956011772156e-02 -1.967430263757705688e-01 1.228442788124084473e-01 -1.037687957286834717e-01 -2.975318022072315216e-02 -2.292386814951896667e-02 3.502905834466218948e-03 -1.861490122973918915e-02 -1.247420907020568848e-01 -1.028098762035369873e-01 -5.558348074555397034e-02 8.438197523355484009e-02 -1.840981654822826385e-02 -2.285208739340305328e-02 -2.351697348058223724e-02 -5.347498692572116852e-03 1.051428094506263733e-01 -1.224791109561920166e-01 7.600379735231399536e-02 4.092276841402053833e-02 1.087456196546554565e-01 5.661171302199363708e-02 -6.597276031970977783e-02 -2.679879311472177505e-03 -9.965610504150390625e-02 -4.129462409764528275e-03 5.736128240823745728e-02 -4.543545842170715332e-02 9.283506125211715698e-02 7.678117603063583374e-02 1.567532122135162354e-01 5.328239127993583679e-02 2.731810510158538818e-02 -5.397704243659973145e-02 1.529898196458816528e-01 -1.264596171677112579e-02 8.205541968345642090e-02 2.275295369327068329e-02 -1.200925000011920929e-02 -3.195995464920997620e-03 -1.189579963684082031e-01 7.860889285802841187e-02 -1.168580502271652222e-01 -1.399001777172088623e-01 6.483636051416397095e-02 -3.078704886138439178e-02 2.750173397362232208e-02 1.142073944211006165e-01 -7.014508359134197235e-03 -1.018867865204811096e-01 9.117830544710159302e-02 -1.103697419166564941e-01 3.773191571235656738e-02 -5.989184230566024780e-02 -9.106981009244918823e-02 8.553550392389297485e-02 -9.793974459171295166e-03 4.989568144083023071e-02 1.375234499573707581e-02 8.808863162994384766e-02 -9.745752066373825073e-02 3.271631151437759399e-02 -1.173126995563507080e-01 1.166111323982477188e-02 1.711022406816482544e-01 -3.897764906287193298e-02 -1.170555129647254944e-02 -1.181990504264831543e-01 6.300137378275394440e-03 -1.362525969743728638e-01 -1.198210269212722778e-01 1.529731154441833496e-01 1.892998516559600830e-01 -1.487413235008716583e-02 8.258316665887832642e-02 2.609718358144164085e-04 7.577843219041824341e-02 3.313203901052474976e-02 -4.468072950839996338e-02 4.814383015036582947e-02 5.119643732905387878e-02 2.457857877016067505e-02 -1.178334280848503113e-01 1.073712334036827087e-01 6.795912981033325195e-02 -1.192390099167823792e-01 6.488978117704391479e-02 -2.929929457604885101e-02 -5.336898192763328552e-02 -7.813005894422531128e-02 5.623903125524520874e-02 -3.263930603861808777e-02 -7.769562304019927979e-02 -8.312839269638061523e-02 3.048600442707538605e-02 -1.028729230165481567e-01 -2.925499901175498962e-02 -7.051229476928710938e-02 -5.183686688542366028e-02 -8.316382765769958496e-02 1.643992364406585693e-01 3.990322723984718323e-02 -6.745251268148422241e-02 6.725905090570449829e-02
4.509032878559082747e-04 8.057467639446258545e-02 1.531051397323608398e-01 -8.088272809982299805e-02 -6.323849409818649292e-02 1.387921348214149475e-02 -8.134492672979831696e-03 5.457795783877372742e-02 1.011673826724290848e-02 1.124636009335517883e-01 4.823588207364082336e-02 -1.360983494669198990e-02 5.268234387040138245e-02 -1.403464972972869873e-01 2.922563813626766205e-02 -1.094912365078926086e-01 -2.009568363428115845e-02 -6.256199628114700317e-02 1.017767786979675293e-01 -5.114252120256423950e-02 1.911116987466812134e-01 -5.567165091633796692e-02 -7.934509217739105225e-02 -6.720101088285446167e-02 1.268470776267349720e-03 -3.736361162737011909e-03 -2.830041572451591492e-02 4.919386282563209534e-02 -1.814028918743133545e-01 1.027110219001770020e-02 -1.269908994436264038e-01 -1.631469838321208954e-02 1.273260265588760376e-01 1.002268195152282715e-01 6.388655304908752441e-02 5.856753885746002197e-02 5.297942087054252625e-02 -8.072302490472793579e-02 -5.666162818670272827e-02 5.957006663084030151e-02 1.226999913342297077e-03 -1.234192624688148499e-01 -1.998441517353057861e-01 -1.083639040589332581e-01 -1.524096578359603882e-01 3.542177751660346985e-02 -6.117941066622734070e-02 5.630536470562219620e-03 1.162839494645595551e-02 9.498819708824157715e-02 1.066942662000656128e-01 2.432037703692913055e-02 -1.580237597227096558e-02 -9.719874709844589233e-03 5.734041705727577209e-02 1.594096571207046509e-01 1.622412055730819702e-01 -9.394851326942443848e-02 -2.208815328776836395e-02 -3.358417376875877380e-02 -4.297461733222007751e-02 -1.813052147626876831e-01 7.811651565134525299e-03 -2.922212146222591400e-02 -2.217516601085662842e-01 -9.798490256071090698e-02 1.582447141408920288e-01 1.605893969535827637e-01 1.198454350233078003e-01 -1.854276508092880249e-01 6.953051779419183731e-03 5.262470617890357971e-02 -5.530267953872680664e-02 8.200037479400634766e-02 2.887886203825473785e-02 -7.579585164785385132e-02 1.463494449853897095e-01 -3.529415652155876160e-02 1.447290629148483276e-01 2.160426974296569824e-01 -7.900232076644897461e-02 6.732029467821121216e-02 1.122800037264823914e-01 -5.745437368750572205e-02 2.754118060693144798e-03 -4.367317259311676025e-02 7.532379776239395142e-02 -1.022356525063514709e-01 2.704122569411993027e-03 -1.754395477473735809e-02 1.414219290018081665e-01 -1.296362734137801453e-05 6.802377756685018539e-03 -3.369090706110000610e-02 1.282771304249763489e-02 1.909482665359973907e-02 -6.872952729463577271e-02 -1.121754720807075500e-01 -4.376456514000892639e-02 -2.704329043626785278e-02 -1.145913824439048767e-01 -1.142947226762771606e-01 -9.732078760862350464e-02 -7.505786605179309845e-03 3.231611102819442749e-02 1.338353604078292847e-01 -1.353129278868436813e-02 -8.972743898630142212e-02 -4.606385901570320129e-02 -6.919462978839874268e-02 -1.019881740212440491e-01 -1.013892889022827148e-01 8.466091752052307129e-02 1.262611616402864456e-02 -2.844385989010334015e-02 1.627499237656593323e-02 9.291590750217437744e-02 -7.224744558334350586e-02 -3.650835901498794556e-02 2.798024937510490417e-02 1.273811310529708862e-01 -6.725601851940155029e-02 1.843894459307193756e-02 -5.977882072329521179e-02 -9.673725813627243042e-03 -2.554977126419544220e-02 2.671977505087852478e-02 8.064272254705429077e-02 -1.382797677069902420e-02 -6.744147837162017822e-02 4.356690868735313416e-02 -1.140737831592559814e-01 8.894850313663482666e-02 -1.464784424751996994e-02 4.644942283630371094e-02 4.041527584195137024e-02 2.634777314960956573e-02 5.555223673582077026e-02 -7.986392825841903687e-03 2.033102884888648987e-02 1.715718507766723633e-01 1.538105309009552002e-01 -3.470940049737691879e-03 1.449863985180854797e-02 -2.099186182022094727e-01 -3.017648123204708099e-02 2.948269806802272797e-02 1.642873138189315796e-02 -3.799228742718696594e-02 2.865521982312202454e-02 -5.327616259455680847e-02 -2.380765229463577271e-02 1.073593795299530029e-01 -7.307252287864685059e-02 -8.060040883719921112e-03 -1.242056861519813538e-01 4.293838888406753540e-02 -1.372676193714141846e-01 -1.327881682664155960e-02 2.836615033447742462e-02 -8.669432997703552246e-02 -4.812842980027198792e-02 -1.393217593431472778e-01 1.315699517726898193e-02 8.052485436201095581e-02 1.281449384987354279e-02 -2.290720865130424500e-02 1.156209483742713928e-01 -1.238306239247322083e-01 9.207171387970447540e-03 1.405874639749526978e-01 5.281163752079010010e-02 1.131966486573219299e-01 1.485130190849304199e-01 -1.477567292749881744e-02 -1.117366552352905273e-01 -1.156305968761444092e-01 -3.503461135551333427e-03 1.340451240539550781e-01 -2.749245986342430115e-02 7.340171374380588531e-03 -2.034685760736465454e-02 -8.257413655519485474e-02 5.261194333434104919e-02 1.615466475486755371e-01 -1.167795155197381973e-02 -1.911074966192245483e-01 -6.847541779279708862e-02 2.798256836831569672e-02 1.335638910531997681e-01 -7.163409143686294556e-02 1.675194799900054932e-01 6.181723438203334808e-04 -6.577194482088088989e-02 5.343678873032331467e-03 5.221419781446456909e-02 -7.736080884933471680e-02 -4.257999733090400696e-02 8.729375153779983521e-02 4.990750178694725037e-02 -2.092030085623264313e-02 -9.514219127595424652e-03 -1.678455993533134460e-02 -7.964438199996948242e-02 2.315249592065811157e-01 1.133557409048080444e-01 7.201700657606124878e-02 -3.667224943637847900e-02 3.142454475164413452e-02 4.872484132647514343e-02 -2.194292377680540085e-03 -1.382644176483154297e-01 1.739220321178436279e-02 -7.895521074533462524e-02 3.496335819363594055e-02 1.040812730789184570e-01 1.935275644063949585e-01 -3.796444460749626160e-02 -1.548831015825271606e-01 -2.224694043397903442e-01 -7.511042803525924683e-02 -3.909807652235031128e-03 -3.985263034701347351e-02 -4.345235973596572876e-02 7.530535012483596802e-02 -4.920200258493423462e-02 4.344167187809944153e-02 -6.015564873814582825e-02 4.353963956236839294e-02 -1.117685362696647644e-01 2.295369282364845276e-02 1.302494108676910400e-01 3.188527375459671021e-02 -8.962687104940414429e-02 -3.952480480074882507e-02 -4.560475051403045654e-02 -5.876568332314491272e-02 1.349057257175445557e-01 1.970477700233459473e-01 -8.314967155456542969e-03 9.410388767719268799e-02 2.483737468719482422e-02 4.749318212270736694e-02 -4.243943467736244202e-02 -1.926564872264862061e-01 1.089635416865348816e-01 -7.117620110511779785e-02 -3.260766714811325073e-02 5.891899112612009048e-03 -4.756890237331390381e-02 -9.315129369497299194e-03 1.897357404232025146e-02 -1.409767717123031616e-01 -1.638669222593307495e-01 -7.226864248514175415e-02 -4.568368941545486450e-02
6.392644345760345459e-02 -7.274980098009109497e-02 7.513643801212310791e-02 -1.134037598967552185e-01 4.965827614068984985e-02 -5.943304300308227539e-02 9.178011119365692139e-02 5.102201923727989197e-02 6.638044863939285278e-02 3.406993672251701355e-02 2.583893761038780212e-02 5.513414740562438965e-03 8.290146291255950928e-02 1.113628316670656204e-02 -1.966181844472885132e-01 -8.989395946264266968e-02 -6.797662377357482910e-02 2.716105198487639427e-03 1.666440255939960480e-02 1.805818080902099609e-01 4.063414782285690308e-02 -1.695956140756607056e-01 -5.701744928956031799e-02 5.005243793129920959e-02 -1.565705090761184692e-01 4.058629646897315979e-02 -4.668789915740489960e-03 -3.834518417716026306e-02 3.822393715381622314e-02 1.250322461128234863e-01 1.431275159120559692e-01 -1.264144200831651688e-02 -9.071614593267440796e-02 3.423814475536346436e-02 -5.608985573053359985e-02 -1.481968257576227188e-02 1.026460975408554077e-01 -5.911767110228538513e-02 -1.732672303915023804e-01 2.408441901206970215e-02 1.591793596744537354e-01 -1.273480802774429321e-01 8.080945350229740143e-03 -7.421185821294784546e-02 -8.799659460783004761e-02 2.259537205100059509e-02 -2.188959717750549316e-02 5.098645109683275223e-03 -1.005403771996498108e-01 4.402425885200500488e-02 -6.936690304428339005e-03 -2.105523645877838135e-01 1.089873313903808594e-01 3.339431807398796082e-02 -2.801320515573024750e-02 9.789902716875076294e-02 -6.542242318391799927e-02 -1.437462419271469116e-01 3.315579146146774292e-02 8.407887071371078491e-03 2.013163827359676361e-02 5.101451650261878967e-02 -6.803542375564575195e-02 1.784217357635498047e-02 -1.623159050941467285e-01 -1.086237207055091858e-01 -1.622835993766784668e-01 -6.908744573593139648e-02 -4.016832448542118073e-03 -3.500596061348915100e-02 1.166886240243911743e-01 5.582997202873229980e-02 5.728897452354431152e-02 8.805430680513381958e-02 6.697227060794830322e-02 1.161586716771125793e-01 -1.877645961940288544e-02 -9.776244312524795532e-02 1.343372836709022522e-02 8.419261872768402100e-02 -7.620346266776323318e-03 1.716323755681514740e-02 -3.958870843052864075e-02 3.746967529878020287e-03 1.243773326277732849e-01 -4.844071343541145325e-02 -6.331473588943481445e-02 6.574654579162597656e-02 -9.884178638458251953e-03 -1.282794028520584106e-01 -1.247498244047164917e-01 -3.471574932336807251e-02 -2.416120609268546104e-03 -9.223212487995624542e-03 1.201753392815589905e-01 -1.556196156889200211e-02 -1.057272776961326599e-01 -2.351109310984611511e-02 9.318955242633819580e-02 -6.284648180007934570e-02 -3.795579820871353149e-02 -1.159966886043548584e-01 8.568196743726730347e-02 -2.485745251178741455e-01 8.749370276927947998e-02 -2.181065455079078674e-02 2.454235777258872986e-02 -7.204874604940414429e-02 -1.059127971529960632e-01 1.565517932176589966e-01 1.977916993200778961e-02 1.510280817747116089e-01 1.798442751169204712e-01 -9.237157553434371948e-02 1.022006012499332428e-02 4.666546732187271118e-02 -3.219065070152282715e-02 2.839145809412002563e-02 6.775383651256561279e-02 4.727887734770774841e-02 -5.931429564952850342e-02 5.266552790999412537e-02 8.645786345005035400e-02 2.190350890159606934e-01 -8.115774020552635193e-03 -8.146599680185317993e-02 -8.857590705156326294e-02 1.014277245849370956e-02 -2.914433553814888000e-02 1.516291201114654541e-01 -4.588989075273275375e-03 -5.062917992472648621e-02 -3.668312728404998779e-02 -7.955913990736007690e-02 -3.426067903637886047e-02 1.116426512598991394e-01 -1.645349413156509399e-01 3.995010629296302795e-02 -8.820419758558273315e-02 1.242463886737823486e-01 8.264894038438796997e-02 -4.505123943090438843e-02 1.252020597457885742e-01 -3.586832061409950256e-02 1.745871901512145996e-01 6.303469836711883545e-02 1.048632115125656128e-01 -1.308883726596832275e-01 1.335496455430984497e-01 -5.795513093471527100e-02 -1.173073947429656982e-01 1.876492239534854889e-02 3.739397227764129639e-02 4.082947596907615662e-02 -7.613648474216461182e-02 2.455202676355838776e-02 9.178859740495681763e-02 2.592352032661437988e-02 2.890081889927387238e-02 9.457084536552429199e-02 -9.915626607835292816e-03 1.475984901189804077e-01 -4.993678256869316101e-02 9.636511653661727905e-02 7.909801602363586426e-02 3.050056472420692444e-02 -1.358331888914108276e-01 -7.393786311149597168e-02 6.726007442921400070e-03 6.975679099559783936e-02 -1.352164894342422485e-01 8.497731760144233704e-03 -1.856550574302673340e-01 1.109599322080612183e-01 1.431080512702465057e-02 -4.174824431538581848e-02 -8.703649044036865234e-03 -9.009943902492523193e-02 -9.920399636030197144e-03 1.442715525627136230e-01 -1.100545078516006470e-01 2.841724827885627747e-02 2.255545370280742645e-02 -1.636224389076232910e-01 9.238031506538391113e-02 3.214608877897262573e-02 -1.168223246932029724e-01 -1.463285740464925766e-02 -2.360996045172214508e-02 7.456588745117187500e-02 1.386363059282302856e-01 2.956764400005340576e-02 9.035205841064453125e-02 1.150329783558845520e-01 -6.654710322618484497e-02 -4.567514732480049133e-02 9.215959906578063965e-02 -4.509844630956649780e-02 4.675677791237831116e-02 1.893350630998611450e-01 -1.584235876798629761e-01 -3.949677571654319763e-02 -6.298169493675231934e-02 -4.141017794609069824e-02 -3.323814272880554199e-02 7.988911122083663940e-02 -3.449450596235692501e-04 6.551218032836914062e-02 7.055092602968215942e-02 -5.594132840633392334e-02 -5.393156781792640686e-02 2.407816797494888306e-01 -1.410910040140151978e-01 -4.247941449284553528e-02 -6.160159595310688019e-03 -2.935592271387577057e-02 -3.370481356978416443e-02 -9.675515443086624146e-02 -1.322106271982192993e-01 1.065558493137359619e-01 1.010772287845611572e-01 -1.194998249411582947e-01 -5.360494926571846008e-02 -2.962939813733100891e-02 -7.546363025903701782e-02 -1.151297688484191895e-01 -2.388879470527172089e-02 -1.365906093269586563e-02 -7.330999244004487991e-03 -2.965987101197242737e-02 2.414748258888721466e-02 -1.285914182662963867e-01 1.056365109980106354e-02 4.718392714858055115e-02 -4.756141826510429382e-02 -1.140393763780593872e-01 -1.057682409882545471e-01 -7.474531233310699463e-02 4.384706169366836548e-02 -1.786644756793975830e-02 -1.112564699724316597e-03 -2.663204446434974670e-02 -2.009160667657852173e-01 -2.575111389160156250e-02 -1.782195121049880981e-01 -1.871543675661087036e-01 -1.083668097853660583e-01 1.063179820775985718e-01 1.223601102828979492e-01 5.703572928905487061e-02 5.318917334079742432e-02 -3.285859012976288795e-03 9.479320608079433441e-03 1.268845349550247192e-01 4.794431850314140320e-02 -2.075977250933647156e-02
-1.453628391027450562e-01 1.849268227815628052e-01 -3.499313071370124817e-02 -1.867875829339027405e-02 -2.146249078214168549e-02 1.070749834179878235e-01 -6.079468503594398499e-02 -3.283485397696495056e-02 -2.765980549156665802e-02 -6.485129147768020630e-02 1.085752248764038086e-01 -3.981199115514755249e-02 7.420662790536880493e-02 8.671867847442626953e-02 1.923419386148452759e-01 1.365807056427001953e-01 -1.556883603334426880e-01 2.226407639682292938e-02 -4.825337231159210205e-02 -1.037440970540046692e-01 -1.342469640076160431e-02 1.206642016768455505e-01 6.446006149053573608e-02 -4.962304234504699707e-02 -1.241019740700721741e-01 1.431317776441574097e-01 4.106089472770690918e-02 -9.358092397451400757e-02 -1.031979098916053772e-01 1.312357336282730103e-01 7.115119695663452148e-02 2.310127764940261841e-02 4.296493716537952423e-03 -2.061476185917854309e-02 -6.714561581611633301e-02 9.744780510663986206e-02 7.152327895164489746e-02 1.138947829604148865e-01 6.445172242820262909e-03 1.690700352191925049e-01 6.217411253601312637e-03 -7.614773511886596680e-02 -3.989022970199584961e-02 -2.819730155169963837e-02 4.239027947187423706e-02 1.265275627374649048e-01 3.440246731042861938e-02 -2.647412242367863655e-03 -1.250570267438888550e-02 -5.288477987051010132e-02 1.837454363703727722e-02 -7.033120095729827881e-02 -8.380601555109024048e-02 5.360202118754386902e-02 -7.938332855701446533e-02 -6.033404543995857239e-02 6.795491278171539307e-02 7.828385382890701294e-02 1.500242855399847031e-02 -4.476718977093696594e-02 1.157792471349239349e-02 3.566632792353630066e-02 1.968747675418853760e-01 3.853084892034530640e-02 1.089784204959869385e-01 -6.897740066051483154e-02 -7.019234448671340942e-02 -1.033453363925218582e-02 -1.406879872083663940e-01 -2.559803240001201630e-02 -2.081373706459999084e-02 1.533591840416193008e-02 -1.747580617666244507e-01 6.219755485653877258e-02 -7.970749586820602417e-02 -1.166749652475118637e-02 6.763709336519241333e-02 5.957284942269325256e-02 -1.319141834974288940e-01 -1.789242774248123169e-01 4.773634951561689377e-03 -9.001406282186508179e-02 -8.581066876649856567e-02 -5.735638551414012909e-04 -4.402567166835069656e-03 2.893326058983802795e-02 1.014907285571098328e-01 3.264771774411201477e-02 -6.845737993717193604e-02 -1.024733111262321472e-01 -9.170499444007873535e-02 5.124381184577941895e-02 8.800709247589111328e-02 6.374572403728961945e-04 8.721465617418289185e-02 4.988831654191017151e-02 -5.336035415530204773e-02 -7.405777275562286377e-02 4.695612192153930664e-02 -4.115412384271621704e-02 -4.214256256818771362e-02 -5.448626819998025894e-03 -9.103895723819732666e-02 1.722021549940109253e-01 -1.208754107356071472e-01 6.730912625789642334e-02 4.354934394359588623e-02 -6.812390685081481934e-02 2.046501263976097107e-02 2.580598695203661919e-03 1.733215600252151489e-01 1.798567920923233032e-02 1.615157127380371094e-01 -8.310639858245849609e-02 -2.037038467824459076e-02 -4.857247695326805115e-02 8.459767699241638184e-02 2.301754057407379150e-01 -8.007504791021347046e-02 4.730920493602752686e-02 -5.249369144439697266e-02 8.438443392515182495e-02 -7.123789284378290176e-03 4.279798641800880432e-02 8.212450891733169556e-02 -2.207508683204650879e-02 8.415697515010833740e-02 -5.298181250691413879e-02 8.159790188074111938e-02 -1.189713776111602783e-01 9.919629432260990143e-03 -5.073282867670059204e-02 -1.956391036510467529e-01 1.298653893172740936e-02 6.791059672832489014e-02 3.686336427927017212e-02 1.298170238733291626e-01 1.818003319203853607e-02 1.513876765966415405e-01 -1.088942363858222961e-01 8.369240909814834595e-02 8.380219340324401855e-02 -5.286736413836479187e-03 4.863418266177177429e-02 -8.397600054740905762e-02 -2.573620975017547607e-01 1.606944054365158081e-01 -4.587770998477935791e-02 1.154728531837463379e-01 2.717829309403896332e-02 -5.072371661663055420e-02 7.709942758083343506e-02 -1.311428099870681763e-01 1.965351030230522156e-02 -2.057353258132934570e-01 -1.455341428518295288e-01 -3.503898531198501587e-02 -8.813419938087463379e-02 -1.055554300546646118e-01 1.399427652359008789e-02 -1.058493778109550476e-01 3.272053226828575134e-02 -7.832134515047073364e-02 1.650412529706954956e-01 8.676894940435886383e-03 -8.841571956872940063e-02 1.571486443281173706e-01 8.324357122182846069e-02 -4.645201936364173889e-02 -7.404641946777701378e-04 7.586456835269927979e-02 4.080946743488311768e-02 1.206771880388259888e-01 -8.611567318439483643e-02 -1.469020694494247437e-01 -8.734469860792160034e-02 7.275306433439254761e-02 1.248765154741704464e-03 -8.673912845551967621e-03 9.696571156382560730e-03 3.575501218438148499e-02 -6.706128269433975220e-02 -1.306252926588058472e-01 1.046983059495687485e-02 6.902441382408142090e-02 7.459387183189392090e-02 2.243582904338836670e-02 4.568231478333473206e-02 1.465796828269958496e-01 -1.135154291987419128e-01 1.162542030215263367e-01 1.079268474131822586e-02 1.891207396984100342e-01 2.153521031141281128e-02 -1.786423474550247192e-02 -1.110826432704925537e-01 -5.740006268024444580e-02 -8.247660845518112183e-02 1.219775453209877014e-01 2.215741761028766632e-02 1.391590982675552368e-01 -1.028341948986053467e-01 -6.256661145016551018e-04 -6.722690165042877197e-02 -1.336976736783981323e-01 6.251802295446395874e-02 -1.874049752950668335e-02 -4.822264239192008972e-02 -3.051852248609066010e-02 -2.914153598248958588e-02 -2.372307330369949341e-02 3.449271246790885925e-02 -3.797560185194015503e-02 3.537104278802871704e-02 -7.759289443492889404e-02 1.010554358363151550e-01 -8.725327253341674805e-02 -1.281796246767044067e-01 -1.078140139579772949e-01 -2.249912545084953308e-02 2.727424027398228645e-03 2.076159976422786713e-02 -2.260707318782806396e-02 1.757176220417022705e-01 -1.109742820262908936e-01 -1.197098270058631897e-01 -1.538887852802872658e-03 -6.544691044837236404e-03 1.892157196998596191e-01 1.981406845152378082e-02 1.226880252361297607e-01 -1.225898414850234985e-01 -3.954266384243965149e-02 -2.925752662122249603e-02 -1.136836335062980652e-01 -8.419681340456008911e-02 -1.066043823957443237e-01 -1.463903039693832397e-01 8.147421479225158691e-02 8.861675113439559937e-02 -8.876895159482955933e-02 -8.273296058177947998e-02 -8.108539879322052002e-02 -1.236814931035041809e-01 6.111361086368560791e-02 3.961958363652229309e-02 -6.338039040565490723e-02 4.056470841169357300e-02 7.424019277095794678e-02 2.345372550189495087e-02 -2.533891424536705017e-02 4.626881703734397888e-02 1.797675527632236481e-02 1.584339290857315063e-01 -6.742685288190841675e-02 -8.124484121799468994e-02
8.658784627914428711e-02 -2.074685133993625641e-02 4.108037054538726807e-02 7.200847566127777100e-02 6.984879076480865479e-02 -9.296353161334991455e-02 -4.852917417883872986e-02 1.269450932741165161e-01 2.486189827322959900e-02 3.413628786802291870e-02 3.016802482306957245e-03 1.883384399116039276e-02 -7.446575909852981567e-02 1.599577069282531738e-01 -3.999704960733652115e-03 8.884245529770851135e-03 6.803138554096221924e-02 9.108030050992965698e-02 5.462725833058357239e-02 1.879980117082595825e-01 8.132467418909072876e-02 -3.489585220813751221e-02 6.187765300273895264e-02 9.034299105405807495e-02 1.804912835359573364e-01 -1.374197006225585938e-01 -1.689867973327636719e-01 1.302348729223012924e-02 -1.349075585603713989e-01 -7.950684428215026855e-02 3.413251787424087524e-02 4.727477580308914185e-02 -4.449941217899322510e-03 7.980243302881717682e-03 2.844509109854698181e-02 -2.197830192744731903e-02 -1.614659279584884644e-01 9.653116576373577118e-03 -5.950096528977155685e-03 -1.060340460389852524e-02 -2.570552192628383636e-02 -1.214210614562034607e-01 -7.937555015087127686e-02 -7.800024934113025665e-03 -7.347317785024642944e-02 -1.268599629402160645e-01 1.885395869612693787e-02 1.250867079943418503e-02 -6.623975187540054321e-02 1.057343408465385437e-01 4.289881512522697449e-02 -2.427464351058006287e-02 -7.574610412120819092e-02 7.181818783283233643e-02 3.684530779719352722e-02 1.017667800188064575e-01 1.322482973337173462e-01 -1.657604426145553589e-01 2.069523371756076813e-02 8.905825018882751465e-02 4.924707114696502686e-02 -4.183819517493247986e-02 -4.366563633084297180e-02 4.628926143050193787e-02 2.314303070306777954e-03 -6.673830095678567886e-03 -9.833669662475585938e-02 1.295727938413619995e-01 1.054401546716690063e-01 -3.935400024056434631e-02 1.574035435914993286e-01 -2.928839623928070068e-02 -3.970618918538093567e-02 -6.503296643495559692e-02 1.229400932788848877e-02 -2.202733904123306274e-01 -4.474950581789016724e-02 -5.412305146455764771e-02 -8.112626522779464722e-02 -1.307276636362075806e-02 4.035577550530433655e-02 -5.667299404740333557e-02 -9.800665825605392456e-02 6.225604563951492310e-02 -6.965347379446029663e-02 1.471458673477172852e-01 -7.324811816215515137e-02 4.917277768254280090e-02 -2.010091245174407959e-01 7.424261420965194702e-02 -2.555308640003204346e-01 1.220505312085151672e-02 -1.033765152096748352e-01 3.101643733680248260e-02 -9.737184643745422363e-02 -5.280456389300525188e-04 5.200890079140663147e-02 -6.751638650894165039e-02 -1.164982393383979797e-01 -4.203964490443468094e-03 -2.406821399927139282e-02 9.275051206350326538e-02 -2.883778139948844910e-02 -5.199226737022399902e-02 2.361884713172912598e-02 8.392313495278358459e-03 -5.213425680994987488e-02 -1.336994320154190063e-01 5.869379267096519470e-02 -1.012690737843513489e-01 1.289910674095153809e-01 3.165425360202789307e-02 3.527887165546417236e-02 -1.163673400878906250e-01 5.532843992114067078e-02 -6.343185156583786011e-02 6.156354397535324097e-02 8.592446334660053253e-03 -1.368685364723205566e-01 1.322977431118488312e-02 -4.264105483889579773e-02 8.645454794168472290e-02 1.916873268783092499e-02 -6.271559000015258789e-02 -6.886621564626693726e-02 -2.428248152136802673e-02 3.101365827023983002e-02 -2.065893113613128662e-01 4.000768531113862991e-03 -8.661081641912460327e-02 3.549502417445182800e-02 -3.117140196263790131e-02 4.705500602722167969e-02 2.859762124717235565e-02 5.930960178375244141e-02 -5.130678042769432068e-02 8.276702463626861572e-02 4.885101318359375000e-02 -1.342204120010137558e-02 -9.923571348190307617e-02 -9.828082472085952759e-02 2.307349070906639099e-02 1.419915258884429932e-02 -4.784363787621259689e-03 2.208681553602218628e-01 5.153662338852882385e-02 8.397687971591949463e-02 1.102417483925819397e-01 1.843860596418380737e-01 -2.508133277297019958e-02 5.772506818175315857e-03 -5.065031349658966064e-02 -7.561893016099929810e-02 -1.074005216360092163e-01 4.071935638785362244e-02 -2.075410783290863037e-01 -1.234497576951980591e-01 -9.195969253778457642e-02 9.917894750833511353e-02 9.851372241973876953e-02 -1.441194768995046616e-02 9.648022823967039585e-04 7.310167700052261353e-02 4.400710761547088623e-02 1.829975396394729614e-01 -2.199243009090423584e-01 -1.208674814552068710e-02 -6.691963970661163330e-02 6.039140373468399048e-02 -8.470935374498367310e-02 1.123399008065462112e-02 -1.725267320871353149e-01 -2.346457242965698242e-01 -3.425164148211479187e-02 8.402257412672042847e-02 5.936315655708312988e-02 -1.135804578661918640e-01 -3.401402384042739868e-02 -1.255706101655960083e-01 -7.977062463760375977e-02 -7.155650854110717773e-02 -5.174748599529266357e-02 5.326759442687034607e-02 -5.425600707530975342e-02 1.983537338674068451e-02 -2.016762644052505493e-01 1.476554572582244873e-01 -9.748984873294830322e-02 1.062478125095367432e-02 -1.560109108686447144e-01 3.830180689692497253e-02 3.200217708945274353e-02 -1.492290571331977844e-02 -1.588358283042907715e-01 -2.156855724751949310e-02 6.102923303842544556e-02 -1.350840777158737183e-01 -1.151933670043945312e-01 -2.109277099370956421e-01 -3.485908731818199158e-02 -3.558779135346412659e-02 -2.381644677370786667e-03 -1.725979298353195190e-01 -2.825511619448661804e-02 5.487480014562606812e-02 -9.791881591081619263e-02 1.597759872674942017e-02 -1.087846904993057251e-01 -1.000301763415336609e-01 -7.456347346305847168e-03 -7.137131690979003906e-02 9.675465524196624756e-02 -9.220767021179199219e-02 2.040753513574600220e-02 -5.724591016769409180e-02 4.439413174986839294e-02 4.356876015663146973e-02 -1.228014677762985229e-01 -1.006127744913101196e-01 -1.527310162782669067e-01 3.982604667544364929e-02 2.026231288909912109e-01 -2.402008697390556335e-02 -2.373699098825454712e-02 -1.003115922212600708e-01 4.096921160817146301e-02 -9.692293405532836914e-02 -8.340767584741115570e-03 1.361767947673797607e-01 -1.251094639301300049e-01 -5.266121029853820801e-02 7.775731384754180908e-02 6.037909537553787231e-03 4.603487998247146606e-02 -1.154538020491600037e-01 -1.015727408230304718e-02 -5.435971915721893311e-02 -4.054346587508916855e-03 8.349229395389556885e-02 -1.285207718610763550e-01 4.283368960022926331e-02 -4.561887681484222412e-02 -4.928021505475044250e-02 3.086777962744235992e-02 1.458548381924629211e-02 7.045843452215194702e-02 3.623766079545021057e-02 9.813775308430194855e-03 7.249734550714492798e-02 2.543995715677738190e-02 -1.306945383548736572e-01 -2.249951846897602081e-02 7.355033606290817261e-02 5.655381828546524048e-02 -1.685122847557067871e-01 1.252884715795516968e-01
2.193331159651279449e-02 1.318930685520172119e-01 -2.073658816516399384e-02 -5.657691881060600281e-02 -6.907919794321060181e-02 7.167504169046878815e-03 -1.440697349607944489e-03 -9.631642699241638184e-02 -3.438552469015121460e-02 1.245949268341064453e-01 -8.864741027355194092e-02 -9.514043480157852173e-02 -5.917048826813697815e-02 -6.084138900041580200e-02 9.290337562561035156e-02 1.029286906123161316e-01 4.300429299473762512e-02 -3.924740478396415710e-03 2.300587110221385956e-02 -2.616418898105621338e-02 -8.615628629922866821e-02 -1.872571557760238647e-01 -1.644667237997055054e-01 7.811930496245622635e-03 1.391535392031073570e-03 -5.554821109399199486e-04 8.429627865552902222e-02 1.232905313372612000e-01 8.373292535543441772e-02 -1.298431456089019775e-01 2.466801553964614868e-02 -3.937660902738571167e-02 -7.834482938051223755e-02 6.907646358013153076e-02 1.372657865285873413e-01 -8.845946937799453735e-02 8.106529712677001953e-03 -5.191828310489654541e-02 -9.894184768199920654e-02 1.152013614773750305e-01 -2.097621560096740723e-02 9.332568943500518799e-02 -1.257193973287940025e-03 -3.763946145772933960e-02 -6.355057936161756516e-03 4.285850003361701965e-02 4.174176231026649475e-02 -1.161908656358718872e-01 -1.526031177490949631e-02 -7.502545416355133057e-02 -1.712453365325927734e-01 -6.587968766689300537e-02 -1.140943318605422974e-01 -2.795639820396900177e-02 4.738109558820724487e-02 2.021499909460544586e-02 -4.431891441345214844e-02 6.585833430290222168e-02 -1.026780381798744202e-01 1.441968530416488647e-01 6.556023657321929932e-02 2.892479859292507172e-02 -5.874280259013175964e-02 1.259939521551132202e-01 2.677767276763916016e-01 -9.857430309057235718e-02 1.122266724705696106e-01 -3.194959089159965515e-02 9.125585108995437622e-02 -6.382878869771957397e-02 3.040182031691074371e-02 -5.690301302820444107e-03 -1.160910725593566895e-01 9.115899354219436646e-02 1.134339049458503723e-01 -8.244682848453521729e-02 3.243124857544898987e-02 -1.045794188976287842e-01 1.169811189174652100e-01 -1.582377552986145020e-01 -2.991316467523574829e-02 2.043615654110908508e-02 -3.769726678729057312e-02 -9.982084482908248901e-02 -1.400495413690805435e-02 6.172288581728935242e-02 1.899100095033645630e-01 -3.115506842732429504e-03 1.453768461942672729e-01 -7.119616121053695679e-02 2.317040786147117615e-02 -1.644624047912657261e-03 5.527752265334129333e-02 -1.463777385652065277e-02 -9.599651396274566650e-02 1.284517347812652588e-01 5.279394239187240601e-02 -3.193589299917221069e-02 -7.804340869188308716e-02 -6.420053541660308838e-02 -1.349193751811981201e-01 1.004006937146186829e-01 -3.898648172616958618e-02 1.090293470770120621e-02 -1.376311779022216797e-01 -9.203941375017166138e-02 4.250850528478622437e-02 9.381470084190368652e-02 -1.816133707761764526e-01 -9.630846977233886719e-02 -4.694871604442596436e-02 1.101597845554351807e-01 -6.291459500789642334e-02 4.470820724964141846e-02 5.342911556363105774e-02 -4.806882515549659729e-02 -1.371488571166992188e-01 8.213119208812713623e-02 4.903025925159454346e-02 1.119393631815910339e-01 -8.718290925025939941e-02 2.154795527458190918e-01 1.621447056531906128e-01 -2.512763254344463348e-02 1.293605268001556396e-01 9.809615463018417358e-02 -4.397616907954216003e-02 -8.336050808429718018e-02 8.763188123703002930e-02 -1.057716459035873413e-02 6.089284643530845642e-02 6.496243178844451904e-02 1.740863919258117676e-01 -7.421741634607315063e-02 -1.199917644262313843e-01 -8.138721436262130737e-02 -1.105209589004516602e-01 -9.102066606283187866e-02 2.013058960437774658e-02 -4.850992932915687561e-02 -3.618304803967475891e-02 5.880952626466751099e-02 -2.243427932262420654e-01 4.164748266339302063e-02 -1.164121925830841064e-02 2.812363021075725555e-02 2.863562107086181641e-02 7.321131974458694458e-02 1.552442461252212524e-01 -8.473608642816543579e-02 1.545531395822763443e-02 4.932437464594841003e-02 6.190697476267814636e-02 9.189011156558990479e-02 6.759183853864669800e-02 -1.436270028352737427e-01 1.366239339113235474e-01 -1.498626079410314560e-02 -1.676778644323348999e-01 -2.817266806960105896e-02 8.806505799293518066e-02 1.418483555316925049e-01 1.120028831064701080e-02 -5.418681725859642029e-02 1.566551066935062408e-02 7.439741492271423340e-02 -7.009688764810562134e-02 -3.278031200170516968e-02 1.850287616252899170e-02 1.396206915378570557e-01 -6.049159914255142212e-02 1.235803812742233276e-01 -6.048553809523582458e-02 -4.469877853989601135e-02 -3.611074760556221008e-02 -4.289868846535682678e-02 -6.040711700916290283e-02 2.693815156817436218e-02 1.841357052326202393e-01 -1.208093464374542236e-01 2.232284657657146454e-02 -9.185027331113815308e-02 -1.719642877578735352e-01 -1.977121978998184204e-01 2.800732292234897614e-02 3.959560394287109375e-02 -1.785915344953536987e-01 -2.582791261374950409e-02 -5.180492624640464783e-02 5.503213405609130859e-02 -4.590559005737304688e-02 -2.710667625069618225e-02 -3.545066714286804199e-02 -7.115153223276138306e-02 -3.484450653195381165e-02 1.181956827640533447e-01 7.610071450471878052e-02 -3.679256141185760498e-02 -1.510987728834152222e-01 9.367968142032623291e-02 -2.670081146061420441e-02 1.437833905220031738e-01 -1.349766366183757782e-02 1.808005198836326599e-02 -4.707534983754158020e-02 3.480521216988563538e-02 -8.261139690876007080e-02 2.627026289701461792e-02 9.934406727552413940e-02 -5.731339007616043091e-02 -1.194741427898406982e-01 -1.454671025276184082e-01 -4.405616596341133118e-02 6.890281569212675095e-03 -1.082605868577957153e-01 -1.288842707872390747e-01 2.402929775416851044e-02 -1.121737509965896606e-01 5.967851728200912476e-02 -9.813277423381805420e-02 -8.429144322872161865e-02 -2.113061025738716125e-02 2.694219537079334259e-02 1.520605534315109253e-01 -5.486571043729782104e-02 1.776708513498306274e-01 -1.113762781023979187e-01 -7.665720582008361816e-02 -6.452147848904132843e-03 -9.838052093982696533e-02 4.777418076992034912e-02 -3.705715388059616089e-02 6.639063358306884766e-02 -8.376241475343704224e-02 -2.344649843871593475e-02 -1.197027564048767090e-01 -2.102294564247131348e-02 -3.754933178424835205e-02 9.169349819421768188e-02 -1.226282343268394470e-01 3.564010187983512878e-02 9.685366414487361908e-03 -1.240183878690004349e-02 1.602764576673507690e-01 5.121056456118822098e-03 -8.018203079700469971e-02 -1.974830962717533112e-02 4.680354148149490356e-02 -8.660679310560226440e-02 -4.611602518707513809e-03 -7.646754384040832520e-02 4.174120724201202393e-02 1.536387056112289429e-01 -2.618846483528614044e-02 -1.405492275953292847e-01 -2.137690596282482147e-02
-5.541769787669181824e-02 -5.020951107144355774e-02 -1.175075471401214600e-01 6.672035157680511475e-02 -1.386509835720062256e-01 7.451043277978897095e-02 5.858075246214866638e-02 9.163588285446166992e-02 5.347623676061630249e-02 5.440081283450126648e-02 2.061965502798557281e-02 9.400506317615509033e-02 -9.984188526868820190e-02 1.600507460534572601e-02 -4.692364111542701721e-02 1.364766359329223633e-01 1.155447885394096375e-01 -5.091008543968200684e-02 4.469039663672447205e-02 -2.675712481141090393e-02 -1.079095974564552307e-01 -4.467807337641716003e-02 5.703705176711082458e-02 2.938104979693889618e-02 6.631064694374799728e-03 -3.659012913703918457e-02 4.726657271385192871e-02 -1.632438041269779205e-02 -1.072828024625778198e-01 -7.983047515153884888e-03 -2.851200290024280548e-02 1.255398541688919067e-01 9.435113519430160522e-02 1.107572391629219055e-01 2.862539328634738922e-02 4.818554036319255829e-03 1.920685917139053345e-02 -4.421446099877357483e-02 7.739285379648208618e-02 -5.416354537010192871e-02 -3.065251372754573822e-02 -1.128745079040527344e-01 -1.182916983962059021e-01 -1.585902720689773560e-01 3.088811971247196198e-02 -4.272027686238288879e-02 2.088966518640518188e-01 -1.564607620239257812e-01 -3.559843078255653381e-02 8.748257532715797424e-03 -9.731753170490264893e-02 1.195591781288385391e-02 -1.582137867808341980e-02 -3.849190101027488708e-02 2.250218987464904785e-01 3.403324633836746216e-02 7.635601330548524857e-03 -4.991790279746055603e-02 -4.532639682292938232e-02 3.300578333437442780e-03 1.562381386756896973e-01 -2.733477763831615448e-02 -2.518330514430999756e-02 -1.855096071958541870e-01 -1.240260992199182510e-02 8.102074265480041504e-02 6.100429967045783997e-02 -2.007361948490142822e-01 -1.044304370880126953e-01 1.001789886504411697e-02 -1.419490724802017212e-01 -5.519349500536918640e-02 9.502025693655014038e-02 5.880834534764289856e-02 -1.171740964055061340e-01 1.667914688587188721e-01 -6.473994255065917969e-02 -2.909779362380504608e-02 1.563327312469482422e-01 -4.142981022596359253e-02 1.114029213786125183e-01 2.383520267903804779e-02 -1.042777672410011292e-01 -2.065361887216567993e-01 4.630483314394950867e-02 1.699635088443756104e-01 5.072427447885274887e-04 -1.394039485603570938e-02 -1.988897323608398438e-01 -9.102576971054077148e-02 1.226660162210464478e-01 -4.732548072934150696e-02 -6.926272064447402954e-02 7.523800246417522430e-03 -4.745254665613174438e-02 -6.422413885593414307e-02 -1.508063077926635742e-01 -1.336727440357208252e-01 1.445491239428520203e-02 -1.063636038452386856e-02 1.140147149562835693e-01 6.968879699707031250e-02 -6.777842342853546143e-02 -1.292258054018020630e-01 3.939373418688774109e-02 -3.151299431920051575e-02 1.473692059516906738e-01 -1.228735893964767456e-01 -5.971787869930267334e-02 -9.023301303386688232e-02 -4.299819935113191605e-03 9.443410485982894897e-02 1.371186133474111557e-02 6.616846472024917603e-02 1.179166436195373535e-01 -6.817984580993652344e-02 3.958160802721977234e-02 5.319805443286895752e-02 -1.319523155689239502e-02 9.179804474115371704e-02 6.546931341290473938e-03 -1.014202162623405457e-01 -7.457525469362735748e-03 3.053935430943965912e-02 1.630235090851783752e-02 4.116254672408103943e-02 1.300655305385589600e-01 -2.110935598611831665e-01 -5.253499746322631836e-02 2.185440994799137115e-02 -5.661283060908317566e-02 -3.530655801296234131e-02 -1.178779304027557373e-01 1.390887051820755005e-02 7.379093021154403687e-02 6.858359277248382568e-02 3.011007606983184814e-02 -9.573329985141754150e-02 9.496207535266876221e-02 -8.746809908188879490e-04 -7.624103128910064697e-02 2.409546822309494019e-02 -1.183141767978668213e-01 -1.204555258154869080e-01 -5.604182556271553040e-02 -4.687467962503433228e-02 1.332015246152877808e-01 3.029732499271631241e-03 -3.199694305658340454e-02 -3.742459788918495178e-02 1.252111606299877167e-02 1.098100617527961731e-01 -7.945545762777328491e-02 1.017120555043220520e-01 7.164084911346435547e-02 4.087391495704650879e-02 9.895859286189079285e-03 -3.933458775281906128e-02 -1.791655644774436951e-02 -4.739260766655206680e-03 3.458890318870544434e-02 1.653557866811752319e-01 8.392913639545440674e-02 -6.179190427064895630e-02 7.975180447101593018e-02 -5.699405074119567871e-02 -8.538219332695007324e-02 -1.049992740154266357e-01 9.134627878665924072e-03 -1.045826636254787445e-02 -1.351707279682159424e-01 2.813116647303104401e-02 1.978757232427597046e-02 1.512090861797332764e-01 -1.192871015518903732e-02 4.610227420926094055e-02 7.552630454301834106e-02 6.528166122734546661e-03 1.018525063991546631e-01 -6.400854885578155518e-02 -1.175974458456039429e-01 1.233056634664535522e-01 -1.149490401148796082e-01 1.264381557703018188e-01 -3.905580192804336548e-02 6.707636266946792603e-02 -7.023352384567260742e-02 -1.417539920657873154e-02 1.923587173223495483e-02 1.663974486291408539e-02 -9.631374478340148926e-02 1.435330808162689209e-01 1.267442479729652405e-02 -1.710729300975799561e-01 -9.729923307895660400e-02 -7.619093358516693115e-02 -1.305477321147918701e-01 5.036661773920059204e-02 8.138392120599746704e-02 5.389469489455223083e-02 5.420852079987525940e-02 -1.784524619579315186e-01 5.297439545392990112e-02 -4.271185770630836487e-02 1.928415447473526001e-01 -2.076528817415237427e-01 9.792456775903701782e-02 -1.548502873629331589e-02 3.003631345927715302e-02 1.557560861110687256e-01 1.177884787321090698e-01 -1.488010585308074951e-01 -7.936069741845130920e-03 -8.600861579179763794e-02 7.471428252756595612e-03 -5.971708893775939941e-02 -1.354344189167022705e-01 6.034330278635025024e-02 -3.001973405480384827e-02 1.211154833436012268e-01 3.835904598236083984e-02 1.164353266358375549e-01 -4.872252419590950012e-02 3.839359804987907410e-02 -7.377559784799814224e-03 6.336143612861633301e-02 -1.693635880947113037e-01 -1.917261034250259399e-01 -1.258496791124343872e-01 1.755679696798324585e-01 -9.909683465957641602e-02 4.851533472537994385e-02 1.533374339342117310e-01 5.479735136032104492e-02 6.789026316255331039e-03 3.985256329178810120e-02 -6.976068764925003052e-02 -1.008323282003402710e-01 1.471158675849437714e-02 1.133292634040117264e-02 -2.924696914851665497e-02 -4.652509093284606934e-02 -9.725216776132583618e-02 -2.833947911858558655e-02 5.044728517532348633e-02 5.340193212032318115e-02 -1.094975620508193970e-01 9.835821390151977539e-02 6.104671210050582886e-02 2.652029041200876236e-03 4.354782029986381531e-02 1.159340701997280121e-02 4.419421404600143433e-02 -2.487317286431789398e-02 9.195271879434585571e-02 1.565406471490859985e-01
4.279761109501123428e-03 -2.612024918198585510e-02 -1.560158282518386841e-01 -4.298769310116767883e-02 -9.071088582277297974e-02 7.842815667390823364e-02 -4.499636963009834290e-02 1.396155357360839844e-01 -6.634528189897537231e-02 -1.196804828941822052e-02 1.542274747043848038e-02 3.197962045669555664e-02 -4.813559725880622864e-02 1.439055055379867554e-01 -6.260021030902862549e-02 1.206334605813026428e-01 1.009514741599559784e-02 -1.721587181091308594e-01 1.277913749217987061e-01 -9.893859922885894775e-02 -4.142950288951396942e-03 -7.107470929622650146e-02 -3.968444466590881348e-02 -1.047207936644554138e-01 -7.512608077377080917e-03 6.995408236980438232e-02 1.862248480319976807e-01 7.985462993383407593e-02 4.729150328785181046e-03 6.981643289327621460e-02 -1.013530716300010681e-01 -3.618928417563438416e-02 4.421747848391532898e-02 3.793356940150260925e-02 -7.415767759084701538e-02 -8.906052261590957642e-02 1.627661287784576416e-01 2.406419999897480011e-02 -5.904041975736618042e-02 8.919277228415012360e-03 -3.335993364453315735e-02 -4.412230849266052246e-02 1.821142286062240601e-01 6.200321018695831299e-02 7.702259812504053116e-03 3.769137337803840637e-02 9.584598243236541748e-02 -7.356390357017517090e-02 -2.958961389958858490e-02 -2.272171229124069214e-01 2.366096973419189453e-01 -3.245465457439422607e-02 1.291322261095046997e-01 -4.427365958690643311e-02 -3.724386543035507202e-02 9.239488840103149414e-02 3.190812841057777405e-02 -1.666552424430847168e-01 -9.143736958503723145e-02 -1.946924068033695221e-02 1.096003502607345581e-01 1.896850466728210449e-01 -8.983931690454483032e-02 7.906270027160644531e-02 1.713361740112304688e-01 -9.085659682750701904e-02 1.016143336892127991e-01 1.234118565917015076e-01 4.913731291890144348e-02 1.477068290114402771e-02 2.207967825233936310e-02 1.851825863122940063e-01 -7.357867900282144547e-03 -9.576662629842758179e-02 -3.876357153058052063e-02 -5.853610485792160034e-02 -7.270814478397369385e-02 1.463778503239154816e-02 -8.211158215999603271e-03 -5.236784741282463074e-02 -1.767517440021038055e-02 3.501920029520988464e-02 6.648428738117218018e-02 4.650999233126640320e-02 -6.327344477176666260e-02 -4.401717334985733032e-02 -6.448288261890411377e-02 1.585867814719676971e-02 1.697728782892227173e-02 2.355397306382656097e-02 1.430987380445003510e-02 8.555638603866100311e-03 -2.716599032282829285e-03 9.396835416555404663e-02 3.208520589396357536e-03 -1.535678375512361526e-02 1.346079707145690918e-01 -2.746556885540485382e-02 -2.359125018119812012e-01 6.684620678424835205e-02 -3.920953348278999329e-02 3.833007067441940308e-02 -1.796299032866954803e-02 2.647210098803043365e-02 -1.654944419860839844e-01 1.262119710445404053e-01 2.553825825452804565e-02 7.395556569099426270e-02 1.174631994217634201e-02 -5.464018136262893677e-02 1.541075576096773148e-02 1.057905927300453186e-01 7.707409560680389404e-02 6.509325467050075531e-03 -1.026957333087921143e-01 3.234595805406570435e-02 8.535714447498321533e-02 -8.313299715518951416e-02 6.997527927160263062e-02 -1.647569239139556885e-01 9.047499299049377441e-02 -6.470091640949249268e-02 -3.481080010533332825e-02 4.842005670070648193e-02 5.241977050900459290e-02 -5.491638556122779846e-03 -2.514670044183731079e-02 1.142870485782623291e-01 -4.201893229037523270e-03 4.875869955867528915e-03 4.990589618682861328e-02 1.122149452567100525e-01 1.927732676267623901e-02 5.553447827696800232e-02 9.556522965431213379e-02 -1.500054150819778442e-01 1.476653069257736206e-01 -4.694934189319610596e-02 -6.605283170938491821e-02 -3.499672189354896545e-02 -9.748448431491851807e-02 -8.183544129133224487e-02 -3.852145001292228699e-02 -1.606141477823257446e-01 -9.219444543123245239e-02 1.246583275496959686e-02 3.415340092033147812e-03 -7.613268215209245682e-03 -2.491442672908306122e-02 -2.001468278467655182e-02 -9.964171797037124634e-02 6.806822959333658218e-03 2.352043427526950836e-02 -7.314252108335494995e-02 2.921987697482109070e-02 -2.950916625559329987e-02 3.819006495177745819e-03 2.632792748045176268e-04 -1.275640539824962616e-02 -3.165391087532043457e-02 2.194934040307998657e-01 2.668066620826721191e-01 5.859273299574851990e-02 -1.584313809871673584e-03 -5.044386908411979675e-02 -5.383943021297454834e-02 4.754439368844032288e-02 -1.745415627956390381e-01 2.176770754158496857e-02 -1.309439390897750854e-01 6.683311425149440765e-03 -1.568299829959869385e-01 -1.742365211248397827e-01 4.711487144231796265e-02 1.007286924868822098e-02 -6.987306475639343262e-02 1.047334540635347366e-02 1.058366671204566956e-01 -2.612014487385749817e-02 2.334081567823886871e-02 -2.016632445156574249e-02 1.085383892059326172e-01 -1.097316965460777283e-01 1.063864752650260925e-01 1.303074806928634644e-01 2.461728081107139587e-02 3.216800279915332794e-03 -2.332396572455763817e-03 5.128543451428413391e-02 3.630000352859497070e-02 1.676683872938156128e-02 -8.506345562636852264e-03 1.112327724695205688e-01 -5.293328315019607544e-02 -1.215876713395118713e-01 -1.205718368291854858e-01 -5.745579674839973450e-02 -1.990658201975747943e-04 -3.037463128566741943e-02 7.251562178134918213e-02 -3.590383334085345268e-03 1.056608259677886963e-01 5.859724432229995728e-02 8.679464808665215969e-04 -2.167588658630847931e-02 1.571104377508163452e-01 -2.924787811934947968e-02 3.821295127272605896e-02 6.794150173664093018e-02 -3.117641434073448181e-02 -1.660782992839813232e-01 -1.676722802221775055e-02 1.803818792104721069e-01 9.506633132696151733e-02 8.144081383943557739e-02 -1.930737122893333435e-02 -1.890745013952255249e-01 1.043328121304512024e-01 -1.186135932803153992e-01 4.366571083664894104e-03 1.045863255858421326e-01 -6.212213635444641113e-02 -3.249405696988105774e-02 -1.173538863658905029e-01 5.479850247502326965e-02 -1.984239667654037476e-01 1.554344501346349716e-02 1.377398055046796799e-02 -5.450278893113136292e-02 -2.944776415824890137e-02 -2.348755896091461182e-01 9.422990679740905762e-02 -1.287850141525268555e-01 4.169052094221115112e-02 7.345148921012878418e-02 -1.854058355093002319e-02 -1.521070450544357300e-01 -4.017476364970207214e-02 5.048215854912996292e-03 -8.431994915008544922e-02 1.689825952053070068e-01 -7.944998890161514282e-02 1.488832086324691772e-01 1.369054801762104034e-02 -1.369838863611221313e-01 2.142102457582950592e-02 -7.339730858802795410e-02 1.616828143596649170e-01 -5.584903806447982788e-02 6.390572339296340942e-02 -4.690805822610855103e-02 -2.851691283285617828e-02 -1.570235565304756165e-02 -5.491955950856208801e-02 -1.136153265833854675e-01 1.764552108943462372e-02
-6.680560857057571411e-02 1.023165360093116760e-01 -1.602354645729064941e-01 5.697694420814514160e-02 7.220989465713500977e-02 -9.214156866073608398e-02 1.473611500114202499e-02 -8.898078650236129761e-02 1.646479815244674683e-01 1.190617606043815613e-01 1.143085807561874390e-01 -5.986016988754272461e-02 -4.055093601346015930e-02 -1.179477870464324951e-01 7.952804118394851685e-02 4.763977974653244019e-02 1.098125427961349487e-01 -1.975008659064769745e-02 -7.726878672838211060e-02 -4.690532572567462921e-03 -1.067910045385360718e-01 4.378710314631462097e-02 -6.196260824799537659e-02 -4.697839170694351196e-02 5.016388371586799622e-02 9.565363079309463501e-02 -1.023899111896753311e-02 -1.513299625366926193e-02 2.478083781898021698e-02 6.442556157708168030e-03 6.471545994281768799e-02 -3.380594402551651001e-02 1.072697564959526062e-01 7.892459630966186523e-02 1.115079149603843689e-01 4.775911942124366760e-02 4.830260574817657471e-02 1.268843263387680054e-01 3.381586447358131409e-02 -1.157920137047767639e-01 -2.209289073944091797e-01 -1.166047751903533936e-01 1.717796623706817627e-01 1.525628119707107544e-01 5.883649736642837524e-02 2.716506086289882660e-02 1.104608643800020218e-02 1.898019574582576752e-02 9.164157509803771973e-02 -1.509883254766464233e-01 -1.007371321320533752e-01 9.453487396240234375e-02 2.552356570959091187e-03 2.232735604047775269e-02 3.860143572092056274e-02 -5.696023255586624146e-02 1.177923381328582764e-01 -9.848144650459289551e-02 -6.986169517040252686e-02 -6.040813773870468140e-02 8.749584108591079712e-02 1.168033555150032043e-01 2.176083624362945557e-01 -1.084122061729431152e-01 4.418268054723739624e-02 2.645318768918514252e-02 -1.346663385629653931e-01 1.843510568141937256e-01 6.244730204343795776e-02 1.412015110254287720e-01 -5.378362163901329041e-02 4.416951164603233337e-02 3.924295306205749512e-03 8.146348595619201660e-02 1.004971042275428772e-01 1.990424096584320068e-01 4.630909860134124756e-02 6.920357793569564819e-02 -2.291890792548656464e-02 -4.844537749886512756e-02 6.215285509824752808e-02 9.525259584188461304e-02 6.602324545383453369e-02 -9.905880689620971680e-02 1.443901211023330688e-01 7.921325974166393280e-03 -2.079408243298530579e-02 1.182547286152839661e-01 -5.438952147960662842e-02 7.079785317182540894e-02 -5.323896184563636780e-02 7.384397089481353760e-02 5.761790275573730469e-02 1.951762288808822632e-02 -1.338272448629140854e-02 1.500872336328029633e-02 6.703224033117294312e-02 -1.392854452133178711e-01 -1.304656863212585449e-01 6.400924175977706909e-02 -7.465961971320211887e-04 7.297781109809875488e-02 1.261179745197296143e-01 1.342060416936874390e-02 -3.282313700765371323e-03 -1.187831312417984009e-01 -1.219711676239967346e-01 -1.750659644603729248e-01 5.090618506073951721e-03 4.479855671525001526e-02 3.314080834388732910e-02 5.568787828087806702e-02 7.928793877363204956e-02 4.904190450906753540e-02 2.219364047050476074e-02 2.945155836641788483e-02 1.684556454420089722e-01 1.056899130344390869e-02 1.119941356591880322e-03 -1.243512611836194992e-02 1.038028299808502197e-01 8.008723706007003784e-02 1.117869764566421509e-01 4.726038873195648193e-02 -5.018964782357215881e-02 -1.134430915117263794e-01 -1.357985893264412880e-03 1.489611864089965820e-01 -2.951250225305557251e-02 -9.074766933917999268e-02 -1.176226437091827393e-01 -1.344804279506206512e-02 1.133359689265489578e-02 -7.849127985537052155e-03 1.919942907989025116e-02 -9.759427607059478760e-02 -2.410400807857513428e-01 -5.244652554392814636e-02 6.481599807739257812e-02 7.978592813014984131e-02 -4.695286229252815247e-02 -1.094779819250106812e-01 -4.697557166218757629e-02 1.261640489101409912e-01 7.469130214303731918e-03 2.332258410751819611e-02 -1.225755438208580017e-01 6.338675320148468018e-02 7.493159174919128418e-02 9.305395931005477905e-02 5.231570452451705933e-02 2.363944798707962036e-02 1.807986944913864136e-01 -4.606772959232330322e-02 -8.287253230810165405e-02 -3.402572125196456909e-02 1.311317551881074905e-02 -8.752947300672531128e-02 1.103420108556747437e-01 1.271193623542785645e-01 -1.044335067272186279e-01 -8.954389393329620361e-02 -7.890437729656696320e-03 -1.028027683496475220e-01 -4.851104691624641418e-02 1.918423734605312347e-02 -1.482639312744140625e-01 -2.350622974336147308e-02 7.245534658432006836e-02 4.191868752241134644e-02 -2.125941216945648193e-02 -1.309287454932928085e-02 -6.231819838285446167e-02 5.173131078481674194e-02 -2.961018122732639313e-02 1.493471562862396240e-01 -9.125965647399425507e-03 -3.735211445018649101e-03 2.716885320842266083e-02 1.297787949442863464e-02 -7.394015043973922729e-02 -7.398775964975357056e-02 8.127663284540176392e-02 1.399532426148653030e-02 9.384088218212127686e-02 -1.970270182937383652e-03 -4.995924606919288635e-02 3.298611193895339966e-02 8.339542150497436523e-02 -2.113980054855346680e-02 -1.153664141893386841e-01 2.229387760162353516e-01 -1.146999597549438477e-01 1.955712400376796722e-02 -7.781618088483810425e-02 3.541183099150657654e-02 5.347348377108573914e-02 4.465640988200902939e-03 1.525904834270477295e-01 9.135962277650833130e-02 -9.550916403532028198e-02 4.317599907517433167e-02 -1.064889803528785706e-01 1.398298442363739014e-01 -2.717398107051849365e-01 -4.557104036211967468e-02 6.931273639202117920e-02 -1.867899894714355469e-01 1.049308031797409058e-01 2.498203702270984650e-02 1.096282601356506348e-01 -3.802861273288726807e-02 -1.044598873704671860e-02 -6.985132396221160889e-02 8.787444233894348145e-02 -1.312841847538948059e-02 -5.352139100432395935e-02 -1.495939195156097412e-01 1.290345489978790283e-01 -8.096257597208023071e-02 1.199554279446601868e-01 -3.489882498979568481e-02 -5.551842972636222839e-02 -5.853959918022155762e-02 -5.470757838338613510e-03 -4.563694447278976440e-02 -2.527546696364879608e-02 -4.786751791834831238e-02 -8.408512175083160400e-02 9.132971614599227905e-02 -1.316065434366464615e-02 -1.411116272211074829e-01 2.939627319574356079e-02 -6.474403291940689087e-02 -3.784694150090217590e-02 -2.280133217573165894e-02 -5.134953558444976807e-02 -1.704767718911170959e-02 1.167278960347175598e-01 -6.040773913264274597e-02 -5.967188999056816101e-02 -2.057811617851257324e-01 -5.606455728411674500e-02 -5.660943314433097839e-02 -6.273031979799270630e-02 1.287153214216232300e-01 1.359950006008148193e-02 -1.005202978849411011e-01 3.301344066858291626e-02 -5.508895590901374817e-02 5.978099629282951355e-02 1.835036650300025940e-02 -1.259738579392433167e-03 -1.625374555587768555e-01 -1.230323016643524170e-01 -4.814771562814712524e-02
