-7.833363115787506104e-02 -6.921711564064025879e-02 2.218090593814849854e-01 -5.964110046625137329e-02 4.683434963226318359e-02 -4.032537713646888733e-02 -2.021807618439197540e-02 -7.650798559188842773e-02 -1.769127845764160156e-01 5.428414791822433472e-02 -7.768643647432327271e-02 2.829091437160968781e-02 5.918657407164573669e-02 -7.700877636671066284e-02 6.096561998128890991e-02 1.211728248745203018e-02 3.621528623625636101e-03 -1.166713610291481018e-01 1.864790320396423340e-01 1.254196763038635254e-01 5.870938673615455627e-02 1.437121480703353882e-01 1.255259010940790176e-02 -1.940620392560958862e-01 4.836004227399826050e-02 1.397110968828201294e-01 2.048495225608348846e-02 3.437857143580913544e-03 -3.545781224966049194e-02 1.468258202075958252e-01 -8.962306380271911621e-02 -1.016530487686395645e-02 -2.744919247925281525e-02 -1.014801114797592163e-02 -7.616956532001495361e-02 -2.414668053388595581e-01 -5.183686036616563797e-03 -2.224264666438102722e-02 1.208801120519638062e-01 -3.472942486405372620e-02 -2.867461927235126495e-02 -4.690402373671531677e-02 -1.300894320011138916e-01 -1.467080414295196533e-01 -3.944925963878631592e-02 -7.690934091806411743e-02 -2.889974042773246765e-02 8.633162081241607666e-02 6.523683667182922363e-02 -1.876085996627807617e-02 -8.653057366609573364e-02 -6.770298350602388382e-03 -2.364173904061317444e-02 -1.813946366310119629e-01 -1.044214442372322083e-01 -5.134237557649612427e-02 1.137904450297355652e-01 6.085739657282829285e-02 9.231227636337280273e-02 -2.166786044836044312e-02 -5.979230999946594238e-02 -1.150591298937797546e-01 -1.229844093322753906e-01 -3.549937158823013306e-02 3.822470456361770630e-02 -9.029032289981842041e-02 7.832602411508560181e-02 -4.833618924021720886e-02 1.788893789052963257e-01 -6.241909414529800415e-02 1.200072020292282104e-01 7.116322219371795654e-02 -9.241213649511337280e-02 -5.230000987648963928e-02 -1.227401420474052429e-01 4.862552508711814880e-02 -3.765072226524353027e-01 -2.895850874483585358e-02 -4.128004983067512512e-02 6.124128587543964386e-03 -4.568745568394660950e-02 -5.668815225362777710e-02 3.645367547869682312e-02 -2.417071014642715454e-01 2.337240055203437805e-02 9.385365247726440430e-02 -1.798227727413177490e-01 4.354467615485191345e-02 2.400277182459831238e-02 8.594229072332382202e-02 -3.217938542366027832e-01 2.225791104137897491e-02 -1.050720140337944031e-01 7.225286960601806641e-02 3.930241242051124573e-02 -2.329273819923400879e-01 2.433123998343944550e-02 3.283267095685005188e-02 -1.206597983837127686e-01 -1.135747730731964111e-01 -5.591972917318344116e-02 -1.500501781702041626e-01 -4.806463420391082764e-02 -6.165269389748573303e-02 -4.488888382911682129e-02 8.058381080627441406e-02 -1.020595952868461609e-01 -6.724242866039276123e-02 -1.389381140470504761e-01 -8.680284023284912109e-02 1.023285090923309326e-01 -1.722059547901153564e-01 -5.265706032514572144e-02 7.127927988767623901e-02 1.722030341625213623e-02 -7.506021112203598022e-02 -1.162809729576110840e-01 1.468676477670669556e-01 7.262288033962249756e-02 -3.011678531765937805e-02 2.431626198813319206e-03 1.044707819819450378e-01 -7.777012884616851807e-02 -1.370740123093128204e-03 -3.157216357067227364e-03 7.059994339942932129e-02 -1.174662113189697266e-01 3.501130267977714539e-02 -1.069768071174621582e-01 -2.683721184730529785e-01 1.165593639016151428e-01 1.980853527784347534e-01 -5.115644261240959167e-02 -2.397466003894805908e-01 -3.981105238199234009e-02 -6.082642823457717896e-02 -8.422560244798660278e-02 3.692948073148727417e-02 3.095281310379505157e-02 4.338473454117774963e-02 -1.569473557174205780e-02 2.156993001699447632e-01 -3.853410482406616211e-02 6.765379011631011963e-02 -2.498761750757694244e-02 -1.116084083914756775e-01 1.450081914663314819e-02 6.587004661560058594e-02 -7.994017750024795532e-02 -8.993092924356460571e-03 -7.435218244791030884e-02 -8.665602654218673706e-02 1.006970740854740143e-02 -8.258048444986343384e-02 -2.568296156823635101e-03 4.978827387094497681e-02 1.298208087682723999e-01 -2.012943327426910400e-01 -1.291199475526809692e-01 -8.532246202230453491e-02 -7.083535939455032349e-02 -1.015423685312271118e-01 4.863525182008743286e-02 -1.277678608894348145e-01 -7.281386852264404297e-02 -5.862891674041748047e-02 -1.645966470241546631e-01 5.198932439088821411e-02 1.771671324968338013e-02 -5.346392840147018433e-02 -2.497536316514015198e-02 -2.793890051543712616e-02 -4.857930354773998260e-03 4.636102169752120972e-02 3.292787820100784302e-02 -9.150268882513046265e-02 -2.317156493663787842e-01 5.101675912737846375e-02 -2.271142229437828064e-02 -2.573731839656829834e-01 6.952324509620666504e-02 1.656626118347048759e-03 -6.144372373819351196e-02 -9.791937470436096191e-02 -2.305862009525299072e-01 2.545297704637050629e-02 -4.422467574477195740e-02 -9.433715045452117920e-02 8.505211770534515381e-02 -1.171425804495811462e-01 -1.685602813959121704e-01 5.172133445739746094e-02 -7.028531283140182495e-02 4.682066664099693298e-02 -3.192416951060295105e-02 -2.303870581090450287e-02 -1.252474337816238403e-01 -6.365425884723663330e-02 9.048023074865341187e-02 -2.064622007310390472e-03 3.390829265117645264e-02 7.866794243454933167e-03 -3.079533018171787262e-02 3.792062401771545410e-02 4.168681055307388306e-02 7.594315707683563232e-02 -4.814417660236358643e-02 1.311614662408828735e-01 -6.637640297412872314e-02 1.362158209085464478e-01 -2.411125600337982178e-02 -6.764055788516998291e-02 8.641435205936431885e-02 -9.359318017959594727e-02 -1.205341741442680359e-01 9.675137698650360107e-02 1.075629964470863342e-01 -9.252050518989562988e-02 7.831598818302154541e-02 1.054843589663505554e-01 -8.549372106790542603e-02 -1.053971704095602036e-02 -1.331486105918884277e-01 -1.026820391416549683e-02 9.615141898393630981e-03 8.916600048542022705e-02 -1.602665521204471588e-02 -3.993834182620048523e-02 1.796296052634716034e-02 3.037650510668754578e-02 -1.569993346929550171e-01 -5.214846879243850708e-02 1.569961011409759521e-02 -1.047902777791023254e-01 -8.710852265357971191e-02 -9.877150505781173706e-02 5.092682316899299622e-03 1.061161682009696960e-01 -1.745644956827163696e-01 1.175773423165082932e-02 1.452698651701211929e-02 -9.595520049333572388e-02 6.220038980245590210e-02 2.940860576927661896e-02 7.470192504115402699e-04 -8.902467042207717896e-02 -3.191700438037514687e-03 -2.202924489974975586e-01 -2.608374133706092834e-02 4.132752865552902222e-02 -2.022662460803985596e-01 4.456843063235282898e-02 -9.454912692308425903e-02 -1.140419170260429382e-01 -7.023849058896303177e-03 9.382158517837524414e-02
3.080499172210693359e-02 -2.265724986791610718e-01 6.855400651693344116e-02 -6.359270960092544556e-02 4.414636641740798950e-02 1.323957368731498718e-02 -2.070899307727813721e-02 1.091090217232704163e-01 -7.271275669336318970e-02 -4.458108544349670410e-02 -4.244757071137428284e-02 -1.196072716265916824e-02 -5.092072486877441406e-02 -8.327971398830413818e-02 7.019137032330036163e-03 1.775466650724411011e-01 1.918057911098003387e-02 6.774957478046417236e-02 -4.814252257347106934e-02 -1.038871482014656067e-01 -2.841811254620552063e-02 1.844777539372444153e-02 1.048031225800514221e-01 5.599623546004295349e-02 7.988718897104263306e-02 4.082306474447250366e-02 -1.546985805034637451e-01 7.309305667877197266e-02 -2.237194962799549103e-02 -1.613634079694747925e-02 1.848271191120147705e-01 -7.627499103546142578e-02 -6.245261430740356445e-02 -5.692424997687339783e-02 1.323058903217315674e-01 2.782126702368259430e-02 -1.055917888879776001e-01 -3.861705958843231201e-02 2.058310955762863159e-01 -3.557651117444038391e-02 3.570605441927909851e-02 -4.252733662724494934e-03 2.615013718605041504e-02 -6.582235544919967651e-02 6.486552953720092773e-02 -9.516820311546325684e-02 8.273989707231521606e-02 9.844894707202911377e-02 3.177447617053985596e-02 -9.372968971729278564e-02 -5.110463127493858337e-02 -1.408329010009765625e-01 -6.924654543399810791e-02 5.258719250559806824e-02 -4.195836558938026428e-02 2.475264221429824829e-01 8.681195229291915894e-02 -1.220609471201896667e-01 -7.153545320034027100e-02 6.583531945943832397e-02 -2.935449779033660889e-01 -6.359708309173583984e-02 -1.076638177037239075e-01 1.179075092077255249e-01 -4.646077752113342285e-02 4.938344284892082214e-02 1.273562610149383545e-01 1.268615275621414185e-01 6.090142577886581421e-02 6.344710476696491241e-03 1.806392967700958252e-01 4.946362972259521484e-02 -3.416657149791717529e-01 1.849943250417709351e-01 -7.937142252922058105e-02 3.639509156346321106e-02 9.337094426155090332e-02 -4.958454892039299011e-02 8.562939614057540894e-02 1.098907738924026489e-01 9.895638376474380493e-02 2.591796964406967163e-02 -1.052900552749633789e-01 7.284138351678848267e-02 -2.164806127548217773e-01 2.335387468338012695e-02 -2.174343913793563843e-01 9.228487312793731689e-02 -1.442758291959762573e-01 -2.425877004861831665e-01 -6.919122766703367233e-03 4.179998487234115601e-02 3.005216596648097038e-03 7.057508081197738647e-02 -1.139565836638212204e-02 1.057049725204706192e-02 -5.641074478626251221e-02 -2.329266220331192017e-01 1.587717831134796143e-01 1.686878688633441925e-02 1.081075519323348999e-01 3.394215553998947144e-02 -7.822721451520919800e-02 4.371129348874092102e-02 -1.438396424055099487e-01 -1.108587756752967834e-01 -1.114614605903625488e-01 -6.471017003059387207e-02 2.931369282305240631e-02 -1.544106155633926392e-01 -3.592129424214363098e-02 -4.471154138445854187e-02 -7.461608946323394775e-02 5.342134274542331696e-03 4.227153956890106201e-02 1.444890350103378296e-01 1.186627447605133057e-01 -8.978882431983947754e-02 -1.808392256498336792e-02 -1.091305017471313477e-01 1.084361523389816284e-01 -4.464482516050338745e-02 1.526969857513904572e-02 1.595812104642391205e-02 -1.012270227074623108e-01 2.213237248361110687e-02 9.239096194505691528e-02 1.398416906595230103e-01 9.301047772169113159e-02 -1.512380987405776978e-01 1.356079876422882080e-01 1.458037644624710083e-01 1.093358844518661499e-01 -6.365830451250076294e-02 2.240713685750961304e-02 3.475699340924620628e-03 1.125244647264480591e-01 -1.071429774165153503e-01 -3.485798835754394531e-02 -7.293932884931564331e-02 -9.623520821332931519e-02 6.103094667196273804e-02 -1.736734062433242798e-01 8.991537243127822876e-02 -1.448049545288085938e-01 -1.912624090909957886e-01 -8.610352873802185059e-03 3.542879223823547363e-02 -1.110861599445343018e-01 5.082561075687408447e-02 -8.777353912591934204e-02 -1.068688109517097473e-01 -6.787171214818954468e-02 -2.149877138435840607e-02 9.621378034353256226e-02 1.025840565562248230e-01 -1.445040758699178696e-02 -1.890161931514739990e-01 -7.821667194366455078e-02 -1.998353004455566406e-02 1.277020275592803955e-01 1.329569369554519653e-01 -3.733946010470390320e-02 -7.193653285503387451e-02 -6.383058428764343262e-02 7.683272659778594971e-02 -1.164072304964065552e-01 -5.852830410003662109e-02 2.390978392213582993e-03 -8.472589403390884399e-02 1.371746696531772614e-02 7.997890561819076538e-02 1.164480671286582947e-02 2.729192189872264862e-02 6.242393981665372849e-03 8.648034185171127319e-02 4.054365213960409164e-03 4.842588305473327637e-02 4.194910451769828796e-02 1.364680677652359009e-01 8.006682246923446655e-02 -1.372585892677307129e-01 9.378771483898162842e-02 6.803128123283386230e-02 -9.026157110929489136e-02 4.306252300739288330e-02 -1.367530226707458496e-01 -2.026468515396118164e-01 -9.923172742128372192e-02 5.141893401741981506e-02 2.758409129455685616e-03 -6.632201373577117920e-02 4.597009718418121338e-02 -3.684290125966072083e-02 1.133219450712203979e-01 -1.346168518066406250e-01 1.538425981998443604e-01 2.248682454228401184e-02 2.933525107800960541e-02 -1.320295780897140503e-01 7.371611893177032471e-02 1.759418845176696777e-01 3.685446828603744507e-02 -2.839862369000911713e-02 -5.883074924349784851e-02 7.098687440156936646e-02 1.008139178156852722e-01 -1.796151846647262573e-01 -7.475023716688156128e-02 -1.389238703995943069e-02 -2.244681492447853088e-02 -6.441218405961990356e-02 1.589348167181015015e-02 -5.059227347373962402e-02 3.015031851828098297e-02 -5.747735872864723206e-02 -6.416748743504285812e-03 -7.404946722090244293e-03 -1.690986156463623047e-01 1.480953693389892578e-01 3.926558792591094971e-02 1.517947316169738770e-01 5.802076682448387146e-02 -1.080182939767837524e-01 8.682301640510559082e-02 8.495362102985382080e-02 -1.270252168178558350e-01 -2.293477952480316162e-02 3.506943956017494202e-02 1.185255572199821472e-01 -1.652318285778164864e-03 1.046173125505447388e-01 5.595990642905235291e-02 6.493323016911745071e-04 4.211624339222908020e-02 -4.918795824050903320e-02 1.485922783613204956e-01 -1.238641738891601562e-01 -6.948962807655334473e-02 8.510116487741470337e-02 -3.951025381684303284e-02 -1.298730354756116867e-02 -1.877849921584129333e-02 1.589279919862747192e-01 -7.530509028583765030e-03 -1.187603771686553955e-01 -6.586347520351409912e-02 -4.477110051084309816e-04 -1.251506954431533813e-01 1.968299970030784607e-03 5.733873695135116577e-03 -3.746177256107330322e-02 1.691245101392269135e-02 3.819584101438522339e-02 2.202899381518363953e-02 4.332391545176506042e-02
5.437201634049415588e-02 -1.405183225870132446e-01 4.690965637564659119e-03 8.137336373329162598e-02 -6.741748005151748657e-02 7.597350329160690308e-02 -3.379185684025287628e-03 1.002060323953628540e-01 -3.445374220609664917e-02 7.525262981653213501e-02 -2.003890275955200195e-02 -1.095837056636810303e-01 3.154232352972030640e-02 -1.914477162063121796e-02 -3.663416579365730286e-02 2.344384603202342987e-02 7.683479040861129761e-02 -8.838000148534774780e-02 3.652093699201941490e-03 4.231930151581764221e-02 8.233737945556640625e-02 -9.084247052669525146e-02 1.661880612373352051e-01 1.309294402599334717e-01 3.848018497228622437e-02 1.719084084033966064e-01 -8.936084806919097900e-02 -7.753888517618179321e-02 2.473206259310245514e-02 -8.878303691744804382e-03 -6.288139522075653076e-02 -3.853473346680402756e-03 -1.462081670761108398e-01 6.991796940565109253e-02 -7.295511662960052490e-02 -1.057557538151741028e-01 1.160542131401598454e-03 6.953049451112747192e-02 7.091766595840454102e-02 1.722538322210311890e-01 -1.834604144096374512e-02 4.217093437910079956e-02 6.212488934397697449e-02 1.675180718302726746e-02 -8.921944350004196167e-02 -5.387063138186931610e-03 2.576615661382675171e-02 1.100324317812919617e-01 -1.036906540393829346e-01 4.998272657394409180e-02 -9.403170645236968994e-02 -1.240718830376863480e-02 1.078995391726493835e-01 -9.957069996744394302e-04 7.859030365943908691e-02 -1.006258428096771240e-01 -1.335810571908950806e-01 1.055135279893875122e-01 -2.069983258843421936e-02 6.322015076875686646e-02 -7.137299329042434692e-02 1.842210628092288971e-02 -7.374298293143510818e-03 1.466384381055831909e-01 1.782012172043323517e-02 3.870663046836853027e-02 1.425846368074417114e-01 2.199591696262359619e-01 1.226037517189979553e-01 -6.753382086753845215e-02 -7.501452416181564331e-02 -8.265737444162368774e-02 4.299949109554290771e-02 -1.308172345161437988e-01 1.286150366067886353e-01 -1.934067532420158386e-02 1.488831043243408203e-01 1.178058888763189316e-02 -1.428196486085653305e-02 2.621242962777614594e-02 -1.976943165063858032e-01 1.045253966003656387e-02 -1.180293411016464233e-01 1.438340097665786743e-01 1.132550388574600220e-01 1.464829444885253906e-01 2.346996963024139404e-02 -1.042586937546730042e-01 -5.419688671827316284e-02 -2.232305891811847687e-02 2.547687590122222900e-01 1.794300526380538940e-01 -6.445503234863281250e-02 -6.013033539056777954e-02 -1.049785166978836060e-01 1.108502671122550964e-01 -8.354024589061737061e-02 1.006486117839813232e-01 1.225607395172119141e-01 1.736674606800079346e-01 1.108964383602142334e-01 -2.128327265381813049e-02 -1.490322798490524292e-01 -3.808840364217758179e-02 1.084871366620063782e-01 1.528344005346298218e-01 6.562951952219009399e-02 -6.170411035418510437e-02 2.619921928271651268e-03 2.943246625363826752e-03 2.817387506365776062e-02 5.452973023056983948e-02 5.678744055330753326e-03 9.287109225988388062e-02 -1.238430440425872803e-01 -1.258625686168670654e-01 -2.036130987107753754e-03 -1.299996674060821533e-02 1.294956803321838379e-01 6.914208829402923584e-02 8.291690796613693237e-02 3.975458443164825439e-02 9.769759140908718109e-03 -9.506219998002052307e-03 -3.602989017963409424e-03 5.115948617458343506e-02 -6.185607239603996277e-02 1.072281878441572189e-02 -2.649736404418945312e-02 -3.503329679369926453e-02 1.534962952136993408e-01 1.305581033229827881e-01 -3.072959370911121368e-02 4.461422935128211975e-02 1.232517138123512268e-02 -2.097165584564208984e-02 8.172501809895038605e-03 -1.170768365263938904e-01 1.504286378622055054e-01 1.265148748643696308e-03 1.102166548371315002e-01 2.071465179324150085e-02 3.579058870673179626e-02 5.513170361518859863e-02 -1.531636118888854980e-01 3.125987946987152100e-02 -1.069297567009925842e-01 8.534289151430130005e-02 1.049141138792037964e-01 5.599443241953849792e-02 3.974108770489692688e-02 -2.538161352276802063e-02 -7.747223600745201111e-03 2.676326334476470947e-01 -1.352176722139120102e-02 -4.464788362383842468e-02 -1.099544018507003784e-01 6.297086179256439209e-02 -1.646224595606327057e-02 5.309656634926795959e-02 4.948636144399642944e-02 6.170745193958282471e-02 -4.772193357348442078e-02 -2.084951288998126984e-02 8.920004963874816895e-02 -1.398766133934259415e-02 1.116384789347648621e-01 1.109180599451065063e-01 1.832002699375152588e-01 -7.372109219431877136e-03 1.197277009487152100e-01 6.242982926778495312e-04 -1.160660572350025177e-02 -3.526486083865165710e-02 3.183346614241600037e-02 1.196676939725875854e-01 6.331253051757812500e-02 -9.388683363795280457e-03 5.729041993618011475e-02 2.206631749868392944e-02 -1.593747548758983612e-02 6.853402405977249146e-02 3.016005083918571472e-02 2.266717702150344849e-02 3.425928531214594841e-03 -1.562018226832151413e-02 -1.342108100652694702e-01 -4.710797592997550964e-02 4.844785854220390320e-02 8.674743771553039551e-02 3.519543632864952087e-02 1.902873627841472626e-02 5.962562188506126404e-02 1.063209492713212967e-02 -8.726082742214202881e-03 -7.630787044763565063e-02 8.953483402729034424e-02 -2.747266367077827454e-02 -3.397705731913447380e-03 1.423138529062271118e-01 7.877216488122940063e-02 -3.494441881775856018e-02 6.075346469879150391e-02 -7.615535706281661987e-02 9.069143235683441162e-02 -1.519945263862609863e-01 -1.275640632957220078e-02 -1.055124029517173767e-01 -6.240742281079292297e-02 1.859621256589889526e-01 2.266792953014373779e-02 8.374786376953125000e-02 5.927093699574470520e-02 3.400686010718345642e-02 1.929586380720138550e-02 -1.632454395294189453e-01 -8.422115445137023926e-02 -6.746965646743774414e-02 4.993769526481628418e-02 -1.160166561603546143e-01 -1.848212033510208130e-01 1.946243494749069214e-01 -1.526252031326293945e-01 1.225358322262763977e-01 9.114118665456771851e-02 3.795050457119941711e-02 -7.822064310312271118e-02 -4.098094534128904343e-03 1.656858325004577637e-01 1.037676483392715454e-01 -2.286451868712902069e-02 -1.414089463651180267e-02 -3.631767630577087402e-02 -1.813022047281265259e-02 8.455166965723037720e-02 1.726893335580825806e-02 -3.191248700022697449e-02 1.243037451058626175e-02 -7.746466994285583496e-02 3.546349331736564636e-02 2.231712825596332550e-02 3.901889920234680176e-02 2.152379229664802551e-02 5.375232174992561340e-02 9.272399544715881348e-02 -2.525500766932964325e-02 1.207798570394515991e-01 -1.852530241012573242e-02 9.703313559293746948e-02 6.139530986547470093e-02 5.709125474095344543e-02 2.037170976400375366e-01 -1.263977587223052979e-01 -2.600428089499473572e-02 3.805657476186752319e-02 -2.816895246505737305e-01
-4.510846734046936035e-02 4.235082864761352539e-02 -7.228961586952209473e-02 3.864308819174766541e-02 3.895067796111106873e-02 9.279476106166839600e-02 -3.387150168418884277e-02 -2.237714640796184540e-02 1.285620406270027161e-02 1.876061223447322845e-02 1.026953533291816711e-01 3.329473361372947693e-02 -8.456607908010482788e-02 1.420754343271255493e-01 5.678843334317207336e-02 -1.183370128273963928e-01 -8.628156781196594238e-02 1.270168274641036987e-01 6.827346235513687134e-02 1.171462461352348328e-01 5.136430263519287109e-02 2.125179320573806763e-01 5.658637266606092453e-03 -9.814067929983139038e-02 -7.929599843919277191e-03 -5.170800536870956421e-02 4.787877574563026428e-02 -1.353620439767837524e-01 -7.791438698768615723e-02 4.989062249660491943e-02 -5.597293004393577576e-02 -4.248872864991426468e-03 -5.378548428416252136e-02 -1.678336262702941895e-01 8.275901526212692261e-02 -7.709641754627227783e-02 5.016499012708663940e-02 1.451992243528366089e-01 3.853224590420722961e-02 9.326703846454620361e-02 -1.318074576556682587e-02 -7.687726616859436035e-02 -1.048718541860580444e-01 -3.875824436545372009e-02 3.293869271874427795e-02 -3.443161025643348694e-02 -1.289980858564376831e-01 -9.059782139956951141e-03 -2.764136530458927155e-02 1.118070445954799652e-02 -1.628088019788265228e-02 4.258720949292182922e-02 2.128135412931442261e-02 1.717455983161926270e-01 1.379254460334777832e-01 -9.037727117538452148e-02 1.035844087600708008e-01 -3.061108104884624481e-02 -7.144834101200103760e-02 6.663612276315689087e-02 -1.145382300019264221e-01 -1.145315915346145630e-01 5.493559315800666809e-02 -4.244680702686309814e-02 4.714707285165786743e-02 1.021077260375022888e-01 1.527914851903915405e-01 4.260925576090812683e-02 -9.226889908313751221e-02 -8.951327204704284668e-02 -1.658626087009906769e-02 1.118450164794921875e-01 2.019158750772476196e-01 4.675898328423500061e-02 2.188165634870529175e-01 -8.558817207813262939e-03 -1.320163439959287643e-02 1.188232451677322388e-01 -1.868510991334915161e-02 -2.080965554341673851e-03 2.070441842079162598e-01 1.147145554423332214e-01 1.343610733747482300e-01 5.787561461329460144e-02 -1.200153864920139313e-02 1.133068501949310303e-01 -6.808344274759292603e-02 -7.753655780106782913e-03 8.504559844732284546e-02 2.773070521652698517e-02 -2.094443514943122864e-02 -1.365805882960557938e-02 5.045511201024055481e-02 5.221804603934288025e-02 -7.799375057220458984e-02 1.294282227754592896e-01 -2.741595357656478882e-02 1.400936115533113480e-02 1.960304081439971924e-01 -1.000835001468658447e-02 8.764391392469406128e-02 -4.421453550457954407e-02 -4.474513605237007141e-02 7.803772389888763428e-02 1.413847655057907104e-01 -1.614132523536682129e-01 1.428617630153894424e-02 -4.289529845118522644e-02 -2.476602606475353241e-02 1.373806595802307129e-01 9.138518571853637695e-02 5.706016719341278076e-02 -8.593974635004997253e-03 -1.086607277393341064e-01 -5.873597040772438049e-02 5.958002433180809021e-02 -8.887948840856552124e-02 -1.356856077909469604e-01 7.540272176265716553e-02 -9.799718856811523438e-02 1.210631355643272400e-01 -4.012249410152435303e-02 1.989234685897827148e-01 -5.777047574520111084e-02 -5.345234647393226624e-02 4.696954041719436646e-02 -6.015704944729804993e-02 -8.612512797117233276e-02 -2.127227932214736938e-02 -1.065183281898498535e-01 -4.765294864773750305e-02 -6.907393038272857666e-02 -9.886206686496734619e-02 -1.323464214801788330e-01 -1.872380077838897705e-01 -3.225007653236389160e-02 7.715156674385070801e-02 4.710373654961585999e-02 6.996776163578033447e-02 2.415352687239646912e-02 7.863324880599975586e-02 1.407859623432159424e-01 -5.629446357488632202e-02 6.761015951633453369e-02 1.192163154482841492e-01 -7.129101455211639404e-02 1.539547592401504517e-01 -1.429554075002670288e-01 -7.441796362400054932e-02 -3.960207104682922363e-02 -1.687545329332351685e-01 -2.876836434006690979e-02 -6.760899722576141357e-02 7.349763810634613037e-02 -4.366240650415420532e-02 2.518333494663238525e-02 -1.320616751909255981e-01 -1.302193999290466309e-01 4.007488861680030823e-02 -7.793547958135604858e-02 7.321047782897949219e-02 2.200972288846969604e-02 6.675971299409866333e-02 1.077182516455650330e-01 1.300818771123886108e-01 -3.171721100807189941e-02 -4.422933608293533325e-02 -3.202623873949050903e-02 -7.994535565376281738e-02 -2.479234337806701660e-02 3.152567148208618164e-02 -3.653839603066444397e-02 -7.425545901060104370e-02 -5.909914150834083557e-02 -1.053067110478878021e-02 9.576223790645599365e-02 -9.658358246088027954e-02 7.325966656208038330e-02 -2.567151933908462524e-02 1.195955872535705566e-01 -2.122894115746021271e-02 -6.220158934593200684e-02 -1.902953349053859711e-02 -2.691504545509815216e-02 2.666355483233928680e-02 7.476995140314102173e-02 -1.893740743398666382e-01 2.249434888362884521e-01 -2.242736145853996277e-02 -3.820179775357246399e-02 6.518362462520599365e-02 2.066445350646972656e-02 -3.752024844288825989e-02 1.702322214841842651e-01 -2.929980494081974030e-02 4.263124242424964905e-02 1.833065301179885864e-01 -5.260220170021057129e-02 -4.593155533075332642e-02 -1.967923529446125031e-02 -1.381906270980834961e-01 -1.353542320430278778e-02 -6.204113364219665527e-02 -6.549020856618881226e-02 -6.646601110696792603e-02 -3.041226044297218323e-02 9.340226650238037109e-02 -7.406459003686904907e-02 1.155375242233276367e-01 6.523685157299041748e-02 1.521794945001602173e-01 4.994964972138404846e-02 -5.322733893990516663e-02 -2.237365022301673889e-02 1.517829746007919312e-01 -6.903755478560924530e-03 -2.436322160065174103e-03 1.824368163943290710e-02 -1.927980780601501465e-01 1.653973907232284546e-01 -8.410803973674774170e-02 -1.172767672687768936e-02 -1.590692065656185150e-02 1.240569725632667542e-02 -2.431364031508564949e-03 5.054613202810287476e-02 1.023142933845520020e-01 1.144455224275588989e-01 8.216056972742080688e-02 1.516581140458583832e-02 7.198246568441390991e-02 -8.302041888236999512e-02 -2.932519838213920593e-02 8.383893966674804688e-02 3.566664457321166992e-02 1.323738694190979004e-01 -5.936165899038314819e-02 1.067454926669597626e-02 3.146192803978919983e-02 -8.387888222932815552e-02 6.782820075750350952e-02 6.500022113323211670e-02 -1.084437742829322815e-01 -1.665602028369903564e-01 -6.108290702104568481e-02 2.182152867317199707e-02 2.883822889998555183e-03 1.827058792114257812e-01 -6.452567130327224731e-02 -2.850665012374520302e-03 -1.207694876939058304e-02 2.292079925537109375e-01 5.763965845108032227e-02 -2.243891917169094086e-02 1.449524015188217163e-01 -1.399597376585006714e-01
-1.735875941812992096e-02 5.477832630276679993e-02 1.276678219437599182e-02 6.155728176236152649e-02 -2.399501018226146698e-02 4.442331939935684204e-02 -2.289478480815887451e-02 1.154745370149612427e-01 -5.040782038122415543e-03 -4.278923571109771729e-02 1.186393573880195618e-02 5.844642966985702515e-02 -2.112618461251258850e-02 -1.115522310137748718e-01 4.837222862988710403e-03 -3.575122728943824768e-02 -1.336083263158798218e-01 2.101942896842956543e-02 -9.805693477392196655e-02 4.694985970854759216e-02 -7.916460186243057251e-02 -6.137668341398239136e-02 -2.283012308180332184e-02 2.031290903687477112e-02 2.374889105558395386e-01 3.385508060455322266e-02 -3.715960681438446045e-02 2.473331801593303680e-02 -4.471457004547119141e-02 3.119852766394615173e-02 -2.752440422773361206e-02 -2.495299652218818665e-02 1.331911189481616020e-03 -1.213226001709699631e-02 -1.257225126028060913e-01 2.329555712640285492e-02 7.761415839195251465e-02 9.475223720073699951e-02 5.199950560927391052e-02 1.223299279808998108e-01 3.176829218864440918e-02 -6.702975928783416748e-02 -5.845165997743606567e-02 6.675761938095092773e-02 1.168188899755477905e-01 -6.442892365157604218e-03 1.705326288938522339e-01 1.483091861009597778e-01 -1.999567151069641113e-01 5.901782587170600891e-02 8.503016829490661621e-02 1.910072565078735352e-01 1.792039908468723297e-02 -1.498611271381378174e-02 5.968893319368362427e-02 -1.104588359594345093e-01 -1.666876077651977539e-01 1.352462470531463623e-01 2.419498050585389137e-03 3.915676102042198181e-02 6.145187839865684509e-02 1.423270255327224731e-02 1.386322081089019775e-01 4.335090890526771545e-02 3.156150877475738525e-02 9.105752408504486084e-02 1.370238959789276123e-01 -3.204794600605964661e-02 -1.856555342674255371e-01 8.680424094200134277e-02 4.405417665839195251e-02 1.045618727803230286e-01 -4.081258550286293030e-02 -1.828660722821950912e-03 1.126298978924751282e-01 -1.557493358850479126e-01 1.997610181570053101e-01 5.083844438195228577e-02 1.647452265024185181e-01 -3.639242425560951233e-02 3.834174945950508118e-02 3.052559494972229004e-02 -1.417467147111892700e-01 -1.261409670114517212e-01 -1.421109139919281006e-01 -6.901270151138305664e-02 3.901160135865211487e-02 -1.018991619348526001e-01 -5.184704059502109885e-05 7.290360331535339355e-02 -1.003871113061904907e-01 4.088633134961128235e-02 -1.711518615484237671e-01 1.219274252653121948e-01 1.288938671350479126e-01 -4.651675745844841003e-02 -4.592917859554290771e-02 6.786219030618667603e-02 8.959325402975082397e-02 -2.978540956974029541e-02 1.799455843865871429e-02 -4.358239844441413879e-02 -3.268703073263168335e-02 -4.848491866141557693e-03 -1.349353324621915817e-02 -4.413346946239471436e-02 7.496824860572814941e-02 4.997270181775093079e-02 -5.392314493656158447e-02 -1.428947150707244873e-01 -5.672109313309192657e-03 1.231655571609735489e-02 -8.427865803241729736e-03 1.106955297291278839e-02 -2.175921760499477386e-02 -1.116974279284477234e-01 1.918696612119674683e-02 -1.045954078435897827e-01 7.830910384654998779e-03 7.245891541242599487e-02 1.447363756597042084e-02 -5.160195380449295044e-02 1.215953305363655090e-01 2.077041380107402802e-02 1.039056628942489624e-01 2.956427820026874542e-02 -3.071514703333377838e-02 1.193725597113370895e-02 6.748758256435394287e-02 1.540047302842140198e-02 2.735967561602592468e-02 1.730486634187400341e-03 -6.332698464393615723e-02 8.931290358304977417e-02 -7.993328571319580078e-02 -4.138496518135070801e-02 7.049481570720672607e-02 -1.498600989580154419e-01 -1.302023082971572876e-01 1.065928563475608826e-01 -2.426310814917087555e-02 -3.708808869123458862e-02 -1.028093248605728149e-01 -6.498172879219055176e-02 6.089087203145027161e-02 -5.353761836886405945e-02 -4.108034446835517883e-02 1.133195608854293823e-01 1.091335192322731018e-01 3.109143674373626709e-02 -3.619776293635368347e-02 4.287236556410789490e-02 3.834609873592853546e-03 6.129438430070877075e-02 -3.956878185272216797e-02 -1.099715754389762878e-01 2.177136987447738647e-01 4.095181077718734741e-02 -4.173637181520462036e-02 2.797044627368450165e-02 1.228829994797706604e-01 8.546890318393707275e-02 4.060672968626022339e-02 -1.883519627153873444e-02 4.796172305941581726e-02 1.789586246013641357e-02 -2.592005208134651184e-02 1.799345016479492188e-02 9.129486978054046631e-02 -6.922187656164169312e-02 1.981453597545623779e-02 -2.335760295391082764e-01 3.236169368028640747e-02 -3.851709887385368347e-02 9.182138741016387939e-02 7.855723798274993896e-02 -1.501785814762115479e-01 -6.830799579620361328e-02 -1.025546267628669739e-01 6.651932746171951294e-02 2.960785329341888428e-01 -7.297258824110031128e-03 4.014081321656703949e-03 8.995693922042846680e-02 -3.906630724668502808e-02 -1.798390895128250122e-01 -6.979358196258544922e-02 -5.974278599023818970e-02 6.545331794768571854e-03 2.382203936576843262e-03 7.488325238227844238e-02 4.237062763422727585e-03 -6.532975006848573685e-03 -9.189059585332870483e-02 1.610791683197021484e-01 5.495833232998847961e-02 1.160076260566711426e-01 7.082949578762054443e-02 1.265777200460433960e-01 -7.166698575019836426e-02 5.133302882313728333e-02 5.123737826943397522e-02 -1.865036040544509888e-01 -1.084462255239486694e-01 -2.159033119678497314e-01 2.301788330078125000e-02 -1.343278586864471436e-01 1.061182320117950439e-01 -2.665450051426887512e-02 2.050462923943996429e-02 7.721485197544097900e-02 -3.220120072364807129e-02 -8.230929821729660034e-02 -3.613257035613059998e-02 -2.122306451201438904e-02 4.198808223009109497e-02 1.111632678657770157e-02 -4.963259026408195496e-02 -1.144582685083150864e-02 1.037205234169960022e-01 7.248314796015620232e-04 3.481716290116310120e-02 -4.461184144020080566e-02 8.218504372052848339e-04 -6.051834672689437866e-02 -4.652246460318565369e-02 -3.611937165260314941e-02 1.534577757120132446e-01 -6.197831407189369202e-02 1.566546559333801270e-01 5.881004780530929565e-02 -4.989950358867645264e-02 -1.129360403865575790e-02 -5.495405197143554688e-02 -4.233492538332939148e-02 1.057262495160102844e-01 4.652745276689529419e-02 -3.099329024553298950e-02 1.457927189767360687e-02 -4.802853986620903015e-02 -7.899077981710433960e-02 6.636108458042144775e-02 -9.444020688533782959e-02 -1.551975458860397339e-01 4.939672723412513733e-02 -1.622819341719150543e-02 -1.161155011504888535e-02 5.696506705135107040e-03 1.187802851200103760e-01 -3.257479518651962280e-02 6.997635960578918457e-02 -1.432242840528488159e-01 1.862523518502712250e-02 -3.884667903184890747e-02 -9.443229436874389648e-02 -7.400936447083950043e-03
-5.348210036754608154e-02 2.053977549076080322e-02 2.850404381752014160e-02 -4.967564251273870468e-03 6.261072307825088501e-02 8.695948868989944458e-02 -1.057966649532318115e-01 2.764756046235561371e-02 8.025759458541870117e-02 3.194119781255722046e-03 -1.374737620353698730e-01 3.810954838991165161e-02 -1.211743280291557312e-01 -9.698805212974548340e-02 -6.490702275186777115e-03 1.311511397361755371e-01 4.806595668196678162e-02 -8.035168051719665527e-02 3.325989842414855957e-02 -1.219004467129707336e-01 -1.275079101324081421e-01 -1.932547055184841156e-02 3.931621089577674866e-02 7.291703671216964722e-02 1.289916317909955978e-02 -6.595027446746826172e-02 9.033539146184921265e-02 5.034892633557319641e-02 -9.153614193201065063e-02 7.463999558240175247e-03 -9.244506806135177612e-02 4.587948322296142578e-02 9.382421150803565979e-03 -1.463769935071468353e-02 -3.946552425622940063e-02 -9.762070327997207642e-02 1.597179472446441650e-01 -4.675261676311492920e-02 -1.360147376544773579e-03 8.600956201553344727e-02 8.939202129840850830e-02 9.526148438453674316e-03 7.904698699712753296e-02 7.695204764604568481e-02 -5.046126432716846466e-03 1.365187764167785645e-01 -3.018233552575111389e-02 9.596559405326843262e-02 1.526821218430995941e-02 1.261324137449264526e-01 1.082764193415641785e-01 1.333582848310470581e-01 -3.514203429222106934e-02 -3.398101031780242920e-02 -3.054402582347393036e-02 -1.366794705390930176e-01 9.146875888109207153e-02 -8.982692658901214600e-02 3.615528345108032227e-02 -2.787643484771251678e-02 -1.548755615949630737e-01 -2.113324254751205444e-01 3.733586636371910572e-04 2.191565372049808502e-02 5.094755813479423523e-02 1.497996549915114883e-06 -5.753816105425357819e-03 5.656138435006141663e-02 2.858724072575569153e-02 7.688947021961212158e-02 9.997681528329849243e-02 6.727284938097000122e-02 -3.904629731550812721e-03 -1.475158035755157471e-01 -7.980017922818660736e-03 1.022183820605278015e-01 5.325075984001159668e-02 2.146064490079879761e-01 9.550920128822326660e-02 -5.059401504695415497e-03 -9.066266939043998718e-03 -1.538816988468170166e-01 6.295420974493026733e-02 -5.018083006143569946e-02 -1.744169592857360840e-01 -1.917627267539501190e-02 -3.831004258245229721e-03 -2.035976015031337738e-02 3.023395128548145294e-02 -4.651578143239021301e-03 -2.310846187174320221e-02 3.787115216255187988e-02 -1.326493471860885620e-01 -8.081441372632980347e-02 -1.751764491200447083e-02 8.568171411752700806e-02 -1.065642759203910828e-01 -1.107896640896797180e-01 -1.210158765316009521e-01 -1.029056161642074585e-01 -1.050784438848495483e-01 1.781449168920516968e-01 -9.857234545052051544e-03 5.403236299753189087e-02 1.729027479887008667e-01 1.705650985240936279e-01 6.798761337995529175e-02 3.044180013239383698e-02 -3.812149167060852051e-02 3.800192847847938538e-02 2.307019531726837158e-01 6.114358827471733093e-02 1.564110964536666870e-01 3.181612864136695862e-02 3.448104485869407654e-02 -1.994913369417190552e-01 5.813983455300331116e-02 5.698924139142036438e-02 -1.087973415851593018e-01 1.107516959309577942e-01 -5.092976987361907959e-02 1.663872972130775452e-02 1.079859063029289246e-01 1.325531154870986938e-01 -5.496263504028320312e-03 2.074253186583518982e-02 1.165646910667419434e-01 6.793586909770965576e-02 4.355057328939437866e-02 1.327006816864013672e-01 8.064175955951213837e-03 1.391583085060119629e-01 -8.595584332942962646e-02 -1.030934005975723267e-01 8.634075522422790527e-02 5.094944685697555542e-02 6.168239191174507141e-02 8.254876732826232910e-02 -1.430751662701368332e-02 2.115184813737869263e-02 -5.266007035970687866e-02 -1.317971497774124146e-01 -1.283485293388366699e-01 1.877590641379356384e-02 6.024444103240966797e-02 -2.773108184337615967e-01 -9.339282661676406860e-02 -5.652585253119468689e-02 -4.102730005979537964e-02 5.681819096207618713e-02 -2.610559761524200439e-02 -1.700886040925979614e-01 8.241428434848785400e-02 4.722779616713523865e-03 -8.814450353384017944e-02 -8.922884613275527954e-02 5.115921050310134888e-02 6.328359246253967285e-02 2.191254869103431702e-02 2.577293477952480316e-02 -9.043563157320022583e-02 -2.624019384384155273e-01 -5.003703385591506958e-02 5.188507027924060822e-03 7.710258942097425461e-03 1.268739812076091766e-03 6.041787564754486084e-03 -6.779812276363372803e-02 5.287081003189086914e-02 1.760839074850082397e-01 -8.685875684022903442e-02 1.130905821919441223e-01 -1.254616770893335342e-02 -6.605771183967590332e-02 -1.066745668649673462e-01 -1.294974703341722488e-02 4.294296354055404663e-02 -3.660193085670471191e-02 1.687907725572586060e-01 9.556066989898681641e-02 2.573165856301784515e-02 -1.397732496261596680e-01 1.040627211332321167e-01 -9.034210443496704102e-02 -5.969442427158355713e-02 1.580633968114852905e-02 -5.310202017426490784e-02 3.341304138302803040e-02 1.338446885347366333e-01 -1.997324265539646149e-02 6.883030384778976440e-02 -6.932627409696578979e-03 8.175990730524063110e-02 1.972657740116119385e-01 -7.191228866577148438e-02 -1.476148236542940140e-02 4.217343032360076904e-02 -5.851800367236137390e-02 1.189187616109848022e-01 -7.169440388679504395e-02 8.727790415287017822e-02 -7.441228628158569336e-02 6.985466927289962769e-02 -1.721390038728713989e-01 4.382731020450592041e-02 -2.188074588775634766e-01 5.685961991548538208e-02 -2.828397415578365326e-02 -2.251044660806655884e-01 1.088720839470624924e-02 -6.227677688002586365e-02 7.717274129390716553e-02 -1.175692006945610046e-01 3.060826659202575684e-02 2.483820728957653046e-02 -1.841793768107891083e-02 5.869381595402956009e-03 -1.312740147113800049e-01 -8.838439732789993286e-02 -1.582007668912410736e-02 -1.812452077865600586e-02 2.524604648351669312e-02 -1.234872639179229736e-01 -5.207934975624084473e-02 -1.189178880304098129e-02 3.721554949879646301e-02 1.311155557632446289e-01 -2.308666519820690155e-02 9.691242873668670654e-02 -3.413209319114685059e-02 5.159023776650428772e-02 2.786615192890167236e-01 1.715281009674072266e-01 4.994142055511474609e-02 -1.201995983719825745e-01 8.073616027832031250e-02 -3.755617886781692505e-02 4.439965635538101196e-02 4.830422997474670410e-02 -5.446017161011695862e-02 2.217670157551765442e-02 -1.398466341197490692e-02 4.473532363772392273e-02 -7.598843891173601151e-03 1.345231831073760986e-01 -1.157639101147651672e-01 -1.306052058935165405e-01 -6.080269813537597656e-02 -5.519746243953704834e-02 9.454770386219024658e-02 5.216642841696739197e-02 -6.842584162950515747e-02 -4.671198502182960510e-02 7.592742890119552612e-02 -8.129879832267761230e-02 1.828676462173461914e-01
1.716979593038558960e-02 1.144095510244369507e-01 5.359108373522758484e-02 9.877221286296844482e-02 -9.779962897300720215e-02 1.576045304536819458e-01 1.041911616921424866e-01 1.100082509219646454e-02 1.082229427993297577e-02 -3.339816257357597351e-02 7.296235859394073486e-02 7.524724304676055908e-02 3.989140503108501434e-03 -5.599542334675788879e-02 -3.970285505056381226e-02 -1.115612164139747620e-01 1.814326643943786621e-01 1.166050042957067490e-02 5.269689857959747314e-02 -5.496348440647125244e-02 -5.023582652211189270e-02 7.778566330671310425e-02 -5.392904859036207199e-03 -8.826787769794464111e-02 1.068469285964965820e-01 6.727436184883117676e-02 1.185142844915390015e-01 9.236549958586692810e-03 -1.066696941852569580e-01 -1.214993186295032501e-02 -8.462410420179367065e-03 -2.597866021096706390e-02 1.046799793839454651e-01 1.288443654775619507e-01 -1.579190045595169067e-02 -1.518308520317077637e-01 -2.266846597194671631e-02 -1.040863245725631714e-02 -4.519331827759742737e-02 -1.387854218482971191e-01 1.412256360054016113e-01 1.255156192928552628e-02 -6.435996294021606445e-02 -1.095355525612831116e-01 -6.454262882471084595e-02 -1.759324036538600922e-02 7.895077764987945557e-02 -2.945236302912235260e-02 1.529734209179878235e-02 -1.268757879734039307e-01 -8.399754017591476440e-02 -1.534888148307800293e-01 2.790928259491920471e-02 2.833466569427400827e-04 9.805297851562500000e-02 4.264356195926666260e-02 -8.010602742433547974e-02 -1.388593614101409912e-01 -3.909584134817123413e-02 -1.161160692572593689e-01 3.609702736139297485e-02 -1.104089021682739258e-01 -1.421713642776012421e-02 8.304745703935623169e-02 -8.814790844917297363e-02 8.386764675378799438e-03 -2.908841893076896667e-02 -1.373360492289066315e-02 -8.151024580001831055e-02 -5.561882257461547852e-02 -1.185247525572776794e-01 8.779574930667877197e-02 -4.936539754271507263e-02 2.839404158294200897e-02 -2.103785425424575806e-02 5.781567096710205078e-02 5.934548377990722656e-02 -2.272172132506966591e-03 -2.124760858714580536e-02 2.204715609550476074e-01 2.667338959872722626e-02 8.226566761732101440e-02 -1.229895353317260742e-01 -1.344375684857368469e-02 -5.627088830806314945e-04 -8.032666519284248352e-03 2.872310578823089600e-02 -6.446260213851928711e-02 1.249378919601440430e-01 -2.020760625600814819e-01 -5.002669617533683777e-02 2.120549045503139496e-02 -6.280140578746795654e-02 2.402608515694737434e-03 3.163722530007362366e-02 -7.947520911693572998e-02 1.054026558995246887e-01 -7.034153491258621216e-02 1.553375273942947388e-03 3.319115936756134033e-02 -1.475082486867904663e-01 1.009364202618598938e-01 -8.523470908403396606e-02 2.015044167637825012e-02 3.228926658630371094e-02 3.927899524569511414e-02 -1.697315126657485962e-01 -8.118328638374805450e-03 -2.488389611244201660e-02 1.911474391818046570e-02 2.641618251800537109e-02 3.504185006022453308e-02 1.564537137746810913e-01 9.202586859464645386e-02 -3.030924126505851746e-02 -1.291054487228393555e-01 -4.262290149927139282e-02 -1.199286282062530518e-01 6.556999683380126953e-02 -6.193623412400484085e-03 3.661226108670234680e-02 7.485010474920272827e-02 -5.287895351648330688e-02 1.391937434673309326e-01 -6.934151053428649902e-02 -6.600777804851531982e-02 -1.417090371251106262e-02 1.494257748126983643e-01 -2.554435469210147858e-02 -2.626267261803150177e-02 -1.921187341213226318e-02 -5.497694760560989380e-02 3.547979891300201416e-02 2.350937947630882263e-02 -1.916566118597984314e-02 -2.257092855870723724e-02 1.008014567196369171e-02 -5.983056128025054932e-02 -9.181028604507446289e-02 -5.278014764189720154e-02 -5.922858044505119324e-02 -3.598720580339431763e-02 6.214089691638946533e-02 -2.593109197914600372e-02 7.028179615736007690e-02 1.830908060073852539e-01 1.188077777624130249e-01 1.536509767174720764e-02 5.126142129302024841e-02 3.050083853304386139e-02 -8.379917591810226440e-02 -4.819309338927268982e-02 -1.468897163867950439e-01 1.782736033201217651e-01 -1.447222381830215454e-01 -7.655556499958038330e-02 3.549372032284736633e-02 -6.120033562183380127e-02 -1.249620318412780762e-01 6.154685094952583313e-02 -5.487871915102005005e-02 1.375279873609542847e-01 5.276086181402206421e-02 5.220293998718261719e-02 3.509819135069847107e-02 6.850348412990570068e-02 -1.363028734922409058e-01 7.355944067239761353e-02 -9.109585732221603394e-02 5.314144864678382874e-02 1.448584068566560745e-02 2.045845240354537964e-01 -2.418747395277023315e-01 -2.844259515404701233e-02 -1.013466417789459229e-01 5.717049539089202881e-02 1.238076314330101013e-01 9.957210719585418701e-02 1.246026251465082169e-02 1.627862751483917236e-01 -4.362660460174083710e-03 -1.459645032882690430e-01 -1.755032539367675781e-01 7.158454507589340210e-02 -1.190275996923446655e-01 9.215577691793441772e-02 7.997851818799972534e-02 3.405305370688438416e-02 -4.165883734822273254e-02 3.730816766619682312e-02 1.606602594256401062e-02 -5.606196820735931396e-02 -6.484274566173553467e-02 -8.445917814970016479e-02 3.088809363543987274e-02 -8.117502927780151367e-02 8.095231838524341583e-03 -9.951340407133102417e-02 8.620284497737884521e-03 -9.400536119937896729e-02 6.346919387578964233e-02 2.633916959166526794e-02 -6.385144591331481934e-02 9.219883382320404053e-02 2.111066877841949463e-02 -1.120405737310647964e-02 -4.920092597603797913e-02 -1.186606064438819885e-01 4.031280428171157837e-02 7.381543517112731934e-02 1.870541274547576904e-02 -5.732514336705207825e-02 1.426700502634048462e-02 2.072781883180141449e-02 -1.173731982707977295e-01 -9.348616003990173340e-02 1.355585157871246338e-01 1.702540665864944458e-01 2.305424958467483521e-01 -2.100913785398006439e-02 -1.534345149993896484e-01 -8.494037203490734100e-03 -1.541907489299774170e-01 1.588866114616394043e-02 1.708400100469589233e-01 2.258016355335712433e-02 1.735120266675949097e-01 -9.466511756181716919e-02 6.272730976343154907e-02 1.730652451515197754e-01 1.267572343349456787e-01 -1.989085227251052856e-02 -4.089898988604545593e-02 -2.470286097377538681e-03 -1.142504513263702393e-01 -6.024590111337602139e-04 -1.783476322889328003e-01 -1.452475637197494507e-01 4.047049209475517273e-02 7.371225953102111816e-02 2.279444225132465363e-02 -3.773799538612365723e-02 1.483510900288820267e-02 2.135048508644104004e-01 4.453352466225624084e-02 -1.560470275580883026e-02 -8.936288207769393921e-02 -1.692401617765426636e-02 -2.967448206618428230e-03 1.075709015130996704e-01 -7.105392217636108398e-02 3.280275315046310425e-02 -6.892002373933792114e-02 1.253625899553298950e-01 4.027022793889045715e-02 1.853073090314865112e-01
-1.277558058500289917e-01 -7.233593612909317017e-02 6.123161688446998596e-02 -1.083288267254829407e-01 -2.179063111543655396e-02 -3.753006830811500549e-02 -8.081269264221191406e-02 -7.035470753908157349e-02 -5.806569010019302368e-02 -6.032834947109222412e-02 8.929484337568283081e-02 -1.820787042379379272e-01 -2.085866034030914307e-01 2.231195196509361267e-02 9.805625677108764648e-02 -8.925564587116241455e-02 -1.995753496885299683e-01 -4.479594528675079346e-02 3.158060088753700256e-02 -1.130044087767601013e-01 2.599570713937282562e-02 7.812252640724182129e-02 -1.232334226369857788e-02 1.549290269613265991e-01 -5.461407080292701721e-02 1.664624512195587158e-01 4.786960780620574951e-02 -1.016724389046430588e-02 -1.313536018133163452e-01 -1.446305960416793823e-01 -5.448578670620918274e-02 -1.637823507189750671e-02 5.921498872339725494e-03 8.865272253751754761e-02 1.397281587123870850e-01 1.204877346754074097e-02 6.408191472291946411e-02 -6.086770072579383850e-02 -4.547659307718276978e-03 -5.838749930262565613e-02 3.038091957569122314e-02 5.394569039344787598e-02 1.905251443386077881e-01 -7.696542888879776001e-02 2.539377659559249878e-02 -3.615390136837959290e-02 2.955678850412368774e-02 -4.782718792557716370e-02 1.891096234321594238e-01 -3.178690001368522644e-02 1.476414315402507782e-02 -4.825497046113014221e-02 2.029977291822433472e-01 1.833447255194187164e-02 -4.603626206517219543e-02 -2.012296393513679504e-02 -1.125954613089561462e-01 -1.473330333828926086e-02 1.283064037561416626e-01 1.231967732310295105e-01 2.725725807249546051e-02 -9.832136332988739014e-02 -9.434021264314651489e-02 -9.284930676221847534e-02 1.072687357664108276e-01 9.479642659425735474e-02 6.409665197134017944e-02 -7.575896382331848145e-02 -9.593170881271362305e-02 1.569609642028808594e-01 -6.110118329524993896e-02 -2.237011305987834930e-02 4.878394305706024170e-02 9.923301637172698975e-02 6.224612519145011902e-02 2.283981814980506897e-02 -6.952047348022460938e-02 4.598416015505790710e-02 -3.498068079352378845e-02 2.377338111400604248e-01 1.145627647638320923e-01 3.156323917210102081e-03 -4.464944452047348022e-02 -5.483317375183105469e-02 3.861374408006668091e-02 -4.393942281603813171e-02 -8.620183914899826050e-02 2.816917747259140015e-02 -9.447867982089519501e-03 1.131536886096000671e-01 3.960724174976348877e-02 -2.031346857547760010e-01 -6.601782049983739853e-03 -1.860739104449748993e-02 -1.318274140357971191e-01 -4.113911092281341553e-02 7.770673930644989014e-02 4.258525744080543518e-02 1.313878297805786133e-01 1.115745082497596741e-01 1.259139180183410645e-01 8.539492636919021606e-02 -8.011141419410705566e-02 3.134424984455108643e-02 -8.662198483943939209e-02 -2.740010246634483337e-02 4.530232399702072144e-02 -4.462175071239471436e-02 1.152144074440002441e-01 -1.706615686416625977e-01 8.011195808649063110e-03 1.033916398882865906e-01 -6.569988280534744263e-02 2.583395838737487793e-01 -5.780882388353347778e-02 -6.691543012857437134e-02 -2.203228324651718140e-02 1.660840660333633423e-01 -2.087103389203548431e-02 1.918420568108558655e-02 -7.966790348291397095e-02 -1.062838584184646606e-01 7.973133772611618042e-02 -5.586590990424156189e-02 -4.983462020754814148e-02 1.531470417976379395e-01 4.413411021232604980e-02 8.085007220506668091e-02 2.723343670368194580e-02 -3.321416303515434265e-02 -4.056943953037261963e-02 4.617752879858016968e-02 -8.152416348457336426e-02 -6.013126578181982040e-03 7.636269927024841309e-02 4.945788532495498657e-02 -3.046924434602260590e-02 1.989024691283702850e-02 -3.539756312966346741e-02 -1.128349155187606812e-01 -3.635257482528686523e-02 -1.131231710314750671e-01 5.250237509608268738e-02 -1.536670625209808350e-01 -1.199438795447349548e-01 7.305212318897247314e-02 3.123450279235839844e-02 -1.184473559260368347e-01 -1.082279626280069351e-02 9.563094377517700195e-02 -5.062640830874443054e-02 3.217736724764108658e-03 -1.252956688404083252e-01 7.670477777719497681e-02 -1.303077638149261475e-01 -2.497923793271183968e-03 -1.525573283433914185e-01 5.606391653418540955e-02 -6.196625903248786926e-02 1.176018714904785156e-01 -1.952766478061676025e-01 4.034294560551643372e-02 -6.650052219629287720e-02 2.101943129673600197e-03 -6.346257030963897705e-02 -1.488047372549772263e-02 -2.558590844273567200e-02 -1.086227670311927795e-01 6.709424406290054321e-02 3.687676414847373962e-02 1.754804849624633789e-01 -3.362373262643814087e-02 -1.167015954852104187e-01 1.901049166917800903e-02 -1.189851686358451843e-01 5.002626404166221619e-02 5.077350884675979614e-02 -7.091372460126876831e-02 2.046759054064750671e-02 -7.537635974586009979e-03 1.122389286756515503e-01 -9.059971570968627930e-02 1.101516261696815491e-01 1.331240981817245483e-01 -6.362155824899673462e-02 -2.901604957878589630e-02 6.052722781896591187e-02 2.286985516548156738e-02 -6.950954347848892212e-02 3.976216912269592285e-02 -3.717794641852378845e-02 -3.072340972721576691e-02 1.756910979747772217e-01 -2.498681843280792236e-02 -2.466786094009876251e-02 7.863112725317478180e-03 -1.648699343204498291e-01 -8.202803321182727814e-03 -2.952853403985500336e-02 -1.638221740722656250e-02 2.453094720840454102e-02 -1.550308018922805786e-01 -1.618497669696807861e-01 4.962854459881782532e-02 7.485788315534591675e-02 -3.081713244318962097e-02 4.969034716486930847e-02 -1.736499816179275513e-01 3.410819545388221741e-02 -6.060789804905653000e-03 6.774319708347320557e-02 -4.780365154147148132e-02 2.766537852585315704e-02 1.239191815257072449e-01 4.975561797618865967e-02 9.743047505617141724e-02 -4.849118366837501526e-02 -2.570409514009952545e-02 4.967762157320976257e-02 -3.709408640861511230e-02 1.257960051298141479e-01 -3.183427080512046814e-02 6.006754189729690552e-02 -3.769778460264205933e-02 -2.183329761028289795e-01 8.704768866300582886e-02 1.745154149830341339e-02 -6.636182963848114014e-02 1.548410356044769287e-01 3.630514442920684814e-02 1.272178813815116882e-02 6.826822063885629177e-04 5.372400209307670593e-02 -7.657165080308914185e-02 -1.688688993453979492e-01 -2.745535783469676971e-02 -1.089128628373146057e-01 -1.422994863241910934e-02 1.898324117064476013e-02 6.305044144392013550e-02 3.600364923477172852e-02 3.681271150708198547e-02 1.590021550655364990e-01 9.581102430820465088e-02 -1.749421358108520508e-01 -1.123013123869895935e-01 1.271909922361373901e-01 -5.683263018727302551e-02 -1.020977199077606201e-01 -1.047350987792015076e-01 -1.663550548255443573e-02 -5.393260717391967773e-02 6.648591905832290649e-02 8.240774273872375488e-03 4.126466438174247742e-02 8.373177051544189453e-02
-4.405964910984039307e-02 -1.975579559803009033e-02 -8.347333222627639771e-02 8.817221224308013916e-02 7.526843249797821045e-02 -4.807489365339279175e-02 1.351320445537567139e-01 -5.077063571661710739e-03 -1.820662468671798706e-01 1.666880995035171509e-01 -9.892966598272323608e-03 6.882094591856002808e-02 1.349554061889648438e-01 1.617220640182495117e-01 -2.530840598046779633e-02 9.700519964098930359e-03 3.345533832907676697e-02 2.975461483001708984e-01 1.653718501329421997e-01 -9.535272419452667236e-02 -6.256296485662460327e-02 7.773950695991516113e-02 -8.401681482791900635e-02 -6.258849753066897392e-04 -1.967937685549259186e-02 3.423536196351051331e-02 -2.513565719127655029e-01 -3.119261749088764191e-02 -5.977273359894752502e-02 -7.519008219242095947e-02 1.627261005342006683e-02 1.224375367164611816e-01 4.768369346857070923e-02 -1.129884943366050720e-01 -3.391804546117782593e-02 2.234675548970699310e-02 -1.260052770376205444e-01 3.250360488891601562e-02 1.330547630786895752e-01 -1.263457089662551880e-01 1.606550663709640503e-01 7.685000449419021606e-02 7.784619182348251343e-02 3.676745668053627014e-02 1.453899741172790527e-01 1.699416711926460266e-02 4.774740897119045258e-03 -7.310433313250541687e-03 1.510305516421794891e-02 -1.129489466547966003e-01 4.122565686702728271e-02 -8.528063073754310608e-03 8.001516573131084442e-03 1.877924948930740356e-01 6.286811828613281250e-02 -1.505486071109771729e-01 -3.895718231797218323e-02 1.139854267239570618e-01 1.034866720438003540e-01 -2.077452689409255981e-01 -1.171860378235578537e-02 -4.884466528892517090e-02 1.151445731520652771e-01 1.012957766652107239e-01 4.367361962795257568e-02 1.586435921490192413e-02 -7.816104590892791748e-02 -9.830808639526367188e-02 -9.207558631896972656e-02 -2.175486534833908081e-01 -5.288879945874214172e-02 -5.986671429127454758e-03 -1.116570178419351578e-02 -1.272616535425186157e-01 1.010417193174362183e-01 -1.968181133270263672e-01 1.505141146481037140e-02 2.304393425583839417e-02 -4.528107866644859314e-02 -1.294116973876953125e-01 -1.362489461898803711e-01 7.365187047980725765e-04 2.742381207644939423e-02 -1.252301782369613647e-01 4.651337396353483200e-03 -1.351018529385328293e-02 1.763233691453933716e-01 1.206639409065246582e-01 -5.646811798214912415e-02 -4.854614287614822388e-02 1.038757488131523132e-01 5.828335508704185486e-02 5.177114158868789673e-02 -6.176665052771568298e-02 -5.906370934098958969e-03 -1.432969272136688232e-01 2.857512794435024261e-02 -1.079098805785179138e-01 1.217945758253335953e-02 -2.470619380474090576e-01 -1.371546238660812378e-01 1.150272339582443237e-01 -1.844166815280914307e-01 4.045682400465011597e-02 1.414959598332643509e-02 1.051646098494529724e-02 1.199366003274917603e-01 9.441581554710865021e-03 -9.758279472589492798e-02 -1.542977839708328247e-01 -4.215060919523239136e-02 -8.923815190792083740e-02 -1.409556418657302856e-01 8.178728632628917694e-03 2.518579922616481781e-02 -1.007197275757789612e-01 5.204228684306144714e-02 3.630336374044418335e-02 -1.175466552376747131e-01 -2.419904619455337524e-02 -3.116999287158250809e-03 6.497568637132644653e-02 1.694984138011932373e-01 1.289749611169099808e-02 2.008279785513877869e-02 -1.744118332862854004e-02 -1.386776193976402283e-02 6.571100652217864990e-02 8.926486968994140625e-02 -7.340370118618011475e-02 -1.116106584668159485e-01 -9.128535538911819458e-02 -1.951914466917514801e-02 -2.093515172600746155e-02 -2.609289437532424927e-02 9.541660547256469727e-02 -1.009521782398223877e-01 -1.270133703947067261e-01 9.224206954240798950e-02 -4.007595032453536987e-02 -5.025322735309600830e-02 1.090480759739875793e-01 -1.146355760283768177e-03 -5.859059467911720276e-02 4.947870969772338867e-02 -4.660035949200391769e-03 -2.051237970590591431e-02 -3.184893354773521423e-02 -5.388283357024192810e-02 -4.711708053946495056e-02 7.692006975412368774e-02 -2.174110896885395050e-02 9.769001603126525879e-02 -9.621153026819229126e-02 -3.683755174279212952e-02 8.276814967393875122e-02 -1.410523205995559692e-01 4.857045784592628479e-02 4.010304063558578491e-02 4.889222234487533569e-02 4.639673978090286255e-02 8.785620331764221191e-02 -5.280449986457824707e-02 2.592527493834495544e-02 9.372887760400772095e-02 3.060134127736091614e-03 1.180754154920578003e-01 6.227793917059898376e-02 2.477529458701610565e-02 -1.034408509731292725e-01 -8.926717936992645264e-02 4.844543710350990295e-02 -8.029626682400703430e-03 -1.377491354942321777e-01 -9.840836375951766968e-02 -1.352997720241546631e-01 5.373573675751686096e-02 -9.222922381013631821e-04 9.802723675966262817e-02 4.667703062295913696e-02 -1.536786369979381561e-02 2.281470410525798798e-02 9.975893050432205200e-02 7.118239998817443848e-02 5.365616455674171448e-02 1.050452422350645065e-02 -1.306367516517639160e-01 1.217181328684091568e-02 9.415632486343383789e-02 2.380122803151607513e-02 -5.978768318891525269e-02 -1.584506779909133911e-02 -4.309551045298576355e-02 8.747787214815616608e-03 -2.740431576967239380e-02 6.738490890711545944e-03 3.934354335069656372e-02 -9.468667954206466675e-02 -3.005297912750393152e-04 6.787336617708206177e-02 -8.241181075572967529e-02 -5.764861591160297394e-03 -5.625316128134727478e-02 7.334629446268081665e-02 -6.786477565765380859e-02 -1.109263077378273010e-01 -4.217950627207756042e-02 2.735868468880653381e-02 7.213023304939270020e-02 1.059413626790046692e-01 -3.361295536160469055e-02 6.163987517356872559e-02 -3.185625746846199036e-02 2.566900849342346191e-02 -4.471743106842041016e-02 -1.479825004935264587e-02 -3.132796660065650940e-02 6.823435891419649124e-03 -8.448694646358489990e-02 2.850991208106279373e-03 -4.704864695668220520e-02 3.424437716603279114e-02 -1.939367130398750305e-02 -1.962079852819442749e-01 -1.199461817741394043e-01 -1.849072612822055817e-02 1.188477650284767151e-01 3.493668884038925171e-02 -1.244255974888801575e-01 -2.912158146500587463e-02 1.159724891185760498e-01 -5.565463006496429443e-02 8.725061267614364624e-02 1.235013920813798904e-02 1.128282174468040466e-01 -1.386218983680009842e-02 -1.349909901618957520e-01 -1.015373319387435913e-01 -2.328442782163619995e-01 1.746885627508163452e-01 -6.464503705501556396e-02 -6.077922414988279343e-03 8.326138556003570557e-02 2.175300270318984985e-01 3.515747934579849243e-02 -1.512340903282165527e-01 -6.682036072015762329e-02 -4.391953349113464355e-02 -5.169425532221794128e-02 -8.998867124319076538e-02 1.418301314115524292e-01 -1.290530897676944733e-02 -3.057292476296424866e-02 -2.660085558891296387e-01 8.945909887552261353e-02 -1.456690207123756409e-02
-1.796823227778077126e-03 1.023861672729253769e-02 1.148035749793052673e-02 1.811913698911666870e-01 1.005357280373573303e-01 -9.146012365818023682e-02 2.274020016193389893e-02 -1.239610463380813599e-01 6.766486167907714844e-02 4.972808063030242920e-02 -6.571549177169799805e-02 -1.173929646611213684e-01 8.574733138084411621e-02 -2.830744534730911255e-02 1.937170140445232391e-02 2.831224352121353149e-02 9.533578157424926758e-02 1.209868341684341431e-01 9.046346694231033325e-02 -1.219360157847404480e-01 -8.315582573413848877e-02 -8.273668587207794189e-03 7.487656176090240479e-02 -2.341593056917190552e-01 1.414371728897094727e-01 -7.766239345073699951e-02 1.154324039816856384e-01 -2.615527994930744171e-02 1.512295380234718323e-02 2.720103412866592407e-02 -5.965477786958217621e-03 1.066378802061080933e-01 7.243905216455459595e-03 9.556989371776580811e-02 7.191523909568786621e-02 -1.141818240284919739e-01 1.907747238874435425e-01 7.742948830127716064e-02 7.532474398612976074e-02 8.899032324552536011e-02 -2.328567206859588623e-02 5.788730084896087646e-02 6.233520060777664185e-02 -7.086188346147537231e-02 -9.235367923974990845e-02 -9.127808362245559692e-02 1.323791146278381348e-01 1.546926498413085938e-01 -3.273322060704231262e-02 1.628625988960266113e-01 -1.021281927824020386e-01 5.347396433353424072e-02 -1.824529841542243958e-02 1.040824353694915771e-01 3.663487359881401062e-02 4.098039120435714722e-02 -2.215096354484558105e-01 -6.791948527097702026e-02 -6.659843027591705322e-02 9.605033695697784424e-02 1.617522910237312317e-03 -1.279076784849166870e-01 -1.483465079218149185e-02 5.217054858803749084e-02 8.160874992609024048e-02 -8.374238014221191406e-02 1.982424966990947723e-02 -7.625299692153930664e-02 -8.007199503481388092e-03 -7.076738402247428894e-03 -3.905683755874633789e-02 5.052027851343154907e-02 -5.506524816155433655e-02 1.587729305028915405e-01 9.779097139835357666e-02 9.271734207868576050e-02 5.009429156780242920e-02 2.822117209434509277e-01 6.190763041377067566e-02 -6.704307347536087036e-02 5.008342117071151733e-02 -3.337617497891187668e-03 4.714936763048171997e-02 -2.686866559088230133e-02 -4.321769997477531433e-02 2.508747279644012451e-01 6.489194929599761963e-02 -5.650936067104339600e-02 1.200399100780487061e-01 1.070368587970733643e-01 1.982948482036590576e-01 -3.476380556821823120e-02 -6.796417385339736938e-02 -8.742768317461013794e-03 6.691054999828338623e-02 -1.896667480468750000e-01 6.987163424491882324e-02 2.983093494549393654e-03 -1.092513371258974075e-02 1.696426235139369965e-02 3.296315297484397888e-02 -8.245591074228286743e-02 7.973451167345046997e-02 -3.490399685688316822e-04 6.247959658503532410e-02 -1.130858212709426880e-01 3.679052367806434631e-02 -4.073920473456382751e-02 -2.315376698970794678e-02 4.679987952113151550e-02 -4.960059747099876404e-02 4.914962919428944588e-04 1.886297948658466339e-02 -8.283019065856933594e-02 7.888702303171157837e-02 6.558975577354431152e-02 -2.376384288072586060e-02 -4.987599328160285950e-02 -1.762167364358901978e-01 6.023122742772102356e-02 8.746952563524246216e-02 4.124399274587631226e-03 -4.125671461224555969e-02 -5.793244112282991409e-03 -1.309227198362350464e-01 1.679442673921585083e-01 3.773788362741470337e-02 3.531688824295997620e-02 -1.203543916344642639e-01 1.010927781462669373e-01 1.180900931358337402e-01 -3.433455899357795715e-02 5.688267573714256287e-02 8.907087892293930054e-02 -4.694622475653886795e-03 -3.889399766921997070e-02 -7.759808003902435303e-02 -6.075214594602584839e-02 -1.387279387563467026e-02 2.125024423003196716e-02 -3.095082938671112061e-02 -1.110234558582305908e-01 6.082133576273918152e-02 6.525395810604095459e-02 -1.044145300984382629e-01 -3.800610080361366272e-02 -7.625655829906463623e-02 3.201109915971755981e-02 1.292732805013656616e-01 -1.240660846233367920e-01 -1.503242254257202148e-01 8.784519508481025696e-03 -6.242057681083679199e-02 -1.794177889823913574e-01 -9.437766671180725098e-02 7.911723852157592773e-02 4.830994829535484314e-02 1.323928404599428177e-02 6.744208186864852905e-02 1.040057186037302017e-02 2.514075255021452904e-03 1.572048962116241455e-01 7.179503142833709717e-02 7.328592706471681595e-03 3.624011948704719543e-02 -1.300501972436904907e-01 -6.195484660565853119e-03 -3.860500408336520195e-03 4.651906434446573257e-03 5.157812312245368958e-02 -5.680721625685691833e-02 6.956734508275985718e-02 4.288890957832336426e-02 -9.949263185262680054e-02 -8.824712783098220825e-02 1.595619022846221924e-01 -7.829131186008453369e-02 8.731124550104141235e-02 1.355620473623275757e-01 -6.491415947675704956e-02 -7.220831699669361115e-03 9.071222692728042603e-02 8.066656440496444702e-02 1.379705816507339478e-01 3.716374188661575317e-02 -1.316227950155735016e-02 1.765922158956527710e-01 -6.960356980562210083e-02 -3.080587834119796753e-02 -4.350113868713378906e-02 1.124810576438903809e-01 -3.499108925461769104e-02 1.089771091938018799e-01 -2.249479107558727264e-02 -2.721923403441905975e-02 1.170209720730781555e-01 -3.514634072780609131e-02 -4.412093013525009155e-02 1.743595302104949951e-02 -1.784951239824295044e-02 -9.714400768280029297e-02 -6.466238945722579956e-02 1.270528286695480347e-01 1.500000208616256714e-01 -1.170732732862234116e-02 -3.207678720355033875e-02 4.032232239842414856e-02 4.841566085815429688e-02 4.417976737022399902e-02 -6.485886871814727783e-02 7.206723839044570923e-02 1.662797061726450920e-03 -6.922530476003885269e-03 -2.511762082576751709e-02 1.589753478765487671e-01 2.776402235031127930e-01 -2.902414463460445404e-02 -5.489011853933334351e-02 5.039572133682668209e-04 1.812786213122308254e-03 2.188955433666706085e-02 5.770925804972648621e-02 7.946096360683441162e-02 -9.879686683416366577e-02 1.658506542444229126e-01 1.082265228033065796e-01 3.628746792674064636e-02 1.647600345313549042e-02 -3.474751487374305725e-02 -1.545343101024627686e-01 -8.796936273574829102e-02 -3.239439427852630615e-02 -3.505680244415998459e-03 3.212442621588706970e-02 -4.355792328715324402e-02 3.201285004615783691e-02 6.701339781284332275e-02 1.997281759977340698e-01 3.106810525059700012e-02 5.837433505803346634e-03 6.347873061895370483e-02 -1.253626868128776550e-02 -1.070574894547462463e-01 1.104495301842689514e-01 7.456056028604507446e-02 -8.411983726546168327e-04 -8.823973685503005981e-02 -1.474678814411163330e-01 6.029149889945983887e-02 8.271291106939315796e-02 -5.302829667925834656e-02 1.302261650562286377e-01 6.179810315370559692e-02 5.118381232023239136e-02 -3.358435817062854767e-03 -3.139211609959602356e-02
-6.230750679969787598e-02 -6.261403113603591919e-02 1.777208447456359863e-01 2.918738871812820435e-03 1.768397986888885498e-01 9.513991326093673706e-02 -5.590967833995819092e-02 -7.559888996183872223e-03 3.402515128254890442e-02 1.059231236577033997e-01 -6.656029820442199707e-02 2.112735435366630554e-02 -1.168004572391510010e-01 -1.430980861186981201e-02 1.483472287654876709e-01 1.115211546421051025e-01 9.081347845494747162e-03 8.956938050687313080e-03 2.906033769249916077e-02 -1.574560999870300293e-01 7.724389433860778809e-02 2.813366651535034180e-01 3.649748396128416061e-03 -2.063808031380176544e-02 -4.353875666856765747e-02 -1.774151623249053955e-02 -1.618573814630508423e-02 6.980551779270172119e-02 -5.285585299134254456e-02 9.123079478740692139e-02 -7.012451440095901489e-02 -3.215600270777940750e-03 -1.735581643879413605e-02 1.452513635158538818e-01 1.353258043527603149e-01 -2.774975635111331940e-02 -1.568881273269653320e-01 2.597971120849251747e-03 -1.092672441154718399e-02 -2.062924653291702271e-01 -3.681133314967155457e-02 -6.289768218994140625e-02 4.231189191341400146e-02 -9.151649475097656250e-02 2.486435137689113617e-02 -3.619280084967613220e-02 -4.528348520398139954e-02 5.204376950860023499e-02 5.519059300422668457e-02 -5.522685870528221130e-02 4.898943379521369934e-02 -2.764173597097396851e-02 3.819044306874275208e-02 2.896400727331638336e-02 -8.491201698780059814e-02 -1.338866055011749268e-01 -9.384658187627792358e-02 6.561963260173797607e-02 1.731901615858078003e-02 8.771280199289321899e-02 -7.755433768033981323e-02 -1.129047870635986328e-01 -2.326118350028991699e-01 -9.258682280778884888e-02 2.691960521042346954e-02 2.051628660410642624e-03 -5.065037682652473450e-02 3.505652025341987610e-02 5.228451639413833618e-02 5.643869936466217041e-02 6.738547235727310181e-02 -1.710043996572494507e-01 5.929848179221153259e-03 -7.626141607761383057e-02 -2.052452564239501953e-01 1.312466263771057129e-01 1.989724040031433105e-01 -2.705822698771953583e-02 -5.487680062651634216e-02 1.298040151596069336e-01 -2.810185216367244720e-02 -8.508701622486114502e-02 -2.387397363781929016e-02 1.436965260654687881e-02 -1.679533272981643677e-01 6.125898659229278564e-02 3.801451995968818665e-02 5.293898656964302063e-02 4.580848291516304016e-02 1.474947035312652588e-01 1.056843325495719910e-01 -5.445482954382896423e-02 4.093877971172332764e-02 -3.115125745534896851e-02 9.512479417026042938e-03 7.451482862234115601e-02 -3.896396607160568237e-03 -6.807338446378707886e-02 -4.835778474807739258e-02 -5.212302133440971375e-02 -1.113455370068550110e-01 -9.830453200265765190e-04 -2.379241213202476501e-02 -1.437857598066329956e-01 2.552925050258636475e-01 -9.205911308526992798e-02 1.916503608226776123e-01 8.255817741155624390e-02 6.814242154359817505e-02 -7.049664855003356934e-02 -2.667306736111640930e-02 -1.658308506011962891e-01 7.657488435506820679e-02 -9.461684525012969971e-02 1.214765608310699463e-01 2.461453527212142944e-02 -1.087305098772048950e-01 -1.028271019458770752e-01 1.502870917320251465e-01 -9.862553328275680542e-03 -9.490527212619781494e-02 4.568463563919067383e-02 -7.077502459287643433e-02 -6.118586286902427673e-02 2.778091840445995331e-02 -4.321292415261268616e-02 -1.298992484807968140e-01 1.510144472122192383e-01 -1.112218946218490601e-02 -1.229878421872854233e-02 -1.654406194575130939e-03 -4.328566789627075195e-02 -1.852375082671642303e-02 -1.727467402815818787e-02 -8.745483309030532837e-02 -2.252010069787502289e-02 -3.417837247252464294e-02 1.253050118684768677e-01 -7.686452008783817291e-03 -1.327937096357345581e-01 1.047230362892150879e-01 -1.574366539716720581e-02 3.187467530369758606e-02 -5.013772845268249512e-02 4.142571613192558289e-02 1.052929013967514038e-01 2.153152413666248322e-02 3.353887796401977539e-02 1.931951045989990234e-01 -3.437995910644531250e-02 4.428294301033020020e-02 1.787131838500499725e-02 2.495794743299484253e-02 -1.031403988599777222e-01 -4.830155055969953537e-03 -3.193797171115875244e-02 -2.662860415875911713e-02 -8.196803182363510132e-02 -2.137233316898345947e-01 6.396301090717315674e-02 -4.600659757852554321e-02 -2.038740552961826324e-02 -4.424207657575607300e-02 -8.394443988800048828e-02 -4.044936969876289368e-03 2.767333947122097015e-02 5.327744409441947937e-03 2.280489951372146606e-01 -1.217021346092224121e-01 5.647315457463264465e-02 -9.926273673772811890e-02 -9.630454704165458679e-03 -1.420935392379760742e-01 -1.296924352645874023e-01 -5.591266974806785583e-02 1.838764175772666931e-02 -6.952511612325906754e-03 -6.207392737269401550e-02 1.191386505961418152e-01 6.015120446681976318e-02 -8.055543899536132812e-02 -7.714135199785232544e-02 -2.975459396839141846e-02 -8.696880191564559937e-02 -8.979158848524093628e-02 8.055246621370315552e-02 1.103023067116737366e-01 -3.814002266153693199e-03 -2.101289294660091400e-02 -1.226473376154899597e-01 1.465497352182865143e-02 -8.241350203752517700e-02 -7.740434259176254272e-02 5.382359400391578674e-02 -1.597350277006626129e-02 2.408972755074501038e-02 -7.078254222869873047e-02 1.512457430362701416e-01 1.688860952854156494e-01 8.820643275976181030e-02 -3.061245009303092957e-02 -1.096184179186820984e-02 8.350395364686846733e-04 1.347330119460821152e-02 1.834048330783843994e-02 2.221832722425460815e-01 6.313969846814870834e-03 2.322733961045742035e-02 -9.875934571027755737e-02 -1.916828186949715018e-04 1.823119260370731354e-02 -3.018993325531482697e-02 2.059711664915084839e-01 7.296974956989288330e-02 2.610389143228530884e-02 -1.079532131552696228e-01 1.125125139951705933e-01 -5.823244526982307434e-02 8.236803859472274780e-02 -2.280437499284744263e-01 -5.958025902509689331e-02 1.481385435909032822e-03 2.541347406804561615e-02 -2.994971163570880890e-02 -5.985921248793601990e-02 3.596498444676399231e-02 -5.130939930677413940e-02 1.298296004533767700e-01 -1.611409708857536316e-02 1.356563568115234375e-01 -9.899584203958511353e-02 -5.023507401347160339e-02 -1.620860546827316284e-01 -1.699422895908355713e-01 8.145887404680252075e-02 3.940339013934135437e-02 -1.143860369920730591e-01 6.620096415281295776e-02 3.080195002257823944e-02 1.367844175547361374e-02 -4.550353065133094788e-02 -7.945004105567932129e-02 1.698301057331264019e-03 -1.021280884742736816e-01 -1.504123094491660595e-03 2.015304751694202423e-02 -3.134460712317377329e-04 7.234547287225723267e-02 -1.188551262021064758e-01 1.344151049852371216e-02 9.880924224853515625e-02 -4.709120467305183411e-02 9.272345341742038727e-03 2.574482746422290802e-02 -2.169707417488098145e-02 -6.175864487886428833e-02
-8.621856570243835449e-02 -2.148774713277816772e-01 -5.182626843452453613e-02 1.076906770467758179e-01 -5.520319193601608276e-02 6.832552701234817505e-02 -1.337005496025085449e-01 -1.247424781322479248e-01 -5.193266272544860840e-02 4.978272132575511932e-03 -9.349329769611358643e-02 9.080369770526885986e-02 -5.557879805564880371e-03 -1.041852403432130814e-03 -5.027436651289463043e-03 1.196104008704423904e-02 -2.575569413602352142e-02 -6.910141557455062866e-02 -8.084615319967269897e-02 -1.572614908218383789e-02 1.140935812145471573e-02 7.230709493160247803e-02 -1.590074785053730011e-02 1.196665167808532715e-01 5.107155442237854004e-02 5.541819706559181213e-02 -1.172911226749420166e-01 -1.521261292509734631e-03 4.941123723983764648e-02 -3.831511363387107849e-02 -1.056879907846450806e-01 -1.007292717695236206e-01 9.110110998153686523e-02 7.414446771144866943e-02 8.070112764835357666e-02 -1.803075224161148071e-01 -6.207975372672080994e-02 1.275824010372161865e-01 3.547554835677146912e-02 8.732739835977554321e-02 -4.783269017934799194e-02 3.947832435369491577e-02 1.559573262929916382e-01 -1.007857918739318848e-02 5.552605167031288147e-02 -1.042353287339210510e-01 -8.384872972965240479e-02 3.185817971825599670e-02 5.017771385610103607e-03 1.920808255672454834e-01 9.516713023185729980e-02 3.418845008127391338e-04 4.214086011052131653e-02 2.730322815477848053e-02 -1.442473102360963821e-02 -6.202702224254608154e-02 -2.431917749345302582e-02 -8.642581105232238770e-02 -1.022891253232955933e-01 -1.656531915068626404e-02 5.898557230830192566e-02 9.727787971496582031e-02 6.175693124532699585e-03 -6.927487254142761230e-02 -1.234203577041625977e-01 -7.372692227363586426e-02 8.995211869478225708e-02 1.099085784517228603e-03 5.614961683750152588e-02 8.505843579769134521e-02 5.838708020746707916e-03 1.992978602647781372e-01 -1.130879297852516174e-01 -4.872284829616546631e-02 -7.958729565143585205e-02 -9.693874046206474304e-03 -1.701774448156356812e-02 -9.107959270477294922e-02 1.538466196507215500e-02 -5.984471365809440613e-02 4.295562952756881714e-02 2.899091877043247223e-02 4.548618569970130920e-02 -1.272478140890598297e-02 -7.853794842958450317e-02 3.320918418467044830e-03 -5.601818487048149109e-02 -1.292283833026885986e-01 1.279195100069046021e-01 1.551601476967334747e-02 2.006375417113304138e-02 5.160604044795036316e-02 -5.982206389307975769e-02 1.473988033831119537e-02 -5.908542126417160034e-02 6.303893029689788818e-02 -1.461853832006454468e-01 1.174361631274223328e-01 -1.388631295412778854e-02 -1.522844135761260986e-01 -5.285002291202545166e-02 -1.230530589818954468e-01 1.497145593166351318e-01 7.762341201305389404e-02 -7.858972996473312378e-02 -2.330403327941894531e-01 -1.111829653382301331e-01 -7.351257372647523880e-03 -1.266563683748245239e-01 -4.662339016795158386e-02 -1.572364866733551025e-01 8.426245301961898804e-02 4.588373005390167236e-02 -1.822213828563690186e-01 1.261892635375261307e-02 -6.297087669372558594e-02 4.925005137920379639e-02 3.928055241703987122e-02 -7.589583843946456909e-02 -7.427206728607416153e-03 -2.968885004520416260e-02 1.859655678272247314e-01 -7.324762642383575439e-02 8.209794759750366211e-02 -1.872810348868370056e-02 -1.414017099887132645e-02 -2.600166387856006622e-02 -6.593120098114013672e-02 1.655889749526977539e-01 5.774611979722976685e-02 1.211161911487579346e-01 1.197312176227569580e-01 -1.012670397758483887e-01 -2.154143899679183960e-02 4.353638738393783569e-03 1.547220349311828613e-02 3.497156500816345215e-02 -1.591166295111179352e-02 2.766181528568267822e-02 -5.869298800826072693e-02 -4.594992846250534058e-03 3.569211065769195557e-02 1.121685747057199478e-02 2.240355871617794037e-02 -9.051953256130218506e-02 2.495598047971725464e-02 7.856485992670059204e-02 1.345022302120923996e-02 -7.709427922964096069e-02 -1.904056034982204437e-02 -1.881725490093231201e-01 -5.570938810706138611e-02 1.444360017776489258e-01 -9.469693154096603394e-02 -2.688937634229660034e-02 1.316960901021957397e-02 -1.006160303950309753e-02 6.879230961203575134e-03 5.510932300239801407e-03 -7.169208955019712448e-03 1.260946691036224365e-01 -8.925598859786987305e-02 -1.223451867699623108e-01 -9.863464161753654480e-03 -8.379627019166946411e-02 -7.196189463138580322e-02 -7.713904231786727905e-02 -6.546176970005035400e-03 1.574517786502838135e-02 -1.594945639371871948e-01 2.966286987066268921e-02 1.858998537063598633e-01 1.480353474617004395e-01 1.542208064347505569e-02 6.141694262623786926e-02 3.930503129959106445e-02 -1.345566958189010620e-01 -6.824301555752754211e-03 -5.983816459774971008e-02 1.239702925086021423e-01 -3.137259557843208313e-02 -2.140751481056213379e-02 6.514336168766021729e-02 2.470020018517971039e-02 -4.308398347347974777e-03 -4.308667778968811035e-02 9.210650809109210968e-03 -8.004544675350189209e-02 4.210446774959564209e-02 -7.421898655593395233e-03 -1.800452172756195068e-01 -4.285305738449096680e-02 1.715064421296119690e-02 -1.403179019689559937e-01 -8.309792727231979370e-02 1.738746091723442078e-02 1.450201719999313354e-01 -6.356446444988250732e-02 -5.018524825572967529e-02 6.404166668653488159e-02 1.994073018431663513e-02 8.339564502239227295e-02 -9.093733876943588257e-02 1.878719478845596313e-01 5.507547035813331604e-02 4.292762279510498047e-02 -1.078235879540443420e-01 5.257106944918632507e-02 -4.976838827133178711e-02 1.194900739938020706e-02 -1.309009194374084473e-01 2.005551606416702271e-01 -3.888958320021629333e-02 1.214694324880838394e-02 1.743000559508800507e-02 9.525444358587265015e-02 2.357941679656505585e-02 5.072760954499244690e-02 9.789228439331054688e-02 1.919257044792175293e-01 -1.147719398140907288e-01 -8.878122270107269287e-02 5.699157342314720154e-02 3.351736068725585938e-02 -4.796815663576126099e-02 -1.734077930450439453e-01 1.060238033533096313e-01 8.002798259258270264e-02 -4.233524203300476074e-02 7.111860066652297974e-02 6.522297859191894531e-02 -2.905650064349174500e-03 -1.657792739570140839e-02 -1.090093404054641724e-01 -7.140542566776275635e-02 5.427367985248565674e-02 -7.008506357669830322e-02 -8.342257887125015259e-02 8.035359531641006470e-02 5.540106911212205887e-03 7.887065410614013672e-02 -1.343500614166259766e-01 -6.538093090057373047e-03 -2.984937280416488647e-02 1.550598740577697754e-01 -2.164357341825962067e-02 2.676524594426155090e-02 4.236307367682456970e-02 -7.138331979513168335e-02 -5.105128884315490723e-02 5.564437806606292725e-02 6.826098263263702393e-02 1.068782061338424683e-01 -3.445442765951156616e-02 -1.132001504302024841e-01 -6.273431330919265747e-02
-1.488787829875946045e-01 1.034955531358718872e-01 -4.514812305569648743e-02 -2.775058150291442871e-03 1.966361403465270996e-01 6.627563387155532837e-03 1.066272426396608353e-02 9.719536639750003815e-03 -1.670770943164825439e-01 2.162002399563789368e-02 -4.413232579827308655e-02 4.470836836844682693e-03 7.332500815391540527e-02 1.301576346158981323e-01 1.218634843826293945e-01 -6.908538192510604858e-02 1.490675960667431355e-03 -5.261718481779098511e-02 8.101157844066619873e-03 1.549787446856498718e-02 2.438967302441596985e-02 1.444642245769500732e-01 -1.343934088945388794e-01 5.433216318488121033e-02 9.300660341978073120e-02 8.254497498273849487e-02 7.571276277303695679e-02 4.077381640672683716e-02 5.947247520089149475e-02 2.441551908850669861e-02 1.553397178649902344e-01 -7.707244902849197388e-02 -7.825916260480880737e-02 9.030676633119583130e-02 1.042620539665222168e-01 1.059141941368579865e-02 1.589819639921188354e-01 -6.335720419883728027e-02 -7.233961671590805054e-02 -1.520607173442840576e-01 1.026942208409309387e-01 9.461025148630142212e-02 -2.412597276270389557e-02 7.661963254213333130e-02 -4.027169570326805115e-02 -1.377539243549108505e-02 9.048030525445938110e-02 2.148829633370041847e-03 3.286882489919662476e-02 -1.160531863570213318e-01 6.471221894025802612e-02 1.013182569295167923e-02 8.346709609031677246e-02 1.193851158022880554e-01 -1.109746843576431274e-02 -7.879195362329483032e-02 -1.292911767959594727e-01 -1.259725540876388550e-01 1.780752837657928467e-02 -3.387366980314254761e-02 8.185793645679950714e-03 8.677121251821517944e-02 2.360948128625750542e-03 -3.775442391633987427e-02 1.026857420802116394e-01 4.531015828251838684e-02 -9.406872838735580444e-02 -3.842139989137649536e-02 3.612980619072914124e-02 -4.068429023027420044e-02 8.560007065534591675e-02 5.687181279063224792e-02 -7.571683079004287720e-02 2.452658303081989288e-02 -9.662971645593643188e-02 -3.759119194000959396e-03 -9.984216839075088501e-02 1.568073220551013947e-02 -3.328496217727661133e-02 1.523937284946441650e-01 -8.537093549966812134e-02 1.188735440373420715e-01 -1.370627135038375854e-01 -3.170062229037284851e-02 -8.610240370035171509e-02 -6.575608998537063599e-02 1.469605863094329834e-01 -1.529108616523444653e-03 7.211332768201828003e-02 4.176745563745498657e-02 2.990765869617462158e-02 6.946527957916259766e-02 -4.409534111618995667e-02 -1.700781136751174927e-01 1.775219291448593140e-02 2.768114581704139709e-02 -7.549992948770523071e-02 6.989876925945281982e-02 9.538011997938156128e-02 3.158079087734222412e-02 2.654038667678833008e-01 -4.287278652191162109e-02 8.401177823543548584e-02 -5.098839849233627319e-02 3.732293099164962769e-02 -7.244013994932174683e-02 1.321429908275604248e-01 -1.387920975685119629e-01 1.112992167472839355e-01 -2.192948758602142334e-02 1.866365224123001099e-01 4.000258818268775940e-02 3.326042741537094116e-02 5.259443819522857666e-02 1.445278245955705643e-02 8.916925638914108276e-02 -5.854023247957229614e-02 8.003609254956245422e-03 1.848904229700565338e-02 4.656192846596240997e-03 2.702515758574008942e-02 4.008780419826507568e-02 2.320058941841125488e-01 9.873058646917343140e-03 2.510737814009189606e-02 4.272991418838500977e-02 -4.703016951680183411e-02 -7.865942269563674927e-02 -7.125298678874969482e-02 6.726913899183273315e-02 1.147693023085594177e-01 3.354546800255775452e-02 1.131350770592689514e-01 -4.833567887544631958e-02 4.280265420675277710e-02 1.272672414779663086e-01 -1.389365047216415405e-01 -1.897230371832847595e-02 -8.393287658691406250e-02 3.877806663513183594e-02 -3.608733043074607849e-02 -6.218960508704185486e-03 -3.331067413091659546e-02 1.581870168447494507e-01 9.567809849977493286e-02 -1.176928877830505371e-01 -3.051148913800716400e-02 1.095319241285324097e-01 -1.487009376287460327e-01 -7.182473689317703247e-02 2.545103728771209717e-01 -2.277348004281520844e-02 8.109592646360397339e-02 4.676217585802078247e-02 -7.270718365907669067e-02 6.779442727565765381e-02 5.675141885876655579e-02 -1.709411479532718658e-02 1.974673382937908173e-02 -1.166045218706130981e-01 3.561939299106597900e-02 4.886145889759063721e-02 8.356281369924545288e-02 4.056504368782043457e-02 2.213756889104843140e-01 -4.764225159306079149e-04 -4.054687917232513428e-02 -7.858134806156158447e-02 5.280340462923049927e-02 -7.548416405916213989e-02 1.338113993406295776e-01 -2.359136193990707397e-02 1.545100379735231400e-02 3.858702257275581360e-02 1.057741194963455200e-01 6.085668876767158508e-02 1.515117287635803223e-01 1.434255391359329224e-01 -3.019283525645732880e-02 -9.664079546928405762e-02 8.313723839819431305e-03 9.792136400938034058e-02 -3.877810016274452209e-02 1.301392465829849243e-01 1.966252923011779785e-01 -1.168937832117080688e-01 -3.432513913139700890e-03 1.088998746126890182e-02 -7.344351708889007568e-02 1.215852349996566772e-01 6.271698977798223495e-03 8.538042753934860229e-02 -7.172060757875442505e-02 -9.033575654029846191e-03 -3.885223343968391418e-02 -1.474715173244476318e-01 -3.936770930886268616e-02 -1.940361224114894867e-02 -8.457375690340995789e-03 4.396768286824226379e-02 1.773175746202468872e-01 -9.358900040388107300e-02 1.299136132001876831e-01 -1.311838775873184204e-01 -6.876040250062942505e-02 6.553965061902999878e-02 1.504014618694782257e-02 -6.557518243789672852e-02 -5.220101028680801392e-02 -2.518588490784168243e-02 -4.687212780117988586e-02 2.094615846872329712e-01 1.423986554145812988e-01 2.389296330511569977e-02 -2.452413924038410187e-02 1.161269545555114746e-01 9.180697053670883179e-02 -7.242009043693542480e-02 1.370371580123901367e-01 1.344019323587417603e-01 7.648837566375732422e-02 -9.965667128562927246e-02 -7.259059231728315353e-03 9.053476899862289429e-02 7.812767475843429565e-02 5.101785063743591309e-02 2.415861748158931732e-02 1.018935590982437134e-01 -1.265201345086097717e-02 1.855249330401420593e-02 -5.807682126760482788e-02 -1.342615927569568157e-03 2.539954707026481628e-02 -2.124453708529472351e-02 6.046207994222640991e-02 8.952881395816802979e-02 -9.824009612202644348e-04 -2.505714297294616699e-01 3.130954131484031677e-02 -1.197488829493522644e-01 1.779519766569137573e-02 -5.632794275879859924e-02 2.541027264669537544e-03 -3.813906805589795113e-03 -3.413219377398490906e-02 -9.534242004156112671e-02 -5.907488614320755005e-02 -5.855366215109825134e-02 -6.638363003730773926e-02 6.832426786422729492e-02 7.966732233762741089e-02 1.489911079406738281e-01 1.033716350793838501e-01 1.882034689188003540e-01 1.109413150697946548e-02 1.995794102549552917e-02
1.771439611911773682e-01 -1.777126193046569824e-01 -2.356452643871307373e-01 -9.213584661483764648e-02 1.422362178564071655e-01 2.521789371967315674e-01 -1.745293103158473969e-02 -4.882945492863655090e-02 -1.146181207150220871e-02 3.338560089468955994e-02 -1.968587283045053482e-03 -9.579261392354965210e-02 -1.443255096673965454e-01 -1.198020130395889282e-01 1.411378085613250732e-01 1.062975265085697174e-03 2.886139228940010071e-02 -5.990961100906133652e-03 -6.535743176937103271e-02 -1.928247213363647461e-01 -4.764297977089881897e-03 -1.081537008285522461e-01 -7.239767909049987793e-02 -1.722110509872436523e-01 -7.630327343940734863e-02 -1.366106718778610229e-01 -1.281322687864303589e-01 5.841363966464996338e-02 3.825733438134193420e-02 9.250308386981487274e-03 1.277011632919311523e-02 7.999961823225021362e-02 -4.773637279868125916e-02 9.955711662769317627e-02 -1.029486730694770813e-01 -1.999336779117584229e-01 2.153254002332687378e-01 1.753327902406454086e-03 -8.071043342351913452e-02 -2.222798392176628113e-02 4.656406864523887634e-02 -7.556147873401641846e-02 -1.655572950839996338e-01 -4.829112812876701355e-02 -3.936212882399559021e-02 4.599370434880256653e-02 1.213938891887664795e-01 1.396031305193901062e-02 -5.986791104078292847e-02 -1.021056529134511948e-02 1.261104494333267212e-01 5.430672690272331238e-02 -6.458144052885472775e-04 8.265221863985061646e-02 1.023932397365570068e-01 1.560821570456027985e-02 -2.673448761925101280e-03 -3.863144293427467346e-02 7.190814707428216934e-03 -1.289800256490707397e-01 5.964971147477626801e-03 1.375589370727539062e-01 -3.014262020587921143e-02 1.016361042857170105e-01 -1.700218766927719116e-01 -1.089470013976097107e-01 1.604477316141128540e-01 -1.595325618982315063e-01 3.790848329663276672e-02 2.080921828746795654e-02 -8.669193089008331299e-02 -9.179326146841049194e-02 -3.184325993061065674e-02 -1.682201474905014038e-01 -1.419445872306823730e-01 5.491989105939865112e-02 1.032657921314239502e-01 1.169009208679199219e-01 -6.396111100912094116e-02 7.187090814113616943e-02 4.022455960512161255e-02 3.797113895416259766e-02 -9.017886221408843994e-02 -6.795218586921691895e-02 1.348349917680025101e-02 6.552980840206146240e-02 -2.580226957798004150e-01 -3.721616044640541077e-02 -7.237843424081802368e-02 1.701041869819164276e-02 4.683573916554450989e-02 -3.040330484509468079e-03 4.690317064523696899e-02 1.880526691675186157e-01 -2.889307402074337006e-02 7.605632394552230835e-02 1.085488721728324890e-01 5.400103982537984848e-03 7.358767837285995483e-02 -7.683279109187424183e-04 5.718747526407241821e-02 2.257455140352249146e-02 8.762354403734207153e-02 -1.728380620479583740e-01 -9.166019409894943237e-02 3.596498072147369385e-02 -1.459767967462539673e-01 -8.767053484916687012e-02 -1.384195238351821899e-01 -2.927633225917816162e-01 -4.506561160087585449e-02 3.286444023251533508e-02 3.648406639695167542e-02 1.655709370970726013e-02 7.978731300681829453e-04 -2.790523320436477661e-02 8.704330772161483765e-02 -9.411118924617767334e-02 -8.308595418930053711e-02 -8.846697956323623657e-02 -2.864210121333599091e-02 1.376219242811203003e-01 3.091606684029102325e-02 -4.795458633452653885e-03 7.487832754850387573e-02 1.103774737566709518e-02 -5.602480471134185791e-02 6.104370579123497009e-02 -8.748853951692581177e-02 -2.152542918920516968e-01 3.872805042192339897e-03 -5.524577945470809937e-02 3.738519735634326935e-03 8.251224458217620850e-02 -1.110882461071014404e-01 -1.881419331766664982e-03 5.520760640501976013e-02 -5.155931785702705383e-02 3.201733343303203583e-03 -3.835210576653480530e-02 2.972328290343284607e-02 -3.159724920988082886e-02 1.152524575591087341e-01 5.109082534909248352e-02 -2.188598178327083588e-02 -1.297547668218612671e-01 -1.044510602951049805e-01 -5.395649373531341553e-02 -3.533576056361198425e-02 -1.066489890217781067e-01 3.506038105115294456e-03 3.397851064801216125e-02 9.870221838355064392e-03 4.070683568716049194e-02 5.269773304462432861e-02 -2.390275523066520691e-02 -3.180117532610893250e-02 -1.101422868669033051e-02 3.300528915133327246e-04 -5.496825650334358215e-02 -2.478091791272163391e-02 -7.981153577566146851e-02 1.382764577865600586e-01 1.547238975763320923e-02 -1.094032526016235352e-01 1.973573304712772369e-02 -9.761693328619003296e-02 -7.163659483194351196e-02 -2.322846837341785431e-02 -3.003768250346183777e-02 -3.108766861259937286e-02 1.582611724734306335e-02 9.553666226565837860e-03 -1.154215335845947266e-01 -1.063781008124351501e-01 -3.734920173883438110e-02 1.625342071056365967e-01 -2.468948950991034508e-03 1.160916462540626526e-01 -3.439326286315917969e-01 4.593874514102935791e-02 2.735685557126998901e-02 1.378361880779266357e-01 1.746022328734397888e-02 -7.029419392347335815e-02 8.460080623626708984e-02 -4.386605322360992432e-02 2.185615710914134979e-02 3.509434312582015991e-02 1.073802858591079712e-01 -2.516528964042663574e-02 -2.135107219219207764e-01 -3.487227112054824829e-02 -7.341170310974121094e-02 2.495302446186542511e-02 -1.124148666858673096e-01 2.698230557143688202e-02 1.519707590341567993e-01 -1.467378437519073486e-01 -6.196476891636848450e-02 1.048649102449417114e-01 8.049257099628448486e-02 9.115156531333923340e-02 -1.938324980437755585e-02 1.176705956459045410e-02 1.505858153104782104e-01 1.352333873510360718e-01 8.131468296051025391e-02 -6.118462607264518738e-02 -3.768751025199890137e-02 -1.479932852089405060e-02 2.144028693437576294e-01 6.252309679985046387e-02 9.996632486581802368e-02 6.153655797243118286e-02 -9.612146764993667603e-02 -6.618916243314743042e-02 -4.015311226248741150e-02 -4.129924252629280090e-02 2.139684930443763733e-02 -5.732840299606323242e-02 1.055133296176791191e-03 -1.831362396478652954e-02 -1.913421414792537689e-02 -1.209267154335975647e-01 6.408083438873291016e-02 3.207509964704513550e-02 -2.633023634552955627e-02 7.955692708492279053e-02 -2.077347189188003540e-01 1.929262094199657440e-02 3.260321170091629028e-02 5.659449100494384766e-02 -2.284284867346286774e-02 5.738911032676696777e-02 -1.998706720769405365e-02 -8.008449338376522064e-03 -1.365673635154962540e-02 9.608377516269683838e-02 6.708115339279174805e-02 1.157211139798164368e-02 -9.570100158452987671e-02 -1.790111139416694641e-02 1.465155463665723801e-02 -3.875676542520523071e-02 9.921558946371078491e-02 -1.006652712821960449e-01 -4.314384609460830688e-02 4.193304572254419327e-03 7.444037497043609619e-02 -5.114222317934036255e-02 -3.811626881361007690e-02 -2.835692092776298523e-02 -9.473536047153174877e-04 -1.093095391988754272e-01 3.559116274118423462e-02
-6.015562638640403748e-02 -7.168126106262207031e-02 4.041870310902595520e-02 4.120113328099250793e-02 -1.471578776836395264e-01 -1.078624799847602844e-01 -2.836751937866210938e-02 -5.934736877679824829e-02 9.920129179954528809e-02 -8.281005918979644775e-02 -1.091529652476310730e-01 -1.743580698966979980e-01 5.748729407787322998e-02 1.312583088874816895e-01 2.325371094048023224e-02 -6.339100748300552368e-02 2.429334819316864014e-02 2.005727961659431458e-02 -7.702558487653732300e-02 1.406784057617187500e-01 -1.260324567556381226e-01 9.712555445730686188e-03 4.375609382987022400e-02 -1.139884442090988159e-01 -6.744735687971115112e-02 -3.946826234459877014e-02 -9.111016988754272461e-02 -8.088215440511703491e-02 9.358683228492736816e-02 -5.766564235091209412e-02 -3.037423640489578247e-02 6.760890781879425049e-02 -7.488443702459335327e-02 -5.194350332021713257e-02 -6.576026976108551025e-02 -1.023800745606422424e-01 1.418165862560272217e-01 -9.580422192811965942e-02 9.589334577322006226e-02 4.827480763196945190e-03 9.976151585578918457e-02 1.053225845098495483e-01 -5.430925521068274975e-04 1.273547261953353882e-01 3.010812215507030487e-02 8.289039880037307739e-02 1.500550806522369385e-01 -4.456395283341407776e-02 4.714344069361686707e-02 6.468459218740463257e-02 2.125005982816219330e-02 -2.402084879577159882e-02 3.852779790759086609e-02 -5.033459886908531189e-02 1.263030469417572021e-01 1.682492494583129883e-01 -6.040668115019798279e-02 9.925388544797897339e-02 -1.968048326671123505e-02 2.998813427984714508e-02 -2.188471853733062744e-01 6.317891925573348999e-02 7.793378084897994995e-02 -9.170376695692539215e-03 -1.079144105315208435e-01 -3.384484350681304932e-02 -1.068155914545059204e-01 3.983378410339355469e-02 -1.480484902858734131e-01 -1.117791086435317993e-01 5.393282044678926468e-03 1.525373570621013641e-02 1.535157114267349243e-01 9.293460100889205933e-02 -2.727187983691692352e-02 8.028449118137359619e-02 1.357888281345367432e-01 1.112281680107116699e-01 -3.255689889192581177e-02 -1.455097943544387817e-01 2.695306204259395599e-03 -4.125661775469779968e-02 1.058507785201072693e-01 -4.367823526263237000e-02 1.271566897630691528e-01 -1.317759305238723755e-01 -4.324048385024070740e-02 1.209141835570335388e-01 -1.388766337186098099e-03 -6.800048984587192535e-03 -6.857611238956451416e-02 -1.880194619297981262e-02 3.323031961917877197e-02 1.540990546345710754e-02 -4.126850515604019165e-02 9.054816514253616333e-02 -1.512193530797958374e-01 -9.059774130582809448e-02 9.753827750682830811e-02 -1.082293391227722168e-01 -2.969219349324703217e-02 3.214570507407188416e-02 5.011389404535293579e-02 1.075945678167045116e-03 -3.962216898798942566e-02 -5.660076439380645752e-02 2.314703306183218956e-03 -8.110681921243667603e-02 -2.634528465569019318e-02 -1.114148050546646118e-01 9.746596217155456543e-02 4.562137648463249207e-02 2.357592135667800903e-01 1.307993531227111816e-01 4.719884321093559265e-02 1.030953153967857361e-01 -2.050091922283172607e-01 -3.470577299594879150e-03 2.412996627390384674e-02 7.388986647129058838e-02 -3.428379818797111511e-02 -7.725922018289566040e-02 1.365695893764495850e-01 3.393257036805152893e-02 8.502085693180561066e-03 -2.244895882904529572e-02 3.932046517729759216e-02 1.975611038506031036e-02 -6.328032910823822021e-02 2.450584620237350464e-02 -3.593697771430015564e-02 -4.085687175393104553e-02 1.581654101610183716e-01 1.466176956892013550e-01 -6.710023432970046997e-02 -9.443081216886639595e-04 -1.166028343141078949e-02 1.060018315911293030e-01 6.001720577478408813e-02 -1.679581254720687866e-01 -1.234989613294601440e-02 -2.338030934333801270e-02 8.384842425584793091e-02 -8.483766764402389526e-02 -3.355215862393379211e-02 -3.615425527095794678e-02 -9.937357157468795776e-02 -5.663223192095756531e-02 1.728820055723190308e-02 6.966065615415573120e-02 -4.653635993599891663e-02 7.827853411436080933e-02 -1.317277848720550537e-01 8.137792348861694336e-03 -8.263997733592987061e-02 8.354544639587402344e-02 -1.312577575445175171e-01 -1.620286852121353149e-01 2.146651037037372589e-02 4.044691845774650574e-02 4.254513978958129883e-02 4.513635486364364624e-02 2.286175452172756195e-02 -1.310493648052215576e-01 2.077822983264923096e-01 -1.148745068348944187e-03 5.033047124743461609e-02 -8.102287352085113525e-02 -1.027567610144615173e-01 -4.163301363587379456e-02 -1.528400694951415062e-03 8.687344379723072052e-03 -8.738584071397781372e-02 -2.136371433734893799e-01 1.399721950292587280e-01 1.607662141323089600e-01 1.071928143501281738e-01 -1.753229349851608276e-01 -6.518103182315826416e-02 3.454585000872612000e-02 6.346447765827178955e-02 -1.569861769676208496e-01 2.318421453237533569e-01 -2.726738154888153076e-02 -7.729902118444442749e-02 6.908364593982696533e-02 -1.425966620445251465e-01 -7.201083749532699585e-02 -1.717809401452541351e-02 8.815907686948776245e-02 -5.001404136419296265e-02 -7.400908973067998886e-03 -8.562630414962768555e-02 6.702125817537307739e-02 -8.865220472216606140e-03 -8.126220107078552246e-02 3.067579679191112518e-02 3.557341545820236206e-02 1.138641983270645142e-01 5.206266790628433228e-02 2.215190976858139038e-01 8.114375174045562744e-02 -4.597052559256553650e-02 1.522931456565856934e-02 1.876960098743438721e-01 -7.438994199037551880e-02 2.417751029133796692e-02 -8.540014922618865967e-02 -5.986557155847549438e-02 8.588451892137527466e-02 -8.601944148540496826e-02 -3.736149147152900696e-02 -9.342235326766967773e-02 3.681949898600578308e-02 6.245424598455429077e-02 -6.350290775299072266e-02 -7.128518074750900269e-03 1.418163776397705078e-01 1.250151693820953369e-01 -2.975225076079368591e-02 6.309362500905990601e-02 -7.277288287878036499e-02 -1.456157886423170567e-03 1.370732858777046204e-02 2.099561840295791626e-01 4.603245854377746582e-02 -5.783351883292198181e-02 8.463285863399505615e-02 -1.482673436403274536e-01 9.791424870491027832e-02 7.830893993377685547e-02 4.191197827458381653e-02 7.006788998842239380e-02 -9.744971990585327148e-03 -5.192480608820915222e-02 1.212667003273963928e-01 -4.652722738683223724e-03 -7.114109396934509277e-02 -1.183142289519309998e-01 -7.950584590435028076e-02 4.335261136293411255e-02 -1.913182670250535011e-03 -1.279207617044448853e-01 8.045054972171783447e-02 -9.656522423028945923e-02 -3.357119113206863403e-02 4.237440228462219238e-02 9.678582102060317993e-02 5.851637199521064758e-02 -9.375563263893127441e-02 -5.539649724960327148e-02 -7.231829315423965454e-02 1.254087314009666443e-02 -1.390970200300216675e-01 2.569584734737873077e-02 2.281754277646541595e-02
