2.754214219748973846e-02
-8.599731139838695526e-03
2.153614163398742676e-02
-1.275875722058117390e-03
5.576966330409049988e-03
1.609828509390354156e-02
6.315567065030336380e-03
7.019698387011885643e-04
1.186777837574481964e-03
-8.560912683606147766e-03
-1.312377210706472397e-02
3.598785551730543375e-04
8.019211702048778534e-03
5.171580705791711807e-04
1.925867423415184021e-02
-1.252859248779714108e-03
-3.458276158198714256e-03
7.037052419036626816e-04
-1.390457339584827423e-02
-5.651698447763919830e-03
-1.229814253747463226e-02
4.019248299300670624e-03
1.196277048438787460e-02
-2.266494743525981903e-02
-9.849396534264087677e-03
2.805205993354320526e-03
-1.685979403555393219e-02
1.218914240598678589e-02
1.258211303502321243e-02
-6.598254200071096420e-03
-9.567135944962501526e-03
1.268589030951261520e-02
1.499446853995323181e-02
2.516634017229080200e-02
-6.562332157045602798e-03
1.573205366730690002e-02
-9.061203338205814362e-03
4.292691592127084732e-03
-9.328262880444526672e-03
1.498216111212968826e-02
1.876679621636867523e-02
5.105388700030744076e-04
-2.037897706031799316e-02
-4.554918967187404633e-03
-1.113632787019014359e-02
-9.125060401856899261e-03
-1.507833134382963181e-02
2.262320928275585175e-02
-1.375684700906276703e-02
1.551496796309947968e-02
-2.522213198244571686e-02
2.948064170777797699e-02
-8.964197710156440735e-03
1.583367586135864258e-02
-9.583973325788974762e-03
1.437020371668040752e-03
6.241986993700265884e-03
2.530697360634803772e-02
3.026980441063642502e-03
-1.195296924561262131e-02
-4.286979383323341608e-04
-3.776739584282040596e-03
-9.514853358268737793e-03
1.684149727225303650e-02
-5.841219332069158554e-03
-1.570897293277084827e-03
-1.497983653098344803e-02
2.949920715764164925e-03
1.140744239091873169e-02
-6.319644395262002945e-03
7.398847024887800217e-03
8.281505666673183441e-03
-2.769485814496874809e-03
1.363800559192895889e-02
-1.799198053777217865e-02
2.670057350769639015e-03
-1.150429155677556992e-02
-8.122695609927177429e-03
1.478403620421886444e-02
-2.805729629471898079e-03
2.088492363691329956e-02
-1.920083304867148399e-03
8.566319011151790619e-03
1.538723986595869064e-02
-4.006647504866123199e-03
2.954316698014736176e-02
1.178208645433187485e-02
9.331581182777881622e-03
2.644355595111846924e-02
5.634944885969161987e-03
1.242643781006336212e-02
1.285958103835582733e-02
2.537298481911420822e-03
1.089499797672033310e-02
2.028755843639373779e-02
1.104859728366136551e-02
1.984997093677520752e-02
-9.821660816669464111e-03
1.144407782703638077e-02
1.066136173903942108e-02
-5.917280912399291992e-03
1.845325343310832977e-02
1.622769236564636230e-02
-1.788795110769569874e-03
4.049641545861959457e-03
1.394892670214176178e-02
1.011666283011436462e-02
7.613209541887044907e-03
6.484495475888252258e-03
-5.217983387410640717e-03
1.178523618727922440e-02
-3.816646523773670197e-03
8.204727433621883392e-03
1.743548549711704254e-02
-1.872481591999530792e-02
9.678331203758716583e-03
4.496241454035043716e-03
-2.484536170959472656e-02
1.057393290102481842e-02
9.279935620725154877e-03
2.138888463377952576e-02
3.274141112342476845e-03
1.389863062649965286e-02
-1.104088500142097473e-02
-1.245065219700336456e-02
-9.103137999773025513e-03
-1.964733237400650978e-03
-5.960342939943075180e-03
5.705382674932479858e-03
-1.255696080625057220e-02
-1.561936736106872559e-02
1.177358161658048630e-02
-3.146776231005787849e-03
3.407605690881609917e-03
-1.316525135189294815e-02
2.151174098253250122e-02
2.825680188834667206e-03
-1.012495160102844238e-02
1.696679927408695221e-02
1.004784181714057922e-02
6.158992764540016651e-04
4.209503065794706345e-03
-2.312738448381423950e-03
1.665535010397434235e-02
7.925079204142093658e-03
9.403451345860958099e-03
2.404254395514726639e-03
8.746722713112831116e-03
-1.513781584799289703e-02
-3.718549758195877075e-02
-1.021106913685798645e-02
1.444495632313191891e-03
7.190780714154243469e-03
3.597136354073882103e-03
2.257400192320346832e-02
2.476238273084163666e-02
7.159326225519180298e-03
-2.064084168523550034e-03
1.643108576536178589e-02
-6.594312377274036407e-03
2.720896853134036064e-03
1.488735200837254524e-03
-3.030538500752300024e-04
2.225857693701982498e-03
-7.102082949131727219e-03
9.895925410091876984e-03
-9.732673875987529755e-03
2.410480193793773651e-02
-5.216529127210378647e-03
3.161884471774101257e-02
6.969853769987821579e-03
-4.298889834899455309e-04
2.912128530442714691e-02
4.604536574333906174e-03
-1.350274658761918545e-03
-8.497115224599838257e-03
1.675876043736934662e-02
1.956609077751636505e-02
7.355157751590013504e-03
-3.719264408573508263e-03
-1.100399415008723736e-03
3.857649862766265869e-02
2.208983059972524643e-03
8.224056102335453033e-03
1.484984904527664185e-02
3.577853552997112274e-03
7.903238758444786072e-03
1.607240177690982819e-02
2.326794713735580444e-02
-8.053535595536231995e-03
1.838418655097484589e-02
1.876089721918106079e-02
2.157223410904407501e-02
-2.700058743357658386e-03
-1.692277379333972931e-02
-2.860023640096187592e-02
1.576952449977397919e-02
1.832764013670384884e-03
9.649203158915042877e-03
-1.247107051312923431e-02
1.305510289967060089e-03
1.036414643749594688e-03
-7.396727800369262695e-03
-1.267411559820175171e-02
6.229605060070753098e-03
1.996604353189468384e-02
2.925266744568943977e-03
9.315251954831182957e-04
5.611677654087543488e-03
6.046623922884464264e-03
1.238176506012678146e-02
8.853112347424030304e-03
2.885466627776622772e-02
6.067833397537469864e-03
3.726106369867920876e-03
-4.904838278889656067e-03
2.251523360610008240e-02
1.035114936530590057e-02
6.454910617321729660e-03
-2.109742537140846252e-02
1.809809356927871704e-02
2.030363120138645172e-02
2.865510806441307068e-02
9.145041927695274353e-03
2.037170715630054474e-02
1.879290305078029633e-02
4.077684134244918823e-04
2.111161686480045319e-02
3.252423135563731194e-03
-2.402122830972075462e-03
-2.289795316755771637e-02
-5.610027350485324860e-03
2.440676279366016388e-02
-2.479176735505461693e-03
-9.699812158942222595e-03
-8.894765749573707581e-03
3.301148302853107452e-03
1.141932606697082520e-02
-1.591600594110786915e-03
3.861948149278759956e-03
3.109090216457843781e-02
-1.650747656822204590e-02
-1.516755670309066772e-03
1.669529825448989868e-02
1.048486772924661636e-02
4.532833024859428406e-02
-1.847369037568569183e-02
8.562317118048667908e-03
-4.340230021625757217e-03
-1.556159835308790207e-02
4.087129235267639160e-02
-1.537311123684048653e-03
1.218391396105289459e-02
8.301852270960807800e-03
-9.267410263419151306e-03
-7.923162542283535004e-03
