9.493794292211532593e-02
-1.535325497388839722e-01
3.027046322822570801e-01
-1.750714778900146484e-01
2.425473481416702271e-01
2.271656394004821777e-01
1.480593532323837280e-01
-7.939673215150833130e-02
-4.147713482379913330e-01
8.441349118947982788e-02
-3.990170359611511230e-02
2.424104362726211548e-01
5.197036266326904297e-02
3.321979939937591553e-02
9.734418988227844238e-02
2.831661105155944824e-01
2.687462270259857178e-01
-1.066674515604972839e-01
1.582321077585220337e-01
-5.209551006555557251e-02
2.495632022619247437e-01
3.033995628356933594e-01
2.053067237138748169e-01
-7.611075043678283691e-02
2.139588594436645508e-01
2.989293932914733887e-01
9.320227056741714478e-02
3.550111874938011169e-02
1.544289439916610718e-01
1.893373429775238037e-01
-2.377901673316955566e-01
-1.451719552278518677e-01
-1.497077662497758865e-02
2.796695232391357422e-01
-2.009939998388290405e-01
-1.936905831098556519e-02
3.276833891868591309e-02
-8.130892366170883179e-02
-1.111899241805076599e-01
2.915352880954742432e-01
2.357521206140518188e-01
-1.715263724327087402e-01
1.267998963594436646e-01
2.094914168119430542e-01
-2.120339497923851013e-02
-1.665776371955871582e-01
-2.723696455359458923e-02
2.652913331985473633e-01
1.574434489011764526e-01
1.749702692031860352e-01
1.090321838855743408e-01
6.250082515180110931e-03
-1.659753322601318359e-01
-2.331820279359817505e-01
-6.963965296745300293e-02
8.356296271085739136e-02
1.702699661254882812e-01
-2.186678797006607056e-01
-1.237520873546600342e-01
2.195055335760116577e-01
-9.057673066854476929e-02
1.541887521743774414e-01
-7.546582818031311035e-02
-3.008221089839935303e-02
-1.806157827377319336e-01
-1.545530259609222412e-01
2.776022553443908691e-01
-8.739109337329864502e-02
1.704129576683044434e-01
-2.249390035867691040e-01
1.886747479438781738e-01
2.595732510089874268e-01
-4.881298169493675232e-03
-1.183023490011692047e-02
-9.072561562061309814e-02
2.679669559001922607e-01
-4.196660220623016357e-02
-8.413563668727874756e-02
2.385707944631576538e-01
2.818281352519989014e-01
-5.868832580745220184e-03
-5.014730244874954224e-02
5.654826015233993530e-02
-2.020938843488693237e-01
-6.133661791682243347e-02
-4.202650114893913269e-02
-1.835897564888000488e-01
-7.367286086082458496e-02
7.748465985059738159e-02
6.447488069534301758e-02
-1.413718890398740768e-02
2.206548303365707397e-01
-6.324569135904312134e-02
2.494264692068099976e-01
1.282067298889160156e-01
-1.115147322416305542e-01
3.273593485355377197e-01
1.433203816413879395e-01
1.307772696018218994e-01
-1.639013737440109253e-01
1.659136712551116943e-01
-9.956569969654083252e-02
2.831936776638031006e-01
-5.306643992662429810e-02
4.633032158017158508e-02
2.366232275962829590e-01
-2.079393267631530762e-01
2.956748902797698975e-01
5.003682151436805725e-02
1.560159027576446533e-02
1.196367070078849792e-01
4.562064260244369507e-02
1.301188915967941284e-01
4.193729162216186523e-02
3.258208036422729492e-01
-2.609882652759552002e-01
2.459829002618789673e-01
1.721108257770538330e-01
2.067875564098358154e-01
2.083140909671783447e-01
1.805967837572097778e-01
4.006090760231018066e-02
-1.249759718775749207e-01
1.068309247493743896e-01
-1.516912877559661865e-01
2.286842763423919678e-01
-7.519041746854782104e-02
2.662820219993591309e-01
2.553378343582153320e-01
-2.813993580639362335e-02
2.704847157001495361e-01
6.352159380912780762e-02
-3.955500572919845581e-02
-1.387383788824081421e-01
4.265291988849639893e-02
1.130361929535865784e-01
2.652021944522857666e-01
8.780536800622940063e-02
-1.952442228794097900e-01
2.681505978107452393e-01
1.129243671894073486e-01
2.463176250457763672e-01
-2.069110274314880371e-01
2.563587576150894165e-02
-1.511374562978744507e-01
8.153454959392547607e-02
1.613598875701427460e-02
-1.305098682641983032e-01
-2.215738892555236816e-01
3.026732206344604492e-01
1.414433866739273071e-01
-7.356488704681396484e-02
3.129104375839233398e-01
-4.179987311363220215e-02
2.682035565376281738e-01
2.177253663539886475e-01
2.881025373935699463e-01
-1.318452507257461548e-01
6.455060094594955444e-02
-1.577026396989822388e-02
2.261935919523239136e-01
-1.822462081909179688e-01
7.581976056098937988e-02
-2.228863239288330078e-01
-5.416572093963623047e-02
1.420255899429321289e-01
1.157786473631858826e-01
3.288078904151916504e-01
-1.414960473775863647e-01
-7.897021621465682983e-02
-7.366488873958587646e-02
2.553925812244415283e-01
2.279612421989440918e-01
2.624257504940032959e-01
1.040885075926780701e-01
1.707742065191268921e-01
-1.312229633331298828e-01
1.679040789604187012e-01
1.970354169607162476e-01
-6.777696311473846436e-02
-2.289822697639465332e-01
-3.465882688760757446e-02
-5.731926858425140381e-02
2.491234987974166870e-01
-1.974440962076187134e-01
2.927902340888977051e-01
1.919292509555816650e-01
3.388749435544013977e-02
-7.650604099035263062e-02
2.198126614093780518e-01
1.996910572052001953e-02
-1.267317980527877808e-01
4.185931384563446045e-02
-9.874326735734939575e-02
2.233683317899703979e-01
2.028219699859619141e-01
-1.266451030969619751e-01
1.363787502050399780e-01
2.514930367469787598e-01
1.273003220558166504e-01
1.938365995883941650e-01
-5.087010934948921204e-02
3.035940527915954590e-01
1.871787756681442261e-01
-8.425156772136688232e-02
9.257960319519042969e-02
-4.199259914457798004e-03
-1.360748112201690674e-01
2.000149786472320557e-01
2.372601032257080078e-01
9.328434616327285767e-02
1.924543231725692749e-01
8.491992205381393433e-02
-8.679813146591186523e-02
-1.532892733812332153e-01
2.629861533641815186e-01
2.284896373748779297e-01
-1.840306669473648071e-01
2.726252377033233643e-01
2.930327653884887695e-01
-1.841699182987213135e-01
1.509945094585418701e-01
1.526015698909759521e-01
-1.012255325913429260e-01
1.838848590850830078e-01
2.922606766223907471e-01
-5.840309336781501770e-02
-2.111659571528434753e-02
1.876563131809234619e-01
2.273949682712554932e-01
-3.019897043704986572e-01
1.727155148983001709e-01
1.654481440782546997e-01
-7.591975480318069458e-02
-1.733536273241043091e-01
-7.869007438421249390e-02
2.764939069747924805e-01
-7.436255365610122681e-02
6.851713359355926514e-02
1.127496659755706787e-01
-2.772309482097625732e-01
-1.546000242233276367e-01
1.024929136037826538e-01
1.460388600826263428e-01
1.665878593921661377e-01
-6.185903400182723999e-02
2.606447041034698486e-01
-2.004269808530807495e-01
-2.585528790950775146e-01
6.795658171176910400e-02
-1.601229906082153320e-01
2.684011459350585938e-01
-5.042037367820739746e-02
-5.083465576171875000e-02
5.191152542829513550e-02
-7.718021422624588013e-02
