2.286593895405530930e-03
-1.627685152925550938e-03
-9.411549195647239685e-03
1.611809246242046356e-02
9.291344322264194489e-03
1.967961154878139496e-02
-1.084326952695846558e-02
-1.562885753810405731e-02
8.515621535480022430e-03
2.899492101278156042e-04
-7.448660209774971008e-03
-2.500018337741494179e-03
2.833056787494570017e-04
-2.106865309178829193e-02
9.469754993915557861e-03
-9.401733055710792542e-03
-6.928052753210067749e-04
-1.929067261517047882e-02
2.939752535894513130e-03
-2.627388015389442444e-02
-7.644402794539928436e-03
3.024436766281723976e-03
1.892084069550037384e-02
-2.973149297758936882e-03
-3.589864587411284447e-03
3.483870252966880798e-02
-1.901557482779026031e-02
2.281956002116203308e-02
3.500444442033767700e-02
1.565685123205184937e-02
1.042363699525594711e-02
-2.074679359793663025e-02
1.988281682133674622e-02
4.254443943500518799e-02
1.075305137783288956e-02
1.876424625515937805e-02
-1.465550437569618225e-02
1.304468419402837753e-02
2.257337328046560287e-03
1.553983241319656372e-02
-5.494766402989625931e-03
1.456474856240674853e-04
-4.992561414837837219e-03
4.437268897891044617e-02
4.317343235015869141e-02
3.379894420504570007e-02
2.327380329370498657e-02
4.988778848201036453e-03
-1.125608850270509720e-02
7.223725784569978714e-03
-1.583174569532275200e-03
-1.317461673170328140e-02
-1.814880222082138062e-02
2.411802113056182861e-02
2.162194252014160156e-02
1.206378731876611710e-02
-7.224576082080602646e-03
1.144869718700647354e-03
-1.207854226231575012e-02
1.544127333909273148e-02
2.120090276002883911e-02
1.547004841268062592e-02
2.247259253636002541e-03
1.729502715170383453e-02
6.210223305970430374e-03
1.260562427341938019e-02
-3.187507390975952148e-02
2.585715614259243011e-02
-1.237500179558992386e-02
1.752733811736106873e-02
-7.828787900507450104e-03
2.059769630432128906e-02
8.258167654275894165e-03
-2.121398411691188812e-02
1.178739112219773233e-04
1.111079752445220947e-02
-7.902043871581554413e-03
1.048336271196603775e-02
7.083463948220014572e-03
3.480120748281478882e-02
1.679580844938755035e-02
1.451147370971739292e-03
1.579191721975803375e-02
-1.382264774292707443e-02
4.653336480259895325e-03
8.623322471976280212e-03
-1.783530414104461670e-02
3.928117454051971436e-02
-1.819965243339538574e-02
1.010358054190874100e-02
3.724212571978569031e-02
4.508770257234573364e-02
8.436244912445545197e-03
-8.459037169814109802e-03
-2.427870640531182289e-03
-7.129461504518985748e-03
1.878620311617851257e-02
-9.719354100525379181e-03
2.556935884058475494e-02
5.932333879172801971e-03
1.517979521304368973e-02
2.493524923920631409e-03
5.880799144506454468e-03
1.858965680003166199e-02
9.149136603809893131e-04
1.750059612095355988e-02
5.257036071270704269e-03
2.111660502851009369e-02
-9.175956249237060547e-03
2.556781284511089325e-02
1.210503373295068741e-02
2.142448909580707550e-02
8.370291441679000854e-03
1.399695873260498047e-03
1.840459369122982025e-02
3.037165664136409760e-02
-6.566432304680347443e-03
-2.308445237576961517e-02
-1.144943758845329285e-02
3.840659558773040771e-02
1.567396335303783417e-02
-2.332262694835662842e-03
-2.475333772599697113e-02
-3.506422042846679688e-03
7.706379052251577377e-03
-1.844781450927257538e-02
3.295314684510231018e-02
9.416467510163784027e-03
-5.850071087479591370e-03
-1.402358151972293854e-02
-1.324156037298962474e-04
6.838122382760047913e-03
6.467365194112062454e-03
2.320841327309608459e-02
-5.849389359354972839e-03
7.574838236905634403e-04
-1.001643296331167221e-02
2.410758659243583679e-02
3.153460100293159485e-02
-2.543222717940807343e-02
3.737022727727890015e-02
-4.880278836935758591e-03
-2.572507224977016449e-02
3.841423243284225464e-02
-5.121253896504640579e-03
4.309214279055595398e-02
-9.647767874412238598e-04
2.441494353115558624e-02
-7.013711612671613693e-03
-2.535594627261161804e-03
-3.441179636865854263e-03
9.113727137446403503e-03
2.491839416325092316e-02
2.473708242177963257e-02
-1.753205060958862305e-02
2.346560545265674591e-02
1.830218732357025146e-02
1.719564385712146759e-02
1.522303931415081024e-02
2.159114368259906769e-02
8.589905686676502228e-03
6.693517323583364487e-03
2.793387696146965027e-02
9.926573373377323151e-03
1.160797942429780960e-02
-7.991898804903030396e-03
-3.156997635960578918e-02
1.342792809009552002e-02
1.587585918605327606e-02
2.498187869787216187e-02
-1.604967750608921051e-02
1.284371316432952881e-02
5.474562640301883221e-04
8.585789146309252828e-06
1.042713783681392670e-02
2.339844591915607452e-02
1.048258226364850998e-02
3.392446413636207581e-02
-2.440969645977020264e-02
3.830243274569511414e-02
1.611574552953243256e-02
1.291912980377674103e-02
5.067417863756418228e-03
-1.214089430868625641e-02
6.426674313843250275e-03
1.873376965522766113e-02
-1.226407196372747421e-02
3.139195591211318970e-02
1.726524904370307922e-02
2.528421208262443542e-02
-5.831918213516473770e-03
2.089274674654006958e-02
1.529206801205873489e-02
1.184155466035008430e-03
9.494043886661529541e-03
1.945216674357652664e-03
2.313717035576701164e-03
1.140020554885268211e-03
1.167774200439453125e-03
1.662212051451206207e-02
3.229485446354374290e-05
8.988155052065849304e-03
-1.267479360103607178e-02
1.343152951449155807e-02
-4.887726157903671265e-03
1.131354644894599915e-02
1.895164139568805695e-02
4.906309302896261215e-03
-1.083707995712757111e-02
1.935811713337898254e-02
1.799541339278221130e-02
-1.123201567679643631e-02
4.792252089828252792e-03
-4.897353355772793293e-04
1.006306614726781845e-03
3.441235795617103577e-02
1.546296011656522751e-02
-3.065981715917587280e-02
2.451436035335063934e-02
8.807964622974395752e-03
1.947443373501300812e-02
-2.551048249006271362e-02
-1.147321017924696207e-04
2.199880033731460571e-02
4.911884898319840431e-04
-1.194088067859411240e-02
8.075611665844917297e-03
1.630420424044132233e-02
7.734841201454401016e-03
2.404248714447021484e-02
-1.349304430186748505e-02
1.059833448380231857e-02
2.157026156783103943e-02
3.750289976596832275e-02
2.263852022588253021e-02
1.292023994028568268e-02
1.749961636960506439e-02
1.019768044352531433e-02
9.690111503005027771e-03
1.726613007485866547e-02
4.805045202374458313e-03
-1.954938843846321106e-02
-5.786814726889133453e-03
-1.733443816192448139e-03
1.072601508349180222e-02
-4.719532094895839691e-03
2.583090588450431824e-02
-1.659722998738288879e-02
3.068244270980358124e-02
2.997533604502677917e-02
3.735519573092460632e-02
-1.583646424114704132e-02
1.494670845568180084e-02
1.586486818268895149e-03
1.207831036299467087e-02
2.081581391394138336e-02
