5.895864963531494141e-02
-1.180074363946914673e-01
-3.415799736976623535e-01
-3.104960918426513672e-01
2.318774014711380005e-01
-3.823613747954368591e-02
3.130018413066864014e-01
2.586800754070281982e-01
-3.176030889153480530e-02
-3.340508639812469482e-01
2.642479836940765381e-01
3.394598066806793213e-01
3.817024528980255127e-01
1.342771798372268677e-01
-3.139214217662811279e-01
-1.245276853442192078e-01
-3.551841378211975098e-01
2.805202305316925049e-01
-3.223516643047332764e-01
3.645123839378356934e-01
-2.863678932189941406e-01
3.175109028816223145e-01
3.637979328632354736e-01
-3.731232583522796631e-01
1.979705542325973511e-01
3.242803215980529785e-01
-1.837290078401565552e-01
3.619146645069122314e-01
-2.609381377696990967e-01
-2.470696121454238892e-01
3.653173446655273438e-01
3.834867179393768311e-01
3.381977677345275879e-01
7.582138478755950928e-02
-3.210696578025817871e-01
-1.443431228399276733e-01
-2.129852175712585449e-01
3.692066371440887451e-01
3.575862646102905273e-01
1.778603047132492065e-01
1.347376108169555664e-01
2.043279409408569336e-01
-3.736872673034667969e-01
-3.554562330245971680e-01
-5.628345906734466553e-02
1.610013097524642944e-01
-1.716971993446350098e-01
-2.393473088741302490e-01
1.781829893589019775e-01
-6.298920512199401855e-02
-1.805284172296524048e-01
1.955240815877914429e-01
-2.421250790357589722e-01
3.041955530643463135e-01
-3.226657807826995850e-01
3.333997428417205811e-01
1.606256365776062012e-01
3.005594909191131592e-01
-2.908338010311126709e-01
3.372636735439300537e-01
-1.688719689846038818e-01
-3.041097819805145264e-01
2.203300744295120239e-01
1.109842807054519653e-01
2.715548872947692871e-01
2.113068699836730957e-01
1.303993612527847290e-01
-9.154905378818511963e-02
1.726867258548736572e-01
2.559484243392944336e-01
3.810116052627563477e-01
2.767913937568664551e-01
-3.439038991928100586e-01
-2.926484048366546631e-01
2.787522375583648682e-01
-3.602288663387298584e-01
1.088003218173980713e-01
-3.751125335693359375e-01
-1.098886728286743164e-01
3.797900676727294922e-01
2.869924604892730713e-01
-3.124956488609313965e-01
1.422194242477416992e-01
3.770597875118255615e-01
-2.955943048000335693e-01
2.872345745563507080e-01
2.083099633455276489e-01
3.764078617095947266e-01
2.145983725786209106e-01
2.552195787429809570e-01
3.223890960216522217e-01
-2.179854735732078552e-02
-2.651792764663696289e-01
2.940973341464996338e-01
1.994263082742691040e-01
-2.288427352905273438e-01
-2.917710840702056885e-01
3.226204514503479004e-01
2.362414300441741943e-01
-3.351826369762420654e-01
1.973791271448135376e-01
1.875405460596084595e-01
2.924409210681915283e-01
-2.137192338705062866e-01
2.979604899883270264e-01
1.838715970516204834e-01
2.166831195354461670e-01
-2.549289762973785400e-01
-1.380672752857208252e-01
-2.350274920463562012e-01
-3.707119226455688477e-01
-2.473648339509963989e-01
2.697699666023254395e-01
1.618515253067016602e-01
3.971357643604278564e-01
-3.390230834484100342e-01
3.594171106815338135e-01
2.844282686710357666e-01
1.764821261167526245e-01
3.332677483558654785e-01
2.903508245944976807e-01
-2.416592389345169067e-01
3.660457432270050049e-01
-3.582657277584075928e-01
1.776579022407531738e-01
2.583831548690795898e-01
3.203366994857788086e-01
-9.147102385759353638e-02
2.138952165842056274e-01
3.078144788742065430e-01
-2.252835631370544434e-01
-3.762866854667663574e-01
2.713889479637145996e-01
-3.401452004909515381e-01
-3.680595383048057556e-02
2.832110524177551270e-01
2.007392793893814087e-01
4.073076322674751282e-02
2.109113782644271851e-01
2.609597444534301758e-01
-2.075963169336318970e-01
2.344618588685989380e-01
3.933928608894348145e-01
-3.324741721153259277e-01
-2.372232079505920410e-01
2.750535607337951660e-01
3.096740841865539551e-01
-2.417861521244049072e-01
-1.917189061641693115e-01
-2.046274840831756592e-01
3.653856515884399414e-01
3.301211297512054443e-01
2.224924415349960327e-01
2.023853063583374023e-01
-2.663822174072265625e-01
3.385268747806549072e-01
-3.863582015037536621e-02
3.756664395332336426e-01
1.457580626010894775e-01
-1.127447783946990967e-01
1.672655194997787476e-01
3.711761534214019775e-01
-3.238151371479034424e-01
3.102156221866607666e-01
1.443042606115341187e-01
-2.491431385278701782e-01
1.540338695049285889e-01
2.130014449357986450e-01
-2.375765442848205566e-01
3.575142025947570801e-01
3.323490321636199951e-01
3.461676537990570068e-01
-3.228676617145538330e-01
2.690022587776184082e-01
2.190315127372741699e-01
-1.362220644950866699e-01
3.113301992416381836e-01
3.705145120620727539e-01
1.571161448955535889e-01
3.370856642723083496e-01
1.844046413898468018e-01
3.561125397682189941e-01
2.227691262960433960e-01
-2.159537374973297119e-01
2.841208279132843018e-01
2.751439213752746582e-01
-3.246402740478515625e-01
-3.353351056575775146e-01
3.042030334472656250e-01
2.819477021694183350e-01
-3.836014270782470703e-01
3.768814206123352051e-01
-3.184339106082916260e-01
-3.321211338043212891e-01
-1.721278280019760132e-01
3.076482713222503662e-01
2.019312232732772827e-01
2.436364740133285522e-01
1.167873740196228027e-01
3.228731751441955566e-01
1.502351462841033936e-01
1.942505687475204468e-01
-3.258075714111328125e-01
1.974889189004898071e-01
-1.656157821416854858e-01
-2.006417512893676758e-01
3.293117284774780273e-01
2.858939170837402344e-01
2.211787700653076172e-01
-1.717149019241333008e-01
2.903464734554290771e-01
3.187020123004913330e-01
-2.209732979536056519e-01
2.220382541418075562e-01
1.408062875270843506e-01
-2.618649601936340332e-01
-2.903443276882171631e-01
2.909269928932189941e-01
1.181807890534400940e-01
-2.234317809343338013e-01
3.167093694210052490e-01
3.699100613594055176e-01
2.527379393577575684e-01
2.060404121875762939e-01
-3.302550315856933594e-01
-3.372033536434173584e-01
-3.330216705799102783e-01
3.240212500095367432e-01
-1.774159818887710571e-01
-2.515394687652587891e-01
3.539679646492004395e-01
3.171274662017822266e-01
2.093068808317184448e-01
3.226251602172851562e-01
2.654033601284027100e-01
1.709084808826446533e-01
3.840866684913635254e-01
3.349030911922454834e-01
-7.670766115188598633e-02
2.031721621751785278e-01
-2.703664302825927734e-01
2.339793294668197632e-01
1.143705397844314575e-01
2.969837188720703125e-01
-1.874677836894989014e-01
3.447464704513549805e-01
1.733819097280502319e-01
2.387626320123672485e-01
-2.558326125144958496e-01
-1.116633489727973938e-01
-2.940956950187683105e-01
2.498330473899841309e-01
2.690345644950866699e-01
1.255977451801300049e-01
2.385269701480865479e-01
1.831419169902801514e-01
