1.207024976611137390e-02 -5.266746878623962402e-02 -1.935316063463687897e-02 -9.032834321260452271e-02 -6.093199830502271652e-03 2.883023768663406372e-02 1.596734374761581421e-01 -2.508587017655372620e-02 5.555567145347595215e-02 7.767096161842346191e-02 -7.316747307777404785e-02 1.051302552223205566e-01 9.787665307521820068e-02 -1.775356084108352661e-01 -4.509082064032554626e-03 8.798596262931823730e-02 -1.161323040723800659e-01 -2.735410258173942566e-02 -4.951356723904609680e-02 -4.656974226236343384e-02 1.685344800353050232e-02 -4.028844833374023438e-02 9.041335433721542358e-02 -5.099651589989662170e-02 3.598670661449432373e-02 5.125329270958900452e-02 9.286703914403915405e-02 -1.062026619911193848e-01 6.807073950767517090e-02 3.814382851123809814e-02 1.653251200914382935e-01 -1.047618910670280457e-01 -5.680429190397262573e-02 1.026645302772521973e-03 7.612214237451553345e-02 -1.627711504697799683e-01 1.989665441215038300e-03 -6.849412457086145878e-04 -6.276042014360427856e-02 -8.561338484287261963e-02 -1.831626705825328827e-02 -1.143525317311286926e-01 -5.925140157341957092e-02 -1.358694732189178467e-01 7.887363433837890625e-02 8.119466900825500488e-02 -2.290654927492141724e-02 -8.201327919960021973e-02 -3.138763830065727234e-02 1.099020838737487793e-01 8.770232647657394409e-02 -5.992153659462928772e-02 3.722491487860679626e-02 8.312145248055458069e-03 -5.836747959256172180e-02 -1.511461734771728516e-01 -1.369986496865749359e-02 -4.883669316768646240e-02 1.961262524127960205e-01 4.160235449671745300e-02 -8.094830065965652466e-02 5.848749354481697083e-02 6.835373491048812866e-02 -5.466968566179275513e-02 -3.106423094868659973e-02 9.359026700258255005e-02 -5.506334826350212097e-02 -6.183100398629903793e-03 -3.154292330145835876e-02 -1.954894512891769409e-02 -2.317056804895401001e-02 -9.535499662160873413e-02 -1.712332665920257568e-01 -8.739768713712692261e-02 5.473040044307708740e-02 1.021449565887451172e-01 4.918247088789939880e-02 1.112142577767372131e-01 -4.660612344741821289e-02 1.345312222838401794e-02 -1.722387969493865967e-01 1.719105057418346405e-02 7.381487637758255005e-02 7.225273549556732178e-02 7.125000655651092529e-02 -1.938018947839736938e-01 5.050152912735939026e-02 -3.880917653441429138e-02 4.601434245705604553e-02 1.105128750205039978e-01 -4.156844690442085266e-02 -9.230512194335460663e-03 -7.725613564252853394e-02 3.505253419280052185e-02 -3.898896276950836182e-02 6.559136509895324707e-02 6.721935421228408813e-02 7.859775424003601074e-02 4.627421498298645020e-02 -9.214260353473946452e-05 5.882027745246887207e-02 -3.796365857124328613e-02 -1.158588603138923645e-01 -1.208893372677266598e-03 -2.790796011686325073e-02 -1.103406921029090881e-01 6.902205944061279297e-02 5.691707506775856018e-02 6.697435677051544189e-02 4.447289556264877319e-02 7.719264924526214600e-02 1.132786497473716736e-01 6.999522447586059570e-02 -6.030351668596267700e-02 -6.908337026834487915e-02 1.095479205250740051e-01 7.896851003170013428e-02 2.349056005477905273e-01 4.772192612290382385e-02 1.507899723947048187e-03 -3.906270861625671387e-02 4.985647276043891907e-02 1.967108994722366333e-02 -8.463324606418609619e-02 4.079854115843772888e-02 4.639222752302885056e-03 -1.325764227658510208e-02 1.435716599225997925e-01 -4.119586199522018433e-02 -4.600060731172561646e-02 -1.517406553030014038e-01 2.351073920726776123e-02 7.676964998245239258e-02 6.534694880247116089e-02 4.279072396457195282e-03 -4.674407094717025757e-02 -1.181538403034210205e-01 5.353205278515815735e-02 -4.705090075731277466e-02 1.882546693086624146e-01 -2.659440226852893829e-02 1.353054046630859375e-01 -2.212936803698539734e-02 8.700932376086711884e-03 -1.046383455395698547e-01 3.802828863263130188e-02 -3.573162248358130455e-03 -5.447978898882865906e-02 -2.324128989130258560e-03 1.038281992077827454e-01 -3.540508747100830078e-01 -1.556512415409088135e-01 1.622979640960693359e-01 7.361406832933425903e-02 9.707423858344554901e-03 -4.875456541776657104e-02 -2.240153588354587555e-02 1.668504066765308380e-02 -2.674864791333675385e-02 -1.017681062221527100e-01 4.954094812273979187e-02 1.365839242935180664e-01 5.336388200521469116e-02 -9.859982877969741821e-02 -1.724236644804477692e-03 -2.265472859144210815e-01 -2.238264121115207672e-02 -9.330704808235168457e-02 1.217980608344078064e-01 -1.802348494529724121e-01 1.053695473819971085e-02 -1.446949541568756104e-01 1.439179331064224243e-01 3.760361671447753906e-02 3.476639091968536377e-02 1.491474211215972900e-01 1.176448166370391846e-01 5.023805424571037292e-02 7.026396691799163818e-02 1.041988134384155273e-01 7.734888792037963867e-02 3.903280943632125854e-02 -4.160634707659482956e-03 2.774992026388645172e-02 -1.244426146149635315e-01 -8.228700608015060425e-03 1.572801470756530762e-01 -4.195842891931533813e-02 1.327656302601099014e-02 -1.014899984002113342e-01 2.017255276441574097e-01 -4.736737906932830811e-02 -1.723099052906036377e-01 -1.483850479125976562e-01 1.096211094409227371e-02 3.230325179174542427e-03 5.987605825066566467e-02 -5.150055140256881714e-02 6.709987297654151917e-03 3.891842067241668701e-02 1.187485642731189728e-02 4.661679640412330627e-02 -6.898544728755950928e-02 -3.380448371171951294e-02 1.761466555763036013e-04 1.637926250696182251e-01 1.867779046297073364e-01 -1.107045412063598633e-01 6.133976578712463379e-02 1.411298364400863647e-01 6.310100108385086060e-02 -9.551024436950683594e-02 -8.622919768095016479e-02 -6.896146386861801147e-02 5.721947923302650452e-02 -2.607705257833003998e-02 6.647460907697677612e-02 -1.627160459756851196e-01 -9.882735460996627808e-02 1.265098601579666138e-01 -5.835034325718879700e-02 6.355441361665725708e-02 -3.616777434945106506e-02 -4.410802200436592102e-02 7.801391929388046265e-02 -8.955863118171691895e-02 -1.451737731695175171e-01 -1.883493810892105103e-01 -5.347457900643348694e-02 5.209981650114059448e-02 -3.779426217079162598e-02 -2.825200557708740234e-02 -1.207244247198104858e-01 -7.282861322164535522e-02 -1.045410186052322388e-01 1.059023141860961914e-01 -1.095675956457853317e-02
-9.806486219167709351e-02 1.092843115329742432e-01 8.855324983596801758e-02 1.732197701930999756e-01 1.406798791140317917e-02 -1.992464251816272736e-02 -1.153343841433525085e-01 1.220329999923706055e-01 -4.226791858673095703e-02 -2.664240896701812744e-01 6.332781165838241577e-02 1.420572698116302490e-01 -1.103476583957672119e-01 -3.752990812063217163e-02 -8.956065028905868530e-02 -4.373462870717048645e-03 -2.930794842541217804e-02 -1.018087752163410187e-02 -4.767588898539543152e-02 -7.960019633173942566e-03 -2.420508675277233124e-02 -7.068324089050292969e-02 -1.453041750937700272e-02 -1.245048791170120239e-01 -6.150909885764122009e-02 1.861401051282882690e-01 4.580951482057571411e-02 3.434178978204727173e-02 2.174998261034488678e-02 7.584619522094726562e-02 1.615210324525833130e-01 8.151551336050033569e-02 -8.922097831964492798e-02 -7.822488993406295776e-02 -1.578737199306488037e-01 -2.209760993719100952e-02 -1.095552593469619751e-01 -1.161902621388435364e-01 8.953166753053665161e-02 -9.086567163467407227e-02 6.611037999391555786e-02 1.065879538655281067e-01 -1.382061541080474854e-01 -1.138925030827522278e-01 2.159096896648406982e-01 -1.346180289983749390e-01 3.678676113486289978e-02 -6.127756834030151367e-02 9.957056492567062378e-02 -6.009424850344657898e-02 -8.206848986446857452e-03 1.511928508989512920e-03 1.288501080125570297e-02 5.929684638977050781e-02 -1.399578433483839035e-02 1.241818517446517944e-01 4.027749225497245789e-02 1.441766228526830673e-02 -8.052420616149902344e-02 1.855203881859779358e-02 -8.708842843770980835e-02 1.835505813360214233e-01 -1.370268221944570541e-02 -1.459395885467529297e-01 -1.408134005032479763e-03 7.914350926876068115e-02 -1.420136690139770508e-01 -2.848592959344387054e-02 -7.927463948726654053e-02 1.839360594749450684e-02 -3.405723348259925842e-02 9.846404194831848145e-02 7.416124455630779266e-03 -1.018795147538185120e-01 -6.734862178564071655e-02 9.442012757062911987e-02 -2.071083709597587585e-02 -3.697233274579048157e-02 -1.048657228238880634e-03 -1.724546402692794800e-01 8.654686063528060913e-02 8.558874577283859253e-02 1.804670877754688263e-02 1.338854432106018066e-01 -9.205624461174011230e-02 5.378602817654609680e-02 4.860294982790946960e-02 -2.913689799606800079e-02 1.558659523725509644e-01 -9.692911058664321899e-02 1.231558620929718018e-01 -4.804556071758270264e-02 2.296018972992897034e-02 -7.232736051082611084e-02 -7.210235297679901123e-02 7.243546098470687866e-02 2.833364717662334442e-02 -5.115918442606925964e-02 -1.023492217063903809e-01 1.712387502193450928e-01 1.924346946179866791e-02 -2.815095894038677216e-02 2.006041817367076874e-02 8.736610470805317163e-05 1.520651858299970627e-02 -1.397763192653656006e-01 1.630950719118118286e-01 7.104339543730020523e-03 -5.142189562320709229e-02 -3.652624785900115967e-03 -9.278209879994392395e-03 -1.744563132524490356e-01 6.289956625550985336e-03 1.343368589878082275e-01 1.456951647996902466e-01 5.884945020079612732e-02 2.032973766326904297e-01 -2.561457082629203796e-02 -3.364562988281250000e-02 -1.248381957411766052e-01 1.187294945120811462e-01 3.017795272171497345e-02 -3.279342129826545715e-02 -5.722729861736297607e-02 -7.240155339241027832e-02 1.197418794035911560e-01 9.016244113445281982e-02 -1.065699085593223572e-01 -1.029891241341829300e-02 -3.321210294961929321e-02 -7.871209830045700073e-02 8.535261452198028564e-02 1.916985511779785156e-01 -1.080860272049903870e-01 -1.027984470129013062e-01 6.869563460350036621e-02 4.769070073962211609e-02 -2.408141456544399261e-02 7.412189990282058716e-02 1.137515995651483536e-02 5.393894761800765991e-02 -9.108094871044158936e-02 -5.121571943163871765e-02 6.486609578132629395e-02 -8.020968735218048096e-02 3.038896620273590088e-02 -1.795627176761627197e-02 2.991233952343463898e-02 -2.444880306720733643e-01 -3.202644363045692444e-02 -5.546005815267562866e-02 7.832963019609451294e-02 8.092608302831649780e-02 -4.983078315854072571e-02 -4.368704184889793396e-02 -1.774606853723526001e-01 -9.450312703847885132e-02 3.362586721777915955e-02 -4.734774585813283920e-03 4.314398765563964844e-02 5.804580822587013245e-02 5.588487535715103149e-02 9.485043585300445557e-02 8.914764970541000366e-02 -1.993352733552455902e-02 -1.938969083130359650e-02 4.403076320886611938e-02 -8.039045333862304688e-02 -5.079235881567001343e-02 -6.360262632369995117e-02 -1.424622982740402222e-01 -9.458919987082481384e-03 -2.004069741815328598e-03 2.421540394425392151e-02 -1.062570288777351379e-01 1.164389252662658691e-01 4.076355323195457458e-02 -2.452682144939899445e-02 2.337148934602737427e-01 -1.367102712392807007e-01 9.554874897003173828e-02 -2.984527871012687683e-02 -5.338730756193399429e-03 9.973617643117904663e-02 7.419140078127384186e-03 -6.732666492462158203e-02 -6.004564091563224792e-02 2.124206535518169403e-02 -3.828489687293767929e-03 -6.886612623929977417e-02 -7.084828615188598633e-02 -5.579890310764312744e-02 -5.016413051635026932e-03 2.956801652908325195e-02 7.910018414258956909e-02 3.219986334443092346e-02 9.143094532191753387e-03 6.110972026363015175e-05 5.481426045298576355e-02 5.614767968654632568e-02 -1.428884547203779221e-02 -2.568689733743667603e-02 3.860708698630332947e-02 -6.341665238142013550e-02 1.949235424399375916e-02 9.363923221826553345e-02 -7.313980162143707275e-02 -8.204365521669387817e-02 -5.447718314826488495e-03 -2.304236441850662231e-01 -5.126344412565231323e-02 4.216806963086128235e-02 -1.164490059018135071e-01 1.696106046438217163e-01 -2.909504622220993042e-02 2.916189283132553101e-02 -9.634843468666076660e-02 -1.608441323041915894e-01 9.757851064205169678e-02 3.877179697155952454e-02 -3.639212111011147499e-03 -1.526079326868057251e-01 1.263342648744583130e-01 -1.900169849395751953e-01 3.262530639767646790e-02 1.784801185131072998e-01 1.266969554126262665e-02 -1.241692826151847839e-01 2.690676413476467133e-02 -5.471269786357879639e-02 5.513333901762962341e-02 4.332774132490158081e-02 -1.271245926618576050e-01 -2.907925657927989960e-02 3.180796280503273010e-02 -1.620539575815200806e-01 4.555654525756835938e-02
4.274094104766845703e-02 1.600771844387054443e-01 -1.375690996646881104e-01 -5.969974212348461151e-03 -6.879965215921401978e-02 2.228601276874542236e-02 -1.913577551022171974e-03 -3.733411431312561035e-02 3.663683682680130005e-02 -8.416594564914703369e-02 2.008260972797870636e-02 -8.946453034877777100e-02 7.479416672140359879e-03 -1.635939441621303558e-02 -1.363559812307357788e-01 1.336599439382553101e-01 -3.168670460581779480e-02 -1.098527833819389343e-01 3.027568161487579346e-01 -1.536653190851211548e-02 9.156253188848495483e-02 1.009444817900657654e-01 1.933418959379196167e-01 -1.050088033080101013e-01 -6.819457560777664185e-02 -5.622983723878860474e-02 -3.238929063081741333e-02 2.848868258297443390e-02 3.194910241290926933e-03 -5.190449580550193787e-02 -3.680456057190895081e-02 -1.174355596303939819e-01 -1.056480556726455688e-01 2.700220607221126556e-02 -2.139161340892314911e-02 -2.151429355144500732e-01 -1.545234117656946182e-02 -1.981915980577468872e-01 1.110187247395515442e-01 -1.548925936222076416e-01 -1.543502807617187500e-01 -3.641008585691452026e-02 -7.155106216669082642e-02 -3.415929526090621948e-02 -1.595349237322807312e-02 -4.287685733288526535e-03 -6.135955825448036194e-02 1.465656608343124390e-01 -7.657911628484725952e-02 -4.063735902309417725e-02 3.727842122316360474e-02 6.403056532144546509e-02 8.419602178037166595e-03 -1.212038379162549973e-02 1.311911195516586304e-01 -1.694725081324577332e-02 5.425110459327697754e-02 -1.806957125663757324e-01 1.101110875606536865e-01 -1.270949989557266235e-01 -1.384449657052755356e-02 -1.009191423654556274e-01 -6.176769360899925232e-02 -3.614526987075805664e-02 6.669250875711441040e-02 7.456754893064498901e-02 -2.052478641271591187e-01 -9.564058855175971985e-03 1.037336885929107666e-02 -1.049818769097328186e-01 -8.844169229269027710e-02 -6.087243556976318359e-02 5.764869507402181625e-03 3.755689039826393127e-02 9.494158625602722168e-02 6.112880632281303406e-02 -1.061751097440719604e-01 5.918840318918228149e-02 1.533427182585000992e-02 -5.815548356622457504e-04 1.695773564279079437e-02 2.149727940559387207e-02 1.158047541975975037e-01 9.259585291147232056e-02 2.662087418138980865e-02 -1.972363702952861786e-02 -3.429586440324783325e-02 -4.942103102803230286e-02 1.614174456335604191e-03 3.258751332759857178e-02 -1.149937137961387634e-01 4.701758176088333130e-02 2.399995476007461548e-01 -9.648980945348739624e-02 1.663217842578887939e-01 -6.631832569837570190e-02 1.062466502189636230e-01 -1.977418921887874603e-02 -4.375205561518669128e-02 -4.969045147299766541e-02 -1.515175402164459229e-02 1.400709897279739380e-01 -4.090883769094944000e-03 -3.774325922131538391e-02 5.561149120330810547e-02 -1.223199293017387390e-01 -2.294847965240478516e-01 -1.010519489645957947e-01 -8.828096836805343628e-02 1.325830221176147461e-01 1.037304848432540894e-02 -4.109720699489116669e-03 1.847885251045227051e-01 -2.474105954170227051e-01 -5.103927105665206909e-02 -7.028831634670495987e-03 4.693032708019018173e-03 -3.370224311947822571e-02 2.468343451619148254e-02 1.855269819498062134e-01 1.261650919914245605e-01 1.307830065488815308e-01 6.312686018645763397e-03 4.466016218066215515e-02 -1.667431741952896118e-01 5.090393498539924622e-02 1.168638467788696289e-01 -5.422591045498847961e-02 -6.103488802909851074e-02 -6.042511761188507080e-02 1.183645576238632202e-01 -4.755800962448120117e-02 4.162638261914253235e-02 -4.479399695992469788e-02 1.120966672897338867e-01 6.795432418584823608e-03 5.586990341544151306e-02 -4.472552612423896790e-02 -1.305258553475141525e-02 1.398228108882904053e-01 1.420547068119049072e-01 -1.748687587678432465e-02 1.127064507454633713e-02 5.935998633503913879e-02 -5.653492361307144165e-02 4.559472948312759399e-02 6.169758271425962448e-03 -1.902901567518711090e-02 -1.458810567855834961e-01 1.185209676623344421e-01 6.780836731195449829e-02 6.506768614053726196e-02 -1.076577696949243546e-02 -5.239490047097206116e-02 4.745352268218994141e-02 -7.390473037958145142e-02 -4.233253747224807739e-02 1.416253298521041870e-01 -6.728392094373703003e-02 9.222355484962463379e-02 -2.287869714200496674e-02 -1.938488185405731201e-01 1.090757548809051514e-01 1.035583484917879105e-02 -3.243466094136238098e-02 1.349545922130346298e-02 5.541474372148513794e-02 7.032716274261474609e-02 5.841292440891265869e-02 3.924904763698577881e-02 3.397406265139579773e-02 1.054536402225494385e-01 2.940672636032104492e-02 1.954229362308979034e-02 -2.371814399957656860e-01 9.485525637865066528e-02 1.965389400720596313e-01 -8.740521967411041260e-03 -7.686604559421539307e-02 -1.197679638862609863e-01 -4.737650230526924133e-02 7.037054747343063354e-02 -5.535742733627557755e-03 -1.711887493729591370e-02 -9.657743573188781738e-02 9.124693274497985840e-02 -9.832195192575454712e-02 5.819594860076904297e-02 -4.380685836076736450e-02 -9.218952059745788574e-02 -4.352361895143985748e-03 1.370268762111663818e-01 3.417953103780746460e-02 -2.841986529529094696e-02 -1.447718776762485504e-02 5.335618183016777039e-02 1.777784973382949829e-01 -5.246334895491600037e-02 4.474557936191558838e-03 -1.006345301866531372e-01 9.253121912479400635e-02 -1.129185035824775696e-01 2.269691824913024902e-01 -6.592546403408050537e-02 9.467159956693649292e-02 -2.355031669139862061e-02 3.421125933527946472e-02 1.827509887516498566e-02 -5.164364352822303772e-02 9.206578135490417480e-02 -2.405703812837600708e-02 8.464721590280532837e-02 -1.834989488124847412e-01 -8.654223755002021790e-03 1.080530285835266113e-01 -1.131278127431869507e-01 8.572835475206375122e-02 -1.643508486449718475e-02 8.978315442800521851e-02 -6.959612667560577393e-02 -1.274309703148901463e-03 -5.199163407087326050e-02 -4.775600880384445190e-02 8.154255896806716919e-02 -4.093460738658905029e-02 -3.815671056509017944e-02 -5.200408864766359329e-03 5.927783623337745667e-02 -4.887111485004425049e-02 2.543165348470211029e-02 -7.539916038513183594e-02 -5.316524207592010498e-02 -6.954947113990783691e-02 2.788466587662696838e-02 7.418704684823751450e-03 5.260168388485908508e-02 -6.008313968777656555e-02
3.913156688213348389e-02 -8.198940195143222809e-03 -8.696215599775314331e-02 7.626542448997497559e-02 -1.153931953012943268e-02 9.366175532341003418e-02 -1.188912689685821533e-01 -5.633151158690452576e-02 2.007702365517616272e-02 -2.882086299359798431e-02 3.271458297967910767e-02 2.712692320346832275e-01 -1.749787107110023499e-02 -3.403702005743980408e-02 -3.041402064263820648e-02 5.902559496462345123e-03 4.758174717426300049e-02 -1.901469677686691284e-01 9.994990378618240356e-02 1.496429592370986938e-01 -4.428083822131156921e-02 3.171179816126823425e-02 3.319160267710685730e-02 4.645041003823280334e-02 1.351691335439682007e-01 -1.924308836460113525e-01 1.264406889677047729e-01 -7.924161851406097412e-02 1.448913812637329102e-01 1.213764697313308716e-01 -1.718480288982391357e-01 1.767848283052444458e-01 -4.886188544332981110e-03 -1.539718545973300934e-02 -6.751068681478500366e-02 -1.000703796744346619e-01 6.785360723733901978e-02 -1.557431668043136597e-01 -3.289537876844406128e-02 1.035550236701965332e-01 1.194114610552787781e-01 -6.293647736310958862e-02 2.697990043088793755e-03 5.205960944294929504e-02 -1.661326549947261810e-02 1.704194769263267517e-02 -1.406100392341613770e-01 6.200340762734413147e-02 1.119789406657218933e-01 1.778786182403564453e-01 3.357985615730285645e-02 -9.298226237297058105e-02 -6.907283514738082886e-02 -2.033383771777153015e-02 -1.448195707052946091e-02 -1.618079654872417450e-02 -5.815343186259269714e-02 2.995792590081691742e-02 6.446216255426406860e-02 -4.382620751857757568e-02 -7.011295109987258911e-02 2.876482717692852020e-02 2.385009080171585083e-01 -1.171767339110374451e-01 5.433534085750579834e-02 8.259946107864379883e-02 -5.701177939772605896e-02 -4.733358323574066162e-02 3.289490193128585815e-02 -5.382865667343139648e-03 1.249386295676231384e-01 -5.306285247206687927e-02 5.543317180126905441e-03 -1.363059580326080322e-01 6.530942767858505249e-02 1.905128210783004761e-01 5.506163835525512695e-02 -6.955455243587493896e-02 -8.857333101332187653e-03 1.076540574431419373e-01 -5.576277151703834534e-02 4.610128328204154968e-02 4.112939909100532532e-02 -7.122928509488701820e-04 -1.562376022338867188e-01 6.686112284660339355e-02 1.175700277090072632e-01 -4.773231223225593567e-02 3.684904798865318298e-02 -1.238815672695636749e-02 3.669274970889091492e-02 -4.084289819002151489e-02 6.429199129343032837e-02 -2.026983052492141724e-01 9.236373007297515869e-03 -1.582610048353672028e-02 1.119743660092353821e-01 -3.681889176368713379e-02 -2.498066052794456482e-02 -7.517696917057037354e-02 -4.751350730657577515e-02 1.351804193109273911e-02 -1.735159158706665039e-01 3.522300347685813904e-02 1.347901578992605209e-02 -3.054149076342582703e-02 9.086501086130738258e-04 -2.185515873134136200e-02 8.564282953739166260e-02 9.253843873739242554e-02 -1.740380674600601196e-01 1.235079690814018250e-01 1.497292965650558472e-01 8.881604671478271484e-02 -6.553699076175689697e-02 -1.395444869995117188e-01 -7.394013553857803345e-02 9.783265739679336548e-02 -3.896202147006988525e-02 5.810575932264328003e-02 1.142786368727684021e-01 -4.593814909458160400e-02 3.046854026615619659e-02 1.192013546824455261e-02 2.858381904661655426e-02 -1.249547675251960754e-01 -2.005564421415328979e-01 -2.831498906016349792e-02 -2.574299648404121399e-02 1.248736009001731873e-01 1.261791447177529335e-03 1.194505393505096436e-02 -3.365636244416236877e-02 6.062548980116844177e-02 5.282137542963027954e-02 5.811727419495582581e-02 1.431056708097457886e-01 1.701624691486358643e-01 -6.234019622206687927e-02 -4.875338450074195862e-02 -5.506410449743270874e-02 3.890415886417031288e-03 -2.752778306603431702e-02 5.473328009247779846e-02 7.550025731325149536e-02 5.104139447212219238e-02 2.823428250849246979e-02 1.108018308877944946e-02 9.405785799026489258e-02 -3.923743963241577148e-02 2.353275269269943237e-01 1.132015734910964966e-01 1.250940840691328049e-02 -5.068879947066307068e-02 5.335176736116409302e-02 -4.478846490383148193e-02 -3.194910939782857895e-03 7.453114539384841919e-02 -1.133898422122001648e-01 -3.059987425804138184e-01 3.550778329372406006e-02 1.382223516702651978e-01 6.897171027958393097e-03 4.475080594420433044e-02 7.842332124710083008e-02 3.791388496756553650e-02 -1.661153286695480347e-01 -5.427171476185321808e-03 -1.706718355417251587e-01 1.430636942386627197e-01 -4.253594204783439636e-03 7.854720950126647949e-02 8.878474123775959015e-03 6.493969261646270752e-02 -2.657091617584228516e-02 4.866724461317062378e-02 -8.786226809024810791e-02 -8.928610011935234070e-03 6.910633295774459839e-02 -9.424057602882385254e-02 1.470867544412612915e-01 -3.421609103679656982e-02 -3.723271936178207397e-02 1.368361413478851318e-01 1.343584209680557251e-01 -5.969391763210296631e-02 -6.587623059749603271e-02 1.940430887043476105e-02 -8.967164903879165649e-02 1.880452334880828857e-01 1.467799842357635498e-01 -3.089105524122714996e-02 6.561014801263809204e-02 2.631714008748531342e-02 -9.658993221819400787e-03 -8.005131036043167114e-02 1.202748864889144897e-01 6.468638777732849121e-02 5.163262411952018738e-02 7.357324659824371338e-02 -3.279123082756996155e-02 8.886153995990753174e-02 -4.438963532447814941e-02 9.377761930227279663e-02 3.812659764662384987e-03 5.600874871015548706e-02 3.567894920706748962e-02 -2.258065789937973022e-01 5.553020536899566650e-02 3.354370966553688049e-02 9.200435131788253784e-02 -9.918323159217834473e-02 3.100950084626674652e-02 -4.983560647815465927e-03 -3.238899633288383484e-02 -1.405950337648391724e-01 5.570809915661811829e-02 4.566146060824394226e-03 1.336221955716609955e-02 1.771602034568786621e-01 8.038356155157089233e-02 1.358760297298431396e-01 3.063698532059788704e-03 -9.330079704523086548e-02 -2.444013766944408417e-02 6.089320033788681030e-02 -1.817186921834945679e-02 -4.849680513143539429e-02 -5.090118851512670517e-03 -9.350303560495376587e-02 5.047940462827682495e-02 1.024042889475822449e-01 -8.500144630670547485e-02 9.341633319854736328e-02 1.313505917787551880e-01 -2.614434110000729561e-03 -6.723820418119430542e-02
6.953090429306030273e-03 1.276475787162780762e-01 -2.201450020074844360e-01 -7.173009216785430908e-02 -2.141381055116653442e-01 2.583870955277234316e-04 1.040881946682929993e-01 1.031243577599525452e-01 1.354895234107971191e-01 4.995367303490638733e-02 -1.078908964991569519e-01 -8.647033572196960449e-02 4.937248677015304565e-02 7.875899970531463623e-02 9.890653192996978760e-02 -6.135537102818489075e-02 -3.715553134679794312e-02 7.397273927927017212e-02 -1.569068431854248047e-02 6.583783030509948730e-02 -4.992075264453887939e-02 6.067840754985809326e-02 4.612274095416069031e-02 -6.442963331937789917e-02 1.009180620312690735e-01 1.466144323348999023e-01 -1.100425571203231812e-01 -6.977197527885437012e-02 6.060152128338813782e-02 1.398922055959701538e-01 1.716956612654030323e-03 6.426505744457244873e-02 -1.078326553106307983e-01 4.416540637612342834e-02 7.464911043643951416e-02 -2.786812745034694672e-02 1.434125006198883057e-01 -5.044479668140411377e-02 6.798574328422546387e-02 2.521317452192306519e-02 -5.379337444901466370e-02 2.249188534915447235e-02 -1.640638411045074463e-01 1.751200854778289795e-01 -2.039821073412895203e-02 6.440129131078720093e-02 6.766467541456222534e-02 8.143167197704315186e-02 2.089499263092875481e-03 1.240388080477714539e-01 1.500929296016693115e-01 -1.443188786506652832e-01 5.772163346409797668e-02 -1.429701447486877441e-01 -4.398013651371002197e-02 8.263745903968811035e-02 -3.169444203376770020e-02 1.075965091586112976e-01 -1.152849569916725159e-01 1.580194830894470215e-01 -5.807114392518997192e-02 2.922478914260864258e-01 -9.327425807714462280e-02 4.886410012841224670e-02 5.012410506606101990e-02 1.603314727544784546e-01 8.779008686542510986e-02 1.634159311652183533e-02 1.967951096594333649e-02 1.250475347042083740e-01 -9.394890815019607544e-02 -1.384990215301513672e-01 -1.394121050834655762e-01 4.956219345331192017e-02 -8.666434325277805328e-03 2.270655147731304169e-02 -9.699247032403945923e-02 5.474374070763587952e-02 -5.469945818185806274e-02 1.123325005173683167e-01 1.516164541244506836e-01 -4.528390616178512573e-02 6.549615412950515747e-02 7.114279270172119141e-02 -7.549060136079788208e-02 -9.279368817806243896e-02 8.477561920881271362e-02 -1.988205499947071075e-02 8.730176836252212524e-02 -8.138294517993927002e-02 5.262711644172668457e-02 -2.348225796595215797e-03 -3.346826136112213135e-02 -4.694749042391777039e-02 -1.900839060544967651e-02 5.725075304508209229e-02 -1.101280599832534790e-01 -6.631767004728317261e-02 1.416432410478591919e-01 3.670643549412488937e-03 3.179420530796051025e-02 1.098365932703018188e-01 2.423431910574436188e-02 -1.287308931350708008e-01 7.397236675024032593e-02 -8.745299279689788818e-02 -3.095910511910915375e-02 1.148856058716773987e-02 -2.366858571767807007e-01 -5.353277549147605896e-02 -9.071291238069534302e-02 3.112359158694744110e-02 1.787706762552261353e-01 3.361736238002777100e-02 -5.957392603158950806e-02 1.406228728592395782e-02 -2.459131367504596710e-02 -1.441521942615509033e-01 1.238983646035194397e-01 1.093956455588340759e-02 -7.534109801054000854e-02 -8.133154362440109253e-02 -2.102900147438049316e-01 -1.028327718377113342e-01 1.461151149123907089e-02 2.357417903840541840e-02 -1.081407666206359863e-01 -5.072676390409469604e-02 -1.085112690925598145e-01 -7.119352370500564575e-02 1.416967809200286865e-01 3.705034032464027405e-02 -4.273544624447822571e-02 1.468588132411241531e-02 -1.442551910877227783e-01 9.933475404977798462e-02 -1.057694777846336365e-01 -6.267150491476058960e-02 6.576508283615112305e-02 -2.326650731265544891e-02 1.130183972418308258e-02 -8.182114362716674805e-02 1.511299163103103638e-01 7.694442570209503174e-02 -1.008623465895652771e-02 -5.469171330332756042e-03 -1.549926102161407471e-01 -1.639797687530517578e-01 5.565684661269187927e-02 8.247784525156021118e-02 -4.045463353395462036e-02 -7.111553847789764404e-02 2.776302769780158997e-02 1.131725609302520752e-01 -1.579100787639617920e-01 4.307526350021362305e-02 5.454904213547706604e-02 6.072609685361385345e-03 2.200206927955150604e-02 -1.505104899406433105e-01 1.091056764125823975e-01 -3.362733125686645508e-02 -1.737051904201507568e-01 -8.897113054990768433e-02 -1.000432074069976807e-01 -4.154522716999053955e-02 1.191567778587341309e-01 -9.379748255014419556e-02 -5.644410382956266403e-03 -4.801966622471809387e-02 1.393751800060272217e-01 9.819224476814270020e-02 -1.695885360240936279e-01 -4.452195391058921814e-02 -1.542091220617294312e-01 -2.463762462139129639e-02 -4.820028692483901978e-02 -5.818858742713928223e-02 -2.466747537255287170e-02 1.445205137133598328e-02 -5.060032755136489868e-02 1.133582517504692078e-01 4.246947914361953735e-02 7.925873994827270508e-02 6.325361877679824829e-02 1.203773468732833862e-01 -2.069751545786857605e-02 -2.849605493247509003e-02 -1.168079897761344910e-01 -5.145271494984626770e-02 -3.836372343357652426e-04 -5.453537404537200928e-02 -8.297038078308105469e-02 -1.478933990001678467e-01 -6.837428361177444458e-02 3.623384982347488403e-02 1.336052864789962769e-01 8.212006092071533203e-02 -7.192768156528472900e-03 -2.675963193178176880e-02 6.121680140495300293e-02 3.433905169367790222e-02 -9.453122317790985107e-02 7.803625613451004028e-02 1.625211983919143677e-01 -5.500147864222526550e-02 4.853225778788328171e-03 -2.731581963598728180e-02 -1.107444800436496735e-02 -1.308282557874917984e-02 -2.554522454738616943e-02 -3.067021444439888000e-02 -1.552750356495380402e-03 -1.880255714058876038e-02 1.248242612928152084e-02 -6.716298311948776245e-02 6.167720630764961243e-02 -1.076750457286834717e-02 7.793689519166946411e-02 8.975821733474731445e-02 1.197835244238376617e-02 -1.564718037843704224e-01 3.010081313550472260e-02 -1.249938309192657471e-01 -7.720832247287034988e-03 -4.062900692224502563e-02 2.750333398580551147e-02 1.010679677128791809e-01 2.719621919095516205e-02 -1.188869848847389221e-01 4.953535273671150208e-02 -1.078847274184226990e-01 -5.194200947880744934e-02 -1.999866031110286713e-02 -2.406238391995429993e-02 4.091018810868263245e-02 1.499937921762466431e-01
-2.531752586364746094e-01 -9.391725063323974609e-03 -5.929157137870788574e-02 2.041886933147907257e-02 5.356559902429580688e-02 -1.438536942005157471e-01 -1.193250939249992371e-01 -4.800646752119064331e-02 -1.476901471614837646e-01 6.800466030836105347e-02 3.211605176329612732e-02 -6.183546036481857300e-02 1.965185813605785370e-02 -1.138827055692672729e-01 -1.576998084783554077e-02 3.375730710104107857e-03 9.321202337741851807e-02 2.053870819509029388e-02 4.949311912059783936e-02 1.479772627353668213e-01 -4.670660011470317841e-03 1.463760714977979660e-02 1.167736202478408813e-01 -6.072655320167541504e-02 7.334843277931213379e-02 -5.092832446098327637e-02 5.200714990496635437e-02 2.534845471382141113e-01 4.773345217108726501e-02 7.509093731641769409e-03 -4.072176665067672729e-02 1.050284430384635925e-01 -4.655111208558082581e-02 -1.149614900350570679e-02 -7.505792379379272461e-02 4.853865504264831543e-02 1.718844026327133179e-01 1.035599410533905029e-02 2.194449119269847870e-02 -1.635695248842239380e-01 5.807054415345191956e-02 6.917265243828296661e-03 -6.125335395336151123e-02 1.041574496775865555e-02 1.475247368216514587e-02 -4.377405345439910889e-02 -6.943671405315399170e-02 -1.680487208068370819e-02 5.511287972331047058e-02 5.050721764564514160e-02 1.476193368434906006e-01 2.007911950349807739e-01 -6.235735490918159485e-02 8.348137885332107544e-02 7.303431630134582520e-03 -4.998642578721046448e-02 1.741135418415069580e-01 2.488669194281101227e-02 -1.633569002151489258e-01 9.975019842386245728e-02 4.167041182518005371e-02 -1.908192411065101624e-02 3.834861516952514648e-02 -1.322280336171388626e-02 3.449252620339393616e-02 -1.710793934762477875e-02 -8.405078202486038208e-02 1.752715371549129486e-02 8.839187212288379669e-04 5.874110385775566101e-02 -8.263397961854934692e-02 -5.362865701317787170e-02 -1.422212868928909302e-01 -5.720308050513267517e-02 -9.671428054571151733e-02 -1.898795962333679199e-01 7.184867560863494873e-02 -8.228779584169387817e-02 -3.620319068431854248e-02 -1.037837043404579163e-01 -6.890326272696256638e-03 1.370801124721765518e-02 2.484990283846855164e-02 8.327256143093109131e-02 -1.706052105873823166e-03 1.043930128216743469e-01 8.249426633119583130e-02 -1.002774760127067566e-01 -2.748351171612739563e-02 6.636988371610641479e-02 -1.382399499416351318e-01 -1.380182951688766479e-01 1.496721506118774414e-01 1.170164048671722412e-01 -3.178357705473899841e-02 1.081032603979110718e-01 1.611852347850799561e-01 5.834662914276123047e-02 -8.396257460117340088e-02 -4.670778289437294006e-02 3.153648227453231812e-02 3.496391177177429199e-01 8.250869810581207275e-02 3.941593226045370102e-03 -1.133907362818717957e-01 5.406002327799797058e-02 -1.775669306516647339e-01 -4.611641541123390198e-02 1.151303127408027649e-01 3.976441547274589539e-02 -9.711181744933128357e-03 1.457939762622117996e-02 -9.075598418712615967e-02 2.059982866048812866e-01 1.423327773809432983e-01 -1.294326968491077423e-02 1.010209396481513977e-01 -2.207949571311473846e-02 -5.572058632969856262e-02 2.561700344085693359e-02 9.073572605848312378e-02 1.434920076280832291e-02 -8.857309818267822266e-02 -1.805579289793968201e-02 3.541154786944389343e-02 -4.790028184652328491e-02 -2.359867654740810394e-02 -4.364820942282676697e-02 -1.703942865133285522e-01 1.697869785130023956e-02 -1.291704177856445312e-01 -1.693244725465774536e-01 -1.401843577623367310e-01 6.142597272992134094e-02 4.385204240679740906e-02 1.522793918848037720e-01 -7.521832734346389771e-02 1.281619071960449219e-02 1.846849173307418823e-01 4.698568582534790039e-02 -6.291741039603948593e-03 3.125797957181930542e-02 -4.643631353974342346e-02 -4.095220565795898438e-02 5.813704803586006165e-02 6.887181848287582397e-02 7.639091461896896362e-02 -7.780125737190246582e-02 -1.697329245507717133e-02 -7.015185803174972534e-02 -5.837986618280410767e-02 2.785976231098175049e-02 1.593400090932846069e-01 3.822501003742218018e-02 -5.123653262853622437e-02 -1.189852948300540447e-03 -6.236007064580917358e-02 -1.944403052330017090e-01 4.967510327696800232e-02 3.932344913482666016e-02 -1.013000160455703735e-01 3.976777568459510803e-02 -6.765722483396530151e-02 4.463428631424903870e-02 -1.045029386878013611e-01 5.499174445867538452e-02 4.110559076070785522e-02 6.025153398513793945e-02 -8.555009961128234863e-02 -1.787994056940078735e-03 5.842066556215286255e-02 -1.266872137784957886e-01 -2.897878363728523254e-02 -7.272706180810928345e-02 1.276903152465820312e-01 -1.129322778433561325e-02 1.480572521686553955e-01 -1.392030715942382812e-02 -3.154804930090904236e-02 1.655114069581031799e-02 -3.757026791572570801e-02 8.878265321254730225e-02 -8.722322434186935425e-02 -3.556494414806365967e-02 -1.428156346082687378e-01 -4.659954458475112915e-02 1.059002503752708435e-01 5.356258526444435120e-02 -1.278679519891738892e-01 -6.375186890363693237e-02 -1.803031191229820251e-02 -2.428439073264598846e-02 3.506258502602577209e-02 -8.982399851083755493e-02 -1.808036565780639648e-01 -4.568087309598922729e-02 3.035622835159301758e-02 5.525980144739151001e-02 7.729712873697280884e-02 -1.019346937537193298e-01 -1.764408648014068604e-01 -5.002525635063648224e-03 -4.359782114624977112e-02 3.978890180587768555e-02 5.078298598527908325e-02 1.252035945653915405e-01 2.895238623023033142e-02 1.240826100111007690e-01 -4.122010245919227600e-02 1.362620890140533447e-01 -2.145985141396522522e-03 5.355618521571159363e-02 -9.413425624370574951e-02 -2.684150822460651398e-02 -1.164537817239761353e-01 3.961331769824028015e-02 -1.630282029509544373e-02 -3.870081901550292969e-02 1.755902916193008423e-02 6.656519323587417603e-02 5.469676479697227478e-02 -7.386495918035507202e-02 1.149350255727767944e-01 2.418642630800604820e-03 1.925648152828216553e-01 9.915585815906524658e-02 1.014338061213493347e-01 -4.009093623608350754e-03 -1.425864845514297485e-01 2.037685364484786987e-01 1.244821958243846893e-02 -1.354256570339202881e-01 -2.008076198399066925e-02 1.578929424285888672e-01 6.785657256841659546e-02 -2.952383272349834442e-02 6.820855289697647095e-02
-4.851481691002845764e-02 6.541498005390167236e-02 -2.180633693933486938e-01 3.943395242094993591e-02 2.337122336030006409e-02 1.434760093688964844e-01 5.017466843128204346e-02 3.773925453424453735e-02 -1.005045101046562195e-01 8.053719997406005859e-02 4.813612997531890869e-02 2.023606374859809875e-02 -9.921476244926452637e-02 -8.063068240880966187e-02 1.933012972585856915e-03 -1.120316516607999802e-02 -1.600200533866882324e-01 1.007534563541412354e-01 1.410151422023773193e-01 -6.320229172706604004e-02 -1.309283226728439331e-01 -1.059749163687229156e-02 -1.522681396454572678e-02 3.121895901858806610e-02 1.616397798061370850e-01 -1.230308786034584045e-01 -1.144016385078430176e-01 9.352669864892959595e-02 -1.955134719610214233e-01 -1.797019392251968384e-01 5.371738597750663757e-02 -1.571310870349407196e-02 1.306347269564867020e-02 1.840261071920394897e-01 2.177421152591705322e-01 -1.069927960634231567e-01 -4.287646152079105377e-03 3.951423242688179016e-02 1.312291324138641357e-01 -7.800924777984619141e-02 -2.954163029789924622e-02 9.197353385388851166e-03 -2.554583735764026642e-02 -7.362323999404907227e-02 9.603476524353027344e-02 -2.030733413994312286e-02 -2.588757127523422241e-02 -1.046543121337890625e-01 -1.019676700234413147e-01 1.191944330930709839e-01 1.280925143510103226e-02 -6.471244990825653076e-02 3.321773558855056763e-02 -1.595022082328796387e-01 -1.299822032451629639e-01 -1.044460386037826538e-01 2.583427727222442627e-02 1.463887542486190796e-01 3.166008368134498596e-02 -8.097117394208908081e-02 1.197581365704536438e-01 -8.907021582126617432e-02 1.375020593404769897e-01 -1.198668107390403748e-01 -1.410862356424331665e-01 2.099707536399364471e-02 2.130763232707977295e-01 -1.455753743648529053e-01 -1.271197497844696045e-01 2.935986965894699097e-02 1.415768079459667206e-02 -1.217752546072006226e-01 3.721254318952560425e-02 -1.072330474853515625e-01 5.403370410203933716e-02 -1.879906058311462402e-01 -1.502332836389541626e-01 8.149383217096328735e-02 -1.489360537379980087e-02 4.686329141259193420e-02 -4.377381876111030579e-02 3.286112099885940552e-02 -8.051560074090957642e-02 -6.636794656515121460e-02 1.419598013162612915e-01 1.371399313211441040e-01 -4.937622696161270142e-02 9.360551089048385620e-02 8.874791860580444336e-02 3.111622482538223267e-02 1.016261950135231018e-01 -6.072780117392539978e-02 4.008165001869201660e-02 -1.569099575281143188e-01 -3.998436406254768372e-02 1.417834907770156860e-01 7.766330987215042114e-02 5.461743101477622986e-02 -9.655178338289260864e-02 -3.456461708992719650e-03 8.783749490976333618e-02 9.293448925018310547e-02 1.185298524796962738e-02 8.516500890254974365e-02 1.794168949127197266e-01 1.069394871592521667e-01 6.848937273025512695e-02 4.429464694112539291e-03 1.469365507364273071e-01 -5.346764996647834778e-02 8.645756170153617859e-03 7.174021005630493164e-02 1.609390974044799805e-01 8.190851658582687378e-02 6.135749816894531250e-02 -2.778094075620174408e-02 -1.138779893517494202e-01 9.175602346658706665e-02 4.957700520753860474e-02 -5.774246528744697571e-02 1.071548927575349808e-02 1.430246829986572266e-01 5.364406481385231018e-02 -3.444458916783332825e-02 2.253516204655170441e-02 -2.070396393537521362e-01 6.128278747200965881e-02 2.359114028513431549e-02 -1.557357758283615112e-01 -1.590405553579330444e-01 2.184096723794937134e-02 2.833002507686614990e-01 4.986356943845748901e-02 4.593640565872192383e-02 -1.236434131860733032e-01 1.673794910311698914e-02 2.182041853666305542e-02 -1.233565807342529297e-01 4.229612182825803757e-03 5.691973119974136353e-02 6.142074614763259888e-02 -2.944427356123924255e-02 -3.137721493840217590e-02 1.200528964400291443e-01 5.443092808127403259e-02 1.295652538537979126e-01 -1.015458554029464722e-01 -1.487463433295488358e-02 -1.559976637363433838e-01 -3.994990885257720947e-02 -3.128655254840850830e-02 2.889310568571090698e-02 3.139068931341171265e-02 5.924021825194358826e-02 -1.602580770850181580e-02 -1.153316535055637360e-02 -1.392225641757249832e-02 -5.677451193332672119e-02 -6.425129622220993042e-02 1.539743319153785706e-02 8.526579290628433228e-02 -3.814115654677152634e-03 9.760053828358650208e-03 8.510189503431320190e-02 1.143086049705743790e-02 -2.887303940951824188e-02 -3.860876709222793579e-02 -7.670334726572036743e-02 -3.068944998085498810e-02 -5.402677506208419800e-02 1.655465736985206604e-02 -6.044156476855278015e-02 8.228567987680435181e-02 -4.671809449791908264e-02 -2.184747159481048584e-02 1.212523039430379868e-02 2.978966571390628815e-02 -4.827409051358699799e-03 -4.391772300004959106e-02 -1.064564585685729980e-01 -1.414127796888351440e-01 3.191754594445228577e-02 7.337883114814758301e-02 -3.322066366672515869e-02 2.303206734359264374e-02 -3.076033852994441986e-02 8.775928616523742676e-02 -3.447107970714569092e-02 1.266294419765472412e-01 7.853340357542037964e-02 7.719115167856216431e-02 5.624847486615180969e-02 4.292301088571548462e-02 4.578003287315368652e-02 -5.440852418541908264e-02 4.135214909911155701e-02 -4.669002816081047058e-02 -6.691035628318786621e-02 3.310162574052810669e-02 -5.251606926321983337e-02 1.128788441419601440e-01 5.715997889637947083e-03 6.658407300710678101e-02 1.088946014642715454e-01 8.391472697257995605e-02 2.781109139323234558e-02 -4.966799542307853699e-02 -3.172860667109489441e-02 2.003737166523933411e-02 -8.790814131498336792e-02 1.793499104678630829e-02 -1.341245174407958984e-01 6.956137716770172119e-02 1.103904545307159424e-01 -1.201360672712326050e-01 -1.357911620289087296e-02 -7.653748244047164917e-02 -9.671897627413272858e-03 1.219430565834045410e-01 -6.392227113246917725e-02 -1.926789246499538422e-02 -7.136023789644241333e-02 1.406671851873397827e-01 1.650964468717575073e-01 -6.272370368242263794e-02 -7.145424187183380127e-02 1.257711052894592285e-01 5.206416174769401550e-02 2.706089429557323456e-02 -3.450518473982810974e-03 -1.948179304599761963e-02 6.091193109750747681e-02 7.995373755693435669e-02 -1.659995615482330322e-01 9.021695703268051147e-02 -3.335357178002595901e-03 -5.082623288035392761e-02
1.077071949839591980e-01 -6.284625828266143799e-02 1.060386840254068375e-02 6.189285591244697571e-02 -1.140962466597557068e-01 -1.508387774229049683e-01 9.401274472475051880e-02 2.408807538449764252e-02 -1.202980577945709229e-01 -2.064460329711437225e-02 6.336954236030578613e-02 7.666116207838058472e-02 -7.238998264074325562e-02 1.023050099611282349e-01 -2.370691299438476562e-02 4.339365288615226746e-03 1.601700671017169952e-02 5.635074526071548462e-02 8.245197683572769165e-02 -1.108967214822769165e-01 -9.467288106679916382e-02 5.897529795765876770e-02 -6.267085671424865723e-02 3.345867991447448730e-02 -7.634801417589187622e-02 -5.735244601964950562e-02 -3.519631177186965942e-02 1.472162902355194092e-01 6.649304926395416260e-02 -2.290847152471542358e-01 2.969344146549701691e-02 1.317719072103500366e-01 -1.623102114535868168e-03 4.671422392129898071e-02 -7.732454687356948853e-02 8.021372556686401367e-02 5.129975266754627228e-03 4.765962064266204834e-02 -1.253910809755325317e-01 -9.149572253227233887e-02 -2.535850927233695984e-02 -6.982044130563735962e-02 1.454374194145202637e-02 -9.290064871311187744e-02 -2.326863259077072144e-02 -1.357478946447372437e-01 -1.229014992713928223e-01 2.352888323366641998e-02 -9.922289289534091949e-03 1.731443852186203003e-01 -3.745268657803535461e-02 -1.064812690019607544e-01 -4.209905117750167847e-02 -9.383063018321990967e-02 1.145266667008399963e-01 2.147684246301651001e-02 1.968407817184925079e-02 -1.125942990183830261e-01 -8.341830223798751831e-02 -5.695794895291328430e-02 -2.309288363903760910e-03 -6.409807503223419189e-02 -1.029116958379745483e-01 9.233050979673862457e-03 1.400081962347030640e-01 2.947587333619594574e-02 -1.881837844848632812e-02 -9.251745790243148804e-02 1.736035384237766266e-02 1.491162180900573730e-01 -8.384150266647338867e-02 1.112394332885742188e-01 1.141821593046188354e-01 -6.175241991877555847e-02 1.237615346908569336e-01 -2.823517285287380219e-02 5.580063164234161377e-02 1.344015896320343018e-01 -1.930288374423980713e-01 5.127868428826332092e-02 1.189542934298515320e-02 2.794071333482861519e-03 -3.353598341345787048e-02 4.777259752154350281e-02 -9.116902947425842285e-02 -2.543913200497627258e-02 -3.589900955557823181e-02 3.533783927559852600e-02 6.735974550247192383e-02 4.681476205587387085e-02 4.712998494505882263e-02 8.652198314666748047e-02 -6.712127476930618286e-02 -1.202339604496955872e-01 -1.268120408058166504e-01 1.821155846118927002e-02 1.740987449884414673e-01 1.350711286067962646e-01 1.319040060043334961e-01 8.302941918373107910e-02 -8.178864419460296631e-02 1.328063309192657471e-01 -1.063289493322372437e-01 7.952483743429183960e-02 -1.719149760901927948e-02 9.281622618436813354e-02 -9.801619499921798706e-02 -1.913563013076782227e-01 -9.988879412412643433e-02 1.678436435759067535e-02 -9.058312326669692993e-02 -1.349467486143112183e-01 -2.680292725563049316e-02 -1.785685494542121887e-02 8.579780161380767822e-02 9.851787239313125610e-02 -3.989998251199722290e-02 8.896978944540023804e-02 -1.815528236329555511e-02 7.980077713727951050e-02 -1.716414391994476318e-01 -6.842838972806930542e-02 -2.061845734715461731e-02 -4.793710634112358093e-02 9.870894253253936768e-02 1.656013578176498413e-01 3.626853972673416138e-02 1.676433384418487549e-01 -5.483227595686912537e-02 7.045789156109094620e-03 -1.696686595678329468e-01 -9.847092628479003906e-02 -3.682944551110267639e-02 5.076045170426368713e-02 -1.111050695180892944e-01 5.177075415849685669e-02 -6.070561707019805908e-02 -1.760827377438545227e-02 -1.696679741144180298e-01 -6.896373629570007324e-02 -1.666373340412974358e-03 -1.292511373758316040e-01 -6.410442292690277100e-02 1.116065904498100281e-01 -1.540479529649019241e-02 -6.874324288219213486e-03 9.819324314594268799e-02 5.955906212329864502e-02 1.647487096488475800e-02 1.521629653871059418e-02 2.964180707931518555e-02 -6.820356100797653198e-02 -7.286809384822845459e-02 -2.789854072034358978e-03 -1.247555762529373169e-01 -4.684354644268751144e-04 -1.180735453963279724e-01 2.136509567499160767e-01 3.475421294569969177e-02 2.008416503667831421e-02 -4.077025875449180603e-02 -5.818035081028938293e-02 1.275863647460937500e-01 -6.751245260238647461e-02 -1.334015876054763794e-01 -4.236467927694320679e-02 -8.386783301830291748e-02 -1.377620995044708252e-01 -1.694520469754934311e-03 2.651194110512733459e-02 -7.753534615039825439e-02 -8.755557984113693237e-02 9.039124101400375366e-02 -4.643936082720756531e-02 -9.518995881080627441e-02 -7.099024206399917603e-02 -9.930525720119476318e-02 8.201638609170913696e-02 8.148494176566600800e-03 9.760005027055740356e-02 -6.933864671736955643e-03 -2.879177965223789215e-02 1.755323261022567749e-01 -4.823698848485946655e-02 3.962862864136695862e-02 -2.030699104070663452e-01 1.484298426657915115e-02 5.398017913103103638e-02 1.687329858541488647e-01 -7.097396254539489746e-02 -1.248734164983034134e-02 -1.563711906783282757e-03 -4.666011407971382141e-02 8.343766443431377411e-03 1.145639340393245220e-03 2.343341894447803497e-02 -2.535161038395017385e-04 -7.270368933677673340e-02 -1.075114607810974121e-01 1.025354489684104919e-02 8.645139634609222412e-02 -6.516626570373773575e-03 -6.069181114435195923e-02 7.992098107933998108e-03 -1.148875877261161804e-01 -1.228777319192886353e-01 1.735715717077255249e-01 5.466088652610778809e-02 1.032503619790077209e-01 -5.360083654522895813e-02 -1.376531459391117096e-02 -6.295002996921539307e-02 9.293629229068756104e-02 -1.862452030181884766e-01 -1.308078616857528687e-01 -1.214822977781295776e-01 4.294016212224960327e-02 4.850553348660469055e-02 -1.324781030416488647e-01 -5.299399606883525848e-03 1.197007447481155396e-01 -6.234373897314071655e-02 2.119512856006622314e-02 -7.341233547776937485e-03 2.299850583076477051e-01 -7.802917156368494034e-03 2.375118434429168701e-02 1.247785165905952454e-01 -4.657183308154344559e-03 -2.857847139239311218e-02 -1.480319630354642868e-02 3.344237804412841797e-02 -1.618769168853759766e-01 1.529605090618133545e-01 5.716965347528457642e-02 -6.141477823257446289e-02 7.539737224578857422e-02
-1.342952698469161987e-01 3.074687160551548004e-02 -4.017240926623344421e-02 -1.630654335021972656e-01 -1.197414994239807129e-01 -1.882542520761489868e-01 4.117509815841913223e-03 -5.052078515291213989e-02 6.038141250610351562e-02 5.772504024207592010e-03 -4.920034110546112061e-02 -1.361685805022716522e-02 -1.558299660682678223e-01 7.659563422203063965e-02 7.156351953744888306e-02 5.371473357081413269e-02 -6.031938642263412476e-02 -2.682147361338138580e-02 -2.965921349823474884e-02 1.772884726524353027e-01 1.238910332322120667e-01 -6.228578090667724609e-02 8.479911834001541138e-02 -6.845518480986356735e-03 1.111536622047424316e-01 -9.335269033908843994e-02 2.867377363145351410e-02 -7.732819765806198120e-02 -4.567490890622138977e-02 -1.316131055355072021e-01 7.308087497949600220e-02 1.526680737733840942e-01 4.306937381625175476e-02 5.162813141942024231e-02 -1.702291369438171387e-01 -1.560609936714172363e-01 -3.715467080473899841e-02 3.295542299747467041e-02 2.611166238784790039e-01 8.109741657972335815e-02 7.617185264825820923e-02 9.273000061511993408e-02 -1.422122865915298462e-01 -1.248024776577949524e-01 -1.651133783161640167e-02 -2.566378936171531677e-02 5.695302784442901611e-02 -1.705634146928787231e-01 1.086318213492631912e-02 4.441063478589057922e-02 -2.336777001619338989e-02 -4.686485975980758667e-02 -1.647168546915054321e-01 -4.322991892695426941e-02 -2.875219658017158508e-02 1.136676296591758728e-01 3.675210475921630859e-02 1.208458393812179565e-01 -8.349490165710449219e-02 2.668395824730396271e-02 -8.424900472164154053e-02 -9.008942544460296631e-02 3.685937076807022095e-02 -2.046748064458370209e-02 -2.761537581682205200e-02 6.770989298820495605e-02 6.989727169275283813e-02 -1.080355793237686157e-01 -1.451639980077743530e-01 3.689721925184130669e-03 -1.999764330685138702e-02 -3.696185350418090820e-02 3.707333281636238098e-02 5.875175446271896362e-02 2.021331191062927246e-01 -1.497411355376243591e-02 1.752335727214813232e-01 7.817518711090087891e-02 1.231373026967048645e-01 -1.192129850387573242e-01 7.371833175420761108e-02 8.629632741212844849e-02 1.333085745573043823e-01 -4.869065433740615845e-02 4.256759583950042725e-02 2.249946631491184235e-02 1.053523924201726913e-02 1.074948348104953766e-02 -1.173386350274085999e-01 -4.789746180176734924e-02 -5.879059061408042908e-02 -9.219183027744293213e-02 -2.108036354184150696e-02 -7.089694589376449585e-02 -1.501265913248062134e-01 -6.653847545385360718e-02 2.401667460799217224e-02 1.068715900182723999e-01 -1.405414938926696777e-02 -2.712154947221279144e-02 9.080351144075393677e-02 -1.846333965659141541e-02 -6.386230885982513428e-02 5.896905064582824707e-02 -7.797279208898544312e-02 1.073471307754516602e-01 1.722839847207069397e-02 -5.306394770741462708e-02 -6.933092325925827026e-02 -1.220560893416404724e-01 1.965768076479434967e-02 3.000398911535739899e-02 7.831494510173797607e-02 8.731800317764282227e-02 -1.397740095853805542e-01 -9.477805346250534058e-02 1.222800556570291519e-02 5.740414559841156006e-02 -1.737338863313198090e-02 -2.188768051564693451e-02 -9.407156705856323242e-02 -5.610562115907669067e-02 1.423985045403242111e-02 4.596794396638870239e-02 -4.202226549386978149e-02 8.685208857059478760e-02 6.564115732908248901e-02 -1.235721707344055176e-01 -3.432486578822135925e-02 -1.140430718660354614e-01 1.487586349248886108e-01 1.925649680197238922e-02 -1.043025553226470947e-01 -6.593851000070571899e-02 2.645263448357582092e-02 -2.003204822540283203e-02 2.260964177548885345e-02 -3.264042362570762634e-02 -1.582729369401931763e-01 -5.468197166919708252e-03 -1.708743274211883545e-01 1.264414638280868530e-01 5.879494547843933105e-02 8.462661504745483398e-02 2.827107161283493042e-02 9.169712662696838379e-02 6.372046470642089844e-02 1.047843620181083679e-01 -1.256291568279266357e-01 5.980615317821502686e-02 1.407516002655029297e-01 7.478753477334976196e-02 -1.480191946029663086e-01 3.882353007793426514e-02 -1.014405116438865662e-01 7.284393161535263062e-02 -1.566830836236476898e-02 -4.563556052744388580e-03 -1.355016529560089111e-01 1.390042752027511597e-01 1.939462381415069103e-03 2.455976307392120361e-01 5.678271874785423279e-02 -1.234388500452041626e-01 -4.652292653918266296e-02 -2.216104604303836823e-02 -5.796006694436073303e-02 -4.547173902392387390e-02 -1.836677826941013336e-02 -3.908098861575126648e-02 3.585906000807881355e-03 -2.047558518825098872e-04 -3.421133011579513550e-02 -3.195967897772789001e-02 -6.676585972309112549e-02 1.713131517171859741e-01 -1.489111632108688354e-01 -4.888435825705528259e-02 -2.802614867687225342e-02 -2.494191750884056091e-02 2.289169132709503174e-01 4.128892347216606140e-02 -9.695561975240707397e-02 -8.526287972927093506e-02 1.249488741159439087e-01 -1.865565031766891479e-02 -6.934784352779388428e-02 -3.201110288500785828e-02 1.763659063726663589e-03 -5.880163982510566711e-03 -1.092098951339721680e-01 2.154127694666385651e-02 1.082921326160430908e-01 -3.664462268352508545e-02 -8.697561174631118774e-02 1.107414346188306808e-02 1.333673577755689621e-02 1.254011541604995728e-01 7.757370476610958576e-04 -2.146286889910697937e-02 -8.128017932176589966e-02 -3.871282190084457397e-02 -6.085819751024246216e-02 -4.678925499320030212e-02 -5.794207006692886353e-02 3.303644061088562012e-02 4.491873085498809814e-02 1.426867693662643433e-01 3.828608989715576172e-02 -2.890288084745407104e-02 -7.119762152433395386e-02 1.350047886371612549e-01 4.828569665551185608e-02 -3.273753449320793152e-02 1.048197150230407715e-01 -6.176618114113807678e-02 1.004502829164266586e-02 -3.580175340175628662e-02 -1.273955404758453369e-02 -8.053331077098846436e-02 -1.241644397377967834e-01 1.870405226945877075e-01 -1.270927935838699341e-01 -4.868718236684799194e-02 -1.132690012454986572e-01 1.445923745632171631e-01 -1.385292857885360718e-01 9.337821602821350098e-02 -8.813315629959106445e-02 4.394027963280677795e-02 -1.658728122711181641e-01 -7.495577912777662277e-03 -6.363762915134429932e-02 -2.711763232946395874e-02 -5.018704012036323547e-02 8.388884365558624268e-02 7.288894057273864746e-02
-4.459006711840629578e-02 -2.594711259007453918e-02 -1.919483579695224762e-02 1.204926669597625732e-01 -1.176162883639335632e-01 1.790646016597747803e-01 -4.168735817074775696e-02 -3.982726857066154480e-02 5.147314444184303284e-02 -5.549521371722221375e-02 7.496552169322967529e-02 -1.131172776222229004e-01 1.601323634386062622e-01 1.116610597819089890e-02 -1.452531218528747559e-01 -4.692278429865837097e-02 2.678665099665522575e-03 -7.501963526010513306e-02 -5.727113224565982819e-03 2.239541849121451378e-03 2.238838560879230499e-02 -1.517558395862579346e-01 5.593139678239822388e-03 -7.572343945503234863e-02 -1.208660006523132324e-01 1.889414340257644653e-02 -1.235954239964485168e-01 2.061878442764282227e-01 1.005080789327621460e-01 -8.313523232936859131e-02 3.198680281639099121e-02 -2.409175597131252289e-02 -7.558432966470718384e-02 4.674226045608520508e-02 -1.825015991926193237e-02 1.321607828140258789e-01 -1.708930283784866333e-01 6.192873045802116394e-02 -8.411357551813125610e-02 -2.676753699779510498e-02 -7.498151808977127075e-02 1.162838414311408997e-01 -1.265226900577545166e-01 -1.941625587642192841e-02 -2.393681183457374573e-02 -8.234304189682006836e-02 -8.490873128175735474e-02 -1.746398955583572388e-01 -6.762044876813888550e-02 -5.617455020546913147e-02 -6.681621074676513672e-02 1.446243077516555786e-01 -2.117794901132583618e-01 -7.321787625551223755e-02 1.217408031225204468e-01 9.546972811222076416e-02 -9.217115491628646851e-02 2.034154981374740601e-01 -5.084595084190368652e-02 9.838401339948177338e-03 -6.096684932708740234e-02 3.590677306056022644e-02 -8.841797709465026855e-02 -2.458114642649888992e-03 6.983877718448638916e-02 1.198005229234695435e-01 -4.451511893421411514e-03 1.305274665355682373e-02 -2.759431488811969757e-02 4.400369152426719666e-02 -1.771312057971954346e-01 -1.169668883085250854e-01 -2.161676529794931412e-03 1.426682919263839722e-01 3.911541774868965149e-02 9.584364295005798340e-02 4.591869562864303589e-02 -6.460077315568923950e-02 3.941658511757850647e-02 9.430886805057525635e-02 -1.217205077409744263e-01 -2.607760764658451080e-02 -1.536461059004068375e-04 -3.168594837188720703e-02 2.043762244284152985e-02 8.507867902517318726e-02 2.319579385221004486e-02 -1.218896657228469849e-01 -1.458454281091690063e-01 3.775149211287498474e-02 -5.214207246899604797e-02 -6.770987808704376221e-02 -1.001423522830009460e-01 8.482500165700912476e-02 5.790933966636657715e-02 1.217640843242406845e-02 7.942330837249755859e-02 1.234511584043502808e-01 -2.267734520137310028e-02 -4.947670549154281616e-02 -2.509591914713382721e-02 1.109513565897941589e-01 8.979913778603076935e-03 -1.451321244239807129e-01 6.676082313060760498e-02 -4.429051280021667480e-02 7.911793142557144165e-02 1.697727590799331665e-01 -1.185720227658748627e-02 -6.306774914264678955e-02 -2.378728426992893219e-02 1.628360301256179810e-01 -3.591534867882728577e-02 -1.169893611222505569e-02 1.450875867158174515e-02 -1.437639351934194565e-02 -1.427651382982730865e-02 -2.627235651016235352e-02 1.370158512145280838e-03 -7.705267518758773804e-02 7.544016838073730469e-02 7.872982323169708252e-02 1.105990186333656311e-01 2.160362899303436279e-02 2.100206762552261353e-01 -4.091054946184158325e-02 6.700382381677627563e-02 7.549722492694854736e-02 -9.635660052299499512e-02 5.812031030654907227e-02 1.433633565902709961e-01 1.272138655185699463e-01 -4.924701992422342300e-03 -7.693368941545486450e-02 7.680697739124298096e-02 7.800856232643127441e-02 -6.717519462108612061e-02 1.102584749460220337e-01 1.293599158525466919e-01 3.034020029008388519e-02 5.177226662635803223e-02 -7.751468569040298462e-02 6.339717656373977661e-02 7.119475398212671280e-03 -5.366039276123046875e-02 4.442863911390304565e-02 5.865970626473426819e-02 6.476588547229766846e-02 -2.405781298875808716e-02 -2.016729861497879028e-01 1.853126659989356995e-02 4.067911580204963684e-02 -2.222054451704025269e-01 -1.763859987258911133e-01 7.136657834053039551e-03 2.979570068418979645e-02 -8.304373174905776978e-02 7.414413988590240479e-02 6.045291572809219360e-02 -1.868009865283966064e-01 5.674644932150840759e-02 4.252358525991439819e-02 -2.003557235002517700e-02 1.284431800741003826e-05 8.758397772908210754e-03 7.731982972472906113e-03 -1.255677342414855957e-01 4.643170535564422607e-02 1.046856641769409180e-01 -7.102183997631072998e-02 1.019253656268119812e-01 -2.709623612463474274e-02 6.444047391414642334e-02 -1.926975906826555729e-03 3.577718976885080338e-03 8.814026415348052979e-02 -7.254054397344589233e-02 4.741277173161506653e-02 1.743256300687789917e-02 2.006930112838745117e-01 -3.349179401993751526e-02 7.992070168256759644e-02 -1.044122576713562012e-01 -1.746414303779602051e-01 -6.271249800920486450e-02 -2.451200736686587334e-03 -5.978772416710853577e-02 8.857057243585586548e-02 -3.723331540822982788e-02 9.243673412129282951e-05 1.717111654579639435e-02 -1.130473241209983826e-01 6.865352392196655273e-02 -7.651335000991821289e-02 3.921253979206085205e-02 6.012521684169769287e-02 1.584053039550781250e-02 1.035273633897304535e-02 -5.608578026294708252e-02 -1.483891010284423828e-01 5.124509334564208984e-02 8.248938620090484619e-02 1.502625793218612671e-01 -1.021958217024803162e-01 1.408936083316802979e-01 -4.960508272051811218e-02 -9.750530123710632324e-02 -2.781334221363067627e-01 3.221381083130836487e-02 7.708144187927246094e-02 -8.420131355524063110e-02 -1.378275901079177856e-01 3.801547363400459290e-02 -6.648519635200500488e-02 -5.945973098278045654e-02 3.600968047976493835e-02 -1.377146840095520020e-01 7.244168315082788467e-03 -6.621816009283065796e-02 -1.433529146015644073e-02 -3.122590482234954834e-02 -5.967851355671882629e-02 -3.296427056193351746e-02 -8.696538954973220825e-02 1.795519888401031494e-02 -1.681306511163711548e-01 -6.084256619215011597e-02 5.471212416887283325e-02 2.369839511811733246e-02 8.706687390804290771e-02 -4.009297862648963928e-02 4.242384806275367737e-02 -3.605701029300689697e-02 1.164333447813987732e-01 -3.174243029206991196e-04 1.051386166363954544e-02 7.914966344833374023e-02
8.806180208921432495e-02 1.815863512456417084e-02 -9.949998557567596436e-02 -1.030733436346054077e-02 -4.916583001613616943e-02 1.641009449958801270e-01 -3.500866005197167397e-03 1.224220767617225647e-01 1.158899744041264057e-03 -7.051696628332138062e-02 1.161814779043197632e-01 -3.555988147854804993e-02 -1.191244181245565414e-02 -3.013014979660511017e-02 -4.533557221293449402e-02 -1.183220893144607544e-01 5.695136636495590210e-02 2.047414705157279968e-02 -2.007087878882884979e-02 -4.094088077545166016e-02 -5.832440406084060669e-02 -1.711782626807689667e-02 -4.106002673506736755e-02 -1.017243266105651855e-01 -7.403787225484848022e-02 1.125692054629325867e-01 -4.407412838190793991e-03 -5.475560575723648071e-02 -9.349353611469268799e-02 3.976203501224517822e-02 -2.166381031274795532e-01 1.292174607515335083e-01 -3.451471030712127686e-02 -9.827223420143127441e-02 -1.152201071381568909e-01 -1.961680948734283447e-01 9.331593662500381470e-02 1.100871935486793518e-01 -1.211942061781883240e-01 1.097956374287605286e-01 -3.339856117963790894e-02 -4.124801978468894958e-02 1.198299452662467957e-01 -9.170732647180557251e-02 9.732122719287872314e-02 -1.486632376909255981e-01 -1.670908927917480469e-01 4.244653508067131042e-02 -1.137174144387245178e-01 2.395824156701564789e-02 -1.066444069147109985e-02 -2.329146489500999451e-02 1.102123335003852844e-01 -1.454578246921300888e-02 -1.780170947313308716e-01 -1.176284328103065491e-01 2.111090719699859619e-02 -5.192952230572700500e-02 1.203093491494655609e-02 1.224182844161987305e-01 3.289211913943290710e-02 -5.781500041484832764e-02 -2.322938293218612671e-03 -5.004928633570671082e-02 6.255938112735748291e-02 -2.918869443237781525e-02 1.741062384098768234e-03 6.197158992290496826e-02 1.545650139451026917e-02 1.292507536709308624e-02 -5.141207948327064514e-02 -6.534828245639801025e-02 -5.352086573839187622e-02 -1.944595128297805786e-01 3.321016847621649504e-04 -1.530304849147796631e-01 1.480794847011566162e-01 -1.851522736251354218e-02 8.606917411088943481e-02 -8.375544100999832153e-02 8.521997928619384766e-02 1.092872470617294312e-01 -9.904856979846954346e-02 -3.965673968195915222e-03 5.264526605606079102e-02 -9.125562757253646851e-02 -1.121294274926185608e-01 3.051100857555866241e-02 -9.459093213081359863e-02 -9.328342974185943604e-02 -1.413612961769104004e-01 -8.220787346363067627e-02 -1.329107731580734253e-01 -6.346619874238967896e-02 5.990472808480262756e-02 -5.883932486176490784e-02 1.338462382555007935e-01 1.135676726698875427e-01 7.364023476839065552e-02 -1.787146776914596558e-01 -4.811361059546470642e-02 -2.362400852143764496e-02 1.005854923278093338e-02 -6.942924857139587402e-02 -6.036073435097932816e-03 -4.334478080272674561e-02 1.034779399633407593e-01 1.384576559066772461e-01 4.313311725854873657e-02 -1.406934708356857300e-01 -3.620629385113716125e-02 -6.151631847023963928e-02 -2.792661786079406738e-01 -4.183611646294593811e-02 3.712971508502960205e-02 2.715569175779819489e-02 5.407650023698806763e-02 2.131231687963008881e-02 9.181747585535049438e-02 1.988384276628494263e-01 -9.188352525234222412e-02 -5.956318974494934082e-02 4.024473950266838074e-02 -1.655914448201656342e-02 -5.650599300861358643e-02 1.868320442736148834e-02 3.388230875134468079e-02 -2.809561230242252350e-02 -1.439241319894790649e-01 -2.250461652874946594e-02 1.100180447101593018e-01 2.258382737636566162e-01 3.091340186074376106e-03 -4.178340733051300049e-02 -8.405584841966629028e-02 -1.177969276905059814e-01 -5.770340934395790100e-02 -5.103349313139915466e-02 -4.312650859355926514e-02 5.157878249883651733e-02 5.922888219356536865e-02 1.034506559371948242e-01 -2.249347120523452759e-01 6.820078124292194843e-04 -1.036800816655158997e-01 -2.005697460845112801e-03 8.357025682926177979e-02 -1.105206236243247986e-01 1.591739058494567871e-01 -1.097957417368888855e-02 -5.712758004665374756e-02 -1.517092715948820114e-02 -1.346670538187026978e-01 -2.935351617634296417e-02 1.259573549032211304e-02 1.321614831686019897e-01 1.183096989989280701e-01 1.004833802580833435e-01 -1.061488017439842224e-01 -1.224536225199699402e-01 -4.321568086743354797e-02 -7.807050645351409912e-02 1.434096693992614746e-02 -1.112912073731422424e-01 7.115054875612258911e-02 1.484850496053695679e-01 1.279250681400299072e-01 1.882334500551223755e-01 -4.563529975712299347e-03 4.540912061929702759e-02 -2.363086119294166565e-02 1.470400691032409668e-01 -1.470694318413734436e-02 -6.610360741615295410e-02 1.242215856909751892e-01 -4.915148019790649414e-02 4.040729999542236328e-02 -1.454881299287080765e-02 5.648688971996307373e-02 -1.830054819583892822e-01 6.244011595845222473e-02 1.403635889291763306e-01 5.323605146259069443e-03 -1.121134534478187561e-01 4.515084251761436462e-02 5.250278487801551819e-02 5.175440758466720581e-02 1.673345267772674561e-01 1.004212722182273865e-01 -7.180111855268478394e-02 1.707858219742774963e-02 -9.571033716201782227e-02 7.494557648897171021e-02 -1.121891438961029053e-01 1.218531164340674877e-03 -1.019836440682411194e-01 -2.627570368349552155e-02 1.430203439667820930e-03 -1.507642865180969238e-01 7.225701957941055298e-02 1.124496161937713623e-01 1.142638623714447021e-01 5.796305090188980103e-02 -2.143043875694274902e-01 -4.836473986506462097e-02 1.039315983653068542e-01 -2.242573164403438568e-02 6.023984029889106750e-02 -9.027742780745029449e-03 1.605262234807014465e-02 1.071867123246192932e-01 6.872069835662841797e-02 1.177518218755722046e-01 -1.714196354150772095e-01 6.004933267831802368e-02 -5.457117408514022827e-02 -1.594481319189071655e-01 -1.169349551200866699e-01 7.518754154443740845e-02 -4.729212727397680283e-03 1.972058042883872986e-02 -1.099278964102268219e-02 -1.877618022263050079e-02 -8.989851921796798706e-03 -3.815474733710289001e-02 1.760513931512832642e-01 7.552117109298706055e-02 -4.314427077770233154e-02 -4.756995290517807007e-02 4.387096967548131943e-03 -5.339812859892845154e-02 7.814630120992660522e-02 -6.290763616561889648e-02 2.772822231054306030e-02 -6.228573620319366455e-03 -7.649801671504974365e-02 -1.009712181985378265e-02
-2.925843186676502228e-02 -5.882733687758445740e-02 1.058587878942489624e-01 -2.250788733363151550e-02 4.100812599062919617e-02 -2.928344346582889557e-02 8.700270205736160278e-03 3.848117589950561523e-02 3.135865088552236557e-03 -1.581197828054428101e-01 9.335777163505554199e-02 6.414830684661865234e-02 1.666660420596599579e-02 7.320287078619003296e-02 5.086170881986618042e-02 5.167111381888389587e-02 -1.373615562915802002e-01 -4.754095524549484253e-02 1.398029625415802002e-01 2.030034177005290985e-02 1.800975762307643890e-02 -8.480745553970336914e-02 -5.979269742965698242e-02 -7.627139333635568619e-03 -1.046511437743902206e-02 7.548188418149948120e-02 5.592186748981475830e-02 -2.215993404388427734e-01 -8.129789680242538452e-02 -2.140312641859054565e-02 -3.190069273114204407e-02 -1.841821148991584778e-02 -3.553970903158187866e-02 -1.646515727043151855e-01 -1.286674737930297852e-01 1.616864092648029327e-02 5.720859859138727188e-03 2.631340920925140381e-01 6.407291162759065628e-03 1.309686452150344849e-01 4.629081487655639648e-02 -1.203394979238510132e-01 5.267553403973579407e-02 -1.103268819861114025e-03 1.808792501688003540e-01 1.023345440626144409e-01 -4.531032964587211609e-02 1.087581645697355270e-02 1.157344654202461243e-01 5.856967531144618988e-03 -1.494207829236984253e-01 3.149829432368278503e-02 4.484684392809867859e-02 -4.769609868526458740e-02 8.981322497129440308e-02 -1.062247753143310547e-01 -9.959565848112106323e-02 -7.819736492820084095e-04 9.820858389139175415e-02 -5.232754119788296521e-05 -4.935315251350402832e-02 4.530746862292289734e-02 -1.449546962976455688e-02 -1.515839248895645142e-02 1.297222971916198730e-01 -1.351268310099840164e-02 -4.563496634364128113e-02 -1.623706817626953125e-01 -7.152441889047622681e-02 1.636216044425964355e-01 5.668578203767538071e-03 1.503451466560363770e-01 3.254607692360877991e-02 6.163971498608589172e-02 2.865193178877234459e-03 -5.961649864912033081e-02 -4.575568437576293945e-02 -9.486062079668045044e-02 4.659147560596466064e-02 -9.430100768804550171e-02 -2.210340090095996857e-02 -8.785644918680191040e-02 -2.356694894842803478e-04 2.841642126441001892e-02 -9.812988573685288429e-04 7.883697003126144409e-02 5.614124238491058350e-02 7.731249928474426270e-02 5.208342894911766052e-02 1.947370767593383789e-01 8.741516619920730591e-02 -9.211773425340652466e-02 -1.670228540897369385e-01 5.429248511791229248e-02 -1.171321794390678406e-02 1.186290755867958069e-01 -5.772693827748298645e-02 -2.683795988559722900e-02 -1.159555613994598389e-01 5.232878960669040680e-03 -2.063374221324920654e-02 7.169345766305923462e-02 -4.342134669423103333e-02 -2.077908366918563843e-01 3.328422456979751587e-02 -4.385990649461746216e-02 1.480521447956562042e-02 -8.782909810543060303e-02 8.804867416620254517e-02 -1.460214853286743164e-01 -8.571960031986236572e-02 1.831706166267395020e-01 -2.535234577953815460e-02 1.710714548826217651e-01 -9.520673751831054688e-02 8.407856523990631104e-02 3.002434410154819489e-02 -7.579731941223144531e-02 9.374753385782241821e-02 3.159960499033331871e-03 6.082780659198760986e-02 2.968528494238853455e-02 2.423700504004955292e-02 -7.148904353380203247e-02 -1.047628670930862427e-01 4.282894544303417206e-03 -8.303640037775039673e-02 -6.603068672120571136e-03 5.191794782876968384e-02 -2.518700622022151947e-02 -4.187658429145812988e-02 2.874880563467741013e-03 -7.377430796623229980e-02 3.538008406758308411e-02 1.096335202455520630e-01 6.685241311788558960e-02 7.870008051395416260e-02 4.491722211241722107e-03 3.144561126828193665e-02 -7.010608911514282227e-02 1.716905646026134491e-02 -1.979245059192180634e-02 5.523981153964996338e-02 -5.347347818315029144e-03 8.762477338314056396e-02 2.106783539056777954e-02 -1.759990677237510681e-02 -1.517353057861328125e-01 5.637287348508834839e-02 -1.451418269425630569e-02 6.796021759510040283e-02 1.206164732575416565e-01 -2.789170481264591217e-02 1.275493502616882324e-01 -1.073235273361206055e-01 1.710833311080932617e-01 -1.751633286476135254e-01 1.393047273159027100e-01 4.585041105747222900e-02 -8.807157166302204132e-03 -1.285592745989561081e-02 -7.351610809564590454e-02 -2.154677640646696091e-03 -6.506340950727462769e-02 7.018382847309112549e-02 1.261711418628692627e-01 -1.334062218666076660e-01 6.084576994180679321e-02 -1.181679815053939819e-01 -9.723325818777084351e-02 5.360461026430130005e-02 -1.919955909252166748e-01 5.351428315043449402e-02 -2.639159560203552246e-01 -7.880020886659622192e-02 -3.711240133270621300e-03 2.756604924798011780e-02 4.535406827926635742e-02 -6.110335141420364380e-02 -1.026201695203781128e-01 -3.667046129703521729e-02 -8.330895751714706421e-02 7.499436289072036743e-02 -9.785148315131664276e-03 1.183741986751556396e-01 1.434694230556488037e-01 2.412903606891632080e-01 1.164311692118644714e-01 8.592247217893600464e-02 -6.081135943531990051e-02 1.167987883090972900e-01 -6.784423254430294037e-03 -4.027137532830238342e-02 1.405745446681976318e-01 1.668065488338470459e-01 3.682819008827209473e-02 -2.135620638728141785e-02 -7.321637123823165894e-02 -8.001563698053359985e-02 1.310889981687068939e-02 -8.020479232072830200e-02 -3.562720492482185364e-02 1.127289384603500366e-01 -6.562017649412155151e-02 1.864092200994491577e-01 -6.688103079795837402e-02 -3.891796804964542389e-03 1.442219167947769165e-01 -1.838213801383972168e-01 8.062912523746490479e-02 2.084560319781303406e-02 -7.141712307929992676e-02 1.507805883884429932e-01 6.557263433933258057e-02 -4.533810541033744812e-02 -2.589463442564010620e-02 -3.244847059249877930e-02 -1.598087139427661896e-02 -4.513777047395706177e-02 -6.855253875255584717e-02 4.451064392924308777e-02 4.371512681245803833e-02 2.244668826460838318e-02 -9.712246060371398926e-02 -7.529111951589584351e-02 -1.076570600271224976e-01 7.532624900341033936e-02 1.241002604365348816e-01 -1.775728613138198853e-01 -5.436644330620765686e-02 5.904169008135795593e-02 -5.719637498259544373e-02 -1.609323173761367798e-01 -3.618825972080230713e-02 -6.280697882175445557e-02 1.746527105569839478e-01 -1.791496016085147858e-02
7.586807757616043091e-02 1.538557112216949463e-01 -1.417096108198165894e-01 -7.287037372589111328e-02 -4.681107401847839355e-02 -1.286244078073650599e-04 1.673403680324554443e-01 4.477097094058990479e-02 -5.359262973070144653e-02 1.327018905431032181e-02 3.347541391849517822e-02 8.946775645017623901e-02 -9.612089022994041443e-03 -7.899883389472961426e-02 -1.188898533582687378e-01 -7.017652690410614014e-02 -5.095012485980987549e-02 1.587834805250167847e-01 2.964342013001441956e-02 -7.843359559774398804e-02 8.581211417913436890e-02 5.616453662514686584e-02 -4.331988468766212463e-02 -2.754929363727569580e-01 -5.912413354963064194e-03 2.615748345851898193e-02 4.684248566627502441e-02 5.667400360107421875e-02 1.233214512467384338e-01 -1.620846427977085114e-02 9.953146427869796753e-02 1.055636554956436157e-01 7.722241431474685669e-02 5.457193031907081604e-02 -1.432666629552841187e-01 -1.526881754398345947e-01 -1.333334296941757202e-01 2.173844277858734131e-01 7.244674023240804672e-03 -1.022078171372413635e-01 5.687223002314567566e-02 4.150876775383949280e-02 1.868794262409210205e-01 4.342591017484664917e-02 -4.105410724878311157e-02 1.632289588451385498e-02 4.029975831508636475e-02 7.017853856086730957e-02 -6.874261796474456787e-02 1.308583747595548630e-02 -1.256677955389022827e-01 1.002337560057640076e-01 -1.267359852790832520e-01 3.001913428306579590e-02 -3.352567180991172791e-02 9.125480800867080688e-02 7.285116612911224365e-02 -2.123427763581275940e-02 -6.521598994731903076e-02 6.704727653414011002e-03 1.267612874507904053e-01 2.430658340454101562e-01 3.586481139063835144e-02 -9.625556319952011108e-02 9.930214285850524902e-02 5.569903552532196045e-02 7.079549878835678101e-02 9.555247426033020020e-02 3.214518353343009949e-02 3.717627748847007751e-02 -1.888565905392169952e-02 7.986970245838165283e-02 2.236422151327133179e-02 7.251768559217453003e-02 2.366152405738830566e-01 -1.627939380705356598e-02 -1.635820418596267700e-01 -1.044936105608940125e-02 -4.609573259949684143e-02 -3.386269882321357727e-02 1.374278776347637177e-02 1.410251110792160034e-01 5.718631297349929810e-02 -3.904202207922935486e-02 5.866257939487695694e-03 -6.801834329962730408e-03 7.314287126064300537e-02 -5.964402109384536743e-02 -5.603149160742759705e-02 1.086108386516571045e-02 1.214179322123527527e-01 1.679641604423522949e-01 -5.106026306748390198e-02 5.533174425363540649e-02 7.560355961322784424e-02 -6.086305901408195496e-02 -1.141969300806522369e-02 9.347987920045852661e-02 -3.815787658095359802e-02 -3.597612306475639343e-02 6.837851554155349731e-02 -2.242124453186988831e-02 6.456826627254486084e-02 1.714794188737869263e-01 -1.387091577053070068e-01 -5.001317244023084641e-03 3.871089965105056763e-02 -1.711644381284713745e-01 -1.242251135408878326e-02 -1.088540926575660706e-01 -1.655919253826141357e-01 -4.431405663490295410e-02 3.229030966758728027e-02 -4.390544258058071136e-03 -1.436541788280010223e-03 -5.338505282998085022e-02 1.187243871390819550e-02 7.858993858098983765e-02 -3.207699581980705261e-02 -7.997170090675354004e-02 5.049974843859672546e-02 -6.937196105718612671e-02 5.100912414491176605e-03 9.389598667621612549e-02 -1.629286557435989380e-01 4.210675507783889771e-02 -4.368380457162857056e-02 5.490720644593238831e-02 7.808492332696914673e-02 -4.082667455077171326e-02 3.798729553818702698e-02 4.315401613712310791e-02 -4.593203216791152954e-02 -1.071637943387031555e-01 -4.358654096722602844e-02 5.888612940907478333e-02 7.034932821989059448e-02 -3.839389979839324951e-02 2.601846866309642792e-02 6.242526695132255554e-02 6.109248101711273193e-02 -8.788409829139709473e-02 7.749218493700027466e-02 -2.614823728799819946e-02 -4.370579496026039124e-02 -5.358078703284263611e-02 -4.896456375718116760e-02 -5.000353232026100159e-02 5.125104635953903198e-02 -1.373221259564161301e-02 2.136283740401268005e-02 -3.653316199779510498e-02 3.327599167823791504e-02 1.872758567333221436e-02 -4.107020422816276550e-02 -6.187042966485023499e-02 -1.427745725959539413e-02 -3.460835665464401245e-02 1.067603975534439087e-01 -1.108766160905361176e-02 -1.944663189351558685e-02 -6.411045044660568237e-02 -1.411072611808776855e-01 4.369656369090080261e-02 7.386691868305206299e-02 -7.671211380511522293e-03 9.599706158041954041e-03 -5.684253294020891190e-03 1.274753510951995850e-01 -4.503763467073440552e-02 1.224134340882301331e-01 -1.092997938394546509e-02 -4.982412979006767273e-02 7.359538227319717407e-02 1.548141986131668091e-01 -1.214185729622840881e-02 2.038616538047790527e-01 1.445605605840682983e-02 -6.566873937845230103e-02 6.363312900066375732e-02 -5.695780739188194275e-03 1.510090380907058716e-01 4.476299136877059937e-02 -4.744326323270797729e-02 6.426145881414413452e-02 4.039287194609642029e-02 -1.679664850234985352e-02 -7.568608224391937256e-02 -8.096309751272201538e-02 -1.199592463672161102e-02 1.078829765319824219e-01 8.649881929159164429e-02 1.289491057395935059e-01 -1.895444691181182861e-01 2.094700559973716736e-02 -6.755379587411880493e-02 -1.304216682910919189e-01 -1.264729946851730347e-01 -5.078705772757530212e-02 6.289871037006378174e-02 3.963714465498924255e-02 1.269405484199523926e-01 -2.123242709785699844e-03 9.839116781949996948e-02 -1.277058422565460205e-01 -4.812879860401153564e-02 -1.184492558240890503e-02 -9.827547520399093628e-02 -2.127804094925522804e-03 3.267252072691917419e-02 1.150868758559226990e-01 -1.128361597657203674e-01 -1.830148398876190186e-01 1.002201810479164124e-01 -5.388126522302627563e-02 -1.247673407196998596e-01 -5.403343588113784790e-02 1.750888526439666748e-01 -4.488278552889823914e-02 -4.792261868715286255e-02 4.606929793953895569e-02 1.586106717586517334e-01 7.218430936336517334e-02 9.181099012494087219e-03 7.422046363353729248e-02 -7.372733950614929199e-02 2.207247354090213776e-02 -1.776668280363082886e-01 -7.035637646913528442e-02 -6.578851491212844849e-02 8.457154035568237305e-02 -1.956203952431678772e-02 -7.760123163461685181e-02 6.511136144399642944e-02 -1.253203451633453369e-01 -7.038117200136184692e-02 -1.867555826902389526e-01
1.140808835625648499e-01 7.684299349784851074e-02 8.001197874546051025e-02 1.627681404352188110e-01 1.334013533778488636e-03 -2.424027025699615479e-02 1.226973757147789001e-01 -1.384273916482925415e-01 -1.949235200881958008e-01 8.211258053779602051e-02 3.724855184555053711e-02 -1.151806339621543884e-01 1.115480735898017883e-01 2.783934352919459343e-03 -3.880732506513595581e-02 -3.386645019054412842e-02 6.211063638329505920e-02 -1.646158695220947266e-01 1.794013194739818573e-02 5.346666648983955383e-02 -1.314526144415140152e-02 3.832258284091949463e-02 -3.283936530351638794e-02 -2.124645374715328217e-02 2.950037643313407898e-02 8.458777517080307007e-02 -1.464633643627166748e-02 -1.000208035111427307e-02 9.957207366824150085e-03 3.438392281532287598e-02 -1.279059518128633499e-02 2.301506511867046356e-02 2.741907723248004913e-02 5.772601068019866943e-02 -7.836042344570159912e-02 -4.305820539593696594e-02 -1.588917821645736694e-01 -7.820193469524383545e-02 -2.861317619681358337e-02 5.894779693335294724e-03 -1.467274427413940430e-01 -5.519766733050346375e-02 2.723068371415138245e-02 -1.070696674287319183e-02 8.618220686912536621e-02 -1.103030443191528320e-01 -5.095864832401275635e-02 -6.797482073307037354e-02 -6.914357654750347137e-03 2.454454824328422546e-02 -2.553296647965908051e-02 1.203618049621582031e-01 5.120821669697761536e-02 1.740516871213912964e-01 -1.128391474485397339e-01 -2.563285082578659058e-02 -8.100195974111557007e-02 3.600427880883216858e-02 -2.002235651016235352e-01 -1.010997444391250610e-01 -2.774625457823276520e-02 -2.095876634120941162e-02 -1.980916261672973633e-01 -1.874420493841171265e-01 3.181574121117591858e-02 -6.783822085708379745e-03 -5.814259871840476990e-02 1.241058111190795898e-01 -5.415127426385879517e-02 3.319724276661872864e-02 5.079884454607963562e-02 2.289379984140396118e-01 -9.032530337572097778e-02 -1.553691923618316650e-01 9.104074537754058838e-02 -4.060450196266174316e-02 -2.140325959771871567e-03 9.426804631948471069e-02 1.772218011319637299e-02 1.555483136326074600e-02 2.858375757932662964e-02 -2.601752616465091705e-02 5.061918869614601135e-02 4.595589265227317810e-02 8.561153709888458252e-02 -5.636491253972053528e-02 1.117182150483131409e-01 3.546266630291938782e-02 -3.104491718113422394e-02 2.109077200293540955e-02 -4.478967748582363129e-03 -8.055642992258071899e-02 -2.588190138339996338e-02 -6.901947408914566040e-02 8.856292068958282471e-02 2.643064558506011963e-01 2.352952212095260620e-02 2.646203339099884033e-02 -4.111589863896369934e-03 -2.381325326859951019e-02 1.145415380597114563e-01 8.052079379558563232e-02 -6.514265388250350952e-02 1.819165349006652832e-01 1.251354068517684937e-02 -6.353799253702163696e-02 -4.881505295634269714e-02 -1.350038051605224609e-01 2.420508116483688354e-02 4.937512427568435669e-02 4.203128069639205933e-02 -6.853094790130853653e-03 9.526194073259830475e-03 1.921264231204986572e-01 8.074850589036941528e-02 -9.444103389978408813e-02 -1.136914640665054321e-01 -4.593881219625473022e-02 -1.096322946250438690e-02 -1.975892484188079834e-01 -5.524079501628875732e-02 1.778134144842624664e-02 2.526075020432472229e-02 7.598038762807846069e-02 -1.260531693696975708e-01 4.034859314560890198e-02 -5.709733814001083374e-02 -7.149920612573623657e-02 1.664351671934127808e-01 -3.209453448653221130e-02 2.703526802361011505e-02 1.130795255303382874e-01 -8.725526928901672363e-02 -2.302099578082561493e-02 7.319525629281997681e-02 1.480003260076045990e-02 -6.394156813621520996e-02 4.961251839995384216e-02 -9.508651494979858398e-02 -6.358067691326141357e-02 -4.016553238034248352e-02 9.020066261291503906e-02 1.179651319980621338e-01 -1.037711557000875473e-02 -1.801603287458419800e-02 6.324786692857742310e-02 -8.730943500995635986e-02 -1.044252067804336548e-01 1.595030575990676880e-01 1.550368219614028931e-01 1.417215913534164429e-02 1.534506976604461670e-01 6.310211122035980225e-02 -4.562940448522567749e-02 2.064430713653564453e-02 -2.980454824864864349e-03 1.376557052135467529e-01 -3.013740852475166321e-02 2.610510587692260742e-02 -5.970523506402969360e-02 -1.527214348316192627e-01 -9.578754007816314697e-02 -9.989246726036071777e-03 2.524646930396556854e-02 -5.964889377355575562e-02 -5.217196047306060791e-02 -9.116546809673309326e-02 1.397377997636795044e-01 5.967689678072929382e-02 1.279062684625387192e-02 8.569765836000442505e-02 2.675972580909729004e-01 2.096526324748992920e-02 -4.891586676239967346e-02 -8.928470313549041748e-02 2.854174189269542694e-02 -2.342194914817810059e-01 -9.964783675968647003e-03 -1.599587798118591309e-01 -3.706016391515731812e-02 -8.104858547449111938e-02 -1.590146124362945557e-01 9.870419278740882874e-03 -5.171951279044151306e-02 4.158651921898126602e-03 5.081492941826581955e-03 3.431858494877815247e-02 2.955984789878129959e-03 2.234971225261688232e-01 -3.352688625454902649e-02 -1.033556386828422546e-01 3.707719594240188599e-02 -2.092095166444778442e-01 1.183830574154853821e-01 4.957475513219833374e-02 -8.930385857820510864e-02 -2.249605022370815277e-02 1.074799522757530212e-01 1.921240985393524170e-02 9.807139635086059570e-03 4.179196059703826904e-02 3.092519640922546387e-01 -2.652541501447558403e-03 6.059718132019042969e-02 1.798791624605655670e-02 6.558340042829513550e-02 1.156215220689773560e-01 -9.909939765930175781e-02 -8.434316515922546387e-02 5.576612800359725952e-02 -3.449070453643798828e-02 -3.920570388436317444e-02 -4.401761293411254883e-02 3.209400549530982971e-02 1.098177060484886169e-01 1.209632083773612976e-01 1.536274049431085587e-02 -1.263246387243270874e-01 8.309073001146316528e-02 6.625702977180480957e-02 1.706118579022586346e-03 -2.185492403805255890e-02 -9.453193843364715576e-02 -1.224497705698013306e-02 -8.788249641656875610e-02 -1.070181950926780701e-01 -9.486192837357521057e-03 5.488602072000503540e-02 -3.464366309344768524e-03 5.495291203260421753e-02 -6.211056187748908997e-02 8.515851199626922607e-02 1.160434857010841370e-01 1.024346798658370972e-01 -2.490361221134662628e-02 2.466835267841815948e-02 1.257340759038925171e-01
4.259501025080680847e-02 -4.072462767362594604e-02 -5.811309441924095154e-02 1.257200241088867188e-01 -4.390297085046768188e-02 6.717368960380554199e-02 -8.247578889131546021e-02 -2.614424377679824829e-02 -5.467635393142700195e-02 -2.832248620688915253e-02 1.285299956798553467e-01 -5.446223914623260498e-02 -8.217708021402359009e-02 9.608777239918708801e-03 -2.676562033593654633e-02 -1.011430751532316208e-02 -1.154730282723903656e-02 -1.642555370926856995e-02 6.085410714149475098e-02 -2.334343083202838898e-02 6.456107646226882935e-02 -5.895004421472549438e-02 -1.455538626760244370e-02 -1.303549017757177353e-02 1.712351292371749878e-02 -1.388493329286575317e-01 1.018216758966445923e-01 -8.356662839651107788e-02 1.178052797913551331e-01 2.637335658073425293e-02 6.417391123250126839e-04 -1.085621397942304611e-02 2.380348369479179382e-02 4.521372320596128702e-04 5.978038907051086426e-02 -2.312093414366245270e-02 1.240702420473098755e-01 -3.285053418949246407e-03 -4.486525431275367737e-02 5.014005675911903381e-02 -2.093769609928131104e-02 6.279159337282180786e-02 -1.761128604412078857e-01 4.955290257930755615e-02 -2.144673839211463928e-02 -2.814921364188194275e-02 8.453467488288879395e-02 -2.598790451884269714e-02 -1.652594953775405884e-01 -1.182268708944320679e-01 1.107420306652784348e-02 2.044742852449417114e-01 -1.135565191507339478e-01 7.902479916810989380e-02 5.397307500243186951e-02 1.795233227312564850e-02 2.620974183082580566e-01 3.564003622159361839e-03 1.092634573578834534e-01 5.510437116026878357e-02 -4.785230755805969238e-02 -6.101314723491668701e-02 2.016833052039146423e-02 -1.726130396127700806e-02 1.213506087660789490e-01 1.086945980787277222e-01 1.112792864441871643e-01 -4.539982602000236511e-02 -3.398387134075164795e-02 1.193703338503837585e-01 5.368913337588310242e-02 1.313723344355821609e-02 -3.948980569839477539e-02 7.394319772720336914e-02 1.869742991402745247e-03 1.878577619791030884e-01 -5.817245692014694214e-02 -2.020490020513534546e-01 -1.681541092693805695e-02 2.487371265888214111e-01 2.105143852531909943e-02 1.757541298866271973e-01 1.120531484484672546e-01 7.688680291175842285e-02 -1.064566662535071373e-03 -8.358927816152572632e-02 -1.632763147354125977e-01 9.578189253807067871e-02 -7.998983561992645264e-02 -2.758422866463661194e-02 2.101468890905380249e-01 -8.882935345172882080e-02 2.747189253568649292e-03 2.273621270433068275e-03 -5.253371223807334900e-02 -9.094800055027008057e-02 -6.234209612011909485e-02 -7.403436303138732910e-02 1.792808771133422852e-01 2.022256553173065186e-01 -4.775897040963172913e-02 -1.064204648137092590e-01 2.269451320171356201e-02 8.364832401275634766e-02 8.801217377185821533e-02 3.949962928891181946e-02 -1.695239394903182983e-01 5.219487473368644714e-02 -4.040100425481796265e-02 -1.632173173129558563e-02 1.380690485239028931e-01 4.085831344127655029e-02 -1.556969285011291504e-01 -1.095685437321662903e-01 -6.004503928124904633e-03 1.535305567085742950e-02 4.133402556180953979e-02 1.302508264780044556e-01 -8.360460400581359863e-03 8.305900543928146362e-02 -5.293338000774383545e-02 -1.220628991723060608e-01 -2.863770909607410431e-02 -7.237635552883148193e-02 -4.271522909402847290e-02 -9.522780776023864746e-02 3.610316291451454163e-02 -2.390217408537864685e-02 -8.056150376796722412e-02 1.640744321048259735e-02 -5.419920012354850769e-02 1.036285236477851868e-01 -1.080322638154029846e-02 -1.250158995389938354e-01 6.882335245609283447e-02 4.413319006562232971e-02 -4.861991107463836670e-02 -6.607092171907424927e-02 8.279971778392791748e-02 1.196777373552322388e-01 -6.250563263893127441e-02 9.248625487089157104e-02 1.677099913358688354e-01 -4.173488542437553406e-02 8.831540122628211975e-03 1.644022949039936066e-02 -3.489098744466900826e-03 -6.724946945905685425e-02 -4.543090239167213440e-02 6.497951596975326538e-02 1.368279010057449341e-01 1.434078067541122437e-01 6.133730337023735046e-02 1.873501837253570557e-01 -1.955515705049037933e-02 2.287235669791698456e-02 1.074718460440635681e-01 -7.591269910335540771e-02 2.319500595331192017e-01 -7.306783646345138550e-02 3.707751398906111717e-03 3.011879697442054749e-02 8.644645661115646362e-02 4.914447292685508728e-02 4.559670761227607727e-02 -2.088614553213119507e-02 7.450751215219497681e-02 -1.094521209597587585e-01 1.009199470281600952e-01 6.518347072415053844e-04 -8.335151523351669312e-02 -5.405278876423835754e-02 2.368490211665630341e-02 -2.172667300328612328e-03 5.599725991487503052e-02 -4.835481196641921997e-02 2.419731207191944122e-02 2.985908649861812592e-02 -1.095079183578491211e-01 -8.062333613634109497e-02 -2.062547057867050171e-01 -1.694036871194839478e-01 1.038093492388725281e-01 -6.007651239633560181e-02 1.432243138551712036e-01 -2.615436725318431854e-02 8.088477700948715210e-02 5.759260803461074829e-02 -1.665912196040153503e-02 -3.158660605549812317e-02 -4.445099085569381714e-02 -1.868551522493362427e-01 -2.159730941057205200e-01 1.499629300087690353e-02 -2.601934038102626801e-02 -1.578872837126255035e-02 1.725594848394393921e-01 -5.378373339772224426e-02 4.586787149310112000e-02 8.402928709983825684e-03 -1.116690710186958313e-01 1.859371364116668701e-01 1.049974560737609863e-02 8.029542118310928345e-02 -9.670387208461761475e-02 5.406919494271278381e-02 3.929061815142631531e-02 6.777025014162063599e-02 -4.990162700414657593e-02 -1.247909478843212128e-02 4.041032399982213974e-03 1.483239233493804932e-01 -2.385184913873672485e-02 1.041841953992843628e-01 -8.859378844499588013e-02 -1.502465009689331055e-01 -1.419104933738708496e-01 -6.601287424564361572e-02 1.606210470199584961e-01 -1.194716617465019226e-02 8.623916655778884888e-02 7.416907697916030884e-03 -1.366009414196014404e-01 1.312574446201324463e-01 -1.780520938336849213e-02 -5.741417780518531799e-02 1.298899576067924500e-02 2.969726175069808960e-02 -3.275152668356895447e-02 8.833160251379013062e-02 -6.502704322338104248e-02 4.769639298319816589e-02 -1.045445650815963745e-01 -4.196445224806666374e-04 -3.230345621705055237e-02 -1.011330857872962952e-01 5.066336691379547119e-02
-5.086949840188026428e-02 -5.999517813324928284e-02 6.243810802698135376e-02 -3.165749832987785339e-02 1.698938906192779541e-01 6.318116933107376099e-02 -3.501842170953750610e-02 -5.133729800581932068e-02 -1.790811717510223389e-01 5.868296697735786438e-02 -1.653268635272979736e-01 -1.337508857250213623e-01 3.048803098499774933e-02 1.089552342891693115e-01 -6.688793748617172241e-02 2.576525136828422546e-02 1.291012316942214966e-01 -6.882669031620025635e-02 -3.926914930343627930e-02 -8.313529193401336670e-02 1.557658612728118896e-02 -5.570923909544944763e-02 1.814839243888854980e-01 2.001382708549499512e-01 1.125589013099670410e-01 -5.075801163911819458e-02 -1.378440260887145996e-01 3.021990880370140076e-02 -5.296834185719490051e-02 8.450362086296081543e-02 1.089400798082351685e-01 2.745930105447769165e-02 -3.415016084909439087e-02 -2.616467420011758804e-03 -7.627157960087060928e-03 -3.756711259484291077e-02 -6.503580603748559952e-03 5.670538544654846191e-02 -8.868023008108139038e-02 7.628799229860305786e-02 9.926719218492507935e-02 -6.417939905077219009e-03 4.987960308790206909e-02 1.076028719544410706e-01 -1.039985567331314087e-01 -3.772698342800140381e-02 -3.518376871943473816e-02 -1.140258908271789551e-01 -5.657068639993667603e-02 -8.988306671380996704e-02 1.996794529259204865e-02 -9.699021279811859131e-02 6.714534014463424683e-03 6.093346327543258667e-02 2.809936180710792542e-02 -1.143369898200035095e-01 -1.595875807106494904e-02 -8.937768638134002686e-02 -6.818022578954696655e-02 -7.487750053405761719e-02 -6.356265395879745483e-02 6.412803381681442261e-02 5.693689733743667603e-02 -1.716772280633449554e-02 -2.380642108619213104e-02 -6.866315845400094986e-03 4.832812398672103882e-02 -7.764850556850433350e-02 1.110721677541732788e-01 4.389122128486633301e-02 1.615922003984451294e-01 1.006677448749542236e-01 2.266232669353485107e-02 6.996829062700271606e-02 -9.870886057615280151e-02 -1.010646950453519821e-02 8.532056212425231934e-02 -8.385070413351058960e-02 -1.148087531328201294e-01 -1.271393150091171265e-01 2.391106262803077698e-02 -5.817259848117828369e-02 4.046146199107170105e-02 8.158263564109802246e-02 -6.969089806079864502e-02 -8.158017881214618683e-03 3.071509860455989838e-02 6.856336724013090134e-03 -6.698975712060928345e-02 -6.752845644950866699e-02 2.007075846195220947e-01 1.172520369291305542e-01 -2.663110941648483276e-02 6.927327066659927368e-02 9.898512065410614014e-02 1.293220520019531250e-01 -4.834266379475593567e-02 -1.268393453210592270e-02 9.334941278211772442e-04 -5.746406316757202148e-02 1.031487882137298584e-01 -2.660315856337547302e-02 8.962903916835784912e-02 -1.201233416795730591e-01 9.239033795893192291e-03 -7.881475239992141724e-02 -4.477612674236297607e-02 -3.559466823935508728e-02 1.209486722946166992e-01 -2.751239761710166931e-02 -1.037507355213165283e-01 -7.606094330549240112e-02 -1.026464626193046570e-02 -1.296142339706420898e-01 7.722856104373931885e-02 -8.570498228073120117e-02 9.153062850236892700e-02 3.845382481813430786e-02 -1.113136112689971924e-01 -7.088530063629150391e-02 -5.692178755998611450e-02 -1.120792552828788757e-01 4.374301433563232422e-02 -3.662196546792984009e-02 5.866254121065139771e-02 -3.194327279925346375e-02 -2.222883328795433044e-02 -5.122141167521476746e-02 -6.668350100517272949e-02 -2.554270923137664795e-01 2.697258442640304565e-02 -2.690987847745418549e-02 -1.199724823236465454e-01 -1.282323002815246582e-01 -6.371904164552688599e-02 6.931952387094497681e-02 4.136538505554199219e-02 5.783819779753684998e-02 6.813663989305496216e-02 1.256701350212097168e-01 7.065398991107940674e-02 1.815172880887985229e-01 -1.312481909990310669e-01 5.967058707028627396e-03 -4.633728414773941040e-02 -5.324056744575500488e-02 -5.829359591007232666e-02 3.414007648825645447e-02 -1.886330991983413696e-01 -2.474589794874191284e-01 1.112401112914085388e-01 -6.570359319448471069e-02 4.402086138725280762e-02 -3.897711262106895447e-02 -1.461010724306106567e-01 1.040275394916534424e-02 4.214747995138168335e-02 1.049277260899543762e-01 5.476341396570205688e-02 -8.153535425662994385e-03 6.896603852510452271e-02 9.356356412172317505e-02 -1.162339933216571808e-02 -2.008106857538223267e-01 -6.341734901070594788e-03 5.141596775501966476e-03 -1.113707721233367920e-01 3.431146591901779175e-02 -3.836114332079887390e-02 -6.324665248394012451e-02 8.586406707763671875e-02 -2.722166478633880615e-02 4.248383641242980957e-02 -5.415238440036773682e-02 8.237692527472972870e-03 1.495410203933715820e-01 2.521266229450702667e-02 4.846632480621337891e-02 -4.992090165615081787e-03 6.541789975017309189e-03 2.226470597088336945e-02 -1.243009716272354126e-01 6.471633166074752808e-02 -4.890375211834907532e-02 6.709662824869155884e-02 1.196795850992202759e-01 -7.736282795667648315e-02 1.739697717130184174e-02 1.009938567876815796e-01 -1.448588967323303223e-01 6.288249790668487549e-02 -1.551220417022705078e-01 9.710589796304702759e-02 -1.025904491543769836e-01 -3.514161705970764160e-02 -2.073155157268047333e-02 -1.784034259617328644e-02 -4.573892802000045776e-02 4.638173803687095642e-02 -1.113400980830192566e-02 4.800359904766082764e-02 7.194478064775466919e-02 1.601784825325012207e-01 -8.890870213508605957e-02 -1.550250053405761719e-01 2.631003260612487793e-01 1.470308899879455566e-01 1.284474786370992661e-02 -8.389289677143096924e-02 -1.084493845701217651e-01 -1.292350515723228455e-02 -2.901448681950569153e-02 -2.077962607145309448e-01 -9.115105867385864258e-02 1.815800070762634277e-01 -6.924987584352493286e-02 4.176520928740501404e-02 1.081929728388786316e-01 -1.215518936514854431e-01 -6.404866278171539307e-02 7.637555897235870361e-02 -1.731780320405960083e-01 6.952527910470962524e-02 -1.869047991931438446e-02 -7.919902354478836060e-02 1.443833298981189728e-02 -1.953429728746414185e-02 1.245141327381134033e-01 1.052412614226341248e-01 -1.902485191822052002e-01 7.959313690662384033e-02 -9.650436230003833771e-03 4.113742709159851074e-02 9.773977100849151611e-02 1.338656991720199585e-01 1.410165578126907349e-01 7.184745371341705322e-02
