1.153152659535408020e-01 -5.950314179062843323e-02 -1.589737832546234131e-01 -2.145797200500965118e-02 -1.709665209054946899e-01 5.785513669252395630e-02 -6.827074289321899414e-02 5.409738793969154358e-02 -8.660460263490676880e-02 3.151878714561462402e-02 1.336930245161056519e-01 -2.694981172680854797e-02 -2.038124054670333862e-01 7.344394177198410034e-02 5.326002091169357300e-02 7.553344219923019409e-02 -5.256277322769165039e-02 5.451407656073570251e-02 5.852929130196571350e-02 4.602878913283348083e-02 6.562196463346481323e-02 -5.435238406062126160e-02 -1.072245836257934570e-02 -1.237373948097229004e-01 -2.250759303569793701e-02 -7.034904323518276215e-03 -3.770323842763900757e-02 -6.260487437248229980e-02 -2.207280993461608887e-01 9.412630461156368256e-03 6.785836815834045410e-02 -1.149487197399139404e-01 -8.147554844617843628e-02 -5.780680105090141296e-02 -9.932638704776763916e-02 1.070239692926406860e-01 -6.563448347151279449e-03 8.263900876045227051e-02 8.863925188779830933e-02 -5.081577971577644348e-02 -2.383761666715145111e-02 -1.240590736269950867e-01 -8.143701404333114624e-02 5.341144860722124577e-04 2.201339788734912872e-02 4.496661201119422913e-02 -1.895473897457122803e-01 -3.025898523628711700e-02 -5.898483470082283020e-02 1.467920988798141479e-01 -5.950133502483367920e-02 5.779817327857017517e-02 -6.498546153306961060e-02 1.223225705325603485e-02 1.036851201206445694e-02 -3.084198199212551117e-02 -8.346994407474994659e-03 -6.871236115694046021e-02 8.353329449892044067e-02 2.596380887553095818e-03 1.497312188148498535e-01 2.056909352540969849e-01 -1.352334171533584595e-01 -2.235562540590763092e-02 7.605144381523132324e-02 -2.280756831169128418e-01 6.025781482458114624e-02 1.907584816217422485e-01 -5.116419494152069092e-02 -4.045755788683891296e-02 -3.858416527509689331e-02 -3.797036362811923027e-03 -2.997919544577598572e-02 -1.382982544600963593e-02 7.705494016408920288e-02 2.178038470447063446e-02 4.401748999953269958e-02 9.864770807325839996e-03 1.220861449837684631e-01 2.240083925426006317e-02 2.402846701443195343e-02 -5.605671554803848267e-02 -6.525724381208419800e-02 1.351546347141265869e-01 -1.434491295367479324e-02 -4.603530094027519226e-02 -3.835168853402137756e-02 -3.531498834490776062e-02 5.850067827850580215e-03 1.671441085636615753e-02 5.721843335777521133e-03 9.601757675409317017e-02 -3.322132676839828491e-02 1.443719374947249889e-03 -5.630783364176750183e-02 -1.775501109659671783e-02 5.994452908635139465e-02 -7.099621742963790894e-02 -3.203310072422027588e-02 6.320913881063461304e-02 9.473142214119434357e-03 3.627160936594009399e-02 -2.525441646575927734e-01 -9.649878740310668945e-02 -1.100760251283645630e-01 7.948797196149826050e-02 -4.852198809385299683e-02 4.197481274604797363e-02 7.118386030197143555e-02 -2.176560275256633759e-02 6.195665895938873291e-02 5.205723643302917480e-02 -2.672532573342323303e-02 7.993903011083602905e-02 -8.363474160432815552e-02 -6.359252613037824631e-03 1.269163340330123901e-01 8.571190387010574341e-02 7.372169196605682373e-02 -8.821995556354522705e-02 -1.825505867600440979e-02 1.749874204397201538e-01 1.825550012290477753e-02 -9.802095592021942139e-03 1.483399886637926102e-02 7.465679198503494263e-02 -1.248155254870653152e-02 -2.501937560737133026e-03 4.330642148852348328e-02 5.352459847927093506e-02 -1.110766306519508362e-01 6.458609830588102341e-03 -3.459475934505462646e-02 -2.063675038516521454e-02 4.533441364765167236e-02 -7.104471791535615921e-03 -5.275678634643554688e-02 9.801947325468063354e-02 -5.198933184146881104e-02 -2.886901497840881348e-01 -3.207838162779808044e-02 1.187179833650588989e-01 -6.468678265810012817e-02 -1.578795607201755047e-03 -2.733552642166614532e-02 1.082758232951164246e-01 9.395044296979904175e-02 -9.340219199657440186e-03 7.132133841514587402e-02 1.644876599311828613e-01 -1.760688573122024536e-01 -1.566746830940246582e-01 -2.793245948851108551e-02 -5.468402430415153503e-02 6.205928511917591095e-03 1.703964471817016602e-01 -8.453563600778579712e-02 -3.532220050692558289e-02 5.929138045758008957e-03 9.534736722707748413e-02 -3.992497920989990234e-02 2.387385442852973938e-02 -5.914693698287010193e-03 -4.700256511569023132e-03 -9.188293479382991791e-03 -2.957788109779357910e-02 -7.380043715238571167e-02 1.533842980861663818e-01 1.697906702756881714e-01 4.253238439559936523e-02 3.098520264029502869e-02 -3.327682241797447205e-02 3.770919889211654663e-02 4.264191258698701859e-03 -7.585744559764862061e-02 -4.560191184282302856e-02 -2.510673701763153076e-01 4.004926979541778564e-02 -2.383676469326019287e-01 5.582628026604652405e-02 -8.884713053703308105e-02 -5.767202749848365784e-02 4.616120085120201111e-02 -1.540977880358695984e-02 9.172841161489486694e-02 9.957811236381530762e-02 -6.140205264091491699e-02 -2.193421125411987305e-02 5.943470075726509094e-02 -8.522646874189376831e-02 1.672234199941158295e-02 4.408515989780426025e-02 7.541217375546693802e-03 -6.459853053092956543e-02 -7.237342000007629395e-02 5.104916170239448547e-03 -8.358597010374069214e-02 -7.612963765859603882e-02 5.950936302542686462e-02 -5.832252651453018188e-02 1.387017518281936646e-01 2.581835724413394928e-02 -5.980711057782173157e-02 -1.650923043489456177e-01 6.634335964918136597e-02 -7.268354762345552444e-03 1.149520352482795715e-01 -3.756748884916305542e-02 -1.957276603206992149e-03 -1.654602438211441040e-01 -5.216415226459503174e-02 -4.390091821551322937e-02 -1.815997511148452759e-01 8.115666918456554413e-03 -4.795935750007629395e-02 -5.007448792457580566e-02 -3.248237073421478271e-02 -7.929901033639907837e-02 2.660464309155941010e-02 4.253237321972846985e-02 -7.750085741281509399e-02 3.280785679817199707e-02 -4.000980034470558167e-02 -1.761811785399913788e-02 1.176605187356472015e-02 -6.608896702527999878e-02 -7.552121579647064209e-02 -6.006205826997756958e-02 -2.698486298322677612e-02 3.245221078395843506e-02 -5.514898523688316345e-02 3.583581000566482544e-02 -3.340525552630424500e-02 -7.228693366050720215e-02 1.073913499712944031e-01 -4.519335180521011353e-02 4.348089173436164856e-02
3.366049528121948242e-01 -3.174050524830818176e-02 6.193779408931732178e-02 1.251761056482791901e-02 2.023873031139373779e-01 1.695091426372528076e-01 -2.940031588077545166e-01 -2.353551536798477173e-01 1.480078846216201782e-01 1.629070639610290527e-01 -1.203743647783994675e-02 -1.491181403398513794e-01 -6.203269585967063904e-02 -3.302923589944839478e-02 9.556870907545089722e-02 6.991993635892868042e-03 9.280706197023391724e-02 1.283043026924133301e-01 -1.182647538371384144e-04 5.475112795829772949e-02 8.834625477902591228e-04 1.187635352835059166e-04 2.830320969223976135e-02 3.852522466331720352e-03 -1.578731238842010498e-01 -1.125880405306816101e-01 -2.487202547490596771e-02 7.473670691251754761e-02 -1.873528063297271729e-01 -7.641909271478652954e-02 6.458277255296707153e-02 -2.367497421801090240e-02 1.963008427992463112e-03 3.163408115506172180e-02 -1.736622303724288940e-03 2.165114972740411758e-03 -7.345577701926231384e-03 4.040273427963256836e-01 1.309659332036972046e-01 2.000593543052673340e-01 -4.251098632812500000e-02 9.033386409282684326e-02 4.225502908229827881e-02 8.994332700967788696e-02 3.305948525667190552e-02 5.370073020458221436e-02 1.557936798781156540e-02 1.744927279651165009e-02 -1.208172440528869629e-01 -1.573603413999080658e-02 1.286601554602384567e-02 -1.191736683249473572e-01 8.267123252153396606e-03 -6.620714068412780762e-02 -7.998901605606079102e-02 -7.337696105241775513e-02 -1.014621555805206299e-01 -3.489650413393974304e-02 -3.022372163832187653e-02 5.306084081530570984e-02 2.566668950021266937e-02 -1.353145111352205276e-02 6.347081810235977173e-02 9.156636148691177368e-02 1.063369587063789368e-01 -6.981910020112991333e-02 -4.169771820306777954e-02 3.721664845943450928e-02 1.558734010905027390e-02 1.415972132235765457e-02 5.381716415286064148e-02 -3.933785855770111084e-02 -1.129910256713628769e-02 3.172271186485886574e-03 4.936842918395996094e-01 1.511859297752380371e-01 1.308788359165191650e-01 -4.480240494012832642e-02 1.776379160583019257e-02 -1.045807972550392151e-01 3.157590329647064209e-02 2.184717655181884766e-01 1.542521417140960693e-01 8.258920907974243164e-02 -5.198905989527702332e-02 1.499355025589466095e-02 -1.662795096635818481e-01 6.101336330175399780e-02 -1.383250113576650620e-02 -1.456610113382339478e-02 -4.806630313396453857e-02 3.387005254626274109e-02 4.887943342328071594e-02 -1.317436397075653076e-01 4.211374372243881226e-02 2.349160611629486084e-02 -1.129547785967588425e-02 -5.101595818996429443e-02 2.540759369730949402e-02 4.756482318043708801e-02 -6.726143509149551392e-02 -5.754315853118896484e-02 -2.262976169586181641e-01 -4.917382262647151947e-03 -4.092004895210266113e-02 4.174687201157212257e-04 -2.491126209497451782e-02 -1.204937510192394257e-02 -1.090249046683311462e-02 1.002149004489183426e-02 3.889896906912326813e-03 3.634277284145355225e-01 1.416281098499894142e-03 9.483431279659271240e-02 4.408594220876693726e-02 -1.145088002085685730e-01 5.816799402236938477e-02 -1.356165669858455658e-02 -6.097005307674407959e-02 8.627295494079589844e-02 -7.735328376293182373e-02 1.339386105537414551e-01 1.297535002231597900e-02 -6.120109930634498596e-02 -2.080212980508804321e-01 -1.111267358064651489e-01 9.495097212493419647e-03 4.278708621859550476e-02 -5.657332018017768860e-02 -3.786797076463699341e-02 1.614703088998794556e-01 1.938387751579284668e-02 -7.790142670273780823e-03 -1.127337217330932617e-01 -1.936902664601802826e-02 1.518866140395402908e-02 2.787999995052814484e-02 -3.420018358156085014e-03 5.550365522503852844e-02 4.902587737888097763e-03 2.129534929990768433e-01 -9.721644222736358643e-02 2.559235133230686188e-02 2.832810394465923309e-02 3.275818750262260437e-02 -6.125416606664657593e-02 8.912519551813602448e-03 1.893040165305137634e-02 3.826184868812561035e-01 1.401146054267883301e-01 2.183339595794677734e-01 7.026311010122299194e-02 -4.469505697488784790e-02 2.270255796611309052e-02 -5.406210198998451233e-02 -4.622671753168106079e-02 -4.488748311996459961e-02 5.880917981266975403e-02 7.659879513084888458e-03 -7.616720348596572876e-02 -1.101440563797950745e-01 5.524279549717903137e-02 -1.014655828475952148e-01 4.018098488450050354e-02 2.959582768380641937e-02 -3.367691114544868469e-02 -1.193935871124267578e-01 5.471049249172210693e-02 2.297095768153667450e-02 -3.507323935627937317e-02 -1.004692073911428452e-02 -2.339160814881324768e-02 -2.051185369491577148e-01 -2.478304877877235413e-02 -6.347962468862533569e-02 -3.736362978816032410e-02 -3.703248873353004456e-02 -1.413542330265045166e-01 2.589404955506324768e-02 -2.885971218347549438e-02 -9.187316522002220154e-03 -1.308789942413568497e-02 -3.182907402515411377e-02 3.513220697641372681e-03 2.197362110018730164e-02 4.700216930359601974e-03 7.812894880771636963e-02 5.208531022071838379e-02 -6.524776667356491089e-02 2.795853838324546814e-02 -7.858537882566452026e-02 -3.219752386212348938e-02 -1.495142728090286255e-01 -8.860711753368377686e-02 -1.356955170631408691e-01 -2.886283956468105316e-02 -4.903050512075424194e-02 -8.603282272815704346e-02 -1.367871649563312531e-02 1.105416864156723022e-01 1.520802080631256104e-02 -1.022639870643615723e-01 -3.959347680211067200e-02 1.402910146862268448e-02 -5.068155378103256226e-02 -1.009130999445915222e-01 -8.175613358616828918e-03 -1.115776151418685913e-01 -7.245510816574096680e-02 -1.283782161772251129e-02 3.681164979934692383e-02 -4.219948500394821167e-02 6.403489504009485245e-03 -3.885463345795869827e-03 -1.287023723125457764e-01 -2.102332934737205505e-02 5.761089920997619629e-02 4.493781924247741699e-02 5.099715292453765869e-02 -5.686519667506217957e-03 -7.539796084165573120e-02 1.503461040556430817e-02 1.504226867109537125e-02 -6.063485145568847656e-02 -1.941277459263801575e-02 1.962158083915710449e-02 -5.920731648802757263e-02 -8.968146145343780518e-02 1.246922388672828674e-01 8.254889398813247681e-02 2.598949894309043884e-02 -3.880149126052856445e-02 3.899360448122024536e-02 -7.227104902267456055e-02 -9.983573108911514282e-02 3.391114622354507446e-02 2.817247807979583740e-02
2.308086305856704712e-02 -5.893612653017044067e-02 -3.571139648556709290e-02 -8.221872150897979736e-03 1.124822050333023071e-01 1.399604231119155884e-02 2.173686027526855469e-02 -2.600520383566617966e-03 5.289909243583679199e-02 -2.207792922854423523e-02 -3.791929036378860474e-02 7.776062935590744019e-02 8.110652118921279907e-02 -2.047345191240310669e-01 5.335078388452529907e-02 3.139184787869453430e-02 4.853711277246475220e-02 -4.470327403396368027e-03 -8.517426252365112305e-02 -7.128874957561492920e-02 1.292978227138519287e-01 -7.234539836645126343e-03 4.990467801690101624e-03 -7.735746353864669800e-02 -1.655881293118000031e-02 1.310340128839015961e-02 -9.950082749128341675e-02 1.492569036781787872e-02 -2.802875339984893799e-01 -6.789897382259368896e-02 3.445981442928314209e-02 9.598551690578460693e-02 1.220689788460731506e-01 -3.778367862105369568e-02 4.453005641698837280e-02 -2.134521491825580597e-02 -1.664611510932445526e-02 1.123322695493698120e-01 -1.034297272562980652e-01 1.672767102718353271e-01 1.679324172437191010e-02 -9.880373254418373108e-04 -6.800010055303573608e-02 -7.828174158930778503e-03 -4.881374165415763855e-02 2.418626472353935242e-02 4.554636031389236450e-02 -7.199387997388839722e-02 6.508176773786544800e-02 1.305448114871978760e-01 1.815057359635829926e-02 -6.889840960502624512e-02 -1.706174015998840332e-02 -1.759918220341205597e-02 -1.055810898542404175e-01 -2.609332278370857239e-02 -4.861783981323242188e-02 -1.215223297476768494e-01 -1.633298024535179138e-02 -5.240882746875286102e-03 -6.332346796989440918e-02 -3.596702590584754944e-03 -4.609246179461479187e-02 -3.097592666745185852e-02 -1.139617264270782471e-01 -1.849335134029388428e-01 -6.178015470504760742e-02 -1.248586224392056465e-03 5.312940850853919983e-02 2.100706100463867188e-02 -1.754699833691120148e-02 9.788145124912261963e-02 -5.279412120580673218e-02 -1.414039824157953262e-02 -6.008728407323360443e-03 2.560529485344886780e-02 1.955134607851505280e-02 2.711680531501770020e-02 1.611260920763015747e-01 1.036199852824211121e-01 -8.104745298624038696e-02 -3.679902479052543640e-02 -4.119610786437988281e-02 -1.005437746644020081e-01 9.634634107351303101e-02 3.594576567411422729e-02 -1.169576942920684814e-01 -4.709738492965698242e-02 5.436954554170370102e-03 -4.403943568468093872e-02 -7.971901446580886841e-02 1.316939443349838257e-01 -1.434922814369201660e-01 9.038434922695159912e-02 7.402935624122619629e-02 4.626725241541862488e-02 2.112060785293579102e-02 5.168088525533676147e-02 -1.337847709655761719e-01 7.529622316360473633e-02 3.211114183068275452e-02 4.758513346314430237e-02 -3.150868415832519531e-01 -1.201470568776130676e-02 -1.002463102340698242e-01 -4.596989229321479797e-02 9.313109517097473145e-02 -2.356597408652305603e-02 -1.035817563533782959e-01 -1.494516711682081223e-02 3.342615067958831787e-02 1.111413985490798950e-01 -1.376343965530395508e-01 -2.150452733039855957e-01 -3.489950671792030334e-02 -2.131616510450839996e-02 -8.679345995187759399e-02 -5.058214813470840454e-02 -7.484350353479385376e-02 2.928909286856651306e-02 -4.376298189163208008e-02 2.039111778140068054e-02 7.714884728193283081e-02 -6.975920870900154114e-03 8.564721047878265381e-02 1.384006291627883911e-01 1.576658897101879120e-02 1.199528127908706665e-01 -3.822320140898227692e-04 3.853270784020423889e-02 3.994233906269073486e-02 5.528770014643669128e-02 -4.298139363527297974e-03 4.810824245214462280e-02 4.736561700701713562e-02 3.014319017529487610e-02 1.102558672428131104e-01 1.150016412138938904e-01 -9.332086145877838135e-02 -3.410378396511077881e-01 2.887853654101490974e-03 1.049315760610625148e-04 2.145837992429733276e-02 1.396319121122360229e-01 5.869998037815093994e-02 -5.485852807760238647e-02 1.172820478677749634e-01 1.167366001754999161e-02 4.450419917702674866e-02 7.766883820295333862e-03 2.539261244237422943e-02 5.049073696136474609e-02 -9.560114704072475433e-03 -5.621069669723510742e-02 -4.357703402638435364e-02 1.709800511598587036e-01 -3.514604270458221436e-02 5.757706612348556519e-02 -1.069703251123428345e-01 -1.230076849460601807e-01 -7.229227572679519653e-02 -1.386184245347976685e-01 2.799257263541221619e-02 8.489128202199935913e-03 -9.825427085161209106e-02 -1.826233230531215668e-02 -8.093959093093872070e-02 -1.951627060770988464e-02 -1.086254864931106567e-01 -7.740883156657218933e-03 -3.272120282053947449e-02 9.906617552042007446e-02 3.351619094610214233e-02 -1.438967138528823853e-01 -1.842320710420608521e-02 -1.739145070314407349e-01 -3.079563975334167480e-01 2.777624316513538361e-02 4.831642284989356995e-02 -1.491812244057655334e-02 1.101740170270204544e-02 1.668701134622097015e-02 -1.332737132906913757e-02 -9.691301733255386353e-03 2.732100430876016617e-03 -1.178245916962623596e-01 -2.216522209346294403e-02 3.130353987216949463e-02 -8.143420517444610596e-02 1.564475893974304199e-01 1.730883121490478516e-01 -8.856511116027832031e-02 -1.510059740394353867e-02 -6.107066571712493896e-02 -1.248533651232719421e-01 -6.882615387439727783e-02 -2.189183607697486877e-02 -3.288447484374046326e-02 3.509550169110298157e-02 -5.820337217301130295e-03 -4.642122983932495117e-02 -4.819007217884063721e-02 -1.757450401782989502e-02 4.024615138769149780e-02 1.385975442826747894e-02 1.382344812154769897e-01 -1.392758786678314209e-01 2.969189360737800598e-02 -1.642236113548278809e-02 -5.685565248131752014e-02 2.680368348956108093e-02 -6.254674494266510010e-02 -1.470692008733749390e-01 1.722637414932250977e-01 -4.917741194367408752e-02 -1.766405701637268066e-01 5.452303215861320496e-02 -1.679762899875640869e-01 -5.740266665816307068e-02 2.526114881038665771e-02 -5.118887498974800110e-02 3.452869132161140442e-02 8.432994037866592407e-02 -2.463607303798198700e-02 -2.902375347912311554e-02 8.227094076573848724e-05 -1.344769001007080078e-01 -1.700763851404190063e-01 1.890363544225692749e-02 -3.910501301288604736e-02 1.100094839930534363e-01 9.778773784637451172e-02 -7.119140587747097015e-03 9.412352740764617920e-02 4.735340364277362823e-03 5.460515990853309631e-02 -1.272483617067337036e-01
1.117393560707569122e-02 -1.895793974399566650e-01 7.690259814262390137e-02 4.533350467681884766e-03 6.380794197320938110e-02 -6.422866135835647583e-02 -5.888690799474716187e-02 7.722169160842895508e-02 2.244619466364383698e-02 -1.319497674703598022e-01 4.814848303794860840e-03 4.925622045993804932e-02 -1.696642637252807617e-01 -6.709162145853042603e-02 -9.825267642736434937e-02 2.500068396329879761e-02 7.413175422698259354e-03 -1.581142246723175049e-01 5.616113077849149704e-03 -7.374108582735061646e-02 -8.095007389783859253e-03 -1.574151404201984406e-02 -8.397520333528518677e-02 8.941204287111759186e-03 4.482107609510421753e-02 -4.011310636997222900e-03 -3.284828737378120422e-03 2.090882509946823120e-02 -1.830942630767822266e-01 -4.073316976428031921e-02 -1.568921469151973724e-02 2.484908094629645348e-03 2.361745014786720276e-02 -4.908080399036407471e-02 -4.289868101477622986e-02 8.108833804726600647e-03 -1.319635938853025436e-02 -3.213185118511319160e-03 4.168361425399780273e-02 -1.378034949302673340e-01 -6.723579764366149902e-02 -3.769136220216751099e-02 -1.780052334070205688e-01 -7.211500406265258789e-02 -6.844165921211242676e-02 -1.284088641405105591e-01 -8.106065541505813599e-02 -6.705419719219207764e-02 -2.024426013231277466e-01 -1.648975163698196411e-01 1.258511841297149658e-01 -2.347085438668727875e-02 2.735673682764172554e-03 1.956614479422569275e-02 8.000665158033370972e-02 -1.664898693561553955e-01 -1.249994803220033646e-02 3.115645423531532288e-02 1.855981908738613129e-02 -6.538718007504940033e-04 -6.594558805227279663e-02 -1.881077326834201813e-02 -9.418508410453796387e-02 -1.164749730378389359e-02 -1.002957671880722046e-01 -1.771757006645202637e-02 -1.649552397429943085e-02 -7.240306586027145386e-02 -4.512870311737060547e-02 -4.261081293225288391e-02 -7.469529658555984497e-02 9.593785740435123444e-03 -3.708281368017196655e-02 -2.604592777788639069e-02 1.301051974296569824e-01 4.242118820548057556e-02 5.594123154878616333e-02 1.062786653637886047e-01 -9.259250015020370483e-02 6.071867793798446655e-02 -4.905249457806348801e-03 2.183132246136665344e-02 -8.499423414468765259e-02 1.219897996634244919e-02 1.354936659336090088e-01 -1.703923642635345459e-01 -5.309544876217842102e-02 2.863470837473869324e-02 7.816434651613235474e-02 -5.931940674781799316e-02 8.822630159556865692e-03 -1.296307612210512161e-02 1.219491586089134216e-01 1.765681505203247070e-01 1.289223786443471909e-02 2.164141274988651276e-02 7.774059195071458817e-03 -7.669194042682647705e-02 -6.078579649329185486e-02 -7.771319895982742310e-02 1.273253373801708221e-02 -4.620212689042091370e-02 -1.212961897253990173e-01 1.424340307712554932e-01 -6.523904949426651001e-02 -2.030348591506481171e-02 -1.579087600111961365e-02 7.982195354998111725e-03 -8.223857730627059937e-02 1.991000585258007050e-02 1.342210546135902405e-02 -1.420732736587524414e-01 4.837832413613796234e-03 -1.020556092262268066e-01 -5.910276621580123901e-02 -9.590939432382583618e-02 -4.830344393849372864e-02 1.200095042586326599e-01 5.181911867111921310e-03 -1.536345928907394409e-01 1.479366328567266464e-02 9.718830883502960205e-02 -6.399269402027130127e-02 -4.589758440852165222e-02 -8.463358134031295776e-02 -1.341357640922069550e-02 4.252652451395988464e-02 1.139386836439371109e-02 3.957287222146987915e-02 -8.068896830081939697e-02 -7.991500198841094971e-02 -2.387011796236038208e-02 -1.603521965444087982e-02 2.318124286830425262e-03 -3.197411820292472839e-02 1.007238519378006458e-03 1.263220757246017456e-01 2.518319524824619293e-02 5.598237738013267517e-02 -4.429788514971733093e-02 2.073942869901657104e-01 1.363884098827838898e-02 6.132780387997627258e-02 1.903128437697887421e-02 -2.007742039859294891e-02 3.429348394274711609e-02 -1.733624376356601715e-02 9.484056383371353149e-03 -1.206816285848617554e-01 -1.955452114343643188e-01 1.337097398936748505e-02 -1.682296954095363617e-02 4.891740530729293823e-02 6.327791512012481689e-02 -8.018275722861289978e-03 -1.103087700903415680e-02 -4.641069564968347549e-03 9.924808144569396973e-02 -2.929240278899669647e-02 -2.806130647659301758e-01 -1.112309470772743225e-01 6.214014813303947449e-02 -2.482945099472999573e-03 7.848632521927356720e-03 6.443203426897525787e-03 7.383977621793746948e-02 6.795636564493179321e-02 -6.217729672789573669e-02 7.832789793610572815e-03 2.064438536763191223e-03 -1.071028411388397217e-02 -1.462368369102478027e-01 -3.182636573910713196e-02 7.479466963559389114e-03 -2.078076638281345367e-02 2.727199718356132507e-02 -2.496205968782305717e-03 3.655337691307067871e-01 9.989257901906967163e-02 -1.006078533828258514e-02 5.467906594276428223e-02 1.687099784612655640e-02 1.739046908915042877e-02 -1.425495743751525879e-02 -2.406643331050872803e-02 1.065566539764404297e-01 4.926188383251428604e-03 -4.121761023998260498e-02 -2.978466078639030457e-02 -1.202050969004631042e-01 -1.517341751605272293e-02 -6.727220118045806885e-02 8.112464100122451782e-02 -7.994539104402065277e-03 1.301805675029754639e-02 1.388730574399232864e-02 1.644938141107559204e-01 -1.679698377847671509e-01 2.083535641431808472e-01 2.860247157514095306e-02 9.569201618432998657e-02 -1.312681287527084351e-01 5.114408582448959351e-02 1.940070278942584991e-02 7.653582841157913208e-02 2.014029771089553833e-03 1.940369233489036560e-02 -8.324661105871200562e-02 -2.463819831609725952e-02 4.671604931354522705e-02 6.784565001726150513e-02 -1.681507825851440430e-01 -3.653903305530548096e-02 -3.699050098657608032e-02 -1.091318503022193909e-01 4.347281530499458313e-02 4.246645793318748474e-02 -4.487697780132293701e-02 2.281077392399311066e-02 -3.980243206024169922e-02 4.140735045075416565e-02 4.865194484591484070e-02 1.212398484349250793e-01 1.250310707837343216e-02 -1.301816385239362717e-02 9.652880579233169556e-02 -4.718557000160217285e-02 -3.363150730729103088e-02 7.698508352041244507e-02 -2.870476059615612030e-02 -3.301283717155456543e-02 -6.960292905569076538e-02 -1.069723516702651978e-01 -1.555712968111038208e-01 -5.021142587065696716e-02 -4.968025907874107361e-02 1.583241485059261322e-02
3.854588419198989868e-02 -1.147648841142654419e-01 -6.590588390827178955e-02 -3.216683864593505859e-02 -6.641992181539535522e-02 -1.290124058723449707e-01 -4.063422977924346924e-02 -6.087896227836608887e-02 1.149081718176603317e-02 -4.491766169667243958e-02 -6.085094530135393143e-03 -1.328302174806594849e-01 -1.855138391256332397e-01 -1.937915198504924774e-02 1.924885958433151245e-01 -1.938668079674243927e-02 3.282907977700233459e-02 6.447333842515945435e-02 2.581375837326049805e-02 5.163679271936416626e-02 -7.745892740786075592e-03 -2.677979692816734314e-02 -5.054453015327453613e-02 -1.424410101026296616e-02 1.156492680311203003e-01 -2.027439512312412262e-02 -1.029877457767724991e-02 -6.449937820434570312e-02 -1.300966739654541016e-01 2.057101018726825714e-02 1.032986268401145935e-01 -5.844819918274879456e-02 -3.159610927104949951e-02 2.510239556431770325e-02 -1.665976271033287048e-02 -3.167647868394851685e-02 4.509930685162544250e-02 1.049759909510612488e-01 8.139873296022415161e-02 2.806547842919826508e-02 -6.564000993967056274e-02 3.996079787611961365e-03 -7.626383751630783081e-02 1.153967436403036118e-02 -7.891248911619186401e-02 -4.446217045187950134e-02 6.165462080389261246e-03 -7.855463027954101562e-02 6.854677945375442505e-02 9.354680776596069336e-02 8.620200306177139282e-02 -9.555044770240783691e-02 9.060417301952838898e-03 9.178116917610168457e-02 9.929108619689941406e-02 6.503558158874511719e-02 -8.620717562735080719e-03 -7.385786622762680054e-02 2.401983551681041718e-02 -1.554719824343919754e-02 -1.549841165542602539e-01 -4.147500917315483093e-02 9.557063877582550049e-02 4.016145691275596619e-02 -1.150492299348115921e-02 -2.103034555912017822e-01 5.708163604140281677e-02 -3.647606074810028076e-02 -4.511946439743041992e-02 1.543587655760347843e-03 -1.397384405136108398e-01 8.200110495090484619e-02 8.930895477533340454e-02 -7.993143051862716675e-03 8.739392459392547607e-02 8.125745505094528198e-02 -3.492255136370658875e-02 -5.732712894678115845e-02 9.607623517513275146e-02 -1.751556545495986938e-01 -5.926508456468582153e-02 -3.986893966794013977e-02 -1.844311654567718506e-01 1.054829731583595276e-02 8.331280201673507690e-02 3.446591645479202271e-02 9.929519891738891602e-02 4.442457854747772217e-02 7.201109826564788818e-02 5.939935147762298584e-02 1.407282520085573196e-02 1.190902851521968842e-02 2.420973405241966248e-02 3.013583645224571228e-02 8.970307558774948120e-02 -7.933524250984191895e-02 6.903269886970520020e-02 7.587669044733047485e-02 -2.327064424753189087e-01 -6.632973253726959229e-02 -3.428849205374717712e-02 -4.347076267004013062e-02 -3.431455194950103760e-01 -4.215104971081018448e-03 8.893496543169021606e-02 7.369145005941390991e-02 -7.641301956027746201e-03 2.142014913260936737e-03 -4.720782488584518433e-02 2.848890237510204315e-02 -5.230874940752983093e-02 1.065157204866409302e-01 -9.203882515430450439e-02 5.319932103157043457e-02 -7.243745774030685425e-02 8.531080186367034912e-02 6.046220287680625916e-02 -3.649531304836273193e-02 -2.376013621687889099e-02 1.526209060102701187e-02 -1.765356026589870453e-02 -2.401734329760074615e-02 -1.190422698855400085e-01 -1.062598526477813721e-01 3.223934024572372437e-02 8.512450754642486572e-02 -3.098254278302192688e-02 3.928919509053230286e-02 -7.226909697055816650e-02 1.212546452879905701e-01 1.057446934282779694e-02 -8.380112797021865845e-02 5.834643170237541199e-02 -3.964905813336372375e-02 -7.178539037704467773e-02 -8.369895070791244507e-02 7.079591602087020874e-02 -1.466567255556583405e-02 -8.777995407581329346e-02 -2.890909612178802490e-01 -3.965922445058822632e-02 -5.947855487465858459e-02 -4.362959414720535278e-03 1.992202736437320709e-02 -8.499190956354141235e-02 9.762829542160034180e-02 -5.659907311201095581e-02 2.847448736429214478e-02 1.151057183742523193e-01 8.631507866084575653e-03 -1.179201714694499969e-02 2.024557627737522125e-02 8.264493942260742188e-02 -9.547158144414424896e-03 1.995925605297088623e-02 -7.728038728237152100e-02 2.106423862278461456e-02 1.008920893073081970e-01 8.459216915071010590e-03 -7.060597091913223267e-02 -1.207888498902320862e-01 -1.410430520772933960e-01 -4.804081469774246216e-02 -6.024708505719900131e-03 -2.061976306140422821e-02 1.641383022069931030e-01 1.999253034591674805e-01 6.588364392518997192e-02 -1.084615476429462433e-02 -5.419808905571699142e-03 6.177591159939765930e-02 -6.348443217575550079e-03 9.770952165126800537e-02 -3.784903883934020996e-02 3.662510961294174194e-02 -2.042425982654094696e-02 -1.517590135335922241e-01 -1.683140993118286133e-01 9.259021840989589691e-03 5.068440362811088562e-02 4.351540282368659973e-02 4.684918001294136047e-02 -4.253783822059631348e-02 3.978157788515090942e-02 -8.379760384559631348e-02 5.144775658845901489e-02 -3.507048264145851135e-02 -7.555972784757614136e-02 -7.510570436716079712e-02 -6.127345189452171326e-02 4.850032925605773926e-02 5.032917950302362442e-03 -1.290275454521179199e-01 3.647998720407485962e-02 -2.315304614603519440e-02 -6.770673207938671112e-03 6.946433335542678833e-02 3.872930631041526794e-02 -8.760933578014373779e-02 1.471160054206848145e-01 -5.021646991372108459e-02 -6.731210649013519287e-02 -1.697452738881111145e-02 4.606850910931825638e-03 7.507088035345077515e-02 5.588752683252096176e-03 -9.469320625066757202e-02 -1.247659102082252502e-01 2.762759104371070862e-02 -5.630659684538841248e-02 6.551187485456466675e-02 6.143478304147720337e-02 4.561154916882514954e-02 -3.440823405981063843e-02 8.814913779497146606e-02 3.023142926394939423e-02 -2.348989397287368774e-01 -6.659860908985137939e-02 -1.971802487969398499e-02 9.602388367056846619e-03 4.026713222265243530e-02 5.597977340221405029e-02 -5.708155408501625061e-02 -8.927404135465621948e-02 -6.412744522094726562e-02 1.411589700728654861e-02 -7.359198480844497681e-02 1.844082580646499991e-04 5.933007597923278809e-02 -7.490438967943191528e-02 1.451931428164243698e-02 7.746655028313398361e-03 9.481701254844665527e-02 7.410595566034317017e-02 2.734678052365779877e-02 7.566244155168533325e-02 -7.340857386589050293e-02
5.447735637426376343e-02 -2.426845133304595947e-01 1.425855010747909546e-01 -6.008169427514076233e-02 -1.936392486095428467e-01 -2.710026502609252930e-02 -7.309243548661470413e-03 4.182416945695877075e-03 -2.836928516626358032e-02 -4.939181730151176453e-02 6.820484995841979980e-02 2.236861269921064377e-03 -1.180184185504913330e-01 1.150404214859008789e-01 -2.552660554647445679e-02 4.038674756884574890e-03 -3.689851984381675720e-02 1.059729605913162231e-02 -9.639199823141098022e-02 5.527195520699024200e-03 -3.768659010529518127e-02 -1.116176880896091461e-02 2.196382731199264526e-02 9.281053394079208374e-02 -5.445956066250801086e-02 -8.162531256675720215e-02 -8.694509975612163544e-03 3.215627074241638184e-01 -5.348367989063262939e-02 4.632136598229408264e-02 -8.963096141815185547e-02 8.561005443334579468e-02 -1.129517629742622375e-01 -1.036969199776649475e-01 -2.881116978824138641e-02 4.409047588706016541e-02 -3.811309859156608582e-02 2.453909218311309814e-01 -6.640630960464477539e-02 5.497958138585090637e-02 -3.966725617647171021e-02 -4.863426461815834045e-02 1.520709842443466187e-01 -7.011824846267700195e-02 -4.882801696658134460e-02 1.134429499506950378e-01 -2.525122836232185364e-02 1.781121343374252319e-01 1.346911638975143433e-01 -3.871240094304084778e-02 -1.444945186376571655e-01 -2.652315422892570496e-02 3.828574717044830322e-02 -7.497963309288024902e-02 -3.246115893125534058e-02 3.607116639614105225e-02 5.439581349492073059e-02 6.627757847309112549e-02 -5.573010072112083435e-02 5.320875719189643860e-02 1.810547895729541779e-02 -1.448221355676651001e-01 -1.410785317420959473e-01 -2.302339486777782440e-02 2.109908014535903931e-01 3.576890751719474792e-02 1.435025185346603394e-01 -8.909048885107040405e-02 1.087416708469390869e-01 5.110239982604980469e-02 -6.152091175317764282e-02 -9.580479003489017487e-03 3.143963590264320374e-02 2.064729481935501099e-02 -4.362126346677541733e-03 7.749313861131668091e-02 8.977324515581130981e-02 -2.129441127181053162e-02 -1.130821481347084045e-01 1.020621284842491150e-01 5.950913950800895691e-02 -4.038425534963607788e-02 6.195195391774177551e-02 9.796964377164840698e-02 3.521009087562561035e-01 -2.677581645548343658e-02 -6.001422181725502014e-02 -5.076237767934799194e-02 -7.067009061574935913e-02 -2.317606844007968903e-02 -3.792246058583259583e-02 -2.797148935496807098e-02 -7.683683186769485474e-02 -1.207312662154436111e-02 -9.725824743509292603e-02 -7.059206720441579819e-03 3.165537491440773010e-02 -2.480273693799972534e-02 6.205628439784049988e-02 1.171820610761642456e-02 1.538317557424306870e-02 1.640674024820327759e-01 -3.434693068265914917e-02 -7.275158166885375977e-02 -5.280117690563201904e-02 -4.414272308349609375e-02 -3.179388865828514099e-02 -2.987328171730041504e-02 -6.623805314302444458e-02 -6.894202530384063721e-02 9.659315645694732666e-02 1.702635884284973145e-01 -4.784986004233360291e-02 2.929604053497314453e-02 3.206865116953849792e-02 1.153456866741180420e-01 -2.011310160160064697e-01 2.008662074804306030e-01 -3.005880303680896759e-02 5.718074738979339600e-02 -8.836855739355087280e-02 4.503512755036354065e-02 -4.902388900518417358e-02 -4.845540598034858704e-02 2.016256749629974365e-02 4.444729536771774292e-02 -5.158953368663787842e-02 4.302898421883583069e-02 2.148611703887581825e-03 2.246626615524291992e-01 -4.969846084713935852e-02 5.923020094633102417e-02 3.165726736187934875e-02 -2.270579151809215546e-02 7.010640949010848999e-02 -8.867768943309783936e-02 4.926806315779685974e-03 -7.882796227931976318e-02 1.336743123829364777e-02 -1.443888247013092041e-01 4.252259433269500732e-02 1.818201541900634766e-01 -4.735815152525901794e-02 3.723121061921119690e-02 5.609404295682907104e-02 2.927952737081795931e-04 3.894150955602526665e-03 -3.144060447812080383e-02 9.393110126256942749e-02 -4.053334146738052368e-02 -6.934937089681625366e-02 6.220817565917968750e-03 -1.684952341020107269e-02 2.602668851613998413e-02 1.263616681098937988e-01 -6.158688664436340332e-02 1.103835180401802063e-01 -1.186936348676681519e-01 1.603888124227523804e-01 -4.707733169198036194e-02 -8.745365776121616364e-04 8.109251409769058228e-02 6.412796676158905029e-02 6.149568781256675720e-02 9.318917989730834961e-03 -6.987781822681427002e-02 7.462272187694907188e-04 -6.700300611555576324e-03 -2.866275608539581299e-02 -8.623342728242278099e-04 2.553083933889865875e-02 -9.048780053853988647e-02 1.466699838638305664e-01 1.015510410070419312e-01 1.539490967988967896e-01 1.275427490472793579e-01 -4.690458998084068298e-02 -1.300621628761291504e-01 4.063313454389572144e-02 7.720405608415603638e-02 2.065594494342803955e-02 -4.053088487125933170e-04 -1.323853135108947754e-01 1.000765189528465271e-01 -2.839533239603042603e-02 -1.472919806838035583e-02 5.953202769160270691e-02 6.535812467336654663e-02 -7.693794090300798416e-03 5.375592969357967377e-03 3.148483112454414368e-02 -2.323247026652097702e-03 -6.713288277387619019e-02 9.050603955984115601e-02 -1.831830143928527832e-01 -3.295658156275749207e-02 -1.299928408116102219e-02 -1.085563302040100098e-01 3.160574287176132202e-02 1.312460601329803467e-01 -2.934289909899234772e-02 1.934793218970298767e-02 -2.414860762655735016e-02 -2.223029918968677521e-02 -1.439902037382125854e-01 -1.435238271951675415e-01 1.378537416458129883e-01 -1.290574520826339722e-01 1.401402871124446392e-03 4.940045624971389771e-02 1.031468957662582397e-01 -4.229845106601715088e-02 2.513136714696884155e-02 -3.558017686009407043e-02 -3.526597842574119568e-02 -6.041967123746871948e-02 -3.995902091264724731e-02 -1.810372024774551392e-01 3.354765102267265320e-02 4.630300402641296387e-02 1.525370869785547256e-02 -6.496880948543548584e-02 -6.795502454042434692e-02 6.096725538372993469e-02 -1.310790628194808960e-01 -3.297961503267288208e-02 -1.220757886767387390e-02 -6.777036935091018677e-02 5.561003088951110840e-02 3.276347741484642029e-02 -1.548651754856109619e-01 -7.589535415172576904e-02 6.351245194673538208e-02 -1.095841825008392334e-01 -4.246024414896965027e-03 -4.238628223538398743e-02 -1.624242216348648071e-01
6.589410454034805298e-02 9.582265466451644897e-02 1.349810604006052017e-02 -3.177692741155624390e-02 -6.181679666042327881e-02 1.032206341624259949e-01 9.218736551702022552e-03 -1.020744070410728455e-02 1.621610969305038452e-01 1.317005455493927002e-01 -4.741421714425086975e-02 1.409616917371749878e-01 -6.505353003740310669e-02 -1.686463356018066406e-01 -6.393789499998092651e-02 4.841823875904083252e-02 -5.351309478282928467e-02 2.342096529901027679e-02 -9.706383198499679565e-02 -6.300176610238850117e-04 5.108830332756042480e-02 -1.978630945086479187e-02 -9.175819158554077148e-02 -2.288755215704441071e-02 -6.624111533164978027e-02 1.633109003305435181e-01 -5.218327417969703674e-02 -7.735427469015121460e-02 -9.807989001274108887e-02 5.026843026280403137e-02 -5.371404346078634262e-03 -2.253385260701179504e-03 -1.962573975324630737e-01 3.311824519187211990e-03 -2.548810653388500214e-02 -5.393575504422187805e-02 7.770802825689315796e-02 -6.737534701824188232e-02 3.768484666943550110e-02 1.034186314791440964e-02 -6.343761086463928223e-02 5.401909351348876953e-02 -1.021977812051773071e-01 -4.764711484313011169e-02 -8.311445266008377075e-02 -4.666305333375930786e-02 7.426509261131286621e-02 1.532813906669616699e-01 1.076537445187568665e-01 -1.185132414102554321e-01 -8.033306896686553955e-02 4.449361190199851990e-02 -7.446870952844619751e-02 7.246018387377262115e-03 -2.242166921496391296e-02 1.704332679510116577e-01 2.149903029203414917e-02 -3.399343695491552353e-04 -1.403915882110595703e-02 4.331419616937637329e-02 -2.570701949298381805e-02 -7.319436967372894287e-02 -3.853186592459678650e-02 7.639511488378047943e-03 7.250805944204330444e-02 -1.809193640947341919e-01 9.127741307020187378e-02 9.174248576164245605e-02 -1.033348441123962402e-01 2.174560166895389557e-02 -1.977461762726306915e-02 1.309801731258630753e-02 1.433193031698465347e-02 -4.647646844387054443e-02 1.996895521879196167e-01 7.203511893749237061e-02 -5.552669242024421692e-02 3.071135841310024261e-02 -6.090888753533363342e-02 -2.729088813066482544e-02 4.034685343503952026e-02 -1.223535239696502686e-01 -8.092778921127319336e-02 5.976876989006996155e-02 1.167458593845367432e-01 -7.463367283344268799e-02 -1.200391501188278198e-01 1.894853562116622925e-01 1.814892143011093140e-01 -2.305054850876331329e-02 -1.319541484117507935e-01 -5.600474402308464050e-02 4.077079892158508301e-02 -9.600936900824308395e-04 -7.537049055099487305e-02 -2.189078927040100098e-02 -5.963800940662622452e-03 3.613867238163948059e-02 1.827075704932212830e-02 1.568174734711647034e-02 9.127724915742874146e-02 -2.165743559598922729e-01 -2.055061608552932739e-01 2.170056290924549103e-02 -1.309184730052947998e-01 -5.075914412736892700e-02 1.193711832165718079e-01 -5.554119497537612915e-02 -7.039755582809448242e-02 -5.101835355162620544e-02 -6.751629710197448730e-02 1.155320182442665100e-02 -1.375526934862136841e-02 -7.775827497243881226e-02 -1.076722145080566406e-01 -8.464066684246063232e-02 -1.673000864684581757e-02 -2.621017768979072571e-02 2.436891943216323853e-02 3.700401633977890015e-02 3.232453018426895142e-02 1.092743650078773499e-01 9.467310272157192230e-03 -3.812393918633460999e-02 3.062382899224758148e-02 3.080952167510986328e-02 1.264103800058364868e-01 5.725745577365159988e-03 -7.727049291133880615e-02 3.468557819724082947e-02 1.043609753251075745e-01 5.145346373319625854e-02 1.840917021036148071e-02 -1.798867434263229370e-02 -9.764511138200759888e-02 -6.979703903198242188e-02 -7.057902961969375610e-02 -5.219326540827751160e-02 7.834963500499725342e-02 -2.842876613140106201e-01 3.728798404335975647e-02 1.010060831904411316e-01 8.057434856891632080e-02 -1.459790617227554321e-01 -2.347807027399539948e-02 -3.667692095041275024e-02 5.493221059441566467e-02 -8.811907470226287842e-02 1.201700195670127869e-01 1.104074195027351379e-01 2.218562737107276917e-02 -2.595177479088306427e-02 -9.439753741025924683e-02 3.355580614879727364e-03 -4.460666328668594360e-02 -4.861360415816307068e-03 -2.905106171965599060e-02 4.897783976048231125e-03 1.371113210916519165e-01 8.708167076110839844e-02 2.959432825446128845e-02 -4.075984284281730652e-02 7.304351031780242920e-02 -1.142608746886253357e-01 1.704701930284500122e-01 7.868558168411254883e-02 -5.456712841987609863e-02 -8.825010061264038086e-02 -8.438246324658393860e-03 3.183064982295036316e-03 -1.731101237237453461e-02 6.159815192222595215e-02 5.340706184506416321e-02 1.402901299297809601e-02 -6.666915118694305420e-02 -7.418733835220336914e-02 -2.407767474651336670e-01 -1.169723197817802429e-01 -1.572148799896240234e-01 5.585258454084396362e-02 4.486238583922386169e-02 -2.418855205178260803e-02 8.666227757930755615e-02 4.181652143597602844e-02 1.473039686679840088e-01 2.238397896289825439e-01 -8.790083229541778564e-02 7.887949794530868530e-02 6.199546530842781067e-02 -3.110408550128340721e-03 -7.347489893436431885e-02 5.913802608847618103e-02 -3.315799310803413391e-02 -2.847785688936710358e-02 6.894087046384811401e-02 1.803794354200363159e-01 -2.834033593535423279e-02 3.449839726090431213e-02 -8.071617223322391510e-03 -1.031358316540718079e-01 7.192230224609375000e-02 4.241445567458868027e-03 4.068229347467422485e-02 1.503958702087402344e-01 -6.609388440847396851e-02 -3.683760389685630798e-02 1.309576332569122314e-01 -1.506468504667282104e-01 1.220346614718437195e-01 4.343600198626518250e-02 3.388405218720436096e-02 2.283183112740516663e-02 8.568978309631347656e-02 -3.601390868425369263e-02 -6.530568748712539673e-02 7.378228008747100830e-02 -5.129173398017883301e-02 -1.096144095063209534e-01 -1.007985547184944153e-01 2.427316270768642426e-02 9.577614814043045044e-02 1.298787593841552734e-01 7.113674189895391464e-03 4.288044571876525879e-02 6.816410273313522339e-02 -9.419024735689163208e-02 -1.104596629738807678e-01 1.871883682906627655e-02 -1.416634917259216309e-01 6.062704324722290039e-02 3.615291789174079895e-02 -5.702229589223861694e-02 4.559636116027832031e-03 6.156100891530513763e-03 -5.607292428612709045e-02 2.826906042173504829e-03 -1.126608625054359436e-01
5.392738059163093567e-02 6.359744817018508911e-02 5.024136975407600403e-02 6.541660428047180176e-02 6.380817294120788574e-02 -2.567150443792343140e-02 -1.327102165669202805e-02 7.794458419084548950e-02 6.451813131570816040e-02 1.257090866565704346e-01 -2.476004064083099365e-01 6.647314876317977905e-02 -6.181001290678977966e-02 7.907165586948394775e-02 -2.260402590036392212e-02 -6.388714164495468140e-02 -4.876185581088066101e-02 -1.087187696248292923e-02 -7.458914816379547119e-02 -1.235666424036026001e-01 -3.817807137966156006e-02 -7.932785665616393089e-04 7.459329068660736084e-02 2.944115735590457916e-02 -1.239670887589454651e-01 -7.823416031897068024e-03 -4.993212595582008362e-02 9.990054368972778320e-02 1.465319246053695679e-01 1.183784082531929016e-01 -2.406908199191093445e-02 -1.325905974954366684e-02 4.761224240064620972e-02 -4.709203168749809265e-02 -4.784630239009857178e-02 3.347400948405265808e-02 2.974768169224262238e-02 -6.223037838935852051e-02 1.834041178226470947e-01 -5.715755280107259750e-03 1.939666867256164551e-01 7.684036344289779663e-02 1.271913200616836548e-01 -3.643836081027984619e-02 -1.478690952062606812e-01 -7.997620105743408203e-02 -3.457831963896751404e-02 -8.696486055850982666e-02 1.050025895237922668e-01 2.570551261305809021e-02 -3.003146126866340637e-02 1.286841630935668945e-01 6.621072441339492798e-02 -5.634847283363342285e-02 -8.288224041461944580e-02 6.863965094089508057e-02 7.335482537746429443e-02 4.989521950483322144e-02 3.116681426763534546e-02 1.485752910375595093e-01 6.411475688219070435e-02 -4.000087827444076538e-02 -5.941516160964965820e-02 5.369170755147933960e-02 5.946541950106620789e-02 1.733715981245040894e-01 -1.047189440578222275e-02 4.436430335044860840e-02 -2.767822146415710449e-02 3.762558475136756897e-02 -2.256781049072742462e-02 -5.461923778057098389e-02 5.336821451783180237e-02 1.089148689061403275e-02 5.852613970637321472e-02 2.070696353912353516e-01 1.162003427743911743e-01 -1.097277253866195679e-01 -1.096938326954841614e-01 3.799161175265908241e-03 -1.557918339967727661e-01 -7.821723073720932007e-02 1.455975919961929321e-01 5.777176097035408020e-02 -3.585645928978919983e-02 1.418914645910263062e-01 -2.303236350417137146e-02 -1.075237151235342026e-02 1.751851476728916168e-02 -8.882402442395687103e-03 7.226624339818954468e-02 2.208413556218147278e-02 -2.009771764278411865e-02 5.922627076506614685e-02 -3.340506181120872498e-02 -4.359268397092819214e-02 -9.311145544052124023e-02 -3.478992357850074768e-02 3.842963650822639465e-02 -3.534600138664245605e-02 -8.057048916816711426e-02 1.234092861413955688e-01 8.257328718900680542e-02 4.321951419115066528e-02 7.813648134469985962e-02 4.139390215277671814e-02 -9.897677600383758545e-02 7.859624922275543213e-03 -3.539032116532325745e-02 -5.180438980460166931e-03 6.060793250799179077e-02 -1.893717423081398010e-02 3.030835837125778198e-02 -7.493264228105545044e-02 1.697357892990112305e-01 -1.970075443387031555e-02 7.738832384347915649e-02 2.105088233947753906e-01 1.759127378463745117e-01 -2.020825864747166634e-03 2.943556755781173706e-02 -1.685467958450317383e-01 -4.799846559762954712e-02 -3.219201462343335152e-03 -9.397100657224655151e-02 6.251377612352371216e-02 -8.284438517875969410e-04 3.067728877067565918e-02 2.090049237012863159e-01 -1.895446144044399261e-02 -3.090714849531650543e-02 1.822477206587791443e-02 7.256940472871065140e-03 -1.383630838245153427e-02 4.511124268174171448e-02 -6.414106488227844238e-02 9.096562862396240234e-02 1.514797098934650421e-02 -6.705005466938018799e-02 2.372895777225494385e-01 -1.008940488100051880e-02 -3.943563252687454224e-02 3.816468641161918640e-02 -7.194623351097106934e-02 -6.206053495407104492e-02 -1.162358373403549194e-02 6.861602514982223511e-02 -8.206432685256004333e-03 -6.786592304706573486e-02 -8.968878537416458130e-03 -3.211678005754947662e-03 4.992173239588737488e-02 6.011049076914787292e-02 -6.898880004882812500e-02 -6.911639869213104248e-02 5.199732724577188492e-03 -1.386725604534149170e-01 7.292898744344711304e-02 1.796984672546386719e-02 1.399875879287719727e-01 -3.020578250288963318e-02 3.075409308075904846e-02 9.302251040935516357e-02 -1.738795265555381775e-02 2.417299151420593262e-02 2.327499985694885254e-01 6.827729195356369019e-02 2.040452808141708374e-01 -4.023399949073791504e-02 -8.857057429850101471e-03 -1.644034236669540405e-01 -2.186422236263751984e-02 -9.238421916961669922e-02 3.928858786821365356e-02 5.208761245012283325e-02 3.780187398660928011e-04 -3.421209985390305519e-03 5.315490439534187317e-02 -5.006822198629379272e-02 5.915691331028938293e-02 -3.618317842483520508e-02 -5.993522331118583679e-02 5.182896554470062256e-02 -3.789179772138595581e-02 3.889730945229530334e-02 -2.053971290588378906e-01 -4.046585783362388611e-02 -9.339200705289840698e-02 7.885769009590148926e-02 6.220583617687225342e-02 8.915153890848159790e-02 -5.486686900258064270e-02 -2.345314994454383850e-02 -3.405095636844635010e-02 -6.454139947891235352e-02 -7.748233526945114136e-02 -8.053112030029296875e-02 3.052940778434276581e-02 7.470609270967543125e-04 -9.008551388978958130e-02 -4.763976112008094788e-02 -1.611855626106262207e-01 7.889289408922195435e-02 1.417701840400695801e-01 5.825829878449440002e-02 9.180069714784622192e-02 -4.821839183568954468e-02 -1.067899465560913086e-01 -2.085662074387073517e-02 -9.680493734776973724e-03 -5.545077845454216003e-02 -7.775723934173583984e-02 -2.878712490200996399e-02 4.089636728167533875e-02 -2.250271849334239960e-02 5.025990679860115051e-02 -9.499355405569076538e-02 -9.310872294008731842e-03 1.303158551454544067e-01 3.498053550720214844e-02 4.033264517784118652e-02 -8.504363149404525757e-02 3.466719062998890877e-03 9.164766967296600342e-02 -6.550603546202182770e-03 -2.435139939188957214e-02 2.926812693476676941e-02 -5.621760338544845581e-02 -1.011880114674568176e-01 -1.910278014838695526e-02 7.524064928293228149e-02 1.312518585473299026e-02 7.832732051610946655e-02 8.548424392938613892e-02 -5.726020038127899170e-02 -7.655608654022216797e-02 2.293839119374752045e-02
7.213364541530609131e-02 -1.119722500443458557e-01 6.094112992286682129e-02 8.643069118261337280e-02 -2.930016256868839264e-02 4.290275275707244873e-02 2.469347789883613586e-02 2.091173082590103149e-01 -2.423928491771221161e-02 6.242994964122772217e-02 9.164527058601379395e-02 1.817082017660140991e-01 7.067152112722396851e-02 -4.441878572106361389e-02 -1.195706333965063095e-02 -8.958355337381362915e-02 7.695498317480087280e-02 9.245896711945533752e-03 3.639189153909683228e-02 -2.475023828446865082e-02 -2.280712500214576721e-02 6.939380615949630737e-02 -2.924702875316143036e-02 -2.373247779905796051e-02 5.140170082449913025e-02 2.636629389598965645e-03 3.950084745883941650e-02 8.492818102240562439e-03 2.357611432671546936e-02 -3.729990124702453613e-02 5.268735811114311218e-02 -7.075766101479530334e-03 -3.803785890340805054e-02 -8.686318248510360718e-02 -1.683056540787220001e-02 3.332195058465003967e-02 -1.760712591931223869e-03 -2.226495184004306793e-02 6.447452306747436523e-02 -9.044082462787628174e-02 -3.415307030081748962e-02 -2.848587334156036377e-01 -4.042030125856399536e-02 5.044836550951004028e-02 -8.873090147972106934e-02 8.964841067790985107e-02 8.648925274610519409e-02 2.213769592344760895e-02 -8.760681003332138062e-02 7.161442935466766357e-02 -3.103902749717235565e-02 -6.087182089686393738e-02 8.428908884525299072e-02 -2.316683530807495117e-01 -2.622826024889945984e-02 -1.535310596227645874e-02 -7.798410952091217041e-02 -2.188060805201530457e-02 -1.225167233496904373e-02 1.209846138954162598e-01 9.570253640413284302e-02 1.108221486210823059e-01 -7.007047533988952637e-02 2.704049833118915558e-02 3.494656831026077271e-02 3.503822535276412964e-02 -1.286122798919677734e-01 -9.186930209398269653e-02 -2.508833259344100952e-02 -2.909407578408718109e-02 -1.017989069223403931e-01 1.278336793184280396e-01 3.506975620985031128e-02 3.342455485835671425e-03 3.378011658787727356e-02 -3.093899041414260864e-02 -2.065850608050823212e-02 5.167837068438529968e-02 1.017042472958564758e-01 -5.971068888902664185e-02 1.344609633088111877e-02 1.260505989193916321e-02 1.421833485364913940e-01 -2.660553902387619019e-02 -8.189703524112701416e-02 -1.268253475427627563e-01 1.458000112324953079e-02 -1.052821576595306396e-01 8.258543908596038818e-02 1.304197474382817745e-03 3.478046134114265442e-02 9.294863045215606689e-02 -4.384152218699455261e-02 1.908782720565795898e-01 -4.329400137066841125e-02 -2.083693630993366241e-02 -5.740207061171531677e-02 -3.837986662983894348e-02 -4.285240173339843750e-02 7.893603295087814331e-03 -1.578333787620067596e-02 2.149761319160461426e-01 3.501906245946884155e-02 1.342884823679924011e-02 -1.546127647161483765e-01 3.112120367586612701e-02 2.047312073409557343e-02 -6.182880327105522156e-02 1.038052290678024292e-01 -4.590640589594841003e-02 -5.617544800043106079e-02 -6.692188233137130737e-02 -8.971176296472549438e-02 8.447741717100143433e-02 5.776741728186607361e-02 3.195272386074066162e-02 -1.361591964960098267e-01 5.490446835756301880e-02 -5.454122275114059448e-02 6.211514770984649658e-02 1.454795151948928833e-02 1.552550643682479858e-01 -2.413675785064697266e-01 -1.542657613754272461e-01 -2.219843566417694092e-01 -2.638740278780460358e-02 -2.218074165284633636e-02 -1.594589799642562866e-01 -9.112220257520675659e-02 8.826153352856636047e-03 2.844442240893840790e-02 2.019402384757995605e-02 4.681609198451042175e-02 1.436610817909240723e-01 -5.103898048400878906e-02 -8.497264981269836426e-02 -7.106078416109085083e-02 -7.430110871791839600e-02 -1.632594615221023560e-01 -6.355062872171401978e-02 5.407535657286643982e-02 1.459429115056991577e-01 5.171616747975349426e-02 1.752203679643571377e-03 1.582377590239048004e-02 4.384761303663253784e-02 9.327009320259094238e-03 -3.449060767889022827e-02 1.446940004825592041e-01 -1.912411302328109741e-02 1.167657673358917236e-01 2.651111967861652374e-02 -1.161846071481704712e-01 1.159832403063774109e-01 -9.601937234401702881e-02 -1.554104983806610107e-01 -1.286426335573196411e-01 4.762649536132812500e-02 1.254043132066726685e-01 -1.517098397016525269e-01 3.400130569934844971e-02 -1.230849400162696838e-01 -1.146389693021774292e-01 -2.258405461907386780e-02 -9.042660892009735107e-02 -2.068290561437606812e-01 4.493084549903869629e-02 -1.330575160682201385e-02 -7.057746499776840210e-02 3.469372913241386414e-02 1.766566485166549683e-01 -1.178137864917516708e-02 -4.055301100015640259e-02 -1.148185580968856812e-01 8.972532302141189575e-02 -1.017161831259727478e-01 4.303323477506637573e-02 7.970885187387466431e-02 6.735019385814666748e-02 3.590986505150794983e-02 8.817365393042564392e-03 -8.901043236255645752e-02 7.949117571115493774e-02 -4.368929937481880188e-02 8.610227378085255623e-04 -1.282966285943984985e-01 3.457559272646903992e-02 -5.288058891892433167e-02 1.330975592136383057e-01 -4.796894639730453491e-02 -6.961674988269805908e-02 3.640007972717285156e-02 8.004850824363529682e-04 -1.301829796284437180e-02 8.088279515504837036e-02 1.914540305733680725e-02 1.132865473628044128e-01 -2.700828714296221733e-03 1.174006685614585876e-01 -1.308361291885375977e-01 4.518809169530868530e-02 1.229582056403160095e-01 -3.342233225703239441e-02 1.238514482975006104e-01 8.875269442796707153e-02 -8.170391619205474854e-02 1.450510025024414062e-01 5.397836491465568542e-02 -4.625846445560455322e-02 9.064779430627822876e-02 -3.301626443862915039e-02 9.802278876304626465e-02 -1.238211691379547119e-01 4.183255950920283794e-04 1.280288845300674438e-01 1.538610085844993591e-02 -3.604294732213020325e-02 -5.537767335772514343e-02 -1.851541176438331604e-02 1.333402842283248901e-01 -2.623511664569377899e-02 -9.835296869277954102e-02 9.191247820854187012e-02 6.221225485205650330e-02 4.710594937205314636e-02 2.408486232161521912e-02 -8.555214852094650269e-03 5.834315344691276550e-02 -7.402769755572080612e-03 1.713656820356845856e-02 5.828888714313507080e-02 -2.492342516779899597e-02 5.554902553558349609e-02 1.002561524510383606e-01 8.879726380109786987e-02 9.014791995286941528e-02 2.502956986427307129e-02
2.704947590827941895e-01 1.417698860168457031e-01 2.661778964102268219e-02 -1.194009333848953247e-01 9.981513768434524536e-02 1.041671484708786011e-01 1.191157009452581406e-02 -3.729154914617538452e-02 1.496012359857559204e-01 8.041407167911529541e-02 -6.960042566061019897e-02 -8.239405229687690735e-03 -3.355708345770835876e-02 4.423319175839424133e-02 1.218674108386039734e-01 2.593766711652278900e-02 -5.625797808170318604e-02 -4.884647205471992493e-02 5.404162406921386719e-02 -4.035015776753425598e-02 3.266220539808273315e-02 -8.929382078349590302e-03 1.459363289177417755e-02 -6.550910323858261108e-02 -3.268827870488166809e-02 -1.793288160115480423e-03 -7.538876682519912720e-02 -3.020805418491363525e-01 1.718609631061553955e-01 -8.359570056200027466e-02 -9.018249809741973877e-02 1.794829615391790867e-03 -2.464373409748077393e-02 2.276472933590412140e-02 -2.407341822981834412e-02 1.959871035069227219e-03 1.588427112437784672e-03 -2.374910563230514526e-02 1.192820966243743896e-01 1.757043749094009399e-01 -7.778717577457427979e-02 -2.034199088811874390e-01 -6.882451474666595459e-02 5.303117632865905762e-02 1.169084943830966949e-02 -3.422037139534950256e-02 -1.777700781822204590e-01 -5.058293044567108154e-02 -1.440819352865219116e-01 -2.048061043024063110e-02 2.561260946094989777e-02 -1.960264705121517181e-02 1.099545042961835861e-02 5.584723129868507385e-02 -6.559873372316360474e-02 1.443760544061660767e-01 5.242621153593063354e-02 -2.842418663203716278e-02 -3.787851706147193909e-02 5.933670699596405029e-02 7.153047621250152588e-02 -5.323885008692741394e-02 1.439929008483886719e-01 8.331643044948577881e-02 -7.640407979488372803e-02 1.800525188446044922e-01 -4.086126759648323059e-02 2.973419986665248871e-02 8.348476886749267578e-02 2.216769568622112274e-02 4.559244215488433838e-02 -9.306326508522033691e-02 9.482339024543762207e-02 2.008444257080554962e-02 3.773412480950355530e-02 -3.132364526391029358e-02 -5.679886415600776672e-02 -3.504618257284164429e-02 -5.477287340909242630e-03 6.368194520473480225e-02 -2.606164291501045227e-02 -6.229528412222862244e-02 -3.182046487927436829e-02 -1.199170276522636414e-01 1.267417818307876587e-01 -1.401583850383758545e-01 -8.842694759368896484e-02 6.125482171773910522e-02 1.024278551340103149e-01 -1.518497359938919544e-03 -1.368566304445266724e-01 3.036522306501865387e-03 -1.190269216895103455e-01 -8.757650852203369141e-02 -3.509368747472763062e-03 1.160025247372686863e-03 5.734698846936225891e-02 -9.187775850296020508e-02 2.949749864637851715e-02 -7.367106527090072632e-02 -9.742116183042526245e-02 4.443739727139472961e-02 1.759029626846313477e-01 3.618592396378517151e-02 -7.452172040939331055e-02 8.534944802522659302e-02 -4.610039293766021729e-03 2.848169766366481781e-02 4.560816660523414612e-02 6.483660638332366943e-02 -1.668353565037250519e-02 -3.913963958621025085e-02 -9.941032528877258301e-02 1.164324805140495300e-01 -4.520495608448982239e-02 -1.368479430675506592e-01 3.090118244290351868e-02 -4.631006345152854919e-02 -5.006858333945274353e-02 4.078126698732376099e-02 1.687723845243453979e-01 4.853869229555130005e-02 -1.646858304738998413e-01 -5.068451911211013794e-02 4.319620132446289062e-02 6.392516940832138062e-02 -3.427220135927200317e-02 -9.820686280727386475e-02 -7.502616196870803833e-02 -1.522098388522863388e-02 1.248380690813064575e-01 1.152397692203521729e-01 5.066621676087379456e-02 -1.197416894137859344e-02 9.899957478046417236e-02 -1.250674575567245483e-01 -1.083812769502401352e-02 9.294936060905456543e-02 -1.375738382339477539e-01 2.967739105224609375e-01 -5.835947766900062561e-02 3.304042294621467590e-02 1.331043392419815063e-01 7.649330049753189087e-02 5.663055926561355591e-03 -5.507361888885498047e-02 4.106322675943374634e-02 1.227389369159936905e-02 4.723438248038291931e-02 -1.807887405157089233e-01 -1.156434640288352966e-01 3.422026336193084717e-02 2.053958922624588013e-01 -5.727691948413848877e-02 -7.909897714853286743e-02 -1.204480230808258057e-01 1.982659101486206055e-01 7.021248340606689453e-02 -1.052587926387786865e-01 -1.591542363166809082e-01 8.444332331418991089e-02 1.195121333003044128e-01 1.081158444285392761e-01 -1.353006996214389801e-02 4.911572858691215515e-02 7.601013779640197754e-02 3.080921992659568787e-02 -7.913950830698013306e-02 -5.998842790722846985e-02 -3.941018879413604736e-02 2.774981083348393440e-03 -6.115831807255744934e-02 -7.341871410608291626e-02 8.333408832550048828e-02 8.024524152278900146e-02 -1.195811107754707336e-01 1.277913749217987061e-01 -6.059596315026283264e-02 -1.314034871757030487e-02 -2.442811429500579834e-02 2.352287992835044861e-02 -1.628687977790832520e-02 -6.704305857419967651e-02 -4.836757853627204895e-02 -3.159890323877334595e-02 1.980728656053543091e-02 9.459827840328216553e-02 4.303192719817161560e-02 -7.161116227507591248e-03 -3.526814049109816551e-03 -1.680338755249977112e-02 -3.513120114803314209e-02 -1.406222879886627197e-01 -1.673749983310699463e-01 2.485800534486770630e-02 -1.337968856096267700e-01 -1.701525598764419556e-01 -1.164865940809249878e-01 1.119778156280517578e-01 6.837686896324157715e-02 -5.226061120629310608e-02 -5.797665566205978394e-02 5.197191983461380005e-02 -1.054494157433509827e-01 -6.579085439443588257e-02 2.806298248469829559e-02 -1.402294933795928955e-01 -1.172403618693351746e-01 -9.155149757862091064e-02 -8.458537608385086060e-02 7.005678117275238037e-02 1.082952022552490234e-01 -2.019100449979305267e-02 -1.109671667218208313e-01 -5.074291676282882690e-02 7.410582900047302246e-02 7.602348923683166504e-02 1.308055501431226730e-02 3.271305933594703674e-02 5.280679464340209961e-02 -2.145810984075069427e-02 -1.065525785088539124e-01 -1.328423768281936646e-01 5.540216341614723206e-02 6.241593137383460999e-02 -4.535099118947982788e-02 -9.899102151393890381e-02 -1.471274346113204956e-02 8.056122064590454102e-02 7.971026003360748291e-02 -4.387419670820236206e-02 8.659929037094116211e-02 -1.380400955677032471e-01 -1.305871903896331787e-01 1.980723254382610321e-02 -9.341910481452941895e-03 -1.079277619719505310e-01
-9.942917525768280029e-02 1.684756875038146973e-01 3.299216181039810181e-02 4.936629533767700195e-02 -1.661733090877532959e-01 1.248254999518394470e-01 1.949326880276203156e-02 2.681137919425964355e-01 1.723658852279186249e-02 1.923689246177673340e-01 1.170533150434494019e-01 -1.617189310491085052e-02 -1.308111548423767090e-01 -9.642454236745834351e-02 2.440948188304901123e-01 -1.836313121020793915e-02 -5.572669953107833862e-02 1.281268447637557983e-01 -1.395093183964490891e-02 -1.623186655342578888e-02 4.296370595693588257e-02 3.547524660825729370e-02 -1.162376850843429565e-01 -9.237766265869140625e-02 -9.126108139753341675e-02 -8.362121880054473877e-02 -4.387766495347023010e-02 -8.405390381813049316e-02 6.358955055475234985e-02 5.544089153409004211e-02 -1.135320141911506653e-01 4.194655455648899078e-03 -1.710705645382404327e-02 9.261370636522769928e-03 4.276721738278865814e-03 1.981918700039386749e-02 5.344681814312934875e-02 -4.301483556628227234e-02 8.439143002033233643e-02 1.854977803304791451e-03 -2.602134644985198975e-02 -4.143677279353141785e-02 1.182134151458740234e-01 1.408241987228393555e-01 1.002398086711764336e-03 -5.410336703062057495e-02 -1.416069567203521729e-01 8.947839960455894470e-03 -1.442543864250183105e-01 3.444018959999084473e-02 -2.715402282774448395e-03 -1.686205416917800903e-01 -9.555166587233543396e-03 -1.299515515565872192e-01 -1.866675540804862976e-02 1.713889390230178833e-01 5.930709838867187500e-02 6.593617144972085953e-03 1.466101501137018204e-02 1.652714908123016357e-01 -1.470595449209213257e-01 2.521331980824470520e-02 -1.019099056720733643e-01 -4.080883786082267761e-02 -1.688730120658874512e-01 -4.314634576439857483e-02 -3.897060453891754150e-02 5.301706492900848389e-02 -5.820035561919212341e-02 -2.968757599592208862e-02 -1.004115212708711624e-02 3.835510462522506714e-02 -2.927191369235515594e-02 -3.318617586046457291e-03 -1.003300305455923080e-03 1.685500293970108032e-01 -6.222474575042724609e-02 -1.362964659929275513e-01 5.150792654603719711e-03 1.009031236171722412e-01 -1.602213270962238312e-02 -4.335029795765876770e-02 -3.743677958846092224e-02 1.990252360701560974e-02 -8.032679557800292969e-02 1.823492534458637238e-02 -2.175935730338096619e-02 1.102170795202255249e-01 1.140518710017204285e-01 2.811536937952041626e-02 -1.001699361950159073e-02 2.822123840451240540e-02 1.905679106712341309e-01 3.150034323334693909e-02 -3.793430281803011894e-03 -3.547099605202674866e-02 9.299835562705993652e-02 -1.429917383939027786e-02 -1.887159422039985657e-02 -1.663611456751823425e-02 2.371552400290966034e-02 -9.887640178203582764e-02 -6.377682834863662720e-02 -3.353480249643325806e-02 1.252967305481433868e-02 -1.861276477575302124e-02 3.769249469041824341e-02 -5.999065004289150238e-03 9.947413206100463867e-02 3.198847174644470215e-02 1.779808476567268372e-02 -1.346110403537750244e-01 1.327230930328369141e-01 9.203387796878814697e-02 -6.625076383352279663e-02 -5.380804464221000671e-02 2.538709715008735657e-02 1.013127788901329041e-01 7.169623672962188721e-02 -3.320633620023727417e-02 -1.214319095015525818e-01 -3.868928924202919006e-02 2.159810811281204224e-01 -1.715117841958999634e-01 1.703363470733165741e-02 -1.161977350711822510e-01 2.105890959501266479e-02 6.700545549392700195e-02 6.275252997875213623e-02 5.384984612464904785e-02 2.086146175861358643e-02 6.090027093887329102e-02 1.622613333165645599e-02 -4.062498360872268677e-02 4.886271059513092041e-02 -1.851947307586669922e-01 1.304741501808166504e-01 3.207032382488250732e-02 -5.634308978915214539e-02 -3.422564268112182617e-02 4.364527389407157898e-02 -9.713008254766464233e-02 2.400386147201061249e-03 1.032016798853874207e-01 5.197715759277343750e-02 3.721919283270835876e-02 1.427522674202919006e-02 3.456363081932067871e-02 3.262398019433021545e-02 2.006367892026901245e-01 6.921385228633880615e-02 -4.845478571951389313e-03 7.929265499114990234e-03 1.033401340246200562e-01 3.299730643630027771e-02 -7.887048274278640747e-02 -6.684055924415588379e-02 5.304755270481109619e-02 -6.044257804751396179e-02 -1.475690603256225586e-01 -8.565834164619445801e-02 -2.288003452122211456e-03 9.645957499742507935e-02 2.432913519442081451e-02 -2.289199829101562500e-02 2.280459254980087280e-01 2.596825361251831055e-02 -1.000831276178359985e-01 -5.210271850228309631e-02 -2.569825574755668640e-02 -1.111797895282506943e-02 -4.226398095488548279e-02 -3.056429326534271240e-03 3.201404958963394165e-02 6.385698914527893066e-02 -1.186189278960227966e-01 1.702255904674530029e-01 -2.099162638187408447e-01 7.853954099118709564e-03 -1.134879440069198608e-01 -2.783623524010181427e-02 -5.141976475715637207e-02 -1.386015675961971283e-02 -4.887320473790168762e-02 -8.823002129793167114e-02 8.376885205507278442e-02 -9.725235402584075928e-02 2.211569109931588173e-03 3.145926818251609802e-02 -1.305241370573639870e-03 3.259360790252685547e-02 6.433218717575073242e-02 4.216429963707923889e-02 5.414675548672676086e-02 8.235381543636322021e-02 -4.074944183230400085e-02 7.587812840938568115e-02 -1.278178021311759949e-02 -2.870759740471839905e-02 -5.250689759850502014e-02 -9.567710757255554199e-02 1.737294495105743408e-01 8.059924095869064331e-02 4.746362566947937012e-02 1.309790164232254028e-01 -1.819393970072269440e-02 2.669296041131019592e-02 1.432650089263916016e-01 1.123013440519571304e-02 -1.353931520134210587e-02 -2.789340168237686157e-02 -2.256421595811843872e-01 -7.560831308364868164e-02 -4.188443347811698914e-02 -4.382069036364555359e-02 3.071308694779872894e-02 3.836106881499290466e-02 -1.630290038883686066e-02 1.745248027145862579e-02 4.327520728111267090e-02 4.658919572830200195e-02 -1.103566214442253113e-01 -1.048655211925506592e-01 -1.997923254966735840e-01 1.241966187953948975e-01 -2.197916992008686066e-02 6.000259891152381897e-02 2.173517085611820221e-02 1.264193207025527954e-01 1.249204427003860474e-01 2.888951450586318970e-02 -6.403571926057338715e-03 4.647634457796812057e-03 4.499629884958267212e-02 7.297040522098541260e-02 3.338600695133209229e-02 1.099632959812879562e-02
1.261344999074935913e-01 1.737840920686721802e-01 -3.808366879820823669e-02 1.162459105253219604e-01 2.146822027862071991e-02 -9.491777978837490082e-03 -7.759577035903930664e-02 -3.960558399558067322e-02 8.539678156375885010e-02 6.989090889692306519e-02 4.933054745197296143e-02 5.744805932044982910e-02 3.402242064476013184e-02 5.521933734416961670e-02 1.059611793607473373e-02 6.974885612726211548e-02 -7.554746419191360474e-02 3.947798907756805420e-02 2.065982520580291748e-01 -1.041331514716148376e-01 -3.259143978357315063e-02 -7.640574872493743896e-02 1.735111325979232788e-02 1.107920333743095398e-01 9.573000669479370117e-02 -2.341203391551971436e-02 -1.871840842068195343e-02 -1.612566560506820679e-01 -5.468467622995376587e-02 3.097875230014324188e-02 2.083052881062030792e-03 5.853151902556419373e-02 1.666758581995964050e-02 -1.960136741399765015e-02 -5.810643732547760010e-02 -3.959147259593009949e-02 -2.967093139886856079e-03 4.828730598092079163e-02 4.986583068966865540e-02 9.110831469297409058e-02 1.079322472214698792e-01 5.572670698165893555e-02 3.764248639345169067e-02 4.898660257458686829e-02 -1.648658066987991333e-01 2.702202275395393372e-02 -7.778874784708023071e-02 -1.291671544313430786e-01 -3.689945908263325691e-03 -8.778271079063415527e-02 2.717211656272411346e-02 3.687717020511627197e-02 -9.316150099039077759e-02 4.761205613613128662e-02 6.114478409290313721e-02 -1.016086563467979431e-01 -4.515185952186584473e-02 3.540989011526107788e-02 7.853566110134124756e-02 1.590986619703471661e-03 -1.987880021333694458e-01 -2.420762926340103149e-02 -3.259036689996719360e-02 -5.305941216647624969e-03 -1.108267456293106079e-01 -2.743314206600189209e-01 1.829212605953216553e-01 -4.902915656566619873e-02 6.386332213878631592e-02 5.280067399144172668e-02 1.301227211952209473e-01 1.542059704661369324e-02 7.059983164072036743e-02 -7.648066431283950806e-02 2.522664703428745270e-02 1.650132089853286743e-01 1.968532241880893707e-02 -2.106077522039413452e-01 1.454562786966562271e-02 -7.531831413507461548e-02 2.244722396135330200e-01 2.961759641766548157e-02 -2.080070786178112030e-02 -2.756983935832977295e-01 6.135933473706245422e-02 -1.081996411085128784e-01 -1.603013873100280762e-01 -6.808152794837951660e-02 -1.131629943847656250e-01 2.333816327154636383e-02 -1.119891926646232605e-02 -4.715301468968391418e-02 -1.797050833702087402e-01 3.180731087923049927e-02 7.575919479131698608e-02 1.892799139022827148e-02 2.612128108739852905e-02 -4.868749529123306274e-02 3.436044976115226746e-02 -9.784590452909469604e-03 6.308862008154392242e-03 -9.305764921009540558e-03 -5.466560646891593933e-02 -2.405474148690700531e-02 -1.010945364832878113e-01 1.058747470378875732e-01 3.851618617773056030e-02 -5.025990679860115051e-02 2.126528322696685791e-02 -2.321696653962135315e-02 -8.606757037341594696e-03 -3.464895114302635193e-02 2.220048755407333374e-01 2.158331573009490967e-01 8.147040009498596191e-02 6.924138218164443970e-02 8.287724107503890991e-02 9.555184282362461090e-03 5.795694142580032349e-02 1.132923141121864319e-01 -1.388401631265878677e-02 -3.301951661705970764e-02 -1.462286245077848434e-02 -9.623399376869201660e-02 -1.619460582733154297e-01 8.764807879924774170e-02 7.172192633152008057e-02 7.057370245456695557e-02 8.128765970468521118e-02 2.481352724134922028e-02 -2.558758109807968140e-02 -5.120098218321800232e-02 -1.633854955434799194e-01 -1.021375432610511780e-01 -2.276731468737125397e-02 -8.118015527725219727e-02 3.801493719220161438e-02 7.564825564622879028e-02 -6.509727239608764648e-02 -1.265285462141036987e-01 -1.311102509498596191e-01 8.533702790737152100e-02 -2.903114631772041321e-02 -2.781285345554351807e-02 -1.521954964846372604e-02 -4.727711528539657593e-02 -6.777720060199499130e-03 5.307224392890930176e-02 2.191332429647445679e-01 1.525876075029373169e-01 2.095537632703781128e-01 -4.516181722283363342e-02 4.525406286120414734e-02 1.563363969326019287e-01 -1.003265753388404846e-02 -6.913936138153076172e-02 -2.036181278526782990e-02 -7.076639682054519653e-02 -1.231398656964302063e-01 -6.515558063983917236e-02 -1.079100519418716431e-01 -4.143926501274108887e-02 4.353221505880355835e-02 -6.065957620739936829e-02 5.096522718667984009e-02 -6.434511858969926834e-03 1.784219443798065186e-01 4.641224071383476257e-02 1.925618201494216919e-02 9.330072999000549316e-02 -1.694549806416034698e-02 9.189999848604202271e-02 -1.111541837453842163e-01 2.210063301026821136e-02 -1.222507003694772720e-02 -4.194018989801406860e-02 1.194875910878181458e-01 9.879576973617076874e-03 -5.407643038779497147e-03 9.340794757008552551e-03 5.341164767742156982e-02 6.560380011796951294e-02 -1.253726929426193237e-01 5.096283182501792908e-02 2.003571204841136932e-02 1.053889244794845581e-01 -4.515566676855087280e-02 1.022378057241439819e-01 1.696296781301498413e-02 2.934876456856727600e-02 2.935166005045175552e-03 -1.033044159412384033e-01 -1.086928248405456543e-01 -7.266874611377716064e-02 -1.210555732250213623e-01 1.217265650629997253e-01 -9.163957834243774414e-02 -5.205513909459114075e-02 5.921980366110801697e-02 -1.825170777738094330e-02 9.318830445408821106e-03 -7.390258461236953735e-02 -8.837640285491943359e-02 4.751540720462799072e-02 -6.994650699198246002e-03 -1.526023149490356445e-01 -3.692577779293060303e-02 -1.292836815118789673e-01 2.766360342502593994e-02 -1.235884204506874084e-01 -9.360080584883689880e-03 -9.260978549718856812e-02 7.451616227626800537e-02 -7.659177482128143311e-02 -1.102286502718925476e-01 -1.680184155702590942e-02 1.803984642028808594e-01 1.293192058801651001e-01 4.464838653802871704e-02 -2.925988472998142242e-02 5.153645202517509460e-02 -2.822665870189666748e-02 -1.737201586365699768e-02 -1.026744320988655090e-01 2.663388475775718689e-02 3.721404075622558594e-02 3.900605812668800354e-02 -8.609686046838760376e-02 -7.168819010257720947e-02 1.895895414054393768e-02 -9.485277533531188965e-02 4.021285846829414368e-02 -5.272635444998741150e-02 -8.017658442258834839e-02 8.357664197683334351e-02 -6.027822196483612061e-02 1.380957514047622681e-01
2.742084860801696777e-01 1.071920618414878845e-02 9.969591349363327026e-02 -1.036859154701232910e-01 1.736752688884735107e-01 -6.487270817160606384e-03 2.546642906963825226e-02 -1.582214981317520142e-01 -3.216617926955223083e-02 4.338892921805381775e-02 4.804721474647521973e-02 -2.371117845177650452e-02 -1.701968610286712646e-01 5.403674766421318054e-02 -6.169052422046661377e-02 3.752652928233146667e-02 8.550064638257026672e-03 1.525113135576248169e-01 -9.510370343923568726e-02 7.925244048237800598e-03 -7.789620198309421539e-03 -2.638203836977481842e-02 6.269405037164688110e-02 -1.628774404525756836e-02 3.863778710365295410e-02 -7.574453204870223999e-02 7.970067113637924194e-02 5.741041153669357300e-02 1.824303418397903442e-01 -7.035543024539947510e-02 4.450692236423492432e-02 -7.323414087295532227e-02 -1.952433399856090546e-02 6.042581796646118164e-02 6.139518320560455322e-02 -7.818032172508537769e-04 1.553677767515182495e-02 1.956893056631088257e-01 1.136231794953346252e-01 -3.691606968641281128e-02 2.092744037508964539e-02 5.799809936434030533e-03 1.799885481595993042e-01 6.426225602626800537e-02 2.707364596426486969e-02 -3.656838834285736084e-02 2.897094190120697021e-02 1.506049633026123047e-01 -5.045216903090476990e-02 4.868265986442565918e-02 -7.280991971492767334e-02 1.012575775384902954e-01 -1.345522608608007431e-02 -6.135393679141998291e-02 2.792564034461975098e-02 1.022525727748870850e-01 -1.091879904270172119e-01 -6.821157783269882202e-02 -3.278715908527374268e-02 -1.036863401532173157e-02 4.319930076599121094e-02 1.140734925866127014e-01 8.785460889339447021e-02 -5.858591198921203613e-02 9.302104264497756958e-02 -7.081272453069686890e-02 7.414402812719345093e-02 -9.583379328250885010e-02 -4.909516870975494385e-02 8.255481719970703125e-02 -5.113691836595535278e-02 -3.077344037592411041e-02 4.035569354891777039e-02 7.522332668304443359e-02 1.730435639619827271e-01 -1.099479943513870239e-01 8.093459904193878174e-02 -6.906691193580627441e-02 -7.840710692107677460e-03 1.619961857795715332e-01 -6.723151355981826782e-02 -1.031514629721641541e-02 -3.236617892980575562e-02 1.420834753662347794e-02 2.086807787418365479e-02 8.381585031747817993e-02 -1.513907872140407562e-02 1.203150488436222076e-02 6.482721120119094849e-02 -1.125564053654670715e-02 -1.668485812842845917e-02 -8.888446539640426636e-02 -1.291067004203796387e-01 -3.752897307276725769e-02 6.741041690111160278e-02 2.248900569975376129e-02 -1.286152452230453491e-01 1.300536096096038818e-01 9.203647822141647339e-02 2.153824083507061005e-03 1.774681918323040009e-02 7.890997081995010376e-02 3.430890291929244995e-02 -2.884875982999801636e-02 -2.404210343956947327e-02 3.864234546199440956e-03 7.738277316093444824e-02 -1.124297454953193665e-02 -5.785316228866577148e-02 -2.517183870077133179e-02 1.828695461153984070e-02 1.444584280252456665e-01 1.791060566902160645e-01 -2.592785051092505455e-03 -8.048696070909500122e-02 9.143407642841339111e-02 8.826302736997604370e-02 -1.417567729949951172e-01 3.190702944993972778e-02 1.734145134687423706e-01 6.599751859903335571e-02 5.478369817137718201e-02 3.805022314190864563e-02 3.017615340650081635e-02 -8.303227275609970093e-02 9.136974811553955078e-03 -9.017128497362136841e-03 6.392855197191238403e-02 2.006074935197830200e-01 1.212462112307548523e-01 -6.912711262702941895e-02 5.151116475462913513e-02 1.816111989319324493e-02 -5.049512255936861038e-03 6.951352208852767944e-02 1.118791028857231140e-01 7.358086109161376953e-02 6.033981963992118835e-02 1.464236527681350708e-01 -4.145326465368270874e-02 -6.956190615892410278e-02 3.546704724431037903e-02 -1.586246863007545471e-02 6.510624289512634277e-02 3.299263492226600647e-02 -2.532192319631576538e-02 -4.499591886997222900e-03 6.327563896775245667e-03 3.669428527355194092e-01 7.590655237436294556e-02 4.165874421596527100e-02 -2.206305228173732758e-02 1.062368154525756836e-01 2.742352150380611420e-02 -1.970530487596988678e-02 -1.191693320870399475e-01 6.403909064829349518e-03 -1.160794720053672791e-01 1.143380440771579742e-02 1.964881084859371185e-02 -2.209976911544799805e-01 -1.777379587292671204e-02 1.085052788257598877e-01 -1.237616501748561859e-02 4.908536374568939209e-02 -5.841752886772155762e-02 -1.460570245981216431e-01 -5.933857988566160202e-03 -1.718698441982269287e-02 -2.640894241631031036e-02 -3.140657208859920502e-04 -1.094503998756408691e-01 1.365730911493301392e-01 -1.257844120264053345e-01 2.812546491622924805e-02 -4.589029029011726379e-02 5.245694890618324280e-02 -2.278236858546733856e-02 5.793928727507591248e-02 -2.323626913130283356e-02 6.406370550394058228e-02 9.039287269115447998e-02 -5.097856000065803528e-02 1.342931203544139862e-02 3.197927027940750122e-02 2.076606750488281250e-01 1.053251922130584717e-01 -6.928838789463043213e-02 -8.044824749231338501e-02 -8.837001770734786987e-02 -1.108770520659163594e-04 1.038557570427656174e-02 9.893529117107391357e-03 -3.409210126847028732e-03 -9.942784160375595093e-02 4.533315449953079224e-02 -9.802003949880599976e-02 1.213044971227645874e-01 6.013523042201995850e-02 -8.297672122716903687e-02 -4.027831926941871643e-02 -1.350579857826232910e-01 6.357455998659133911e-02 4.206111282110214233e-02 -9.256763756275177002e-02 1.726850122213363647e-02 -4.342825338244438171e-02 4.434599354863166809e-02 5.874537304043769836e-02 -3.612054511904716492e-02 9.418275207281112671e-02 2.427322557196021080e-03 -8.934521675109863281e-02 -4.523212090134620667e-02 -2.186419516801834106e-01 -1.081582382321357727e-01 1.049964204430580139e-01 -1.551999002695083618e-01 1.801605522632598877e-02 -1.002149209380149841e-01 -1.065016910433769226e-01 -9.187747538089752197e-02 -1.107501089572906494e-01 4.551155492663383484e-02 2.011155635118484497e-01 4.431316163390874863e-03 1.886439882218837738e-02 3.928293939679861069e-03 -1.314032226800918579e-01 9.105879813432693481e-02 2.697090245783329010e-02 5.777893587946891785e-02 2.299674786627292633e-02 -1.030395254492759705e-01 -6.298469752073287964e-02 -2.010562457144260406e-02 6.320269405841827393e-02
6.111131235957145691e-02 -2.418004348874092102e-02 -2.906294167041778564e-02 -5.205054953694343567e-02 -8.284799754619598389e-02 -1.998474746942520142e-01 -1.605435609817504883e-01 1.064966171979904175e-01 3.781880810856819153e-02 -1.393287330865859985e-01 5.713506042957305908e-02 -2.905263938009738922e-02 -8.863715827465057373e-02 2.420514635741710663e-02 9.197172522544860840e-02 -3.416837751865386963e-02 -8.151272684335708618e-02 -2.732073143124580383e-02 -8.707637339830398560e-02 1.303870081901550293e-01 3.834629431366920471e-02 -2.757845632731914520e-02 1.049392148852348328e-01 -6.159248203039169312e-02 -7.645566016435623169e-03 -6.273983046412467957e-03 2.735367044806480408e-02 -1.027796566486358643e-01 1.927003264427185059e-02 -1.136631891131401062e-01 5.126450210809707642e-02 -2.130172215402126312e-02 -2.453619055449962616e-02 -3.432014957070350647e-02 1.653541997075080872e-02 2.310153795406222343e-04 6.225006654858589172e-02 -2.920934930443763733e-02 -1.456257700920104980e-01 -1.136518716812133789e-01 -8.476773649454116821e-02 -2.359404265880584717e-01 -2.278153002262115479e-01 5.454302206635475159e-02 -1.295037567615509033e-01 -3.308382257819175720e-02 -4.139183089137077332e-02 6.489332765340805054e-03 -2.456026151776313782e-02 7.219183025881648064e-04 -1.323720626533031464e-02 5.321913957595825195e-02 4.684685915708541870e-02 5.251765623688697815e-02 -1.513530313968658447e-01 -8.155395835638046265e-02 8.895838260650634766e-02 -5.074822157621383667e-02 6.923735886812210083e-02 -8.471773564815521240e-02 1.675327271223068237e-01 1.782618314027786255e-01 -2.541547827422618866e-02 1.622560806572437286e-02 -1.413398981094360352e-01 9.346123784780502319e-02 -3.600191324949264526e-02 5.778066068887710571e-02 -1.126267481595277786e-02 -5.650134384632110596e-02 -2.776573225855827332e-02 -3.064544405788183212e-03 1.906013861298561096e-02 3.263667598366737366e-02 -1.290551573038101196e-01 -1.754542738199234009e-01 -9.534389525651931763e-02 -1.229878887534141541e-02 -2.472588121891021729e-01 -1.602783352136611938e-01 4.536918550729751587e-02 -5.519236624240875244e-02 -2.772518433630466461e-02 -1.855901926755905151e-01 -1.324573811143636703e-02 1.728697866201400757e-01 2.002771757543087006e-02 8.002657443284988403e-02 1.142320632934570312e-01 -5.523118190467357635e-03 -1.422591358423233032e-01 1.409844495356082916e-02 4.458807781338691711e-02 3.709638863801956177e-02 -8.691359311342239380e-03 -4.845832660794258118e-02 1.184602156281471252e-01 1.256341189146041870e-01 1.001188084483146667e-01 -3.275086171925067902e-03 6.462590396404266357e-02 -3.057983517646789551e-01 1.214472874999046326e-01 3.401740267872810364e-02 -6.566353142261505127e-02 -3.217592090368270874e-02 3.088616358581930399e-05 -1.847284846007823944e-02 -8.444065315416082740e-05 6.056933198124170303e-03 4.685714840888977051e-02 -1.085461676120758057e-01 -1.844162195920944214e-01 -1.055006161332130432e-01 -1.735856831073760986e-01 -7.335149496793746948e-02 -6.587725877761840820e-02 -9.125664085149765015e-02 -2.860140800476074219e-02 -2.412409707903862000e-02 3.440528362989425659e-02 1.084930226206779480e-01 -7.488995045423507690e-02 -2.788454666733741760e-02 5.034267436712980270e-03 -1.365974247455596924e-01 4.502525180578231812e-02 -7.024635374546051025e-02 -1.272401809692382812e-01 -7.446373254060745239e-02 -3.262697905302047729e-02 -4.039879143238067627e-02 -1.580248400568962097e-02 5.427328124642372131e-02 1.797123067080974579e-02 -5.613173916935920715e-02 1.236005499958992004e-01 8.380024693906307220e-03 -1.081563234329223633e-01 7.316700369119644165e-02 -4.366569593548774719e-02 1.761099845170974731e-01 1.201059017330408096e-02 -1.905514945974573493e-04 1.939051202498376369e-03 1.444011647254228592e-02 5.285312421619892120e-03 -1.389356702566146851e-02 -1.841467916965484619e-01 -1.049485430121421814e-01 -1.763133704662322998e-01 3.323713317513465881e-02 3.090300969779491425e-02 -1.670085936784744263e-01 1.099690273404121399e-01 -1.551139205694198608e-01 -1.214929297566413879e-02 -6.973914802074432373e-02 8.025569468736648560e-02 8.577556908130645752e-02 1.076296791434288025e-01 7.152698189020156860e-02 -1.531981974840164185e-01 -3.143739700317382812e-02 3.097962215542793274e-02 -4.888753220438957214e-02 3.397415950894355774e-02 2.163662575185298920e-02 2.025502175092697144e-02 1.286168582737445831e-02 -3.413927555084228516e-02 1.019907295703887939e-01 -3.364475071430206299e-02 6.019353866577148438e-02 -5.792771652340888977e-02 -1.831457018852233887e-01 1.778105050325393677e-01 6.956695765256881714e-02 2.840393409132957458e-02 5.122090876102447510e-02 1.182562578469514847e-02 -2.116272971034049988e-02 -2.597123570740222931e-02 -3.690996393561363220e-02 -6.271728314459323883e-03 -1.811580508947372437e-01 1.324181817471981049e-02 -8.973345160484313965e-02 -1.351961214095354080e-02 1.340950466692447662e-02 -3.466986119747161865e-03 -8.563480526208877563e-02 5.473101884126663208e-02 -8.327111601829528809e-02 -2.307899855077266693e-02 -8.461267501115798950e-02 -1.554506644606590271e-02 3.812878578901290894e-02 -1.618534140288829803e-02 -5.059163644909858704e-02 -1.763661503791809082e-01 -1.368519961833953857e-01 7.275573909282684326e-02 -1.909237653308082372e-06 9.986436367034912109e-02 -3.426747024059295654e-02 -2.762160450220108032e-02 8.472880721092224121e-02 -1.623674929141998291e-01 1.014238744974136353e-01 5.370533559471368790e-03 2.460876479744911194e-02 5.716590210795402527e-02 1.691807433962821960e-02 -1.517203897237777710e-01 -6.417682766914367676e-02 4.491925612092018127e-02 -7.691931724548339844e-02 -6.878402829170227051e-02 2.247969806194305420e-02 8.783160708844661713e-03 -1.552321668714284897e-02 1.341935992240905762e-01 -8.450160175561904907e-02 4.080967605113983154e-02 -6.583861541002988815e-04 -3.130240365862846375e-02 -7.436342537403106689e-02 5.795720964670181274e-02 -9.251705557107925415e-02 -6.006186455488204956e-02 -6.981794536113739014e-02 -7.492603268474340439e-03 4.605366662144660950e-02 2.896163240075111389e-02 -1.867501251399517059e-02 -5.285799130797386169e-02
-9.094587713479995728e-02 2.724773623049259186e-02 8.416761457920074463e-02 -1.789277046918869019e-01 6.244232878088951111e-02 -1.366067528724670410e-01 -1.647799611091613770e-01 -3.356539830565452576e-02 -1.434472203254699707e-01 -2.067589759826660156e-02 -5.082007497549057007e-02 5.066147446632385254e-02 1.417158991098403931e-01 2.350115925073623657e-01 3.711804747581481934e-02 4.232406616210937500e-02 2.083587087690830231e-02 -2.389983460307121277e-02 4.560660570859909058e-02 -2.546618692576885223e-02 -3.646972775459289551e-02 3.602802520617842674e-03 4.016999155282974243e-03 1.108456626534461975e-01 -5.479234736412763596e-03 -3.097222931683063507e-02 -6.853540241718292236e-02 2.779816687107086182e-01 7.443345338106155396e-02 -1.602929644286632538e-02 1.130401622503995895e-02 1.132815629243850708e-01 -4.205222055315971375e-02 3.049010597169399261e-02 1.765149459242820740e-02 3.941622376441955566e-02 -3.716486692428588867e-02 -1.495412141084671021e-01 -1.364010572433471680e-01 -1.295745372772216797e-01 7.313439249992370605e-02 -8.913878351449966431e-02 1.207510195672512054e-02 5.149888992309570312e-02 1.617888957262039185e-01 1.811918169260025024e-01 1.607086323201656342e-02 -6.250551342964172363e-02 -6.743372231721878052e-02 8.950633555650711060e-02 -1.470006704330444336e-01 -8.525519073009490967e-02 -1.424324326217174530e-02 1.218808963894844055e-01 8.904603309929370880e-04 -7.217933982610702515e-02 6.449676305055618286e-02 8.267877995967864990e-02 -1.104123331606388092e-02 -8.319325745105743408e-02 1.077231690287590027e-01 7.452408969402313232e-02 8.228768408298492432e-02 -1.975750550627708435e-02 1.214764043688774109e-01 2.128765136003494263e-01 1.073553264141082764e-01 -7.507433742284774780e-02 1.371479686349630356e-02 2.350166626274585724e-02 7.115361094474792480e-02 1.599417254328727722e-02 3.736483305692672729e-02 -4.068669304251670837e-02 -6.509245187044143677e-02 -7.318722084164619446e-03 2.913877367973327637e-02 3.854414820671081543e-02 1.369645446538925171e-01 9.915711730718612671e-02 -1.147949974983930588e-02 1.159927919507026672e-01 8.042280375957489014e-02 -1.398347318172454834e-01 -7.760045677423477173e-02 1.191765256226062775e-02 -5.553939566016197205e-02 1.539170444011688232e-01 1.588008105754852295e-01 3.613020107150077820e-02 -5.600311234593391418e-02 -9.704809635877609253e-02 7.516717165708541870e-02 2.131279930472373962e-02 -4.749172925949096680e-02 8.298565633594989777e-03 4.200700297951698303e-02 1.274631917476654053e-02 7.592730224132537842e-02 -7.599844783544540405e-02 -4.664620757102966309e-02 2.569323591887950897e-02 1.144928112626075745e-01 2.817716635763645172e-02 -2.305361814796924591e-02 6.146953999996185303e-02 2.897930331528186798e-02 3.226771950721740723e-02 -1.042514964938163757e-01 1.800839416682720184e-02 1.878177188336849213e-02 -9.285156428813934326e-02 -5.333939567208290100e-02 -2.040171064436435699e-02 1.273027807474136353e-02 -7.222499698400497437e-02 -1.677458137273788452e-01 1.068014726042747498e-01 -1.925963163375854492e-02 -4.068127274513244629e-02 6.297231465578079224e-02 3.097078390419483185e-02 3.724441165104508400e-03 -9.279610961675643921e-02 1.037695184350013733e-01 -7.898318767547607422e-02 7.218565442599356174e-04 8.605173230171203613e-02 -1.204470545053482056e-02 8.390371501445770264e-02 3.106024116277694702e-02 3.781163692474365234e-02 2.710121334530413151e-04 -4.171926900744438171e-02 1.243608370423316956e-01 -1.867603510618209839e-02 4.046406969428062439e-02 -7.980924099683761597e-02 2.553508877754211426e-01 2.939152717590332031e-02 -3.184828907251358032e-02 -2.984174899756908417e-02 5.903854966163635254e-03 2.908805618062615395e-03 -8.451125770807266235e-02 1.159159839153289795e-01 -1.076625412679277360e-04 9.762156009674072266e-02 9.599078446626663208e-02 -8.753380738198757172e-03 -1.260634511709213257e-02 6.745960563421249390e-02 1.496913582086563110e-01 -4.089096561074256897e-02 6.560742855072021484e-02 -2.773823216557502747e-02 -4.765043407678604126e-02 6.590747088193893433e-02 -5.709937587380409241e-02 -2.810815535485744476e-02 1.974945422261953354e-03 -8.342725224792957306e-03 1.166354864835739136e-01 -1.560932025313377380e-02 -5.227447301149368286e-02 6.263587623834609985e-03 7.805650122463703156e-03 -5.389729514718055725e-02 -3.541138768196105957e-02 -4.006420203950256109e-04 3.193103149533271790e-02 -1.527091264724731445e-01 -4.568401258438825607e-03 6.287372112274169922e-02 4.507218301296234131e-02 2.839318215847015381e-01 6.850670278072357178e-02 6.249424535781145096e-03 1.231674477458000183e-01 6.993494182825088501e-02 -1.856577582657337189e-02 9.477340616285800934e-03 -1.870232820510864258e-02 -5.552754923701286316e-02 -3.612603247165679932e-02 9.291980415582656860e-02 4.781774431467056274e-02 -2.442602813243865967e-02 -1.243982166051864624e-01 1.514925807714462280e-02 -2.483834326267242432e-02 -4.362110048532485962e-02 -2.522626426070928574e-03 -1.729040890932083130e-01 -2.206010185182094574e-02 -8.648770302534103394e-02 1.114205420017242432e-01 2.782855741679668427e-02 4.693112149834632874e-02 -3.848560526967048645e-02 8.469752967357635498e-02 -1.068162396550178528e-01 -3.621060773730278015e-02 9.360706806182861328e-02 3.336536139249801636e-02 -1.208896711468696594e-01 -2.223412133753299713e-02 -4.742549732327461243e-02 6.965793669223785400e-02 -9.114661812782287598e-02 1.779520697891712189e-02 1.707230955362319946e-01 8.089787513017654419e-02 -7.908218353986740112e-02 -2.721761167049407959e-02 9.239098429679870605e-02 -7.221912592649459839e-02 -8.506445586681365967e-02 -3.601458668708801270e-02 -6.882224231958389282e-02 -4.407654330134391785e-02 2.155265025794506073e-02 4.915926605463027954e-03 7.193263620138168335e-02 1.110544875264167786e-01 2.858218364417552948e-02 1.385213155299425125e-02 6.142568215727806091e-02 -7.176391035318374634e-02 -1.283592432737350464e-01 2.534223534166812897e-02 5.432761088013648987e-02 2.874229289591312408e-02 2.498948201537132263e-02 1.238727346062660217e-01 -1.620825082063674927e-01 -1.032212972640991211e-01
8.222610503435134888e-02 -8.919607102870941162e-02 4.369476437568664551e-02 5.788689013570547104e-03 -8.996325731277465820e-02 -8.338825404644012451e-02 -6.705363839864730835e-02 -3.317745402455329895e-02 9.622970968484878540e-02 -2.763700857758522034e-02 -1.356009095907211304e-01 -1.572662442922592163e-01 5.644163489341735840e-02 1.008520051836967468e-01 9.724529087543487549e-02 -1.005224045366048813e-02 3.433631733059883118e-02 -4.581537842750549316e-02 -5.519654229283332825e-02 -3.392846509814262390e-02 4.950591921806335449e-02 -6.367230322211980820e-03 -5.117965117096900940e-02 8.891373127698898315e-02 -1.130971014499664307e-01 6.892276555299758911e-02 4.012319445610046387e-02 -8.741866052150726318e-02 3.841897249221801758e-01 -8.396665565669536591e-03 7.501210086047649384e-03 -2.365155378356575966e-03 1.056186482310295105e-01 5.043568089604377747e-03 -9.092281758785247803e-02 2.943761833012104034e-02 5.844594445079565048e-03 -7.552360743284225464e-02 2.813544683158397675e-02 8.172354847192764282e-02 3.534438321366906166e-03 3.221232816576957703e-02 -2.974187023937702179e-02 -2.715269662439823151e-02 -3.565214574337005615e-02 4.840554669499397278e-02 -4.894374310970306396e-02 1.726982742547988892e-02 6.445421278476715088e-02 9.908927977085113525e-02 -8.765207603573799133e-03 9.734567999839782715e-02 4.436076059937477112e-02 3.522704169154167175e-02 5.750617012381553650e-02 6.193650513887405396e-02 1.041929200291633606e-01 -4.667486995458602905e-02 -3.917819261550903320e-02 2.364277839660644531e-02 6.073434650897979736e-02 1.379232946783304214e-02 -1.242692917585372925e-01 2.221703715622425079e-02 -1.296132802963256836e-02 4.559806585311889648e-01 -2.307953871786594391e-02 -9.544025361537933350e-02 7.871414721012115479e-02 -1.115282531827688217e-02 1.302264481782913208e-01 7.277739699929952621e-03 -1.123163569718599319e-02 -1.055808141827583313e-01 -8.770716935396194458e-02 4.286016337573528290e-03 -1.597928404808044434e-01 4.933396726846694946e-02 -6.847643293440341949e-03 2.865592716261744499e-03 -6.373580545186996460e-02 2.126503363251686096e-02 -5.885900929570198059e-02 1.166160851716995239e-01 -1.438665241003036499e-01 5.086462944746017456e-02 9.949744679033756256e-03 4.042204096913337708e-02 -7.141477614641189575e-02 -5.206540599465370178e-02 -1.257211863994598389e-01 4.789194092154502869e-02 5.696013197302818298e-02 -6.144925951957702637e-02 -4.268348962068557739e-02 5.973100289702415466e-02 2.485947310924530029e-02 1.737686060369014740e-02 -2.707298286259174347e-02 3.887552069500088692e-03 -1.118153482675552368e-01 9.092268347740173340e-02 2.634036242961883545e-01 1.680118292570114136e-01 1.214351281523704529e-01 1.031068414449691772e-01 -2.391654625535011292e-02 8.760683983564376831e-02 9.003850817680358887e-02 -4.118580836802721024e-03 -1.910688355565071106e-02 -1.210800334811210632e-01 1.926735341548919678e-01 -3.072336129844188690e-02 -3.383917361497879028e-02 1.036302670836448669e-01 1.085416227579116821e-02 7.437644898891448975e-02 -4.870394244790077209e-02 -1.287056356668472290e-01 2.899854909628629684e-03 -3.711051121354103088e-02 1.202099695801734924e-01 -6.523679196834564209e-02 2.373981289565563202e-02 -2.176439315080642700e-01 -1.694687828421592712e-02 1.926896870136260986e-01 -7.085370272397994995e-02 -3.710049390792846680e-02 7.012671977281570435e-02 6.521435081958770752e-02 -1.878491789102554321e-02 -3.866162523627281189e-02 -1.375788897275924683e-01 1.760684102773666382e-01 2.600065991282463074e-02 8.539038896560668945e-02 7.584739476442337036e-02 1.274916678667068481e-01 -2.661710977554321289e-01 1.827617175877094269e-03 8.833064883947372437e-02 -1.324233319610357285e-02 9.841921180486679077e-02 -7.306586485356092453e-03 -1.507281884551048279e-02 6.824980676174163818e-02 3.979569301009178162e-02 3.772568330168724060e-02 -6.303302478045225143e-03 4.359220340847969055e-02 6.695989519357681274e-03 1.209955289959907532e-01 3.450975567102432251e-02 7.020120043307542801e-03 -5.932928249239921570e-02 -1.275998204946517944e-01 1.464578062295913696e-01 -1.513850241899490356e-01 -4.345800355076789856e-02 -1.529749631881713867e-01 2.810883335769176483e-02 5.776647850871086121e-02 -8.919851481914520264e-02 6.709652394056320190e-02 -4.369681701064109802e-02 -9.315359592437744141e-02 -1.695798896253108978e-02 -3.909357637166976929e-02 4.757257550954818726e-02 -3.827352449297904968e-02 -7.919058948755264282e-02 1.213645488023757935e-01 3.514349833130836487e-02 3.173198085278272629e-03 3.069883584976196289e-01 7.001820206642150879e-02 -1.544178556650876999e-02 4.980923607945442200e-02 3.164894878864288330e-02 -1.222944706678390503e-01 1.581934280693531036e-02 -1.180045213550329208e-02 7.117981556802988052e-03 -5.707566067576408386e-02 9.849409013986587524e-02 2.759538404643535614e-02 -5.595735833048820496e-02 -1.431935131549835205e-01 -7.886637002229690552e-02 1.114765834063291550e-02 3.082190640270709991e-02 3.288175910711288452e-02 -1.533614099025726318e-01 6.646906584501266479e-02 -8.398517966270446777e-02 -2.273704670369625092e-02 -1.633843756280839443e-03 1.580728031694889069e-02 7.815194875001907349e-02 -6.812896579504013062e-02 -5.103131383657455444e-02 -4.361539334058761597e-02 -1.131002828478813171e-01 -8.199695497751235962e-02 -5.151119548827409744e-03 2.300214767456054688e-02 5.922721698880195618e-02 5.981564894318580627e-02 2.899042330682277679e-02 -7.464137673377990723e-02 -6.219182163476943970e-03 9.746047109365463257e-02 -9.407431632280349731e-02 -9.108269214630126953e-02 6.245555728673934937e-02 4.342184215784072876e-02 -8.251088857650756836e-02 1.283997595310211182e-01 -2.027486264705657959e-02 -4.014588892459869385e-02 -7.145100086927413940e-02 2.758507616817951202e-02 -1.470139715820550919e-02 -1.517549306154251099e-01 -2.613854035735130310e-02 -5.280010402202606201e-02 -1.986928509722929448e-06 -1.059110239148139954e-01 -1.031273603439331055e-01 1.569821834564208984e-01 -1.045923121273517609e-02 1.087165102362632751e-01 -6.364421546459197998e-02 4.844133555889129639e-02 -1.524400617927312851e-02
