-1.034454941749572754e+00 -1.784531116485595703e+00 -8.567743897438049316e-01 -5.656585097312927246e-01 4.181846380233764648e-01 -6.074923276901245117e-01 6.296091079711914062e-01 9.011927843093872070e-01 -4.386274516582489014e-01 -9.141077399253845215e-01 1.008903503417968750e+00 9.403446912765502930e-01 7.911745905876159668e-01 7.144731879234313965e-01 -1.493646502494812012e+00 -2.579709768295288086e+00 -1.357677578926086426e+00 8.785091042518615723e-01 -3.954004943370819092e-01 1.230880022048950195e+00 -5.025116801261901855e-01 5.282149910926818848e-01 5.501445531845092773e-01 -9.800469279289245605e-01 8.802927732467651367e-01 9.501215815544128418e-01 -1.544263958930969238e+00 3.808157444000244141e-01 -5.617322921752929688e-01 -7.925822138786315918e-01 5.984940528869628906e-01 2.157230377197265625e+00 1.882504820823669434e+00 -4.217276573181152344e+00 -5.795626044273376465e-01 -6.898545026779174805e-01 -1.208088517189025879e+00 1.443541049957275391e+00 1.572125434875488281e+00 6.122487187385559082e-01 1.079039216041564941e+00 5.272092223167419434e-01 -6.785663366317749023e-01 -2.794498205184936523e-01 -7.035927176475524902e-01 8.427283167839050293e-01 -3.990640044212341309e-01 -8.019487261772155762e-01 5.960787534713745117e-01 -7.201380133628845215e-01 -1.076026320457458496e+00 1.152188539505004883e+00 -1.079130291938781738e+00 2.310123682022094727e+00 -8.942965865135192871e-01 3.964984416961669922e-01 5.945253372192382812e-01 7.840248942375183105e-01 -5.952298045158386230e-01 7.145450115203857422e-01 -1.669752717018127441e+00 -3.832065761089324951e-01 1.023459792137145996e+00 2.883599102497100830e-01 7.151060700416564941e-01 5.131254792213439941e-01 5.081983208656311035e-01 -6.616708040237426758e-01 1.231795668601989746e+00 7.237665653228759766e-01 1.205189108848571777e+00 6.705395579338073730e-01 -7.772083282470703125e-01 -7.818604111671447754e-01 4.799656271934509277e-01 -9.480828046798706055e-01 1.254173994064331055e+00 -6.052688956260681152e-01 -1.179330706596374512e+00 6.576997041702270508e-01 5.613005161285400391e-01 -8.030815720558166504e-01 3.359782099723815918e-01 6.493111252784729004e-01 -4.511855840682983398e-01 7.124853730201721191e-01 7.106636762619018555e-01 1.144284009933471680e+00 1.067394375801086426e+00 7.253648042678833008e-01 4.378076493740081787e-01 -1.307427048683166504e+00 -1.068060040473937988e+00 5.929276943206787109e-01 4.703030288219451904e-01 -1.011502146720886230e+00 -7.004142999649047852e-01 5.610576272010803223e-01 5.144622921943664551e-01 -1.441365003585815430e+00 4.606556594371795654e-01 8.983186483383178711e-01 1.077268719673156738e+00 -3.766573965549468994e-01 8.191197514533996582e-01 4.041863679885864258e-01 1.799233406782150269e-01 -7.003004550933837891e-01 -3.220745921134948730e-01 -1.214030385017395020e+00 -7.650345563888549805e-01 -1.017594814300537109e+00 4.138565063476562500e-01 5.980185270309448242e-01 9.176937937736511230e-01 -4.479019045829772949e-01 6.465342640876770020e-01 1.006914973258972168e+00 3.636105656623840332e-01 1.122169971466064453e+00 2.983028590679168701e-01 -8.425882458686828613e-01 8.893579244613647461e-01 -5.413051247596740723e-01 8.875598311424255371e-01 5.895681977272033691e-01 9.335147142410278320e-01 -7.859889864921569824e-01 6.498998403549194336e-01 5.085790157318115234e-01 -1.151946067810058594e+00 -8.164235949516296387e-01 1.619807481765747070e+00 -1.237760424613952637e+00 5.345024466514587402e-01 4.156734347343444824e-01 7.810624241828918457e-01 1.496020674705505371e+00 4.618763327598571777e-01 1.383389830589294434e+00 -1.117289066314697266e+00 7.074598670005798340e-01 1.080667495727539062e+00 -1.457863688468933105e+00 -4.501713514328002930e-01 5.422589778900146484e-01 1.576489329338073730e+00 -1.421527147293090820e+00 -5.688967108726501465e-01 -2.440423727035522461e+00 6.393460631370544434e-01 9.117503166198730469e-01 7.957428693771362305e-01 5.075030922889709473e-01 -1.582410335540771484e+00 6.380444765090942383e-01 -6.609485745429992676e-01 9.936737418174743652e-01 1.302735209465026855e-01 -1.699818074703216553e-01 2.171889543533325195e-01 1.693938016891479492e+00 -6.774448752403259277e-01 1.733949065208435059e+00 5.916882157325744629e-01 -8.049622774124145508e-01 7.260398268699645996e-01 8.842089772224426270e-01 -1.514263033866882324e+00 1.399949431419372559e+00 3.770574927330017090e-01 1.062847256660461426e+00 -3.524284958839416504e-01 8.667262792587280273e-01 9.861532449722290039e-01 -3.861472904682159424e-01 5.675098299980163574e-01 8.510976433753967285e-01 8.262005448341369629e-01 8.650727868080139160e-01 6.536936759948730469e-01 6.017876267433166504e-01 1.028314352035522461e+00 -8.344278931617736816e-01 7.576168179512023926e-01 5.225055217742919922e-01 -8.961744904518127441e-01 -3.273439705371856689e-01 9.695511460304260254e-01 6.460665464401245117e-01 -1.273404479026794434e+00 1.445040941238403320e+00 -4.920855760574340820e-01 -6.205953359603881836e-01 -8.955137133598327637e-01 1.978359580039978027e+00 3.329691588878631592e-01 7.951144576072692871e-01 6.930407285690307617e-01 6.813662648200988770e-01 3.917865157127380371e-01 5.731362104415893555e-01 -5.669506192207336426e-01 1.076403737068176270e+00 -2.448320865631103516e+00 -1.628993272781372070e+00 1.326198816299438477e+00 7.041228413581848145e-01 1.137609481811523438e+00 -7.313253283500671387e-01 9.423840045928955078e-01 5.889655351638793945e-01 -5.136557817459106445e-01 1.363895893096923828e+00 4.891483187675476074e-01 -7.007895708084106445e-01 -1.738130807876586914e+00 7.864505052566528320e-01 4.886850714683532715e-01 -5.422655940055847168e-01 1.091576099395751953e+00 7.918984293937683105e-01 7.275982499122619629e-01 7.714328169822692871e-01 -1.003152608871459961e+00 -2.742411196231842041e-01 -1.968905210494995117e+00 1.372096538543701172e+00 -7.448593974113464355e-01 -1.146228194236755371e+00 1.193171024322509766e+00 1.002383232116699219e+00 5.081483721733093262e-01 8.650882244110107422e-01 6.330160498619079590e-01 8.153808712959289551e-01 1.112982988357543945e+00 5.356306433677673340e-01 -7.220835089683532715e-01 9.233356714248657227e-01 -2.560229003429412842e-01 8.271535634994506836e-01 1.795159131288528442e-01 4.962211847305297852e-01 -4.681103825569152832e-01 8.587108254432678223e-01 1.289247751235961914e+00 4.700753092765808105e-01 -9.300836324691772461e-01 -1.998520970344543457e+00 -1.347859144210815430e+00 7.838499546051025391e-01 4.484033286571502686e-01 1.016521811485290527e+00 6.545792222023010254e-01 1.211325526237487793e+00
